0.07145330208961428
-0.45085099662456385
0.04069744823076347
0.024068455242795612
1.0325947004711218
0.1668739356291706
0.23892241134101347
0.5031478458532584
0.43774604323741234
0.44714327393735487
0.08752023412236247
-0.356325582183347
0.04707943604339981
-0.11510905600049341
0.5906455270472276
-0.3865777098270899
-0.0667165636777725
0.15517910886045308
0.22122503410870686
-0.42782663061119147
-0.21584199204964097
0.7583584561360992
0.2113903769877857
0.6009415811198375
0.1543379939734637
0.249690014076927
-0.19115935642024479
0.13741582805996258
0.02016731997310901
-0.07094230250257252
-0.7969994891025991
-0.6404216240221684
-0.7084061811176287
0.2902675453648443
0.4825154621320002
-0.9407888154096448
0.17854716686502778
-0.30283749925059406
-0.2145937901825645
-0.1692569612920201
-0.7617082501920122
-0.33889514266306503
-0.3521266044690503
-0.1282514138112376
-0.11016462750091882
-0.2424232340958933
-0.2637623011857562
-0.0871568035422437
0.45818573037550153
-0.6263668952233225
0.558213117238349
0.3870300866240897
0.3535627034982297
0.14179432624779323
-0.3318071886909937
-0.44469187169177554
-0.3578927084089357
0.4272119438464258
0.2767833548076783
-0.35794874930669257
0.2514779931482251
0.6543827995874629
-0.31360461752171653
-0.4949698083157092
0.026560206595724476
0.8661193237713061
0.27178065756235253
0.5375759391182419
-0.6361792192447718
-0.26877456302199154
-0.012997731476534706
-0.012452032041909299
-0.7262434009367855
0.6290129343550701
0.09829249200165237
-0.39106116272562896
-0.01243082891171115
-0.9935594376350556
-0.5271725845456393
0.18330113440837373
0.4960070152332215
0.15540226928586706
-0.29644419396911403
-0.35471138019656856
-0.7604202223470785
-0.12643570681529523
-0.25350154095944344
0.18679905865826188
0.28753951970080827
-0.3629531565131175
-0.15992083524424067
-0.0145006777133513
0.20068355629660856
-0.8654195887562495
-0.7547243600659627
0.633770621873507
-0.4653701456042081
-0.6896501932567082
0.640045796742197
0.3340799514791337
0.1428686126997933
0.03945362276232171
-0.4751927088376676
0.36224848912589835
0.14868080043570156
-0.30152703737964015
0.7086656322667895
0.050191469841282574
-0.19895321793356252
-0.054659619016587946
-0.16944760661788516
0.35918504684022723
0.05043426227708986
0.24668331406302693
-0.043230143970029465
0.4011250956604496
0.004642012863500481
0.12386932733080412
-0.14489442331687327
-0.09671538874858969
0.23723179839636474
-0.5418072957916523
0.06506301938532728
0.2241563752923143
0.08907779542048991
0.28108765728204715
-0.14950217457038525
-0.2359321588368288
0.7946905436325898
-0.6263363866890732
-0.15856457750582714
-0.0480173144505855
-1.00397665990755
0.06436257734442533
-0.2044392340402706
-0.07359375597143064
-0.7774954726248607
0.39667500748541
-0.02794287831151977
-0.05223893793309123
-0.9192464391484617
0.29815063945241654
0.3659746550364436
0.5784438004307073
0.044588802623577624
-0.023919699092015537
0.18753336352020536
-0.1442465554562124
-0.3037727257067031
0.1076484895346309
-0.25994897650240845
-0.17177896579675242
-0.0979573158217893
0.7315635473981511
0.3928165161254845
0.26001289395427146
0.4778634425023012
0.024908693460631303
0.1808807893576282
-0.7532677329936539
0.09122404728336059
-0.688845938313599
-0.5935790245650691
0.7326421453881504
0.05618481842170792
0.5733971059017748
0.3299181669160961
-0.7089500718409467
-0.8756484974038073
-0.7913960964931639
0.46807695419595335
-0.09029832793227587
-0.3772656213557215
-0.3690367894541149
0.42095978714226573
0.06377560792139321
-0.11827095980753281
-0.43185986443597135
0.12123614664172047
0.24021019998877172
0.18779533398647072
0.24410245640446748
0.2841193459551114
-0.1974181298153684
0.2053336581276508
0.030142603392722903
-0.13271351173797982
0.38355258641558143
-0.16615411147068282
0.09901096402291026
0.29904437541068724
-0.2277924152354121
-0.4271349578631317
-0.014001016339194965
0.36092338500345
-0.45510079089153793
0.6601530985047512
0.015521694197349988
-0.06690322127468114
-0.6907878518923949
-0.2212589228969517
0.037565019615152295
0.41283281576935316
-0.25678386893503435
-0.38191050001782034
0.460573160993921
-0.6148506271670424
0.28374022574211694
0.4360861109090689
-0.0431147126764432
0.31979240406639475
-0.027685593802805636
0.138541697947996
0.38677953490771416
-0.23574876072434617
0.33336331136955255
-0.2838990580177856
0.03649861323611814
0.29504839440472075
0.48878326900981345
0.5674484194959398
0.033970183355221506
-0.31325164046297266
0.6164671495583789
-0.42013855597405203
0.2875987733044044
0.6489189603213292
-0.18243447357905845
0.3836864329867816
0.03604952505871272
0.09749238121052836
-0.09017040068004767
0.2635454324810882
-0.196970712212118
-0.2938074108604318
0.06274050086980876
-0.5608614375291769
0.4945749687598713
0.1808252454317796
0.478586463376401
-0.1213318446076453
0.03396365970778208
-0.27878742828891084
-0.11711330669970234
0.18591287340642246
0.3943883560680622
0.005862854042844385
0.6552470847564705
0.7321412602205336
0.07533336274767875
-0.5887575929726114
0.050870246741204855
-0.10481281626417954
-0.09407795408198025
0.1235363600578842
0.2710786127153649
-0.12249774244315993
0.07497092318263392
-0.3411039176918509
0.5242635545585913
0.010748583419173032
-0.19702742985245728
0.40584387092633223
-0.013927875714072306
-0.02257249251981185
0.1092459222806924
0.28038509008043244
-0.46795268536734846
-0.3987225626531715
0.582222564193256
0.30209118971177795
0.04629046528735175
-0.5579858076832979
0.3458620191672709
0.34224630269463724
0.10576296023985322
0.056623603523282745
0.29844510829485027
-0.42441874413894976
-0.9037044084082513
-0.6989660060149011
0.07785595620207095
-0.10311975712041792
-0.11419408432108302
-0.19802632876875398
1.0263084600721932
-0.664150542324137
0.7052988074410405
-0.2948442154256186
-0.24825165017172035
-0.04779667829262564
-0.3832796828916281
0.4165470847874093
0.8388735189080277
0.15395305138692705
0.33674075931747255
0.08160911569599001
0.685278627731979
0.5069873344941654
0.285013805631497
-0.5063406834485745
-0.025739330116360818
0.15674677557692868
0.7110085767671142
0.22124271669302764
-0.027262374264703956
0.009595954959992568
-0.2307032844954364
-0.09917515924409602
0.17634413622972048
-0.381536255153009
-0.1830636200862729
0.2474383825395612
0.36960639048606375
-0.1677979830122142
-0.5328195652960684
0.4586893274977975
0.47929606388414203
0.4556747637345675
-0.9760642912142933
-0.09258981795689973
-0.29451196684821385
-0.23243737002589035
-0.4742732294601512
-0.013311507225406574
0.08577085746270123
0.21247120612303794
-0.3188496804172943
-0.09556360343487617
0.7211992853616644
-0.06403291387684361
0.5721513849124442
-0.7995794746252807
-0.47966434360800947
0.1119536021666938
-0.0179681046873162
0.033358378371216975
0.042352297880194206
-0.4293737787151426
0.3359510443945233
0.22169651083687938
-0.21662564520150496
-0.2010647454366362
-0.05029285044756402
0.3669414802147802
-0.05593566404418514
-0.0831666554520432
0.029095228541188827
-0.24410152831789572
0.09334474415112025
0.02091834685360729
-0.6197788465710273
-0.3732470105971431
0.28509588011944004
-0.5053523105269513
0.10828278350028404
-0.26221843625034286
-0.19429611533887434
-0.6393740174815216
-0.2517111194301278
-0.04835096347175095
0.015485992118698251
0.29183860083591917
-0.10038452995046361
-0.3492454960802437
0.2102814095341028
-0.32604347007250317
0.6220459894654101
0.08856667809193047
0.28549610634942485
0.7076738737921768
-0.47208853738878354
0.30532928794910447
0.16032986534468158
-0.5189744236105197
-0.6621690808890087
-0.503218659355317
-0.06639985254028702
-0.42907445442745096
-0.04120629213116125
-0.5294055389567722
-0.13686806290417228
-0.3563533741128477
-0.4535886569037987
-0.0326936920509066
0.6823158629252201
0.22397775341212084
0.11082407087226544
0.10600375446033479
-0.23385816994105063
-0.008479531073931132
0.4522534778423774
0.04671283870618438
0.6861563921647088
0.41361032265961667
0.34782579986478707
-0.34545020752369104
-0.19217095925851843
-0.5205783407175947
0.12363323336442515
0.015477273516689654
0.03095603880897511
-0.1091040367419719
-0.20304074715307885
-0.5362424588799688
-0.4956338286909479
-0.3341472432096559
-0.5214993184735832
-0.9107901351431964
0.02507891428100327
-0.10885331224480493
-0.40347196059036816
-0.4978933225772589
-0.22022836280665448
0.5693753496897377
0.48559206073189704
0.009503451863981228
-0.35849452713286667
-0.29108751639331076
0.48459952547018426
-0.5564072475016709
0.7611387228016504
0.015287287280092295
0.3576791487423535
0.23123066065866693
0.14588911578606684
0.4384236372060297
0.017034797654407352
0.020649987749745552
-0.7588843590823581
-0.05121697780625613
-0.08025939613735752
0.3512014717908771
-0.7307732179766192
1.1444686268687663
0.13303031849781435
0.37958004229706305
-0.5286316819932747
0.19119424835418175
0.05516973219036657
-0.12248639024239152
-1.1034494382387778
-0.4027405587277691
0.7015176027031648
0.0929741424963115
-0.4135994877375999
-0.5696251483362069
-0.480280962350866
0.16127882591588522
-0.0010741210018246925
-0.16449920139293642
-0.33125028269329676
-0.12497616658615368
-0.009189600655997476
-0.30524009996682594
-0.27561792418124187
0.5644238964297159
-0.3343158204973782
-0.1651097907725213
0.07851958094629917
0.466677647918219
0.6626765702897023
0.36438812692993006
-0.46151407580894566
-0.18293456248569745
0.13362951850203877
0.24899798591675432
0.152537916641358
-0.5043524771048642
0.011942700785666208
0.22299434849385721
-0.09130322059814493
-0.28939791897175593
-0.2372352561926697
0.26770658464495434
-0.5085917212212667
-0.7714669682894152
0.045789476011956834
-0.07679439437328277
0.503317370538058
0.5068671538838114
-0.4892777387115248
-0.9398448171168132
-0.37320191570392647
-0.5539278284106338
-0.3200662130467796
0.5661967299866808
-0.05044134188438279
0.008813881717714451
-0.10209525526996543
-0.5356685908249997
-0.12278532347454844
0.3893658582956816
0.439462155064808
-0.1809704291530234
0.1635747005782508
0.09001302914574238
-0.21790395743875055
0.5114017057926289
-0.32817119350883567
0.12112887801800783
-0.37617162705743395
0.03830334844399309
-0.7029262191278731
-0.4007504126225642
0.34330195299996524
0.03316074439161334
-0.22995186562589204
0.8202765374462394
-0.7408934030453619
-0.16743803485389241
0.5222236833883208
-0.06797113316124638
-0.1685825635056354
0.31882293662753086
0.014980752342739078
0.6272529505347957
-0.7098577166103683
-0.35835590392807
-0.35384154296971015
-0.49145564503328837
-0.17823531854682703
0.7572464670442735
0.3354059615943584
-0.14296011962067004
-0.5779248341999556
0.03198599845807151
-0.594083866700329
0.07394968450643817
-0.37362374933559594
-0.19552014804750453
0.016358487992410017
-0.0017292814555956528
0.13644080410502152
0.18338120005462982
-0.03852983442757963
0.056823838488632324
0.744379995622499
0.04291421126477692
0.4302821448866332
-0.23385551943965835
0.6415259861855934
-0.0481228897582173
0.4010399374622863
-0.8883869495106991
-0.6547153760833869
0.22821796702735592
-0.3533073823124411
-0.41481019009523645
0.5772974541859629
0.36689364014157694
0.1891841112886888
0.2250987291812666
-0.23313457660485434
-0.07947741528752413
-0.26476511781265916
-0.47138507090199927
-0.37468014883286666
-0.10479072904488197
0.25775943350211294
-0.18400805219424704
0.028952954964552382
-0.20973606798659677
-0.2895879496249287
0.10818100997687634
0.22229993352137759
-0.23218816461112018
0.6005884280621216
-0.06909365236555269
-0.41282770414923187
-0.14453162759520588
-0.05678717587625267
0.18253703863931506
0.3894798838363414
-0.18001369710060985
0.4726382778537785
-0.21080138871346182
0.06851623858457556
-0.5835200374485069
-0.05551589363417744
0.2841724448642683
0.6129672994029268
0.2337900576604669
-0.3205521752879082
-0.041695135083639805
-0.4027597614663942
0.49784674120680866
-0.5604601368320469
0.3529281182456154
-0.38105678328826154
0.01862307113796684
-0.28927551465802775
0.34091528067793586
0.09749511192049229
0.09211611933909991
-0.41112216460151707
-0.2700311574760451
0.5363013952476854
-0.4121061505931606
-0.8839112562552907
0.33120205444102835
0.23602187955823747
0.2299572065649133
-0.16814097918650053
0.4084535204039438
0.7017828712835983
0.35340251785794113
-0.035304841046175525
0.3572151134494047
-0.07023287701099912
-0.44190034350690016
0.01793254578415381
0.147217438789496
-0.23389465004143936
-0.007182345932770933
0.10407798693340661
-0.2627760645802824
-0.2803085667443702
0.33597789168240866
-0.4182738732482736
0.6233624640519644
0.04891583404795984
-0.3811037843254185
0.08312538709291756
0.3582985360874376
-0.3146757717195748
-0.643696555499849
0.13170687561247515
-0.13290282088761426
0.2479292447997328
-0.44124929063887625
-0.5891233564130713
-1.0049109333768824
-0.07165578578865922
0.13582669646534762
-0.19116737035313355
-0.21381032911051648
-0.1403274189263942
-0.22832204293200545
-0.273927898277244
-0.12952672873476775
-0.2740465744474233
0.2165124573162929
-0.0013432063476627762
-0.2986613022989587
0.25510032022248497
0.5807492876115794
0.5416208101969704
-0.04814371960338243
0.08669016966467988
-0.1839291872943684
0.14981442977168816
-0.43246784184108195
-0.4368803255960777
0.5994197986003013
0.14159931653042382
-0.6755443135812225
-0.05587554976976347
-1.0901304465877135
-0.27066895180517236
-0.2061459757272211
-1.2672048163793264
-0.6196201672130167
-0.2442382721042116
0.41053366844609357
-0.1265904213167697
0.22572728979249268
0.023199664500099016
0.2486276055532892
0.18920792139941126
-0.41098528147004837
0.40590283845631014
-0.6608622575040737
-0.019516871652530954
-0.31715318362653305
-0.3066962094054202
0.40798007537564746
-0.6271844175068055
0.32435290212570644
0.1213302551838731
0.11142765112629165
0.7710507971246217
-0.30638000107639324
-0.07877314095945329
-0.39848769929178873
-0.03519415077925939
0.4406435669945
0.2343291666315269
-0.44139431077314106
-0.5387246506919583
-0.47655664665961445
0.5234867824829769
0.08124747676536667
-0.16094020250537538
-0.17705550311423282
0.3533308969620724
-0.3430417292885185
-0.09865560557076129
0.5949084644147881
-0.26181594969162897
0.16472861755965704
0.003330465332738971
0.10417241879138511
-0.8700062601305085
0.38423752209180867
0.0856340422937101
0.015025988632009492
0.2745301740678196
-0.41443485829513677
-0.16709603210355103
0.5348375066389991
-0.07383789284845121
0.5319341530885864
0.24868394159878995
-0.38753950487245803
-0.045980604239338925
0.5946463368288821
0.07497750214374058
-0.23180534443623596
-0.11618193665785168
0.4520257120217766
-0.09473524305686427
-0.6994398354688547
-0.3823329849246294
-0.15158960157809914
0.14859823342871356
0.470138566402286
0.1852102446547201
-0.0005889127631092082
0.3525436671584253
0.03955825738056246
0.4454331259986171
-0.09604740938323938
-0.13579928040968217
0.6147488641199702
0.7679515835591709
-0.03735361305952305
-0.19709783947952178
0.07371952003734371
-0.12945100851814392
0.23622604275919204
0.007922110397259017
-0.702304945413027
0.015834915357599354
-0.28376299066447375
0.4263433233741699
0.07146210815238058
-0.7231702110028267
0.18322947763426042
0.3163309913820584
0.7219718669119185
-0.6988269925326299
0.26563891901099285
0.5305738766410666
0.6303346748215375
0.045744978001415734
-0.07373332249262629
-0.33153102037082555
-0.12404255393817888
-0.4634497243173672
0.33516261006848924
-0.08679963223695272
-0.32060283376482235
0.16890197275631377
-0.9736748066572389
-0.3009145397005673
0.21568167212501937
0.13145584282747327
-0.19318390453529227
-0.23993871597323466
-0.10336308001502378
0.5055536064207491
-0.7649192436502308
-0.33035110246016547
0.6044525435563466
0.3645175893536077
0.07388407195114922
0.40794368268476
0.27525532459346846
1.117214787123565
-0.568420213752094
0.043107335425183274
0.2619278619452112
0.5999245506074329
-0.6438110075592876
-0.21883719823435613
0.3350178247449432
0.1359801472308717
0.3064965566907586
0.08427598079343815
-0.20635632568483653
-0.6486316365309549
0.13916048835433598
0.07585985897952015
0.028517749065570117
-0.7153673173878915
-0.5908093847527601
0.6062892788677083
-0.32884128783341043
0.4988707365964143
0.36422226699758564
0.628459381529063
0.0069570081958819936
-0.11933522530673576
0.02264796147041663
-0.003325214803748042
0.15649833683432382
0.06431533530335024
0.4105111880767683
-0.6429864988657326
0.20385709806505345
-0.4752745536554595
0.17219230133885793
0.7271256221704542
-0.04306949200755743
-0.8437401946985614
0.20247966295869294
1.125336417881139
-0.6029572371112368
0.05913901615186634
0.19879563989583285
-0.8170720093571561
-0.5004341742914551
-0.01239751215906605
-0.6933349890434962
0.46130653595448146
0.38140268353954015
-0.020721343782528236
0.3097884480344573
0.5065829931966389
-0.02007858624447886
0.2320205212272073
0.04898430810602471
-0.2523179431899343
-0.08296639492846679
0.3486854933340144
0.1909156334304091
0.45046047914920223
-0.09541853477471406
0.24378288926529101
-0.14216600871828924
-0.12825813804286085
0.006338114491943004
-0.399820231894463
0.05509958389327371
0.468194242631088
0.13618699836530973
0.13686111060585388
0.44141467535261
-0.3668883446058375
0.4800523994455828
0.711883234189942
-0.7486917829820772
0.012538358698840285
-0.4880197545848658
0.5599766713381581
0.02130378302012676
-0.39527051177780803
-0.7317913684540485
0.2329194553441596
0.20853700879030318
-0.05602951528107116
0.11976636148410587
0.23729995274026702
-0.0032878158102129973
0.23995339533853074
0.44584480670690785
0.6705629083991609
-0.5105782027587441
0.6194813943189269
0.05140542973713297
-0.010864828636611198
-0.23395613168463159
0.16735747063220563
-0.6425896707913341
0.32437225912709283
-0.09604501159431011
-0.3000774267152303
-0.09420096300633482
0.08522954441922616
0.11764964189161302
-0.7785848804530691
0.4634327815487464
-0.054268570211371346
0.20291477251013842
0.5654970229964474
0.2352071120522187
0.4827050864056055
-0.062162210996770405
-0.15119886001108584
0.04297910305276461
0.39597087427738026
-0.25571980281655987
0.4944305727332183
0.5014824775422068
0.5804950129287226
0.34583046998594696
-1.0218172186967567
-0.7423392333658244
0.5459750810866585
0.4717809554761892
0.053346978011717
-0.4291614795303022
-0.1395038146262032
-0.024892142778680293
0.048842690771436534
-0.04992018393596708
-0.3903649792977555
-0.6132659052715345
-0.7520563795847154
-0.34965005103249963
-0.6357614086229222
0.14846064444997176
-0.10831360590956579
-0.10986181872184553
0.3692333983431626
-0.25502213148726444
0.219200835152338
-0.6616340851180185
-0.15176638904952994
0.1036328035109387
-0.1694441565608128
0.24695060785701514
-0.12052440786329423
0.01605730338759041
-0.3424917306822634
0.4475852053004025
0.5117115984180437
0.047943423283001094
1.0508051126068199
-0.07489673857662207
-1.078367646927215
0.40703271815809716
0.02692806746509963
-0.4225097124760938
0.13879234081138708
0.1938204833811449
0.33545803416573017
-0.32307190512689654
0.07339010968844317
-0.42797288446638904
0.0438026237998072
-0.3587649813488301
-0.09717471005014716
-0.5618278923124459
-0.32509205396966495
0.3572912640301387
0.14258934738931694
0.49356841777658494
-0.022425406185005773
0.7682424749586516
0.49531985667897005
-0.07839964394671688
-0.18928162430279075
-0.6861931784402642
0.25835176603927734
0.20060056879064342
-0.4951358960699089
-0.03570099917377129
-0.0157542196697481
0.23998091738754626
-0.44555360978592506
-0.2227069460019189
-0.2033616483652807
-0.824778623343665
0.16172957244381542
-0.015942660742869097
-0.060336237187604926
-0.30746642312871125
0.2229496094199906
-0.007092937174124989
-0.08325364154184113
-0.1460543443960033
0.15849462742009984
-0.1230619298550115
-0.4758570257524993
-0.5372190972592391
0.5253917099932953
0.2825299349701081
-0.22054648027057314
0.060200971264977525
0.05661334129780504
0.3900728357654904
-0.5473911058919265
0.065145887499329
0.3634950781038542
0.48736908030040893
-0.22988429349148656
0.12672462335874415
-0.00624758166062894
0.650158766389041
-0.402354901090883
0.3609430633070454
0.21049665000990522
0.7483119847103984
-0.42904090973138315
-0.20454363838279627
0.5718811665416526
0.20214444814216942
-1.0488219205407066
0.5289651360459205
-0.5622321302233574
0.042504434650940004
-0.1571799198758379
-0.12499080878400787
0.5661652434700485
0.8080610501809528
0.06901303355020941
0.6544269116461077
1.0731596426351675
-0.22335582284129987
-0.0054648756557963175
0.03292666275593997
0.08643855886747218
0.007620283104044611
-1.086545826453896
0.45898815932781695
0.5392382664485883
-0.13042289580653602
0.15765429744262027
0.4827036091619147
-0.13232237530440466
-0.8261978050099401
-0.4648946755358778
-0.16068081109795995
-0.500276020952005
-0.11555283542081934
0.5157090182795252
0.09187585664614648
-0.3619971028176353
-0.13729447188754554
0.9428773942744598
-0.05330045062587438
-0.555781284194462
-0.4826512472914671
-0.08858578495579214
-0.5124624977891102
0.08511109165725111
1.0921528285625703
-0.007702765013332245
0.4062134175659959
0.6545258577684083
-0.03967926169498962
-0.07413231437352395
-0.120666976255238
0.09115255715726153
-0.5411811281558415
-0.225832126770279
0.3193572863842752
0.3914259018304256
-0.33725200694809987
-0.06724853480872663
0.25924584421480723
0.24930820362661346
-0.19404419885992938
-0.5281421277658706
0.24954827095926396
-0.04697450472231953
0.04863534920443134
0.20844270923790748
0.07871228140140003
0.04127106216338773
-0.1792100946940426
-0.30755269452865924
0.4794846662941907
0.20716110038844868
0.4116271492310632
-0.5337875737143468
-0.318098132268736
0.2385895761490902
0.8155164316448262
0.9435463789972761
0.09362059628595938
-0.23823129004739033
-0.26301813837233956
-0.19081772026377694
-0.4141402524911444
-0.41542703461059133
-0.6504100307749819
-0.0865757659398247
-0.3508064278822512
0.28693493665045217
0.4700607238136478
0.6274830160278173
1.0167104160615474
-0.010626410877856996
-0.08174651759667798
0.004199075012201023
0.2041736503569198
-0.20086500305020985
0.2076649112425046
0.24975579960181257
-0.2088510666048725
0.18180468668947294
0.46502639413719743
0.9503705899729459
0.7756351699263114
-0.20545718085239495
-0.6597722567016769
0.12929725110234808
-0.0234606598119591
0.260564418041663
-0.19006641093612345
0.18789301320786309
0.5285716387671721
0.43131451501274554
-0.16197236532012924
0.15985984512663046
0.518807835984813
0.01222028050102764
-0.45048299086124055
-0.15350783247616112
0.20224013315317946
0.16404275312557626
0.293274281178167
-0.8382369035274039
-0.26844949956577707
-0.23754062300348136
0.4164958408068354
0.20786218692062056
0.07441364001671835
0.22104825457225152
0.7664647768666395
-0.38478930560702646
-0.017588126431877325
-0.004994742248911348
0.6506257001127791
0.6978453508070056
-0.04445803443548416
-0.21963425010637147
0.16971986939291722
0.3215657223932202
0.3184798253265149
-0.17586617191302728
-0.6338874616979008
-0.1191218002986611
0.47123691180784805
0.22984132486095293
0.7006594489140874
0.3981942119105972
0.11511747708634715
0.294096717477361
-0.06853768628102509
0.00952551316214931
-0.44303493729928906
0.983123037494469
-0.027981400763643048
-0.2679361502279788
-0.4589279597346078
-0.41378079994045314
0.24750128574284946
-0.035562348340193124
0.1578747399514335
-0.3118180344083952
-0.08359872291813945
0.16991511529432998
-0.03849943405986625
-0.32904483811670227
-0.046483590121494035
-0.7581060318443665
-0.14831505026237238
-0.06718454533891396
-0.6996392309651431
-0.31179874317136486
0.184745726770679
-0.19250063241538648
-0.3243657987513089
-0.9015172532373663
0.5794338985757997
0.048278851144029175
-0.15012056264125093
0.3029176728154882
-0.26135437388429406
-0.28959664763366577
0.15120708084490428
-0.3497620317699771
0.04274158036729983
-0.3416561219004055
-0.2711241701225173
-0.7301878763671266
0.28878436626534604
-0.5410976017191949
0.7025890217471938
0.16783896717628943
-0.5009341159240788
-0.017733175856472664
0.18744491685543851
-0.11708086843909123
0.3170372673604909
0.3713661754474622
-0.01005191127192044
-0.16715488406208637
0.40128714662137466
0.37413498216563956
0.24448311175127316
-0.7216439917925626
0.2354141733534634
0.026765421801561794
-0.609512643725326
0.024773262771531825
0.34234309553572584
-0.991537162539505
-0.4656401634659053
0.14939490428218194
0.08673559629234569
-1.1649981079447376
-0.33619419161204694
-0.706615298169558
-0.3052243499490509
-0.03566575037176192
1.0294393226543395
0.022480886470747495
0.4928372308358904
0.6205240025790976
0.06044371263931513
-0.7943179925975681
-0.29243581703572197
0.39234180430484533
0.24130106412001473
-0.6957596635958812
-0.025588711302518483
-0.10782743157648515
-0.5374348589421493
-0.3902768338050769
0.8220676565046484
0.21864486648474182
0.021521990251455656
1.7269722740215463
0.6869618421889115
-0.030846004209895653
0.5959649394299026
0.09542203409092409
-0.19147554565965288
0.14803262528779432
0.26020925316930527
0.20475396496375833
-0.2179356710246464
-0.4314747340853864
0.26028212636907727
0.7758010119423191
-0.2759953034809727
0.5397448526438513
0.29966426684590003
0.09960911172789004
0.14920409324416023
0.40868373284582166
0.7339968678629685
0.5357234532828561
-0.8147093846278795
0.3272867133572723
-0.19993177431703812
0.11519041017276815
0.4729288625417291
-0.9020663809303392
0.7272911971205297
-0.04118095348746535
-0.4583503263966099
0.6294695093500293
-0.14105313990751636
-0.303569222329199
0.7835892214699567
0.20332859982277793
-0.045112838030035754
-0.6961294338911417
-0.22091332309793507
0.0709500633325194
0.32428980246809536
-0.007020435800779862
-0.1838869668094139
1.1772108384596431
0.12536533714624107
-0.5339767853818963
0.3873793982236733
0.6006972075290847
-0.5735898369556605
-0.01946936765987824
-0.0491038893440212
-0.14788602833559983
0.4666087435162823
-0.3185800869160945
-0.019443989361468548
0.26279991293140775
0.504568785546157
0.13871152335574322
0.5383469528174388
-0.23806878820841101
-0.7606349109602691
0.19983421993436723
0.6035646898142847
-0.6621846813746282
0.31623206676511295
-0.025862462782958354
0.1464328843255609
0.6555991818250388
0.1285297938886667
0.1468659330827814
0.6451301912889551
-0.9796570772635939
-0.5712266456445005
-0.6442233432217203
0.15846135768364236
0.11802740865748232
0.16966720489848866
-1.1400592475058715
-0.7362074580813088
0.29076190250095585
-0.0368608633209029
-0.40524093356758484
-0.08301087116141016
0.0032321759974853832
0.061800335522351604
0.4129605667651217
0.3438032752127808
0.6206285053042552
-0.11726699646746441
0.19212581316005153
0.08289909412247057
0.18484378184423245
-0.26859543696097016
-0.3101753903388822
0.8046641957480066
-0.3456384041693178
-0.3345374655445311
-0.4879150644697823
-0.07135708740983296
-0.5021384206611003
0.6197093458870907
0.04770489898242766
-0.5758449657608473
-0.476304063254603
-0.43488712080380915
-0.2532658805670946
-0.1557709102215081
0.46826538487570113
0.21109350515524555
0.24729982723158786
0.2996295529829111
0.6740673916149277
-0.17373718049145706
-0.005664941853915597
-0.5427628322148486
0.8595884207170457
0.19644598874429134
0.41878944007558766
-0.3372829521597265
0.3945603143283356
-0.2677921764937131
-0.23838324731571
0.03240330031771667
-0.004013834985525697
-0.46771372975696385
-0.028093649657170646
-0.26059847578256173
-0.4856479655978076
0.5915347496747615
-0.211703201684548
-0.4155449052843967
0.2985023965889721
-0.4329021313127132
-0.20973190379928516
-0.22575725390526635
0.11542209903876684
0.5228629025446873
-0.36282768226305195
-0.07888603101854244
-0.06808639273833281
0.6744924955712184
0.11025158597265257
-0.21733177619606586
0.1487220617317367
-0.0031223604761985205
0.0873320754323388
-1.0335007831838205
-0.349314872342391
0.13818354695028742
-0.4211746163415961
-0.9373091488929738
-0.15854575773387894
-0.08793635524090093
0.2648873842961228
0.5302679956008741
-0.032596619726746656
-0.044946618196538654
-0.19094206054510782
0.14977450874108827
-0.04877522838986065
-0.2698748297182678
0.14589330704893586
-0.140008328435848
-0.2675194183165919
0.552926798598128
0.48768048801380526
-0.2766545906457781
-0.2509661310118299
-0.3849707135407504
-0.18862954844412413
0.4074684425336283
0.2801396694073578
0.07662660272386307
-0.35407356180994903
-0.11333659502459595
-0.16103538754367772
0.34615263014559056
0.05901160092052386
-0.01382950403173631
-0.36623459793275853
-0.14494143545483432
-0.32561323773182943
-0.030939758245409354
0.10926418323932276
0.7608090227198134
-1.1544831880568027
-0.38558806834046483
0.211147489126767
0.7152040951663753
0.10841458418432749
-0.9104199262239026
0.06897158117582956
-0.24588037594536358
-0.20712811413976462
-0.21764047857908259
-0.07155980157838707
-0.8042120295244423
-0.9127331085846899
-0.03374416918711908
-0.2698001172589905
-0.19238059837967206
-0.5245367698183061
0.0960167860102646
-0.32070221966366186
0.47448693095062655
-0.09246945265746599
0.40425359395699073
-0.1927075892948594
-0.4840069747810131
-0.427518122327599
-0.4143751774668967
-0.7363742145069694
-0.10417758907903205
0.06328078200648304
-0.16164648176000398
-0.3184545983765858
-0.22635206576367953
0.3686625676434408
0.04454724007356128
0.224134597960317
-0.322053248055695
0.055845355235664945
-0.26129110658776966
0.008085463326459656
-0.356277232677311
-0.02783655153233586
-0.5569197179601159
-0.38863650051624576
-0.46552891351845865
0.23126206290693024
-0.6117043796088479
-0.4367796511333866
0.18058383776160283
0.21317295352843427
-0.006955088555058001
-0.6126250150388813
-0.7894278207061047
-0.29020825438275394
-0.560903260534283
-0.5232061987618605
-0.7562153241981109
0.5442185410088312
-0.5073510825971601
-0.17748468536582251
0.3795621810350795
0.6748747155739274
-0.006670045426169837
-0.8379625180811867
-0.0414585234178187
-0.2231974789323663
-0.057369567433775796
0.05481625364911516
-0.06890414761969528
0.19390803514974655
0.46248426997553543
-0.2877541227805111
-0.08771954702566516
0.022518020656005118
-0.8473275233317298
-0.27733130587118837
-0.5226048004504932
-0.29965757447177116
-0.12494560739039402
-0.04107291533507848
0.6265255026431412
-0.4677927862823264
-0.1658424943829013
0.21621882267827014
-0.3970969057418805
-0.3090493831833385
0.2802375409139145
0.1105602081185512
-0.996076225872862
-0.6254257622989681
-0.3111495140824649
0.32615772703407314
0.32490238162641166
-0.16679344298986784
0.786216034890854
-0.5163934587067586
0.2975365124406037
-0.13186558385137925
-0.2734870314852741
0.2608665496952132
-0.13963906787708763
0.07698147358167683
0.19949034358229112
-0.2847240471812819
-0.13334285747207625
0.2659553094205817
0.404602587825508
-0.17238874157336984
0.3882226096200225
0.004067882746517999
-0.24978113496593302
0.34912435163869254
-0.1315467593591157
0.7033689128591156
-0.4140112485524145
0.16029970782400085
0.10720859197820776
0.6006153385805842
-0.5252003280549153
0.17598143490711007
-0.6416166232806119
0.14330321978382118
0.6997023490584662
0.325999013504244
-0.705708990565077
0.32755777528275376
-0.5550617056564489
0.352467072638286
-0.623599297456919
0.4928402243281806
-0.09480891484756217
0.0016537291203704153
-0.2481990098432012
-0.35874802687375773
0.1853645210035747
-0.5924500276512984
-0.2308395171010508
0.3742874597070485
-0.5437382749858782
-0.2639805437404668
-0.049605081440472085
-0.07892789362254776
0.47751955565880033
0.3586426626601289
-0.2366622200018434
0.7162945864218199
-0.5898450652455495
0.19426498366877357
-0.015646321643256186
-0.4894201860400404
0.30622936813707036
0.47800512785352595
0.23623061650234584
0.4495775709975266
0.44233431149350777
-0.011706689398441696
-0.6207429726372087
0.019446929735372247
-0.33156039935060705
-0.3234758136664026
-0.8011240932230139
-0.19097217457972718
0.2577488221085113
-0.4449841730978145
0.006543227673511718
-0.19691331393213937
-0.41670874906262156
-0.28823826880548803
0.309341882425647
0.5939622849593247
-0.2913965403427377
0.1791525748023775
0.004488927808117619
-0.41889413927616204
0.15481029633558896
0.15556604625230983
-0.23924165828117783
0.4839522455905986
0.032896834026524685
-1.0171424240872349
0.0828702847150874
0.1324435623840728
-0.16193602742170624
-0.5451772617940932
0.11140902096455307
0.44603347321158743
-0.2973701222183456
0.36000672454045607
0.4609870358507682
-0.5899549752103683
-0.0835352074955201
0.6106105227866373
0.26053145368304154
0.25348274782843067
0.012753212342902538
0.1758950247702803
-0.2795914203315297
0.33518714774986136
-0.13984282456789346
0.0073680685837531745
-0.03444800859188561
0.08848455406246376
-0.31202931128998096
-0.4619479856491796
-0.3769170996330337
-0.24676630975120328
-0.06866788187281801
0.42278888179028357
-0.407602572999353
0.1997664959386102
-0.15940229936766254
-0.13479412793147802
-0.9466759046321287
0.368919214006347
0.5202613406126807
-0.04319494773079861
0.5007110762477669
-0.15558526544346107
0.5430816802377703
0.6281734870713758
0.46483438611205635
-0.08998107968090954
-0.17550804609186302
0.20589309142344087
-0.17222625574175512
-0.6715803648981311
-0.4244866026264371
-0.335805495550987
-0.6949504944804199
0.5864756290583607
0.4857789953546906
-0.4384600039265676
0.00899786660548846
0.5052427539579379
-0.07335603528009292
-0.24364538759315657
-0.34801502413259944
0.3228620867677261
-0.31264637415209545
0.0575686649505345
-0.37045805496683637
-0.09426751970943094
0.7911597297949469
0.3067568547274524
-0.43337898160690813
-0.149886685242709
0.22020777163579602
-0.04768346356580561
-0.09429670671169602
-0.022553168637257714
0.029614292208543478
-0.8446850095097513
0.35244053117394686
-0.05748620856601443
1.0679755079851616
-0.42554851070578636
-0.21106446719268215
-0.4463721208094885
0.3643123544946919
0.43152415718715975
-0.443251884824948
-0.7049835115035299
-0.2487660466751415
0.09318478881948906
0.4369535717809349
0.5420507714191773
-0.266809181318691
-0.18534497567910405
0.30139122858194206
0.17851847471738014
-0.3939075125562425
0.11863305603682354
0.10166938529976834
-0.424366340495533
-1.3196834523669039
-0.057382777451363644
-0.2262180340627926
0.19513031613408646
0.402680373629908
0.11014133942138148
0.5120669633331313
-0.06667949815913922
0.22883998238049513
-0.0023350170606692136
-0.16479691875593366
-0.3063141944038053
-0.05753201391898618
-0.5567715263038401
0.5173605203670503
-0.4989862855523757
0.46710531181250253
-0.24584419881268607
-0.09785500844192321
0.1507517222190908
0.5596453867124945
0.12682013004583295
0.14454558648191101
-0.26073497925334044
-0.3386302346331265
-0.11356435928551283
0.23099190120858115
-0.6786019239083672
0.2797639018713796
0.5756054590837064
0.3757539728228217
0.4987218917089298
-0.16096563893774987
-0.30058375866751846
0.2535411657664894
-0.24107394905104174
0.19936790530987045
-0.8558085636032762
0.08763987851620593
0.10727465424146791
-0.028872626460530803
0.39340079163970676
0.32996110026212677
-0.7235061450387285
-0.2625628438211021
-0.3515198639015379
-0.23099270272127456
0.20575030198977373
0.6578311350953908
-0.6609656698606965
0.5341939780570332
-0.35679258299373806
0.031802340202470976
0.12960869769849967
-0.07759752501350152
0.10344118398634236
-0.7419823013716333
0.6464641016938896
0.17597617137648688
-0.09558087977405712
-0.1090774302873521
0.35712540955661815
-0.7841885579605208
-0.9441317120615309
-0.1564951856890596
0.11702896063977503
0.7887587479664779
-0.4318112458085588
-0.1928363181975819
0.480699626152514
-0.054952799496421706
-0.009926496480468698
0.018208312166579636
-0.36075746928552854
0.40609800749990105
0.08345782876465362
0.3645818414589023
0.08562538658718141
-0.6362899170456114
-0.628546144214877
-0.06230666389110783
0.25336624208906394
0.12989583920073067
0.5053973990229869
-0.33721731114545883
-0.155343066743519
0.3558296151094005
0.1405851333500921
-0.033893705372831845
-0.27406920734783863
0.5901770008535456
-0.09542941682876896
-0.22652514706222648
-0.49036549625817855
-0.16579487648366864
-0.43666706883588036
-0.14919184666785235
-0.5790484348601388
-0.04027139447073775
-0.2613601663379898
0.3206652488256135
-0.5812553584484191
0.7075426254929567
0.18823197114409496
0.09578304165758042
-0.6563974886273701
0.49528720844522595
0.09940626951669444
-0.03525822863679851
-0.2718098481368543
-0.12081431440595657
0.3061306307540874
0.6652575045862323
-0.062471411596642726
0.4708737893853714
-0.5165840828010498
-0.7072428606824924
-0.262717406531486
-0.32936595597115026
0.2515976365697817
-0.20777751987863025
0.4959160728542802
-0.4032455769771094
0.4950166983478631
0.6541641032826224
-0.1864475166466025
-0.3985873835234284
0.5395480303818595
0.3988515980299514
0.08823708032079777
-0.9618734430962527
0.5628550013192911
-0.3370141998632389
-0.7924410163979148
0.5353330527250187
0.5804011958896318
-0.21347305153255303
0.19318185863390147
-0.7527573145240973
0.4090209057513564
0.17069910832587795
-1.0192965357202952
0.2750275584977315
0.165480893309439
0.34528321858810634
0.020002287503977253
0.09299334044747685
-0.28546807807123026
0.1414907960933944
-0.28179738343308103
-0.6059647671600003
0.08960225029960224
0.24320542687305974
0.25250800523879074
-0.2831442091941998
-0.3786896694160454
-0.19694769325445233
-0.127603798778599
0.30970790435504125
-0.4384340064181831
0.4901055578538469
0.2056936742666344
-0.3765451212484268
-0.27137597568444727
-0.37172126975293146
-0.5005748606348988
-0.016611409031253833
0.2616249129381457
-0.043744013844191236
0.2015828237002861
-0.9232433262327364
0.1967297095848797
0.1818353828967264
-0.08661661636911508
-0.5119647735996893
-0.9135720998115818
0.432751046508705
-0.055230323979365475
-0.04763402323057161
0.38126082261067296
-0.3166796870660995
0.1380367041936736
0.5166493487111199
-0.5587988754944295
0.2539963678393113
0.17755521205095018
-0.5287771572357839
0.7284580718831039
-0.09848713439965892
-0.5485655739974671
-0.03444711591677419
-0.23586721285846754
-0.15246958593855453
0.19581863112028902
0.04169244285318321
0.6769543096356704
-0.39476067766892986
-0.7120019619692777
0.0815378202210683
-0.2943102860767805
0.0001496118025502527
-0.7365942531604622
-0.09218805980516277
-0.051363307183026896
0.22857415200705397
-0.036010161722766255
0.4708390647256447
0.06612030097738283
0.24942076204881
0.2985021116707678
0.26831471524391554
0.25494728767085084
0.6561178393616284
-0.16236089010138688
0.7268928449519504
-0.14303399292513033
0.8337020149306099
-0.08048387928877539
-0.07892958044492326
-0.0650187716143026
0.3720059022409187
-0.176245020082703
0.054616221881498034
-0.07695254934665606
-0.023215063008155224
0.007184439872089658
-0.968671770131841
0.07942698114639202
-0.09079250468128158
-0.17633911060434163
0.28578014030871035
0.8087573885779866
0.384793374527451
-0.48168245627869616
0.059219031068077806
-0.16961191407092532
-0.1981969689801621
0.4611671257441284
-0.3954637624620478
-0.7855728580444319
0.13282135913692955
0.7732598099907393
-0.22084568988138895
0.5252339362565173
-0.43784462421873205
-0.8209555928912958
-0.47396381958224226
-0.5681820344152878
-0.14218417367842603
0.15773732917755143
0.2295879284899457
0.2178780414738223
-0.07116877172581862
-0.17163414696017518
-0.3657958712301977
-0.416891843545009
0.061998144597561936
0.3963332668748178
-0.1530073672795216
0.30633192881932764
-0.09633639159962602
0.5044234419131176
-0.5915478432484883
0.32063105511466894
0.9841874964027479
-0.19938578785268032
-0.2255385623849763
-0.9066091730967727
-0.46562541329143076
-0.5807606986145538
0.13891306730285538
-0.2725393371443168
0.2203530176566301
0.06016507767916232
-0.1001609877183984
-0.6794477053572505
-0.024425433510892765
-0.2766129230715596
-0.042164205965259764
0.46870739792095284
-0.650517635252345
0.03736902040233386
-0.10813646400439406
-0.20372922486811665
-0.1804542770304471
-0.6871183770809605
0.7936724653208775
-0.12273486164763256
-0.21422490021912016
-0.888210955675202
-0.3411339495979438
0.2122084580965644
0.764436717273294
1.2064569845951558
-0.3682256634333441
0.5162151272182453
0.04054168211447231
0.23273514875556037
0.16072951274675498
0.19008874262343775
-0.4393183907593641
-0.3016735290936493
0.1033750449037776
-0.40725544001628866
0.3794959063449233
0.44584164128908077
-0.20083946106780956
0.059344866032733645
-0.8461605268838298
-0.46189698399063794
0.3299288632133073
0.11444705397862072
0.38938009660556855
-0.4555790101815637
0.03941587274176744
0.34649180348618724
0.337226413015939
0.4948839553021592
-0.285750181291683
0.009044746518301557
0.4472823814971749
0.6633812950384859
0.10450272246977917
-0.030513954569941295
0.41841494782686256
-0.21507112571141643
0.8715965400426611
0.7657424232495215
0.2776583692008443
0.439368776311154
-0.34664078778849006
-0.2683117050820793
-0.047494460506079784
0.63877751526606
-0.09045429649919964
-0.06930447534941564
0.2035788964470664
0.30659157945848686
-0.4875106968516316
0.08052202306983718
0.5007738699652315
-0.22296922732804647
-0.25881097755366683
-0.19291220784020427
-0.16579210515474363
0.21766256537609646
-0.5907915514896678
-0.3135186025381977
0.05234683382780851
-0.02356478032262923
0.09387042249175724
0.29459190721519707
0.18889001732096444
-0.10119215542929531
0.30554436358411297
0.570059157331402
-0.042736459123422846
-0.28073718987420676
0.2723474425884615
0.38643234667511955
-0.1792513591919724
0.08905164132842139
0.24091258904739468
0.44007060278452176
-0.39046702909083497
0.5579188745670208
0.1774173504032742
-0.6293247367988797
-0.5236554053141708
0.35836476735717093
-0.33026926193351847
0.5592819507348554
-0.07278436916632741
0.6075751374036179
0.009997579669075572
-0.3942348623266039
-0.25131123535800537
0.36549670725765043
-0.7756196908691654
-0.5628915463683637
0.7534529883941975
0.24494751245721302
-0.4730480800383805
0.6107693322167257
0.047861080008322336
0.2175952679226891
-0.02313964449847394
0.0550058124860043
0.34331347997991024
0.08552365708368438
0.392935330512587
-0.4155829777223527
0.39955371718242133
-0.28965694326309577
0.30045957490566555
0.1260707371687596
-0.5000882925481503
0.3113222411944351
0.059632081480150936
-0.5064509020519302
0.25088473844132136
-0.1803892362982536
0.3352809091476962
0.15270515163013965
0.41416008709860186
0.44185685181252754
0.03214304664558055
0.04724932039383701
-0.49227495074454697
-0.08128895220970431
-0.36274813991072485
-0.21287581279235235
-0.1706570821161586
-0.2010765472410541
0.17501848089527575
0.10512901939968335
-0.5784715451868648
0.18688486250148575
0.3785793761564613
0.1920334683472875
0.06107459996806682
0.9866408397558282
-0.44507947583605406
0.7273146593344105
0.588965736823291
0.23176640697504197
0.25189647139305005
-0.1842173870555328
-0.25588116914501374
-0.4975343042534922
-0.1884644558934012
-0.41243771699369847
-0.02544287614357697
-0.05017705405482514
-0.2015790391626514
0.045269337592466805
-0.22864664953133096
-0.17100480968475099
-0.13874965724881044
-0.3574446451612605
0.17781035888470628
-0.23074238025961216
-0.5918919821542472
-0.35046592077370037
-0.15664272501607276
-0.5309274138324943
-0.607671526946988
-0.1687846110290126
-0.49861737757741376
0.6898440363813824
-0.41502586229472505
0.5798542560249672
-0.2111803891228492
-0.11826154849735405
0.28869817480205906
-0.5329146300581906
-0.5444422869732475
-0.42726130093051584
0.29624123662682983
-0.6133009659961604
-0.42388562416053316
0.6254678453884709
0.20011267303372596
-0.1762964631470052
0.04909229482582246
0.782749076428614
-0.0969672322570095
-0.28559967470820624
-0.7163831703618325
-0.21976777886706905
0.3384947974511853
0.1479030332635159
0.17687681235629255
0.22399250419080496
-0.6311858057459407
-0.1850710727371969
0.3162122974626709
-0.17716301080168195
0.312362555574509
-0.4703442531078437
0.4486371540425232
-0.3604752725306487
-0.4286937736455701
-0.11723444168068611
0.4570547963991439
-0.3157788655981921
-0.1702717203505682
-0.3672981293329141
0.19954571810256452
0.04791178067997793
-0.6789854940812203
-0.2624346039806377
-0.9070693287335951
0.5546661235462473
-0.06346996864135833
0.40847811933260275
-0.15323553808680332
-0.6982911046451494
0.35071827306802106
0.22645816633388946
-0.6941374918711406
-0.022103576659756295
-1.0131475187879044
-0.7510054984632162
0.7299149649517843
-0.5765318739206824
0.37133159299449986
0.43197418723381975
-0.0023822928833963602
-0.6551847169475412
-0.5108257870623764
0.23964019582184437
-0.6000466284601197
-0.09312561770310038
-0.5992517502282925
0.1044750007604021
-0.038091384673117734
0.3281886261884602
-0.3108452283387309
-0.5926253447634853
-0.6754413223500236
0.030473720014095516
0.46665286267618045
-0.5707474215955237
-0.21590980316636224
0.36041690830007483
0.25409709061239527
-0.34634210577560043
-0.12194471561651575
-0.018999090875849584
-0.4570045226358018
0.07606137793295159
0.10608202888292441
0.5512307753707092
0.07846674570854048
0.5382079400103728
0.44513059735993243
-0.30320252410006904
-0.2802951142821734
0.6310603915821646
0.28782838080149903
-0.849003011029977
0.35301303145998025
0.18339401759476373
0.5107790263535957
-0.21919572853291147
0.4056502495270512
0.5892569019936522
-0.4852580989727199
-0.17475788955439386
0.23483525578163614
0.13981444383746683
-0.08478087827405927
0.400450266697091
-0.6443349708266237
0.05864717870102356
0.365185313069163
0.6263860193703731
0.6685274676590994
-0.8825667828148912
-0.7519105350348692
-0.6120745737432397
-0.07351893755201216
0.08446450102659503
0.6538174956347402
0.2110565760261586
-0.5404702445092411
-0.34639142982734533
-0.289581384791956
0.2921953292764446
-0.025588107080373634
-0.06136507032533966
-0.33815714305047084
0.02797221178532726
0.3594970192941152
-0.44991720995230394
-0.5278835067151926
-0.3463814804839703
-0.14637476428828597
-0.2343170762183387
0.5867787129197443
0.45557366280381695
0.16143565040762384
0.4810149555532978
0.4273394959531231
-0.24647056358848293
0.5319373717920604
-0.39075696275901545
-0.3372477782559512
0.4883812159035116
0.07838620855370347
-0.014891808218643408
-0.12330624641014441
-0.3360196862804525
0.14585734550684631
0.784107435063805
0.313756687752157
-0.3365352531230908
0.048042669597021054
-0.2400403027544265
0.23501449641105243
-0.16468378698012012
-0.42706145143643115
-0.3076016385357101
-0.0035579519942629772
-0.5918618904104996
-0.07939687459799791
-0.007929011494387943
-0.30593493126337074
0.44414750288188215
0.37678105793840294
-0.3486595900635921
-0.07953086613917427
0.12078238537452715
-0.3846730076900017
-0.08087466129905944
0.18737847622751067
-0.06866378987080526
0.4463119973579405
-0.19907891770078678
-0.34308990903992714
-0.3702901384504926
0.09479205681674176
-0.7975772928990131
0.7521257704250135
-0.2511037447714187
0.05963171629658134
0.2091497217606292
0.025085663107814883
-0.0695008300796885
-0.163275364040258
0.2019998899154891
-0.5079982253401901
0.31236993349345016
0.14470792933425713
-0.4143689540897448
0.04729040996017522
0.23203509226328772
0.1820732652906876
0.13008185923507076
-0.426058059049839
0.37348487416000187
0.47781037145111993
0.8157606758105416
0.3726104311862285
0.3555779934838375
0.17091570217430901
-0.4726078876216003
-0.3763989209577359
0.2707245362904388
-0.29775273835903643
-0.35751089971325317
-0.5254923129862138
0.19208839411480588
0.6769222561886611
0.7317832918868035
-0.13206049146654467
0.4299365072298421
0.2175946758230856
0.0488211902639049
0.7148341480524056
0.13020678236783023
-0.22041300151165408
-0.47059250480066844
0.5452924385950894
0.271206055605229
0.5581768020989343
0.09331689855219202
0.06747632067576657
0.37323203604952326
1.0581402419917854
0.5498788404459852
-0.009652581266263977
0.2536723203326546
-0.2545923711334258
0.12130156734316176
-0.040281124164292685
-0.4800152671741678
0.1762103316815713
0.25041081941851256
0.3681355729575095
-0.22925400736061463
-0.18242109077509377
0.030822839878605117
-0.31367880331559345
-0.002344810085300245
-0.24156672279174723
0.5118252789394846
-0.3747082350771478
0.4067841985653001
0.1830000678178658
0.4441654523285936
-0.2547265146761666
0.08499239621499936
-0.7627298685171829
0.4687952372795944
-0.5962895979136463
-0.7226762534527058
-0.09361098925716392
0.3899840176855524
-0.021120860212289507
-0.25244903589755013
-0.42964667157185055
-0.2041832476589881
-0.2515508325470005
0.34431429575445177
0.1565382652704731
-0.3744393510280835
-0.3867295286749284
0.3051877427137113
0.6906151582625469
-0.07531209852021312
0.860118422226618
-0.1382236956858022
0.027091330975195366
0.3380677542659793
0.5129845962486086
-0.16982417910676587
0.13250327152702385
-1.0233415642362618
0.0146955536576951
-0.7055709748802012
0.6129194198828357
0.6590821471300575
0.41876183661846256
-0.046542278032277916
0.26984832851690527
-0.3287003421330162
0.7895726413664763
0.6686651367325488
0.741059914609419
0.1167625639798077
0.5564205126391875
0.07031949594674619
0.009785564476333676
1.1029164142695727
-0.7076799599919039
-0.24173460571711058
-0.03803276822002201
0.331647765220734
0.09111047239464677
0.5566986139549549
0.670380856262061
0.006727882325342102
-0.2291617883717131
-0.46717018899886076
0.29951585256211966
0.3581782965828687
-0.013083928850388615
-0.06726543948107594
-0.24171540901049052
-0.5403331894066234
-0.003762961777901371
0.6804562522102345
-0.39083045431294117
0.19606139018973182
0.8443437433502401
0.19529136821320198
-0.5011458747647694
0.052046084903114576
-0.38460306663627103
-0.014479375830247068
0.00011849545389007641
-0.07949013692348955
0.1114362938335684
0.18333439435572244
0.39871883105795647
0.17109204899597
-0.5435771104711917
-0.2925221132652697
-0.2836876515503777
-0.18731365088330956
-0.4036791778309655
-0.42112472583418636
0.011456763120007887
0.4733219029829874
-0.29559455551748465
-0.7566808415896292
0.2587886618373338
0.07441235247372624
-0.00470002997532677
0.1664004931822471
-0.09510447382456594
0.48633381630082656
-0.39120651024270425
-0.5094288840180715
0.009525696766270495
0.08796517132792064
0.11915034528247018
0.2829594094600722
-0.8757129047034524
-0.24210565627395977
0.41181058131023496
-0.2297763695436765
0.5376394286362615
-0.032313497861982565
0.42906832496602754
-0.36184643031875663
0.8519951717950175
-0.24652518075686541
0.2453861366333947
0.3893060817589553
0.03138550519160467
-0.1671541511924037
0.1543328063273985
-0.2199200414958812
-0.3242297142105405
-0.010376061918326648
0.10136378496845092
0.029625804684581973
0.3030651970526055
-0.19852579163554598
-0.8419298862908583
0.3636609302718208
-0.1482767163482597
0.20829145469041638
0.5608858404829985
-0.6856931113857911
0.19703435696459742
-0.37996462397434994
-0.13214932463548112
0.6776014521564705
0.17322733788446554
-0.10987107863224799
0.8027279304462263
-0.03585971985807245
0.13213597484601056
0.19171018696158132
-0.2921863276317694
-0.1643824654331134
0.34282976844452345
0.1129935927185142
0.1162049406323418
0.13139477597964208
0.2717356664845785
-0.2171649886179664
-0.08513170040164547
-0.07637990825048348
-0.09921755821331799
-0.6366751901965532
0.5130555626040544
0.19982119547784993
-0.6000619947769521
-0.2348474839680421
-0.4056120765381399
0.8688182844237252
0.35479689649952395
0.5636727157783177
-0.2259015523307479
-0.3572422946973249
-0.5865363882241721
-0.4307113460827725
0.21877843184530502
-0.5189607685298674
0.07424229247019719
0.27299682515367735
-0.5915678771712691
-0.017938621908273198
0.39653795538450126
0.7261127049216203
0.026077595037844268
-0.19754870233838315
0.9124436956989816
-0.4116323393661838
0.052810066412580646
-0.53524859204422
0.23350932179754239
0.5401709968652079
-0.06130341113815218
-0.026119488896824552
-0.23024853475958743
0.3425045802293951
-0.2200644834987402
0.6505602999307811
-0.49929791634758997
-0.23126655742173688
-0.19851639383965483
0.3838299513552594
-0.1477726579315828
0.10768721421037757
-0.23303016090678008
-0.9908758555830883
-0.15652120864795155
0.3015183962133448
-0.12818626756495288
-0.10518044839093113
0.0775161180454746
0.12953486388071758
0.05106365146553502
0.2340189862624814
0.5662261708895385
0.6837754140441479
0.28679952050290725
-0.6097827367250754
-0.1325462771396889
0.24614498654170358
-0.6717424618634128
0.06739110289614762
-0.29853470347947936
-0.12344408309841888
0.08291427682881974
0.3485899728809909
-0.5305515991225078
-0.08742039368620372
-0.3160005224474343
-0.8802399973724875
1.1228729538946216
0.08673734767743169
-0.33974197064741274
0.593866113337223
0.2375240181707216
-0.06939791009864545
-0.23126047457229656
-0.7338352908410734
-0.37322575508747613
-0.4715240313993512
0.1626661985848395
-0.36172819892100266
-0.3700045298390944
0.6812620808640317
0.28766014024721037
0.0003253514771344084
0.15869975589322796
-0.05905345592306857
-0.0470917446963275
-0.2543559303298997
-0.5530527022119733
-0.425135132669951
0.17795642982312296
0.5542123271701942
-0.009552786642874915
0.3553546920147526
0.14965995520804176
-0.3701790403045638
0.38826855423879325
-0.4413865083886124
-0.5723256667462927
-0.13044130951289612
0.2490770548386117
-0.23729019953573086
-0.44958694699470925
0.4086573314672136
-0.20818348939611186
0.07849139763731834
0.06601489369879902
-0.24052714717160464
-0.6864773457058819
0.5591775819231494
0.3340421837800842
-0.2563282496702165
0.2560354397910015
-0.22388744888092993
-0.24776942223822485
-0.6348308234604921
-0.35008510269644105
-0.01545035284095449
-0.5074982101615066
0.38241476545447317
0.28354973055883115
0.37209945323721877
-0.08457377684260553
0.9039124391780758
0.008422027335827009
0.23203883757422378
-0.5473955141684934
-0.5624794285869118
-0.15375718645743292
0.9428090322656593
0.36701116252850235
-0.2474827998318854
-0.4351533750694489
-0.6525998354067707
0.13848919312646124
0.2174083380354286
-0.7863073024620502
0.21517042247719786
-0.45717922639349856
-0.42302898293570257
-0.6074664479748323
-0.15010237333128737
0.4473423107040712
-0.2735863903861309
-0.29590969660750627
0.24455583987341142
-0.34871079364957613
0.7957466251485755
-0.06705874844829604
0.3360312791096852
0.11015300164688106
-0.22224777427161002
0.18597207918583514
-0.09507095976648024
0.1497472230546981
-0.25143865648534713
-0.44032108186729585
-0.03734447695932979
-0.4593828911113639
-0.0001276453192260447
-0.35746010463282224
0.49320895987326047
0.07781815377011815
-0.14302912874660859
-0.008770331892357456
0.3881798622055536
0.3887366818578077
-0.05956900940560132
-0.2561197929480224
-0.26186240794540466
-0.3644472383254455
0.33922320429456443
-0.13722869256264508
-0.16539972131196506
0.13526239385012048
0.5470736549498746
-0.4726164190773661
0.7351195019198911
0.28399260255265185
-0.4509274639352805
0.480381867627401
0.24589843793570354
0.11321845264072629
-0.1525950918107441
0.7436384817016314
0.31244802046086806
-0.69803692767374
-0.3198954814513855
-0.3926451120235522
0.5692265253957738
-0.652487941615848
-0.6928360209850977
0.1311383566530932
0.04889335922671523
-0.7155785715364611
0.19207467983794996
-0.43445993083506024
0.398027007615203
0.5711098791974489
0.1613947475545715
0.08914514213699322
-0.688836153802818
0.35648995036091513
0.13622554804613582
-0.981116494962991
-0.02343542361455754
-0.21558766629217613
0.2747222558032001
-0.08881879493157924
0.3341127432610175
-0.5554620687818127
0.022392072749671022
-1.1843758671934328
-0.06308046189363521
0.09842289487346734
-0.4427294741278133
0.540092169362607
-0.5186776428711672
-0.3726324810352962
0.6745254188452695
0.5794870852796628
-0.4096896023752228
-0.22129734178496738
-0.0759090904562669
0.45075711692726883
-0.07406099879911864
0.12301312478001122
0.4054135328443805
-0.053445629412019954
0.34625115921974914
0.1461320890846703
0.005487773395062456
0.3334293686873722
-0.6882153296153151
-0.2742302024123448
-0.24393738325182723
-0.2567978992164815
-0.01526402039180241
0.6767223579465513
0.16777097617962053
0.30622184681405756
0.37961484261997075
-0.6719238423594639
0.40453457585351293
1.1212707977540919
-0.13157414209834467
-0.09639820992638243
0.28655458166860776
0.9545110234623663
-0.26526007166034826
-0.22003069297599462
-0.4855136925452623
0.3728526781987188
0.24545146042659471
-0.4068711784706016
0.12181818634922549
1.526232496122879
-0.4474548440445698
0.3598868857439519
-0.8518527284738776
0.6142764120315455
0.3232571779505958
0.19888981960872099
-0.40132155527122143
0.04036176884181903
-0.028559965245412523
-0.43243254788384705
0.38050119995941617
0.2132756141110447
-0.025237261888710692
-0.1389831277065969
0.4577291658750714
-0.004867966303726531
0.3174670474914995
0.48716820977823694
0.23761931659030372
-0.25255386097132776
0.1695973051348517
0.8536587523150895
-0.33286562807755304
-0.7195225217915744
-0.6348388712982371
-0.8008884513651842
0.06622017211453936
0.4875123939524278
0.10688756620905662
0.4529608021762086
-0.06061112514056397
-0.27302483541843137
0.3211328961714003
0.1962966617711822
-0.5671192005819032
-0.38502656181668055
-0.29931779040514883
-0.2869339705563915
-0.03135103739202151
-0.5842610491214913
-0.23954236465043055
-0.1092335637862637
0.011846921290763372
-0.6790816258992625
0.44769412156084654
-0.45482069342350573
-0.9168887851316959
0.5549936320320474
-0.3522149914506155
0.2087712638876758
0.04019440379345481
0.6540570810159233
0.3687351195273456
-0.39230356720067655
-0.46002952614180564
0.052862288925695715
1.006204922748155
-0.5218187932696721
0.0902446548576085
-0.010608438440131108
0.6634346055105674
0.3730123376056588
0.025340175763941077
-0.0049909994525742215
0.022560365032387602
0.230310913895999
0.1807448256609949
-0.9586534553864018
-0.4073548477297345
0.3995585302247069
0.3573149595527464
-0.6104440632417385
-0.24340965328380254
-0.06364900824732973
-0.9098498538132732
-0.006901224223099404
-0.20414615881243364
-0.02927507129744337
-0.27983196443931463
-0.1604621785798138
-0.062084048157092724
-0.18737920985936088
-0.1571649901264349
-0.2942893347039604
0.7343714926263596
-0.08699836662534287
0.437309874355841
-0.1150042364450948
-0.8073428929476115
-0.775895656919125
0.2812661900947333
-0.14454978965713813
-0.3845209085252181
0.7070366482166285
-0.3933001675173315
-0.08840922209094827
0.6208904851266354
-0.09402523633887998
-0.04026825435505806
-0.32208655739610265
-0.05283843858720464
0.008678308302047655
0.19996398084906597
-0.2068231381386058
-0.010498044655572563
-0.28692304828187953
0.58301535559892
-0.11865445659777644
0.0822819357980261
0.07676194635228475
-0.3013434394934368
0.3145471207364417
-0.1606462842338985
0.21946933283378803
-0.37457008947088827
-0.25462714551381266
0.5413488131765792
-0.41233062681233124
-0.6058855983094565
0.1211875952694675
-0.006245941026481819
-0.16337547827729818
0.1578263251355276
0.5117211320079983
0.2794903538126968
0.08825905485050767
0.21586218559721898
-0.30551542929748493
-0.13358696182401827
0.5012161771703986
-0.13332347899331976
0.2857297901152366
0.2191319242591149
0.5316022238346775
-0.07955426757344979
-0.43216780133380994
0.09146495682289053
-0.37813270949217986
0.8025332599357065
-0.17827123167479483
0.5876470791937891
0.20225132464488943
0.13382729427893558
0.10242019693264243
0.15926058385640893
0.20077728320868138
-0.7230445469022709
0.1198074654729791
-0.6753958410806497
0.05091806529678623
0.16832106778106962
0.62192318399347
-0.3226307222128069
-0.22899273761945324
-0.19788911500772044
0.10893474587414374
-0.07420983499221792
-0.6026046240561929
-0.653988287659428
0.07244716623320069
0.13382838160971883
-0.2858196392918591
-0.10742672907427897
-0.10780663355413798
-0.30381761887266867
0.3445192791406434
-0.03404096315541543
0.5196573238128991
-0.43860149367744866
0.33693092552183934
-0.07100721126185021
0.6664397000962772
0.3204540803612897
0.7081850402240885
-0.4499485414794096
-0.5555777696642493
0.3749676904811045
-0.5880080721512962
0.6469707169017775
0.3829929730617325
0.2680807541934859
0.2236628294335755
-0.1294597186134094
0.18636479434789216
0.11965082226532624
-0.4313772107038305
0.5098458520446093
0.07673124078099892
-0.32708936276839945
-0.11673818263661252
0.0840772122345134
-0.2494331046913336
0.3132043196673216
0.10866054589948883
0.2927095346887355
0.027164063033047213
-0.16365692699417425
-0.06598887333999143
0.12047362576514777
-0.8892001177903253
0.03386285218765239
0.13767905109444756
-0.19038747502022696
-0.0475811052816782
-0.445322452074943
-0.13150568937615925
-0.2621903011335905
0.10563390730379385
0.13822806896881712
0.469485109678829
0.2272519321518195
-0.33856233763422056
0.3323207599824265
-0.10063455692811761
-0.016826407442751257
-0.012961351792131095
-0.3539530171953361
-0.03275859278313633
0.05205636715904648
0.37444874396274297
-0.10400594042350933
-0.024444616521838464
0.3470079327733494
-0.19291982316421885
-0.3363019359186027
-0.4239628765148534
0.6450178926297375
-0.1634098801979521
0.11619636692361432
-0.06269404673470694
-0.2661193504510485
0.4543125978528119
-0.05068135924883357
-0.08197461463050314
-0.2355838891124405
0.0423298793463512
-0.5794159717936158
-0.2179303836100401
0.46992157311708843
0.21133681007099342
-0.28302868723986097
-0.31185126499910865
0.5265280512919921
-0.5408008573231463
-0.35357254462442633
0.003387090560950397
0.4166252066845548
0.18751753159077117
-0.6266743648429066
0.11928988712847177
0.053144880879069975
0.4492565034057262
-0.3131789521651347
0.40447343121739243
0.23909951420745726
0.21915904079054405
0.1356244455706171
0.17106259822855455
0.21457997081893196
-0.5730653437597316
-0.4039585619487777
0.506851855178307
-0.18264767417857344
0.02075964975747553
0.3973385819843009
0.0013603249329074561
-0.33465709270232263
-0.24074583533443214
0.07154110871516871
0.2390140530032431
0.13504140479896193
-0.07007627786709908
-0.43417402208247186
-0.08519270769038037
-0.53027098900589
0.5373273045918676
0.04090585659976707
0.6723011826040876
0.34749746485369487
-0.23756247050465149
-0.3279825586218132
-0.03505370360862284
0.11004729440905762
0.26016103832359067
-0.2200045691932136
0.5247786537685957
0.34441031081696016
0.3107968141641038
0.37001006322884084
-0.30129083644388505
-0.20438067687732
0.6719689307350142
-0.10924160356454145
-0.23788610010725567
-0.13390970539640032
-0.6176902488352098
0.03277286804185459
-0.05422765904321916
-0.7599283596309266
0.32856163189120313
-0.3423940014237067
0.19833767028172983
-0.17325980661760512
-0.14208285683489222
0.40687491357358363
-0.2157522097879921
-0.1644001832139651
-0.5134838449585053
0.23092466017674768
-0.0709368694370468
-0.11461482125207198
0.42278525514712484
-0.08401657023478197
-0.2344606574948731
0.4438091606394309
-0.24371601312175376
0.4614254893957046
0.235816818263132
0.30086274118971723
0.3923234700330245
-0.12297923546579122
-0.3326325965056325
-0.048789167143598246
0.606280417647343
-0.22316348596291868
-0.06452584728400854
-0.49290838416348287
0.3221512495407198
0.08501699635805146
-0.019589415688042216
0.43677102308362864
-0.018377749434951313
-0.20400986978724012
-0.18979288221700685
-0.5132816642177718
-0.2247541433104956
-0.3346195136677385
0.3358248620263978
-0.10558792293692691
0.4289304576775432
-0.2878272895548826
-0.2779370132752048
-0.4061362146768808
-0.38726581276922883
-0.4781474386724905
-0.3211575069014732
-0.3876002949445973
0.32858001010691384
0.6943089817833584
0.05058433415719564
0.1870295760183631
-0.34482160405110146
-0.3742345493004822
-0.25954285344523575
0.6334867526717993
0.3778341382758018
0.06847952121952156
0.7118097379713627
0.618998968268511
0.6163843381091884
0.14727419638118375
0.40367488470780527
-0.537443826431414
-0.17922429716109287
-0.051315879005979684
-0.8383923715311071
-0.4823026149934973
0.16270690339315644
-0.34548091404114234
-0.10955889102480619
0.07101273580060809
0.5989190919974098
-0.42524193027814744
0.30085726260604834
0.08642624305029149
-0.1542533883825396
0.018262696850156433
-0.4311018101868157
-0.16816949476398554
-0.37941605903294634
-0.30939667944623805
0.25522846870658944
-0.14696087385120396
-0.30310489490681025
0.028412259477451476
-0.16322109699493767
0.13073606454849915
0.18378376376914954
-0.5768411696764124
-0.35856354417221936
0.34325240012578473
0.052488968052527334
-0.5673069798072711
-0.6780889315991439
0.07841055355420044
-0.200344720843123
0.2865976464218588
0.20857147371643836
-0.16966075730747984
0.46442157355662594
-0.42947579399677976
1.0452131820515729
0.13919149245614706
0.14613747574553834
0.14746791246156668
0.042574222534906093
0.6282050282969714
0.16973862469476225
-0.598573231160004
-0.9468238497809514
-0.21677379712803266
-0.5685497623488281
-0.1351410282746846
-0.2239574685088423
-0.6094126070412217
-0.01069737619417607
0.6872139869340098
0.389485434906976
-0.45456554081456324
-0.8260084680756121
-0.12354413892442505
0.46445683088402706
-0.026877984052677596
-0.8552607612791785
0.3798515507395029
0.22196536938737252
0.048832494935397014
-0.3008119982869634
0.4661414276880287
-0.2927143213390006
-0.3713768670370779
-0.12991775437089714
-0.573515632473483
0.3363483774439303
0.3277231310681589
0.10521731705484981
0.14089832905437355
-0.49272854975090336
-0.07991574228688862
-0.31985128832687243
-0.676977699457272
0.13597851729711835
0.5220626910916754
0.5461365532891684
-0.018027573998066065
-0.08297311292561518
0.5022184997452486
0.37371497430945716
-0.2931096690136383
-0.5001929531736811
-0.13792852623133772
-0.041428693938974595
-0.07627419639644496
-0.20423892700280669
-0.11520808197312131
0.9027785180581193
-0.11084767358495352
0.33327276336018624
-0.09043706313364365
-0.25555939840355435
0.38324665075720926
0.5803250956602815
-0.08463336690288394
0.3079840617398974
0.5611484995959828
0.5743787214348139
-0.22487729901210965
-0.1890269048220633
-0.282458408418189
-0.03818955624007201
0.11459350117903824
0.5997292913276393
-0.49139537679867473
-0.23533451256409377
1.0269758688357693
-0.22195987156679012
-0.012162915614367529
0.2730476830247012
0.00725816896944108
0.5413248767035429
0.08962378429976849
0.008284729042984794
0.41596820086178954
-0.05331740369386856
-0.470824242648844
-0.8070386062471375
-0.6342486061477277
0.2613768420801261
0.20127630550969236
0.22223905305858788
0.33913000036845925
-0.07099398036159776
-0.48994834248765334
-0.17504209262577025
0.26944811649083705
-0.17287397240654034
0.733530018890388
0.38167128226197294
0.09447867325757611
0.9992301867576818
-0.10972532180220271
-0.20027182666454493
0.4726343404845568
-0.1864706260033529
-0.09251041385410219
0.22491073272436138
-0.2243916613824951
-0.4685106899641707
0.4653942008724419
-0.6705211957273342
0.02029591369827563
0.882060913236582
0.80703526603948
-0.36680370786644584
-0.0819634742563754
-0.23093621568318476
-0.2646016204170182
-0.11096766267613405
0.291328813804308
-0.07397126474091188
-0.10129091317550326
-0.37641977426716844
-0.1191755347238594
0.1496392370827463
-0.7058592086886759
0.20681924494689696
0.14346093562911083
0.12868659855100303
-0.222755342688146
-0.23236865800676496
0.08026681215233618
-0.22625450499284033
-0.2206540155392819
-0.7647179817746512
0.09263742238387551
-0.08427241586208277
-0.4854415546922963
0.03796124355978719
0.03185882096065242
0.26661934364016127
-0.006124668340230366
-0.041310493013511355
0.8991880856955156
0.36372146901465163
-0.36584695989814503
0.06506232034538496
0.34338302661311615
-0.8458061437237141
0.2734579700993174
-0.3232698091007169
-0.6539997595005764
-0.7207026017459183
-1.2416537927260345
-0.2770203352591106
-0.9431893082620013
0.6192761506260145
-0.6033239712715811
0.2993873900466269
-0.41877397507358016
0.3519754705096116
-0.6804136776337252
0.39785764778042376
-0.7461670409527098
0.2446957029681893
-0.02256176896635787
-0.04684982813150177
0.13410497488900255
0.10121567696950728
0.20812369096611602
-0.19749750433381755
0.2937422847403609
0.19955214498815957
0.08404988729822417
-1.1017212224255446
-0.18386804195354275
0.18006415491638858
0.5708936779527254
0.028241493787272618
-0.06649714660651099
-0.16367049673361467
-0.43055837563558447
0.31678327064435835
-0.5841523832659146
0.15772367679414498
0.5195901861852019
-0.2136426703802229
-0.3475711290848452
0.01723155787937815
-0.46815900539112176
0.23869028802158385
0.5898663087021796
0.5646773457058056
-0.24962266569352265
-0.43375621039572054
-0.15998205278582997
-0.545412747675167
-0.15691046059714456
0.1957255100689483
0.08235372649087813
-0.3820016715254464
-0.15154362588463408
0.3767692466312162
0.6121396706933242
0.23713556540794647
-0.16618536282085472
-0.6133459064361626
-0.15359037493568695
-0.1673359824304654
0.8795424866567818
0.11508051281277605
-0.09257039720958478
-0.05795637228526428
0.08113296086180248
0.3288879241042006
-0.043024757415067866
0.02061205329659161
0.007939122284778137
0.6548151704167057
0.6383666834960268
0.1991572976288815
-0.6490338481115464
0.28946495274883766
-0.07528437399695953
0.39680668529372826
0.4272308841485599
-0.25584975858897796
-0.7196801241426196
0.36312473527689004
-0.472364337246746
0.45988796486855754
0.1438797780039287
-0.30290147671144974
0.305672946234871
0.02086469350980691
0.6185396468014334
0.5576833720102922
-0.44467637116062303
-0.908348059038129
-0.18038760113931346
0.7846704208410523
0.0696433778337976
-0.11448862650906337
0.20776888338776806
-0.4559009814797332
-0.1633000588063941
0.3137717193692177
-0.3209083236178751
-0.2496222515631669
0.4234147078692381
-0.41141576153934817
-0.7111774967595281
0.3483196224387577
1.1187331617733576
0.5341698660868337
0.3512633008136416
-0.11227665264209365
0.5990314147594727
0.20206779509867198
-0.32653539460034314
0.20894460693394562
0.5377594011203665
0.6946668165026978
0.05951466921703463
0.14564698447982305
-0.03297662467893752
0.2761349211472063
-0.008348656137391807
-0.33747141333001485
-0.15958403161334078
0.5664928202289119
-0.1475184155342905
-0.6398453610256647
-0.1331318083901397
0.6213115574214323
-0.8733534446977514
0.005665418185517115
0.4603024207197663
-0.3615609672711237
0.5745640838159564
-0.11578728131963013
-0.6506656385033651
-0.49805778691924996
-0.23158736206198305
-0.040703115651316804
-0.60790392767974
0.22335521014350254
-0.08068570403677316
-0.49446138931725403
0.4622136410930661
0.6000130540615817
-0.6145152671558471
0.16551459586954725
-0.10907511133323652
-0.10789237557169766
-0.13146355797273
0.713417917254317
-0.22600908357647126
-0.7191763175057213
0.2932594431756373
0.11246036904599184
-0.5055783782348499
-0.34516965975303243
0.046172680029641554
-0.11699023659332389
-0.007600660867733991
-0.21551827943231316
0.11549447785939933
-0.8581565806596887
-0.5491649728321828
0.12024582268413277
-0.2668585414634827
-0.012699390269539862
-0.32959253144156964
0.10420172237488157
-0.5825290981684842
0.2607403292067122
0.19592786708490653
-0.5160687177631323
-0.2695965174370336
-0.5357983849401959
-0.10665149072660576
-0.1807410251361721
-0.38725639500753756
-0.17616875083482803
0.3072648047040818
-0.6167798543315619
-0.06311583800035996
-0.48287183539653833
0.14101989375592447
0.7575012768754339
-0.364441997605993
-0.24979327939031842
-0.3468835921322785
0.13070356302998223
-0.423925861432103
0.24849168757817144
-0.19525509704691998
0.1576882524232623
0.4114122748357306
-0.15982716293994056
0.1606607927053908
0.4833187416679793
0.24885514451365603
-0.36850755503711374
0.4079306410601251
0.22897837679138222
-0.16886638087990527
0.4032217484390236
0.7513202515166767
0.07194497505447629
-0.062132663062644235
0.021299147113346222
0.18633298865964984
-0.20001928989315831
-0.1755893146707925
-0.5247562719947003
0.062224220750496856
0.3397091032938444
0.3938850899342465
0.3192615768372052
0.09071791503841183
0.38044275818626727
-0.1972240016599363
-0.60298184242611
-0.0469808634789831
0.39135143479317797
0.4488320139639588
0.41246210019900365
-0.14277515041511601
-0.6996028677738813
0.27596079732761136
1.1451313456805559
-0.2588986171006178
0.21965432767671236
-0.8049290098645583
0.5649397636150162
0.02427224980206795
-0.1284225781553554
-0.22833259909930326
0.28990949755952966
0.06465431478888284
-0.6605593218551832
-0.7682910379534721
0.27625062963263586
-0.08767559221926821
0.4852122056377007
-0.0006149391627447668
0.6199816076648901
0.5245699261375176
0.2745770187601193
-0.06496911993355559
0.1337569496494109
-0.2370740974743403
0.08516184132451267
-0.11689935380185351
-0.932075300879792
-0.555556347002415
-0.4086408033863986
-0.2826956647797047
-0.05291074769023234
0.3319083407805744
-0.27718271890073526
-0.33169032212620725
0.22118694030358513
0.3324877456635044
-0.006414193745694289
-0.7512586701074881
-0.3016715961767521
0.559024862116476
0.20446399421859052
0.03936170799807327
-0.009143059477485676
-0.561075245647415
-0.11775659949839723
-0.3252374207634907
-0.6304714011847801
-0.8210658239368493
-0.2230319351703139
0.15367974820107913
1.1664012572272198
0.03990245556702456
-0.26633126251771017
0.6745308051876583
0.25646818529881515
-0.7089187416689798
-0.5728843861905524
0.18832662611107842
0.06417483096419271
-0.07502466647174084
0.6352526388484759
0.34627088058890315
0.6767715904786856
0.2362393575768191
-0.058120071767967914
-0.04679256845005802
-0.13256428335176335
0.13498794335985792
0.4623707688414545
-0.26565405890900334
-0.4525118423275422
0.19253554593465871
-0.45282703247215267
0.249574549200539
0.5955325743709979
-0.43840046144243827
-0.30674228700247863
1.0356457257598066
0.8826591197290075
0.7719517516921013
0.14255614193100702
-0.6733076858395268
-0.054522199259908234
-0.017265118592467297
-0.04305795809641866
-0.2504883415466363
-0.013005745146463644
0.19610295285998305
-0.4313007196251906
-0.7398965565424631
-0.27652352251431006
-0.22719570746575105
0.6795523615042722
-0.38605118850862047
0.4095837433041129
-0.23917298660220035
0.03390273563974478
-0.5297770401028298
0.2572692357031202
-0.31930578693303624
0.47484062064234905
-0.011128417569499829
0.3393251259045366
-0.33224118164755556
0.26709090397483043
0.34617284647704016
0.11077510199002849
0.5708891434536522
0.14966918906687618
0.30208574423011325
-0.25558675112999296
0.6284338342150398
-0.5202237868499993
0.5961455888339817
0.25879852221131816
0.3913825158179556
-0.28607123456406713
-0.7190024773141742
0.5424985544128967
-0.160473700213655
-0.15117426257744454
0.6153065740977391
-0.610007954126839
0.014791691284972378
-0.3322260823375858
0.1802320609048629
0.013130918710475769
-0.4572935880620603
-0.4054138148610383
0.42695582197411597
0.06790987643346301
0.24246603654863955
-0.07823382127467238
-0.004679963659222816
-0.07789670840498521
-0.0958810368351152
-0.25356317787346466
-0.946371532543811
0.16352403997853873
0.042757370577542114
-0.15320572026955342
-0.022032711082248087
-0.28558670881072323
0.061629039488478185
0.5555604889388437
-0.2581613534759581
-0.137136551486336
-0.640275690589878
-0.32903183335952785
0.4676255766711293
0.4319473114425945
-0.283431328709652
0.38608504351875883
0.18368921312845318
-1.177924967975327
-0.011234679183796994
0.008597088343227003
0.02745602168821676
0.10396778460951596
-0.3182941128081316
0.1722002143709241
-0.24524258802868118
-0.4416440004745456
-0.48972833111460917
-0.7605430104732277
0.4064286908080212
-0.004875529545010243
-0.023481791037606545
0.7157869017371071
-0.2784321764570864
-0.19298426536319674
-0.7270722252897006
0.8508484053970277
-0.0980838633653389
0.04359268131574759
0.10966515241997964
0.22097730424179995
-0.10037560287928207
0.4038792185816246
-0.5155662966596315
-0.4331859123730986
0.25711109567585094
-0.29834216683768755
-0.025392922590157845
0.6050799103891721
0.016904050804289895
-0.30118493971744226
0.0762434553112301
0.7620362019027783
-0.12796134266889636
-0.18401552285948933
0.15407156290775126
-0.11756104711830052
-0.07661539280948941
-0.6736498182237854
-0.7532218592273616
0.05270037885720082
0.40345604946578123
-0.021379058227699952
0.1056671510496022
-0.9367626552918527
-0.5303435031609819
0.09746534118885428
-0.3450890510935589
0.34370856173717157
1.0877753310270906
-0.31812845424568986
0.14593583158732273
0.7368352073297308
0.6796569739173259
0.2426648505732829
-0.5208233753935
0.531218295570641
0.13377897644774497
0.14634193178480126
-0.5431945091270575
1.3052811135869473
0.0401886070575842
-0.0779641115437658
-0.25408914974735736
0.3891263540618316
0.1796278043022141
0.12494526970076349
0.1757763495653282
-0.2848918470318574
0.41024079711173184
-0.3025696360209008
-0.28397172284399524
-0.058839977928076694
-0.11990429916214454
0.3178312490476377
0.662292793229898
0.13975093822172838
0.9685835470931665
-0.1891828078573765
0.4681234026560836
-0.16175532033797987
-0.708889796813481
-0.043968054061888716
-0.3225478204742046
0.0933292272934602
-0.0868088157525325
0.08133454053414385
0.5490681173953563
0.279129896940441
-0.026300592058339036
0.2015417117428751
0.5492502295916025
0.39248902022322624
-0.23567850143213867
-0.16893230290910147
-0.19333737109583865
-0.5429999830177514
0.6174050470644522
-0.4883228322532398
0.37860390320429543
-0.8851400553119133
0.6901884521543258
0.20613296744512
-0.18914116849012924
-0.20257271067229554
-0.38482479178662377
-0.05749949811843286
-0.5157023488351141
0.053286434484247955
0.1627886545405681
-0.5538483172934364
0.11072688218390613
0.08491549299278318
-0.14188264341546994
-0.055993342092658195
0.5766720709776643
-0.4951811564048503
-0.8921269150346749
-0.3486824236037347
-0.001456741909340363
-0.37347478920323934
-0.09440863780674658
-0.4669260850110915
-0.3651848261829411
0.5251903608858944
-0.9797542582217396
-0.03418211930849212
0.04267773673225241
-0.27637883389151296
0.5074922545893871
0.5888845855182969
0.4416666889833961
0.46981082611985114
-0.2112896570044775
0.16676361515032043
-0.30875334438070684
0.5465205569089912
0.08147082181198875
-0.4986389436215513
-0.2251026600315
0.07875874290978888
0.41312128821757566
0.17306640623700079
0.07993585762382327
-0.28355022053264356
0.2979782147354949
-0.11131822417868918
-0.8187763008482389
-0.07700909487928793
-0.2914363471388269
-0.6026725273895764
-0.19546525233905446
0.6159633900989371
0.08311931655085715
0.18379568001097238
-0.5880579719900108
0.0016346229526375243
0.07709861078379088
0.013657334749388563
-0.44328300742772486
0.6430004373284969
0.016367052870554573
-0.01289550118053538
-0.29262688355501465
0.03159216004996316
0.3435666410672602
0.23508259822507602
0.37409834270591014
0.603714162237228
-0.21833772764833664
-0.1283090205076464
0.870943592135556
-0.007350209352097998
0.3109743598619246
-0.27329357225835044
-0.07075412530783186
-0.21965098557189802
0.5958211671712865
-0.05764595692688669
0.2442529553360304
-0.06215963488473341
0.17474566676966902
0.15511139997966794
0.4715260280691514
-0.028428776012204216
0.6332019068311978
-0.2837660776625508
0.3098947645140049
0.10042048413402872
0.07587412808514402
-0.32584943600900795
0.39051906263993275
-0.3778119897754657
-0.45183340365317254
-0.18696489793287252
0.3512031423089753
-0.2971075676022817
0.12391699209747725
-0.11001242010827972
-0.33885788763220986
0.10301417348428164
-0.1551625663940847
-0.4012466772283923
-0.43102802398951817
-0.1434738356593021
0.11906459412095306
0.4634320935263036
-0.20026310495224456
0.3164245403258891
0.22210028686432343
0.2435422870901615
0.3754244774077684
-0.6269437622627952
-0.21646401027264559
-0.12871448138646555
0.0769760082955347
0.9762489408369326
-0.08071238119400888
-0.6373945330508101
0.14321372687236672
0.7140790586230311
0.40765446369568037
0.4698186434838465
0.6294232751142371
-0.12311594850732839
-0.7254733948319406
0.09071477294214594
-0.765925799014988
0.5170793392660764
1.0302364770443042
0.7842114144932284
0.053033730647306834
0.4376155127055272
0.39486537105289987
0.4784450648134678
-0.3813231685419827
0.37750295183660926
0.07146186785851902
-0.28820192433675595
-0.10327662203140157
0.21422070514049943
0.3053336725802923
-0.3385866525693665
-0.27175820634176406
0.3316989763606769
-0.10430473557435187
-0.06162704201941141
0.4879150874315875
-0.4274525992486649
-0.23346947989722588
0.0030372070223095666
0.7008085853925663
-0.4093905239763425
0.22268632994878992
-0.05774807572508193
0.02028957641533959
0.5337721484786829
-0.3060893842784242
-0.09618362327580769
0.21410254411925583
0.2606545473474675
0.11054602718644196
0.06333364627661472
0.09421800635495121
0.33360843115403177
-0.4415846990112117
-0.4638684826194122
0.497218447662447
-0.76134430950674
0.4335431987570319
0.8049767058572256
0.4156109858698527
0.36865213502582345
-0.8561454805182883
0.09083151819157437
-0.24122799002844694
0.852017699537187
-0.22537427521972836
-0.31651882882343585
-0.8083550058751913
0.5632431444224864
0.2575151444074727
0.3673027461785265
0.7048532294240605
-0.3968065712195163
-0.3617408544553126
-1.1171050056753737
-0.3582201750778481
0.01756988457487912
0.14500005390868304
-0.22223975087938724
0.2861565349052109
-0.10075629261476421
0.26038144783266026
0.5697770731819898
-0.3341650772740008
-0.10289878915734503
-0.059212205692541584
-0.36932118749013865
-0.2643960036370318
-0.3564191333951252
0.009308394644045587
-0.8950543211740657
-0.5349403738706887
0.6372278057575742
0.08347646809052073
-0.08274912082021614
-0.2032286583021716
0.1243624763228133
-0.20499401411464252
0.24742058556623225
-0.3079581850955543
0.5585117404923341
-0.13950789129788874
-0.10137514696863059
0.12859722543831714
0.28048288595321186
-0.3766745768618824
-0.19951836381802537
-0.49690187202201924
0.30955587620791053
-0.11360397664544881
0.053665266241157285
-0.15803074596401057
0.5892547573132391
0.04018907057639165
0.2698164668967502
-0.6185727718367828
0.14240409363690246
0.9801299167620582
0.2015978240228482
-0.33399894595072116
-0.7173315121128945
-0.4964068440786009
-0.15458035071741297
-0.1162663093552793
-0.3992185577484451
0.12320685178729252
0.24690250528465232
-0.3204055550645342
0.26178864193705287
-0.37632671666886197
0.13362669721733253
-0.3651676413474514
0.9005727895757544
-0.3580917561096155
0.16481399879676764
-0.02198318080208343
0.7771841229976366
0.06483875468134873
-0.06392727147459352
-0.6150183605474266
-0.35466195506287335
-0.3715030822306855
-0.3028759137876208
-0.06290034451755952
0.4839461537250378
0.19599975107180448
-0.16813693700282092
0.2726483788200014
0.5944782680018158
-0.4423846743617096
-0.4966643923128348
0.16145814783032134
0.08507958717597318
-0.2322146712018362
0.654483693168391
0.16788765355356178
-0.6016803051332377
0.6596559249900704
-0.03233809129865312
0.5839632098829606
-0.020838595968749124
-0.47164881137372433
0.058547956602266416
-0.2026568834031666
-0.09661612759014442
-0.7289884331547932
0.5666777322048497
0.44838069665894065
0.3884734981912759
0.7190548118402533
1.056344603811466
0.10103743383906733
0.7668873067619608
1.0029989718282009
-0.555567925659915
0.026099578443942072
0.14993143495398858
0.20178779071787042
0.23903309218090044
-0.0900985287652342
0.41313454395616706
0.2963279211960648
-0.08225352055327871
0.36808022488218073
-0.7023282027163836
-0.4699670593851248
-0.5069623761431404
0.8152312807086682
0.3237315438909251
0.3557664141606356
-0.5277892116367419
0.0353225881166797
-0.21956587018386395
-0.06210246585939629
0.29132724246988384
-0.2543935872585894
0.43249806239537003
0.28403007701481386
-0.16083442474048307
-0.1494902960718078
0.6787720772207205
0.588804614465495
0.043905470305503756
0.030877225894162547
0.33824081090411384
0.4890167504406961
0.06647958760954616
-0.06233763145406215
0.01800936844554348
-0.18071013004605732
-0.02313495070615774
0.17229820521859468
0.14067747446936815
-0.009297244303803728
-0.05833559655301853
-0.24139309941953224
0.13259280911479565
0.026898339475367863
1.0016037298689722
0.9158198355011934
0.5380833660857514
-0.30206570051192166
-0.29875143281236666
-0.3069015823552591
0.11200494191676875
0.10030478648374365
0.8274546897326851
0.17342990169525993
-0.8568606398722065
-0.6277069016809491
0.232358649681197
0.07301356367994428
-0.7559052530458671
-0.6803772616009975
-0.16045813604810444
0.0748638791446265
0.08413923783207636
-0.5773426907949003
-0.19213699742720985
0.061628966899958816
-0.21502689249719248
-0.022186408978838303
-0.26149347628919173
-0.13619775706013165
0.11452944282847513
-0.3605761289916487
0.09782185290481277
-0.32505377362120363
0.583347078718195
0.06840879286752169
0.08050823331525925
-0.04538379153092321
-0.11944085892761248
-0.3378830111433883
-0.12641737309836354
-0.061672321853828274
-0.5825102156079108
-0.47145348547327715
0.3786087322067535
0.13260334510132996
-0.35988459960911734
-0.11444606534725728
0.09040174627993307
0.1599015683477096
-0.5295816878362871
0.2817281999789959
-0.41454420757863325
-0.6449871973859229
-0.6208524877094924
-0.33168674303025547
-0.5818252867279882
-0.5344190271273357
0.7802104561226401
-0.3214841032264022
-0.4874307652436808
-0.17280071375729472
-0.48541130791900244
-0.18092217738042354
0.16640973043575308
0.8361943969197201
0.40810733293857115
-0.03582615401230506
0.4253745339075652
-0.17266053080332847
-0.2530124709900015
0.4044241890637738
0.30124006506490925
-0.3994032443667859
-0.22302261781199642
-0.8136073104255694
0.18183828957763462
-0.061541012558075016
-0.3949246371272951
-0.40345811455002306
0.17878105363920188
-0.43772370390921667
-0.7294502927774131
-0.07331339959450166
-0.28676568948507
0.1563438370191321
0.2914767647597828
0.44628111565545797
0.2631304208358774
0.19035264561793805
-0.6024159882091883
0.057450945768362974
-0.15924037988416873
-0.7024842996546837
0.07953716712302476
0.5202498987414718
-0.24645145337561153
0.04758350901894592
-0.0427383620117938
-0.6548616667765872
0.42456390865995813
0.42014504568578
-0.2589045043914173
-0.07625068120169408
-0.03252294066242076
0.3893476079568743
0.14539063506378785
-0.7527436652557689
-0.3594981076136172
0.07735972530505228
-0.8979735650807302
0.40844831658571357
-0.401652786857917
0.017577586256837262
-0.3273999248597749
0.6865430652669665
0.2770688066149689
-0.23042170334663048
-0.9640604063694176
0.08667381564026208
-0.20177177365167684
-0.5835337028182082
0.7510301474806035
-0.13579819552786984
-0.06962288842765056
-0.3669998127000698
0.3058343103338914
-0.7632680580285388
-0.14615726565457815
-0.033162323852979854
0.32081528031035633
-0.14437077547645955
0.018212886082971915
0.49074520825918416
0.49577438089468284
0.014514584536348022
0.5715965984598892
-0.003378606131295234
-0.4311519408577313
0.01655530676522602
0.35938079015765223
-0.9306338543457603
-0.4024052535004482
-0.0772258905858078
0.2338590063194153
0.4584380832777625
-0.1372434696062483
-0.3664782075384093
0.37315454985769614
-0.12972142515595725
-0.6253397445452062
0.14430251421084714
-0.6868045286284447
-0.5894054604466225
0.7111798299444106
0.4632679419996062
0.2710875155469274
-0.42586793657886496
-0.1708446726406988
0.20923128103992858
-0.10448410815817734
0.3959185884324656
0.387260385280682
0.3339522306110637
0.7439564215528119
0.317078892903813
-0.07085675247992472
-0.02238772755516362
-0.09195795236625824
-0.044391550590658996
0.4739366768772118
0.07762085556543466
0.0687599183128667
-0.3762455118709887
0.4908185742137097
0.2861972260052321
-0.37028621286952185
-0.39787968752776953
-0.4386913222834246
0.6254648776147793
-0.3002115127661839
0.38000456276164496
-0.3670096303534856
-0.7771075567651616
1.2015202390460094
-0.17169939438003132
-0.03943517607769589
0.16157335376223117
0.7292478731105175
0.5187292734339742
-0.5478826879595129
0.41926955416017303
0.19195882301493955
-0.17256525299791917
0.4214079187104643
-0.8047652237001176
-0.4396694731206945
0.3592050632769123
-0.27504868383284614
-0.3507638164008563
0.21466081937341716
-0.17004496318397597
0.29275594874521776
0.54200852118165
-0.9417680168644046
-0.1694706986293846
0.22736076414731218
0.5088437212561682
-0.5866417079992297
-0.250321349520249
-0.281105225723004
0.332221549584226
-0.730868146573286
0.5195300192798196
0.029116459567385667
-0.19829123731583814
-0.27162744669692107
-0.6885042088123994
0.12451427591454611
-0.12319686748025434
-0.2891286657267634
-0.7275021611691711
-0.7398629137092563
-0.5408917722257577
-0.06545568858730456
0.20648140025696385
-0.20836707260984938
-0.2502053509490454
-0.3153846267186086
0.019336007178127983
0.23199713597509097
0.07232375173650406
-0.42313568460453443
-0.6651337192830287
-0.4378447542023865
-0.5146855845442077
-0.5457189806837219
-0.09088886940209136
0.49007519348208567
0.19649902668437041
0.000761056389134722
0.24922857094910145
0.8790731862532649
0.4272279172983722
-0.38805523073992615
-0.3189624527391536
0.3955886119015612
-0.0015096744259654874
-0.49774738447792416
-0.5494666649795295
0.1723399085555602
0.5610404463038854
0.012102844007549584
0.1251112542452593
-0.6951844388686736
0.3502634087667649
0.7263897836645448
-0.7726041121623188
0.028267909086345862
-0.6863559066201019
-0.28268582152335026
0.22121401290052328
0.1565732902203911
-0.33401947982210306
-0.3061574252778945
-0.12073766160278239
-0.3578621637132829
0.2542604622250263
0.3398054127546907
0.3379389125814983
-0.29233426876376506
0.6194357444643052
0.2062982023240478
-0.5108981416430386
0.5268846729580116
-0.287474629527885
-0.09654496151793147
0.26472766923853425
-0.970246605168955
0.20868802409241843
-0.23313733464255917
0.427108775446795
-0.0423041015765439
0.11381487316104943
-0.28374970688209733
-0.6733699609280368
-0.3509434495345108
-0.20257475948438747
0.2814371106151551
0.41216614033660237
0.6300912167487197
0.17283302134989734
0.28233987552202433
-0.5346286054504745
-0.2383703308317133
0.12846198526441305
0.21888316985045198
0.12343810632918252
0.034665487110037106
0.0483589504378747
-0.15933033318156695
0.20784611556446547
-0.35621517999098856
0.30939846746561417
-0.23111552634208546
0.64648535075682
0.07771098152412317
-0.6042512163078018
0.06390472901427567
0.041820580317002275
0.14680534890114666
-0.6006393076235516
-0.28221309323289373
0.12661211844741985
-0.060728326564884576
0.08699508692620563
0.2739211969274308
-0.30663406626992995
-0.2936085597359531
0.6051508430980684
-0.06318418884734031
0.42277503888756557
-0.14452149243236276
-0.4263459945957914
0.30600258276752945
0.9745583979671395
-0.559303760790685
-0.05407904625262832
0.36158502174604
-0.7439412947301485
0.8314150529757087
-0.09519038418295642
0.0895542399090073
0.2503279746323299
0.8084994066337875
-0.5605821419022389
0.0005710092344224758
0.10194779051247442
0.012145887676811434
0.5352047342632466
-0.49903905515216745
0.18233000375258146
-0.020226549114328498
-0.23676292681348676
-0.6130402728243332
0.19947429865235689
0.5717820160711811
-0.20970373206486043
-0.21859919256321764
0.9433380250292241
0.2859985564280813
0.258513759286974
0.5533108492362385
0.6303779670533767
0.11916618567031653
0.40044504180228147
0.627384972570659
-0.4512873506805788
-0.44282271739701307
0.3982812111998623
-0.09578671143239256
0.08696456690883056
0.002147558742467874
0.18169918580770708
0.1686524272422351
0.3729363700645649
0.22654129437554238
0.31534944570742546
-0.10896665790041826
-0.5547084075857293
-0.8114411104028373
-0.06631875040980381
-0.2449448261881629
-0.17472289097068366
0.03832874684949775
0.5358005029153401
-0.7853682292652746
-0.6663111636614674
0.3930408538951674
0.05749247245931495
1.107852258306471
-0.2262564951559616
-0.12560245200851347
-0.13262724794186379
0.2906471840994907
0.15860058516421843
-0.7998052293939725
-0.3199654591277512
-0.42801950673175965
0.5433718859942238
0.048083980274027265
0.14446157610992075
-0.16564215268791904
0.006770805633495935
-0.2970914573121627
1.0513706432521968
-0.012517914457500124
0.47922670613004337
-0.10853312824288353
-0.6727883101084723
0.235465993369903
0.392922675956139
-0.024724024300938792
0.2023430998555706
-0.08542162070755499
-0.3929951707881062
-0.4888950317793541
-0.7615364868137162
0.37944368634319525
0.4558844519661572
-0.007825445908710054
-0.3479535626541191
0.6392366168305552
0.2676431707564217
0.7397303527297773
0.4898237543767405
0.5131931851599596
-0.180074259805563
0.17279899195201603
-0.6115942728431779
0.04726383526254192
-0.1513636216999129
-0.29241913402922515
-0.10326950291794663
-0.5486199298852021
-0.031120977109371596
-0.05550173060955162
-0.7801263138307878
0.1286651687370103
-0.45463303850830106
-0.29984274115000176
-0.5863172164845595
0.10029028289331522
0.39745769480879906
0.6041171214142292
-0.2657316648811128
0.45974038331894074
-0.592379793247788
0.026707144743762387
-0.3002825588881505
-0.14173767263413228
-0.4471509005191031
0.6013675147660986
0.3134752248285057
0.08579983619226292
-0.4224607056816093
0.2823096615911458
-0.5291394386494875
-1.1274351850329531
0.7293670086063805
-0.24730151583226576
0.31716468597879194
0.674060272200999
-0.569246043146854
-0.0042969524527251895
0.7106884797269313
0.006913708770775326
0.3508601697579274
0.23352705170718666
0.22092253632985656
-0.44175459497976766
0.3021777986912601
-0.40064437091822735
-0.03509191010578173
-0.25481930793003976
0.8471677756543132
-0.7038191998614693
-0.10153358012045464
0.08498451840414274
0.2654845614534522
0.04021157656348429
-0.05712553083481426
-0.24055540060845104
0.44682974127214464
0.24038588198338728
0.5473712924074071
-0.692473422664557
0.02395256615827769
-0.39100667808554174
-0.12409550187094061
-0.18004956526620006
0.22986580089225023
0.061547848061939116
-0.6687149080333453
-0.30238133839893666
0.24534139287251924
0.20890727541461634
-0.22206809690930118
-0.7693514835626325
0.18845275406938314
-0.707519453871975
-0.33071955217765114
0.30271887023634025
-0.41226411122235196
-0.15514960928844837
0.5395934542593522
-0.05110312969697322
0.026356543087253225
0.0414996386250597
-0.5329195581569932
-0.47471470727476517
1.0545497073419556
-0.10070178327812455
-0.3521292174257693
0.005612256209437112
0.6657072732808883
0.20984736288521605
-0.32426116523064274
-0.06173722290890755
-0.17038427229375744
0.02528175581897935
0.636521677581609
0.6482796905066415
-0.32498983947566457
-0.06024352721385109
0.0261097750469911
0.22976200852190362
0.45922104307628914
0.736899698764725
-0.6073119946722172
-0.2841970027909124
0.09061243343397063
-0.2816917798916926
0.22341772598336787
-0.51861761565538
-0.2701152910006616
-0.26390039607715104
-0.2397064132087946
0.08245941499356704
0.30656347076589074
0.17277493517816203
-0.2611061883581177
1.40635756919988
0.10678508280951524
-0.034955504440278735
-0.573368356294033
-0.08854107621433509
0.29191120760672346
-0.0663114821724991
0.3534400833607725
0.17420108019247424
0.4585412273542054
0.5056128023081292
0.1929538769821135
-0.6264701013375681
-0.009056342917114804
-1.1511419996448033
-0.1850664253165491
0.4534634591139391
0.6113419573912792
-0.8063641332873839
-0.33724698757811944
-0.4383861878363089
0.8728953412856594
-0.5984034631183944
-0.5420437034414565
-0.18654798763160127
0.2574346727102385
-0.37984675918403354
-0.15692852352448933
-0.10831236390516255
-0.07148218643522701
-0.2850137556477486
-0.26824479915730476
-0.05561648712746108
-0.05038307518334149
0.021654028643046566
-0.19711710374749244
-0.5706223351952954
0.2973847507921639
0.8035326665820036
-0.14271784917726324
-0.6112012238178794
-0.22985687185328274
0.20526553546940657
-0.14306173825633098
-0.09767841805166316
0.03111605312699285
-0.1320392092734185
-0.11423749769647146
1.5876295116292047
-0.1796736929587568
0.4277612557139877
0.2794639813292109
0.16424030271960882
0.30034517119218695
-0.3949324054710973
0.30874628564062734
-0.07890323932223839
0.8191531656783752
0.2227807665367492
-0.5672077472180036
-0.13078653603140386
0.579228897020373
-0.35348726614850196
-0.01204314421429407
-0.8147395785901647
-0.15636606675916254
-0.37377429967523307
0.7535633076079233
0.27373640715040554
-0.14564025713130477
-0.29816583368523786
0.31459851190118815
0.050977001636803666
-0.4338069965739778
0.4842717269453112
0.39408305932801857
-0.681398515688226
-0.3208250834543409
-0.04689966265288196
-0.09017085698132034
-0.23011611322667852
-0.3107050297317025
-0.2588129658662653
0.03873322213105523
0.2930595435049129
-0.28334687436839234
-0.1276017478674679
0.30735501260954157
0.07488858745527209
0.266394082714463
0.2162960851897215
0.18884244659943755
0.351078296754663
-0.41271220391143154
-0.10414633128406688
0.2082477505639394
-0.5070655957408307
-0.9369672954532605
0.43371315056658416
0.09215521006511737
-0.1082944975314559
0.2832554064579601
0.09934391027388766
-0.20590466608648347
-0.1473391370009696
0.16177500407997542
-0.40744919735512014
-0.3319391190930673
-0.26504120226083616
-0.04566503749211488
-0.1592641699648328
-0.5267750020286495
0.07505434435080827
0.15061826310434598
0.0985888303050605
0.6422500713899701
0.159002285915485
-0.22766597828057114
0.0576486991005267
0.42661842129261807
0.05321821045162633
-0.2852811144193208
0.021544370050066833
-0.2441180172793532
-0.5619503813725236
-0.1908625938345716
0.39228916724775365
0.32810733785578766
0.22954213021683462
0.001879314907494532
-0.17727906916602754
-0.33342724029928467
-0.44345288540374433
0.30592407189042514
-0.21414245712837057
-0.23204738326438462
-0.259904923946659
0.022240657211659774
0.19920347996425442
0.44044353594701646
-0.010046665472209513
0.9642627479159133
0.38652882388810283
-0.4859584049272212
-0.5337312001875699
-0.39533907657807865
-0.2677962000759444
0.1662864276965393
-0.5139426364330443
0.23188377935698623
-0.07619253375441556
-0.34287936618248016
-0.3704598423316638
0.8706503001864334
0.6518119106906781
-0.4127026329249344
0.5967438152842126
-0.35182410611984655
0.03989262354549229
0.24555482783732058
0.039118298029693445
-0.13028496295398592
-0.8569377907977893
0.009756939504607792
0.06758126671564976
0.46785349245738544
1.0041717085263693
0.39361557706340233
0.7656200627875678
-0.810485891770156
0.06745355181132505
0.27084322288274876
-0.4316131256035514
-0.5197798889846851
0.14115001676025715
0.01723015529631529
0.14797144245257118
-0.40787547651625833
0.10368146207741698
0.5994328572109122
-0.46318347381233643
0.5881558601080026
-0.041773085019543035
-0.40498669720881797
-0.4482933702523171
-1.0130666851596495
-0.17015709311252175
-0.5033685371551039
0.7627079602078771
-0.008247932176808928
-0.3213758177480647
0.129134350528528
0.30156216533953484
0.10221984371996164
0.10848896394675478
-0.19956828135715873
-0.028547800425201265
-0.07915195411773389
-0.9566197389595718
-0.6451170523233982
0.8521936385781139
0.10068330946273185
-0.023052784210832778
0.3851830644453149
-0.42613931714703696
-0.04155402562717106
-0.4980379307655065
0.2620149493185915
-0.44754854603960775
0.5316112666098624
0.16671789299746434
-0.22836397168687242
-0.07768518631195358
0.7185247435703083
0.23713359403914988
-0.00008820422991887239
0.771291551875852
0.6127525266613503
-0.40752130085881444
-0.31728224790753295
0.2930162609649724
-0.23983926714917356
0.04388293358659372
-0.8585604964967174
0.18597819502398844
1.2851050565541922
0.3226837187432596
-0.1723640515333361
0.08445863333151891
-0.02178178047850769
0.12186298332743874
-0.22080270036538385
0.5669520413913732
-0.592464292971819
0.09704736929067947
0.21394292054590744
-0.47363895984388954
-0.09478119967146503
-0.2980498572292447
-0.37965414875396836
-0.14463528037175288
0.07103309196769617
0.36496998178634893
0.9137249548374944
0.6271247796774133
0.23067902457487416
-0.21745303462947094
0.011111574651297371
-0.15161664376750753
0.09990014809024828
-0.4818389987345251
0.2294424212135119
0.7130148964980383
0.28018422580703156
-0.13245165224986083
0.20660697467978972
-0.13136453130337433
0.4603432070772311
0.5000838836614682
-0.033232548615811396
-0.09568225967924802
0.19259904498046657
0.12932639137679977
0.05249598597552109
0.10121624707512074
-0.23378399993179128
0.08583717356933498
0.35387787416076244
-0.18433605459034647
0.6787525682235672
-0.1491453929956052
0.19350213245594486
-0.18354281965301233
-0.5621607080140759
0.47580167163418663
0.912045323786659
0.8718902700223666
-0.7063001563304178
-0.37913659430657765
-0.3206132422073873
-0.04381860810156738
0.33108779805315225
0.2549800014927344
-0.2732815834379802
-0.11379506263360784
0.21056138193628215
0.15682607090038797
0.3743120525641704
-0.007205882558412955
-0.1390158332692604
0.6390108134039852
-0.5948033302742678
-0.11009205500423998
0.5840272561047782
-0.20256980662211735
0.06717928760603235
-0.2748139491025621
0.2764303287145493
-0.47123320083224396
-0.10967662666289031
-1.6274598739373884
-0.04774566290382427
0.3210772059110669
-0.16656593377553625
-0.02561581242739399
-0.4303126918921422
0.4664682714460165
0.007314746044880437
0.07437642608199971
-0.21475010201570668
-0.6699623637093949
0.15231488144673797
0.011161753447393877
-0.0799437600188216
1.1681251491426994
0.012648698982447106
-0.6775179325147437
-0.1937430927303718
0.3340812178012658
-0.04760441731788981
-0.4136476377517705
0.25687306781527763
-0.12731961678984885
0.07883378614360874
