0.2545396021858541
-0.3184394974384288
0.06836766516733794
-0.14184152440080516
1.0152581657614377
0.2590684585384622
0.06171998218596778
0.5260374034178301
0.25879238870168614
0.4100164115019379
0.012722001357006796
-0.09310325230940007
0.3083544691061982
0.047726432322268864
0.6745849825136894
-0.4716527073194656
-0.1697589401197216
0.11877968791970009
0.3653697889204079
-0.453358484976768
-0.008689235553915268
0.6332971900266232
0.034955707156252104
0.5721383620652414
-0.0001754980972822804
0.40121120506349817
-0.472473829529963
0.18040120279761135
-0.32654053042773823
-0.16874409004865967
-0.5666387609887488
-0.48487861155008527
-0.8019492046633099
0.4188604138767034
0.3632818399124156
-1.214565113339086
-0.11570447869729726
-0.04412423174624715
-0.1475000754173911
-0.2902372314499265
-0.5859289392612921
-0.4627401284840238
-0.5259799897280657
0.021983168064842535
-0.13174083471741424
-0.299323525413262
-0.14080406628731418
-0.13051616838801847
0.5615675577247207
-0.5630227675765085
0.40242884896016134
0.43305958328763744
0.16459398273113918
0.21724197848015478
-0.4726589769867959
-0.1720137684954535
-0.4604380998408746
0.38520955612032165
0.2891230897937187
-0.38638270686198
0.34596626965158844
0.9007874896503415
-0.07095491413629622
-0.18843903979662263
-0.15673704515404
0.6546492005261378
0.3912659249557396
0.46130568182995335
-0.4009700346576364
-0.25041458083509116
0.11691892352758872
0.13464379093695325
-0.7626404359831592
0.6927805691738024
0.18426394184545075
-0.4569289297794658
-0.06127929239965077
-0.8080552730372977
-0.7794992637716269
0.19972764231180104
0.6316308183750892
0.1519696000019663
-0.3087577623549487
-0.3456959931321978
-0.969335839702653
0.05520017824451285
-0.2643891889852576
0.10970459710387252
0.279660438877189
-0.35482615070434254
0.06650238020988049
-0.10954332393866438
0.21844834234166857
-0.6963327928919503
-0.85643754762069
0.558854188263905
-0.6757016301640772
-0.6552064654608195
0.5168778723864453
0.40433932826784413
0.13142849020438852
0.003132270849965404
-0.4745309794275299
0.35569883615939846
0.06788810396363631
-0.12371973346833358
0.5167556850942412
-0.060969594276283616
-0.12627292870696194
0.17525560220610326
-0.1788619711831737
0.4124356834720679
0.1600050241809184
0.2918358393513561
-0.024256406028484636
0.13714905510032321
0.11110179089854341
-0.12016686168919295
-0.18286617258143983
-0.06373484438718677
0.17329790872745113
-0.7055792009519464
0.130606617443925
0.15083689924007
0.17160437451909122
0.3900211592860346
-0.43931937911827074
-0.11825730205367749
0.6403465948614067
-0.4499638759209521
-0.26899924975837963
-0.15226235894971518
-0.7969107253346704
0.008432637292020376
-0.2474321207008452
-0.04149310808737622
-0.8866704963365906
0.36578386273141794
-0.05942574334431602
-0.17053972761172612
-0.6846591007043733
0.4775598508521706
0.18841972762645062
0.6129449092671212
0.23184417160962145
0.015581414609340056
-0.024728584797870556
-0.09652791509378103
-0.3046355923964988
0.11157017996777047
-0.46607445988256874
-0.1216694500710238
-0.17702819364659497
0.6274564560757012
0.34928442028651413
0.23572830603458914
0.19474240007090546
-0.1516017814344589
0.30245140276711396
-0.6180484710719419
0.0374904212253939
-0.5726858544650164
-0.6937843616140879
0.6118591814707407
0.09526701953089076
0.5446340822221677
0.3148730327453592
-0.5129385562845832
-0.5107220543773973
-0.7838915158829691
0.3447820529042949
-0.3091318094547925
-0.28883396379741566
-0.3517677535459616
0.5706656018942029
0.08996522893496973
-0.195649704119298
-0.5804024910557988
-0.05192164967494682
0.20546668284708933
0.07626992800116535
0.28800579418305006
0.3901890026633872
-0.18089640720911104
0.14785231171943836
-0.026872273673141336
-0.045139174114706956
0.25365706949704664
-0.18541132108455521
0.21531770181359983
-0.12008234932664032
-0.1979073574750004
-0.5597297329741845
0.19373014306299682
0.27300708007571567
-0.3209900741232644
0.7741983269574436
-0.1554790804129625
-0.061768825958995285
-0.6048825302248594
-0.1830388260676435
0.13438512054291826
0.45752786709828724
-0.29585919322720394
-0.4158752437253012
0.5375976553913184
-0.6148205835823235
0.3272101998441211
0.3134626399036901
-0.014021164623513152
0.3876103424307605
0.13134011688978123
0.1244425526711867
0.3484365291893116
-0.22491736876503654
0.42464258192444015
-0.1705125159526193
-0.1694786064480106
0.17260813573311848
0.46502717931691173
0.5701536723414403
0.174941268023079
-0.20677550410919848
0.5666377019947547
-0.47004589731423274
0.5300127326709133
0.5594268783541604
-0.13491302464388077
0.3205901366635972
0.06608351952891482
0.16616176072988162
0.029930732350497355
0.5124956479767228
-0.06659173114542453
-0.14858869031497923
0.130997255001295
-0.6607717485311662
0.4144671116578703
-0.04221743403362989
0.45958618668804113
-0.07901464186849445
-0.07344700439737527
-0.28838754123344146
-0.14083403079987328
0.16206586758394362
0.37736063321581353
0.054727323546638666
0.4305858909927708
0.7512570348934012
-0.11914236708210373
-0.6713879571540617
0.04554450105146154
-0.01084116372063804
-0.04016389396077728
0.028910507301471784
0.24743172342949424
-0.19925332077657912
0.02503108230535444
-0.5872539527094559
0.5097399702232132
-0.06143755470234602
-0.24950369730356634
0.4757304637810441
-0.1510591362512371
-0.0004679738956608399
-0.060121171053766416
0.3879353512373106
-0.4349816764379528
-0.3309258020715534
0.6809552366960158
0.3323854068951776
-0.010166329192842036
-0.7632859912731876
0.3040935458015357
0.5367615108004637
0.21178574281593832
0.054079201894602906
0.4589732830632612
-0.7157739660634894
-0.9720151845578169
-0.7528415967397842
0.15190729904928754
-0.11152327053629678
-0.24399070048508903
-0.2477104593685422
0.9738308516277155
-0.5982269904574783
0.46877277715388677
-0.26890090613758955
-0.24325353942084182
-0.16615252073316414
-0.337867257419353
0.4589786940543291
0.8448854710618273
0.24853411869606593
0.13532268525602711
0.07007987672404933
0.39148557741985934
0.41405884833487877
0.08115786740533772
-0.30895494338155544
-0.12164139902560601
0.025706789814888213
0.7991115855079788
0.06047931545812217
-0.05625901938987041
0.2510290094447216
-0.24858996705759975
0.0041116800170376356
0.2362425096469543
-0.42893864708831375
-0.10078779813983059
-0.022664057681933972
0.22042899487734902
-0.19372392834331337
-0.620836997531941
0.6268619001414221
0.5636338006569002
0.39036898613223053
-0.7403949060923041
-0.034868715160708066
-0.4958181921884459
-0.07456957596071177
-0.5608646088083226
-0.17934400661475453
-0.1185925789186089
0.09151149226423043
-0.44864450867939765
-0.3417867033655309
0.6250049905373799
-0.01924946530686246
0.5646267928975681
-0.5589294652567873
-0.3714123751632169
0.10955503801012462
-0.03119226678728959
-0.07993102772280958
0.20549140425032436
-0.2388569837088546
0.2818648406713034
0.17231755600296758
-0.22562379561849583
-0.014352716566245597
-0.10755013695124624
0.5027715571589699
-0.06323636690656707
-0.17328887606130106
0.03910751211081437
-0.3360553839880072
0.19543609597673434
0.08141609196712046
-0.7492235564693993
-0.41018185727311407
0.4654594828151278
-0.40864978132473356
0.2424770611510394
-0.22059379899974255
0.006530352037023581
-0.483324409117183
-0.19404797598255352
0.011921866496981936
0.05799443705689834
0.1335850742700764
-0.31305634754562267
-0.29464767454390894
0.08165825709746133
-0.26180415110721494
0.4963741743308711
0.28281619934084207
0.18439816696168032
0.6834303002498937
-0.4508071186641421
0.43091087768004116
0.01893690399535177
-0.3260380293585937
-0.7304159704644678
-0.1806831295299984
-0.31657552780988407
-0.49886617780193426
-0.13544278987661504
-0.7209832976331741
0.3585642059299816
-0.4426059627815603
-0.24691162385645915
0.023145613279198233
0.6446567554363054
0.1348422452944014
0.1904324966598704
0.0096826762215691
-0.06037150401481623
-0.15054904825082735
0.42422457257153706
0.01669001514006072
0.5616261460677777
0.5182192151098437
0.3343479482132152
-0.5608182773822511
-0.06550655235008664
-0.5402654484242957
0.06858780023570904
-0.0935937957682731
0.19669144064306077
-0.06669008148510523
0.15905873585661834
-0.47338463046531487
-0.26697657402359437
-0.35752706812102103
-0.49034972049269177
-0.7824331659540515
0.13608017201202974
-0.045627325554998995
-0.34698431778063066
-0.7435537972748627
-0.2364040553372876
0.620707926157308
0.5263853857726075
0.025205782236768507
-0.22949008969014098
-0.10196993421357711
0.4315729689737811
-0.6835298318005063
0.4217879076396131
0.1676406817688395
0.4444279368119241
0.3309732969152314
0.13348243412144606
0.1923338570505154
-0.07506471628707158
0.023916023674274634
-0.8228094154698525
0.10873185320456878
0.1443566982041627
0.37395940553941215
-0.7088493855623609
0.8510786171058424
0.28387323752625837
0.41195844229445794
-0.5416564818250823
0.12344308248118079
0.03765458476906407
-0.16790016984738862
-0.8639124973819737
-0.30718745444414075
0.6680758984711127
0.10290156965067342
-0.2530919733286619
-0.3045695990272959
-0.3429028418194279
0.04175605004649199
-0.031904181585966744
-0.24191078641600733
-0.43983204248045465
-0.35464193203894456
0.15815370903520362
-0.25595351587083953
-0.24150792158585335
0.6325089267328255
-0.018920253114032667
-0.23225309441719955
-0.1438644278290518
0.5166083619746547
0.6336322887147368
0.12113595900350424
-0.6161371330123252
-0.4040377773208235
0.2349631751291963
0.2043566563097076
0.30328758833255887
-0.3610585589370713
0.21462953074083277
0.2668074562116268
-0.19524454177213613
-0.2025693221527574
-0.3067600990116279
0.23431877477826202
-0.3773394826644706
-0.6584505297004746
0.13360714117533817
-0.19063235755491123
0.32389718283104585
0.4898433701858058
-0.42931900302510295
-0.7640091941390037
-0.2802464278927301
-0.5841262019917068
-0.13303189462707324
0.5432767705891248
0.13002437766329153
0.06794154566182717
-0.04692622212926612
-0.5853533596747744
0.008017795585292326
0.5998412007948545
0.4756185432844878
-0.17088033424553903
0.1926562147770462
0.19470020654616235
-0.39217046276357226
0.4176014229814291
-0.17728474149696946
0.11647533298390014
-0.3209383136721204
-0.12689426469915152
-0.448486608492629
-0.15096848634629562
0.1662340278603858
0.21931074579453252
-0.22348341707814715
0.6867375192061909
-0.7686882524075935
-0.257156825888057
0.5629536863879242
-0.06037326363636494
-0.08723915471302017
0.1994342139879418
-0.12355818918411064
0.5707456908283323
-0.6670178615764626
-0.21225689715733156
-0.4380689782169401
-0.34420861016372145
-0.2604262868891301
0.6457247927868163
0.34002538546151057
-0.013715860313735718
-0.37009443529234143
0.060438457936068064
-0.4706717132996441
0.09640227342323228
-0.30436798461305586
-0.15945723619132351
0.00035790575712927827
0.07054948558121334
-0.029598656200328147
0.30927297173817236
0.17684284834637798
0.023862055873781915
0.8210776104949096
0.029213252612518132
0.4821499901385745
-0.08999090955230857
0.4046933440017942
0.09514525722297898
0.18777274793643153
-0.7725605105751474
-0.5899500199611349
0.2148839168474016
-0.5028183158449816
-0.4754417123081298
0.5735391246114561
0.3981643611383696
0.2703271218717861
0.25465795470195857
-0.12468443802325126
-0.3233324509826835
-0.1348819852494701
-0.3194966100457354
-0.32833042528872824
-0.16670617357790368
0.33177510919691483
0.006734310735861686
0.1107334122520489
-0.33977922704054137
-0.32077736313954114
0.03343610945704301
-0.04347433693987184
-0.21062663049486685
0.545939286831597
0.02686915006068163
-0.34930811791611804
-0.1334409488288951
0.06706487944325737
0.2241247836912527
0.28423316910125285
-0.1948458168956135
0.44564790771890533
-0.37975508923134993
0.05924037123194176
-0.38892333916950655
-0.0838970429952799
0.46356816944879586
0.5593258973130043
0.2627023049072203
-0.3152453973223191
-0.13657175106550307
-0.4214967107631988
0.6086074817179454
-0.4591366002649528
0.17027491986874455
-0.4201477839006726
0.08787839640037946
-0.22475222966216993
0.41558855441857107
0.09057891438849053
0.11265023863519485
-0.2849626855768544
-0.2443434823975534
0.5318180737361883
-0.3583146749785743
-0.7466132629306688
0.20578251571206427
-0.08701548471232977
0.19200304000355006
-0.16197495097986764
0.6451568293465889
0.5803881871942825
0.45374797854169874
0.045566050268019125
0.36903466157329673
-0.07326539696044462
-0.5042847153432692
-0.02096445290672601
0.06620776805864263
-0.41778374413810704
0.004734638682844872
0.03601959070958087
-0.13015325040933734
-0.25828466498659985
0.1990858746332925
-0.1596119391871653
0.449448335934299
0.017259403109652377
-0.20981203000256854
0.1585965992901262
0.2682017461858385
-0.20632081171637745
-0.49821896254407444
0.015587466802000871
0.20786713845963656
0.26120239180581345
-0.4356477221667793
-0.5941611220128907
-0.7455372956050383
0.023590489999683283
0.2717181693632164
-0.09470611283236129
-0.11594181219604596
-0.3003110269010658
-0.35758978136039976
-0.22607943440444556
-0.00629722037669101
-0.1240404340480011
0.12071403146711264
-0.07588514172342695
-0.30352419034363526
0.17888329722060223
0.6695124575117781
0.5896901886673434
-0.26130731759824727
0.10178147976160436
-0.03652567713165701
0.15670006588131988
-0.5433676965485589
-0.2669449631690946
0.4785451248395578
0.07175066620695464
-0.5651691399014855
-0.11685278803366697
-0.9897373622218687
-0.38286837932385853
-0.08691880254432137
-1.1826703708439534
-0.6769272239010797
-0.24657125751343367
0.2631187807744815
-0.35364366759467397
0.2637083490044444
0.1346220395780261
0.25400829764590277
0.0836926406321652
-0.5181332412683838
0.3079912338723506
-0.5979448834043964
-0.0875640911746893
-0.3167419240149125
-0.2986929779371252
0.492131071038489
-0.5756736059406127
0.5529500181448781
0.2806298582121179
0.07382462963589838
0.6931371452754238
-0.1686523011032357
-0.1734369716745544
-0.2488999246706594
0.13601394649076393
0.5029378636083462
0.31907653829647
-0.6195753537252741
-0.6722372011212622
-0.49938155189173467
0.576469454482599
-0.003057602185683576
-0.47549826726925787
0.027268896077480596
0.3240509638614301
-0.2315878577126756
-0.06771778191238685
0.3016275584183787
-0.2804485963488086
0.3143576084749469
-0.08983953784112612
0.10812587892319091
-0.7303788329185703
0.3946640934054581
0.14043753852519084
0.09596080033113291
0.4705146137791132
-0.4943105502196891
-0.1542980664067386
0.49011717082654777
-0.042631969396333645
0.6813262511354624
0.36222270940377727
-0.5051539650484989
-0.23012634730979284
0.7187028682747013
0.05747534037660933
-0.18684651015611514
-0.08412675987984468
0.4087659633898279
0.0568172650617745
-0.5406704040894362
-0.17479666383044504
0.04138305445760426
-0.04451955554387475
0.3380056992426617
0.26639457064338107
0.040129539219098995
0.447813561282096
-0.09152420511567401
0.465935934547301
0.19699015958902127
-0.17789664444350328
0.5101857735414811
0.9566995653484572
0.1790048165828894
-0.2796943690568787
-0.027351053441178438
-0.27557732544909097
0.274408583090967
-0.00024096604329487285
-0.7702599391897877
-0.17488786968850745
-0.3327704380747243
0.3214997843761754
0.08998312846959362
-0.5496113418199979
0.38258831394548726
0.20925350176751717
0.7551330736288335
-0.7059923399994694
0.2244396288562874
0.6395844345208622
0.8350567500931595
0.041595210890355616
-0.15073115349618268
-0.2970294517005465
-0.09706131139701325
-0.41196886163407687
0.15707883746426793
-0.017732902154978848
-0.15117922298452344
-0.013025429132178372
-0.9492707051886781
-0.3694626082715477
0.3005819649841075
0.32921906211476687
-0.41589885731222254
-0.07813754423135508
0.01840652477019622
0.4833018160896662
-0.40948199054394835
-0.38086267103278454
0.5899102708847008
0.4013485361574448
-0.164445545489733
0.41492454885619456
0.4444938303617117
1.1251190136304299
-0.5674152903525849
0.17849816853401432
0.49978717690378544
0.475054120496755
-0.3612911849133087
-0.09757540960470829
0.3176086007241314
-0.033102887203391045
0.2678563263953725
0.06530340728566843
-0.08421610282988859
-0.570292768222613
-0.023048717856336654
-0.13827641020310552
0.1595703716058995
-0.5077157892291705
-0.39067297253513067
0.5590013281831244
-0.35853870112261316
0.3479042067852671
0.451931145246811
0.621383440231232
-0.010685354179607628
-0.15667820332076188
0.1686002468413459
-0.15759354034428708
0.20917106169567903
0.18798250522095772
0.2037602016347638
-0.5283243786556785
0.25970952343198306
-0.39790284708718776
0.3933346637319637
0.7216455732882047
0.05929512260838681
-0.9539100108415425
0.2456907067980628
1.1254808358389012
-0.44996700160780384
0.05993208177879936
0.36556219802328155
-0.7857774774306133
-0.24152722184052883
0.04352551687300666
-0.6288196301041601
0.40582533982454505
0.2959967682670174
-0.04121770142172959
0.5356733777898245
0.4086436997922518
-0.05505226970861282
0.27296284537158993
0.08726197621631951
-0.1675782420322926
-0.1979866750338378
0.4565328701065141
0.3076926081332687
0.45110653792632116
-0.009046656265918477
0.037135442365710834
-0.14537566905412513
-0.0512252276430038
0.034300441907012584
-0.2842652964899696
-0.03132453128801304
0.42152932519908143
0.012550724662443497
0.1411276195020883
0.4104835643083992
-0.44150129193465537
0.5567307586009617
0.641321616557526
-0.34985217076432096
0.18022602510228183
-0.24611404790753175
0.4781972548465687
0.34528411089808647
-0.6070892417422525
-0.7904162710471068
0.2835405695167463
0.01632843128351069
-0.05413966945951876
0.1424313767712219
0.23529169468644853
-0.18143570051626
0.09604532417984933
0.4760812500455346
0.7150691556927771
-0.5968518297919869
0.7825316968518149
0.11590980791600454
-0.10904251084853946
-0.16058479894245944
0.35299420956721417
-0.8471627019237523
0.25463077008474433
-0.05614025074962429
-0.22725235674714137
-0.1309238692772617
0.11563094343336197
0.19037470351046035
-0.6348208854312218
0.47892706077855557
-0.1237461999718702
0.2056446333611951
0.6981389471176513
0.19517595403138677
0.29009866565002834
-0.07555095247453791
-0.2239077043333567
0.12919572573378948
0.6015178174744206
-0.12974674929445482
0.33900170070765406
0.4001561957047148
0.5174978008971797
0.31321540655853625
-0.6589177433093314
-0.45799728099771525
0.4006627630762396
0.44142301425351194
0.2371789144700467
-0.2856446726968862
-0.15168696044474897
0.0116214828241928
0.04168013482486999
0.1139511729688535
-0.23913830059780455
-0.5256524405324199
-0.5069038740698465
-0.23281641841497888
-0.7169527084593511
0.26364946267748524
-0.22735213692494724
-0.09967274835302181
0.1521363276420582
-0.11257862696151494
0.42067873969020236
-0.6812389589789347
0.004358088183799319
0.14152295725959835
-0.1069689592641093
0.023669659826799718
-0.07228237800300104
-0.09005210572497012
-0.052185984749810774
0.4349298754646231
0.43209815483421526
0.26922677258509786
0.8860336928573473
-0.085546677598567
-0.9547208586176815
0.3264808381898764
-0.06516041516170883
-0.49072196691559083
0.1597274056118754
-0.0035332904895935603
0.1829131049112534
-0.2757368798324432
0.025604081174231602
-0.4217973410937548
0.2751132095336685
-0.214857571095857
0.08067745014331258
-0.7973855164307994
-0.22700223263032243
0.2606674421724906
0.27830185176567124
0.6576085996849194
-0.23589356269660852
0.7134903871606035
0.33327218282511323
-0.24649917562714213
-0.021236637472967647
-0.6141923081512688
0.47229308184659285
0.1669919914952075
-0.2884871952641365
0.04428521978911254
0.08747588453876859
0.45400908972107235
-0.4070434074542969
-0.16533221589363464
0.04379531050944225
-0.7809346425970612
0.16213545261131257
-0.2252335332316378
-0.0019395147366892758
-0.31230532315822584
0.3303462712190252
-0.12288236175379062
-0.0022123867775499773
0.007500703710504746
0.2513012984637264
-0.188676276599546
-0.21472949767192773
-0.35585397600549046
0.4168160981881614
0.31853371324447194
-0.15128860440176672
-0.06642233652682795
0.16087106204842858
0.31602571737087415
-0.553415746873273
0.014182811863513018
0.3616461930224538
0.3099143946133753
-0.582381232483549
0.052338954076878164
0.23207463448839522
0.6431074968559817
-0.43802264305120114
0.45399429752617976
0.23705866044476764
0.5412573519818596
-0.4230497328030788
-0.4327054661910924
0.6297996726389654
0.08683642736870646
-0.8283192219239305
0.5756523548176604
-0.5215998061142141
0.1465096778363522
-0.16375636500161628
0.0037772586501660143
0.37417136766636483
1.0113524453579112
0.12883348572121214
0.6173788053189606
0.9749970786825694
-0.1992710317397069
-0.13810107791630194
0.025503010345916552
0.19186980555439911
0.04186217937805444
-0.9561435805227247
0.5695731981701979
0.6915365278398077
-0.025996033839609158
0.3884215233818983
0.20789276484934058
-0.10040136234671639
-0.7503681427075418
-0.4408750300973532
-0.08716790558934302
-0.395837532670291
0.0978189309351466
0.5275836373019418
0.13470235591778026
-0.20811169622578288
-0.24732881822349773
0.6944734809229084
-0.232669041171486
-0.6535455346010415
-0.4478289048380419
0.2343561521092933
-0.4570576090230931
0.12025255242437362
0.8541456941417811
-0.026701346260377214
0.4350835202085629
0.6137438966080537
0.10899654415746635
-0.027456654495647034
-0.07835362442211644
-0.02159946279390491
-0.4727376421779955
-0.23412466597320006
0.42966516583812986
0.23790762833544482
-0.1976146821373885
0.07152210414528765
0.15109623872573272
0.31709322861524897
0.10106039146298236
-0.4552663776297873
0.23356612609241265
0.0696858443826679
-0.07857658253454101
0.2726862890784788
0.11662264953272555
-0.014500189175033028
-0.3562438376465387
-0.17761102783297336
0.5210527230092868
0.33665010717899924
0.6566186113392816
-0.5553686557845429
-0.1963634696125121
0.11162346984502762
0.6778919993501431
0.8633578981573307
-0.0031731278510448643
-0.16596748127349298
-0.3333265756785186
-0.31658882035927366
-0.1602832089262432
-0.33430036788540746
-0.6371473505030645
-0.14947814630234463
-0.3825610770096128
0.31510160973088364
0.538253557995279
0.5477023781450594
1.0934851164943176
-0.03894074637259531
-0.23028912996358797
-0.01961915128819515
-0.13130910685996766
-0.13457329588065403
0.2506859634651337
0.36630071679032516
-0.10969580841404826
0.30861778219016567
0.258853466612551
0.8548844264261047
0.7376974311064463
-0.33503539812130184
-0.6957674720496111
-0.09042750842501195
0.04834985867596799
0.14919946565745718
-0.16756038111786756
0.2767030193086608
0.545002646459098
0.5711777259368396
-0.0851046877031633
0.22609898764825156
0.4849871055330285
0.02472945159781749
-0.263682049431757
-0.04965789189147233
0.07141938931746618
0.2283196990322059
0.11242338907765387
-0.5615796013158637
-0.19969763953664602
-0.28129133310823917
0.36840338554334207
0.23129002619497133
0.10109181259175322
0.1962428855020125
0.8053541760405006
-0.1775303929679387
0.05112673316830868
0.009922942862670606
0.7993101427696052
0.48121778004611626
-0.08924605137506762
0.030236104894397705
0.0572598541100158
0.5584446417776988
0.1327642695205006
-0.11416155382187247
-0.5893257479288858
-0.1464565567261627
0.37734722743369603
0.004592726711373466
0.5662709257698667
0.6431594492131764
0.09186159078172082
0.4395847135908658
-0.08847199856569163
-0.0004427984140330565
-0.5736738950483894
0.9689105026125728
-0.24395719475038508
-0.2442973871137418
-0.15959005737258014
-0.27553840742365376
0.4068700392900737
-0.1292339319858644
0.2467279736721645
-0.3206413993545064
-0.22367273705358195
0.14310293654873663
0.11610115569711144
-0.14387751012449962
-0.0320580117985344
-0.6073564136848689
-0.038681451465655964
-0.15623045562674456
-0.6349378007848729
-0.35676848768702984
0.1931223263666307
-0.2505716678278505
-0.19016113883707453
-0.8507578390945906
0.19923394463740515
0.20294961097061534
0.02402133492265756
0.13919467280812933
-0.36412093656565697
-0.30540280327793307
0.13258307604129188
-0.3234167702199756
0.1451973166338835
-0.23739334603822163
-0.4145423518035083
-0.5596515910244926
0.24004515316867941
-0.5492657033724806
0.6893302718691837
0.1877537808899423
-0.4587541519220122
0.11234445792158197
-0.0653885589355759
-0.3247901240926626
0.3210332563854631
0.24384362237411508
0.04447840923001519
0.06309195527827248
0.3106757163252527
0.5300129163037471
0.03454361475515894
-0.7253986283832142
0.0443495734547392
0.16792925701021333
-0.3790854001253863
0.019467687640843886
0.45645224407985174
-0.874876406691559
-0.586843699249644
0.21633311463406113
0.0513246614120254
-1.2283199317509927
-0.32006035597551147
-0.5971599943166015
-0.21925570259772428
-0.020952519406201926
0.8416512211965478
0.2657567357325238
0.525772303628312
0.6532384320182741
0.06643530962794009
-0.531429693714582
-0.14390537402255016
0.5378846111140344
0.20795710462330333
-0.6173471085332999
-0.3063969925224142
0.045247553150886854
-0.44031659299088083
-0.4829310333580292
0.6088330346676685
0.0991059812526444
-0.12312723663225053
1.5036051934597106
0.444798139333039
0.06728009627926616
0.336691973449235
0.2716461134676405
-0.40554462697316723
-0.0442114429824768
0.11754729939153355
0.04647788717194348
-0.034157637587204935
-0.4447401561917293
0.21161933952229253
0.8242455766674157
-0.16092766253329188
0.666759186598516
0.08696407527204315
0.17065036186113341
0.06458151387246125
0.3175477245934576
0.6489163697505714
0.44815970768462865
-0.657192527289882
0.417697393821313
-0.0509204306831205
0.16192543021632516
0.41785734739615676
-0.7878820833663361
0.7244328570843058
-0.10711233802477457
-0.2614365307131667
0.6432583967881712
-0.1737932008213556
-0.419220790418888
0.9000547726413923
0.26348561098265283
0.09266724437618343
-0.5067241259432124
-0.14256885064711416
0.18490611639059346
0.5095202362528403
0.26316395002704346
-0.23518499158049286
1.0434570333462174
-0.01599278126259148
-0.4708207798444497
0.45241477120117657
0.657968028864707
-0.502787943334183
-0.15924541078414103
-0.001920129960288377
-0.014377513359626032
0.4824235676012796
-0.4485111050324261
-0.18090935194203148
0.2923886229284489
0.45807641709999086
-0.0517999353927912
0.7850042440964682
-0.013790292812560017
-0.5266474006336983
0.39191890003047763
0.6524093112361319
-0.6900186772349316
0.18127449642005822
-0.01848987435728105
-0.04116574406750524
0.719452816403176
0.45221473619216596
-0.11658230671637204
0.5771532296584729
-0.9929520628765186
-0.6224521298046874
-0.6644159783520012
0.12112611574815307
0.21190674438276408
0.24882333129657072
-1.1116552839108462
-0.720016741793295
0.3711319752330843
-0.13205482876595923
-0.4594592776140446
-0.2699575219478841
-0.29104973825733865
0.18989255638017885
0.6238867371536293
0.5827982464606104
0.5900345885081948
-0.18915453493925563
0.29217727712175307
0.1752075160398547
0.2165495816318514
-0.29735811173813076
-0.36893255660026214
0.7744900037299149
-0.14487394076374882
-0.24983933787820373
-0.33659334064519236
-0.10527008182815231
-0.337493174813401
0.458032789344339
0.20908086358573233
-0.605008333845512
-0.34002365883604624
-0.46342904464662227
-0.2960608674450415
-0.30111286288085987
0.33129555297387403
0.25257787107351104
0.22777540091466203
0.3259619349741835
0.5602996038728764
-0.06574765248567771
0.01048012143448688
-0.3447440485482215
0.7143156680107392
0.1732975331367817
0.49985438219378014
-0.26917888460233735
0.5006976002767445
-0.48898424413848235
-0.29735851723627804
0.12579155940006195
-0.13234055583539145
-0.62989976941514
-0.4145983273693325
-0.4823421308238203
-0.537521089426905
0.5815520016352177
-0.1735842897368425
-0.44224609672581394
0.3781138225505325
-0.3360112610299816
-0.5592959543342798
-0.06243034225029737
0.014533916531303306
0.5310126622514794
-0.2962622805039689
0.024023198605057496
-0.05151229816553116
0.7137189214869885
-0.06853153362971127
-0.27427927519582707
0.175140802651434
-0.1370790236807515
0.23571515464051415
-0.9138586375694644
-0.4803936580458204
0.01783058259567853
-0.3431990389531056
-0.9440857472061379
0.00048676657806170876
-0.29900930707729506
0.24036280197072188
0.32649123858790063
0.045702265864717706
-0.11815881870649539
-0.29287641338779796
0.1916596489276631
-0.2627454769503224
-0.07191151172616464
0.32276568146184004
-0.16843131705198566
-0.15465636761040283
0.41536795194781156
0.5371972118630272
-0.38377055708094826
-0.3067336399048542
-0.14297647971924987
-0.3040814675190008
0.522375195576772
0.24334305786004734
0.008883316710570834
-0.29808127475136265
0.13710462339761473
0.016598487045652293
0.12688046459157395
0.015516035749722707
0.14740015557263894
-0.43965160729002656
-0.0408186837772958
-0.4207005585711215
-0.20499272234713303
-0.016677722154918025
0.8251103233652384
-0.9744359600066286
-0.08698805530110638
0.3573406014419869
0.826055791057073
-0.028961567977007267
-0.6420890715855201
-0.0946360450892654
-0.21479340130485922
-0.2578357350458538
-0.06380773656555956
-0.03238650749894763
-1.0363824154599908
-0.8408040564202515
-0.11119068152548842
-0.19555350018504206
-0.27756713603923244
-0.4735186195174924
0.04701259814131071
-0.23497720137206313
0.4841041151679205
-0.012039737611048486
0.6413060443449499
-0.3329878351118235
-0.3970616963620505
-0.22274020005939854
-0.4874716890940419
-0.7758541055988785
-0.01151791208375999
0.14986584957784324
0.09680567013636901
-0.277338964031875
-0.20390373006634627
0.5046833860655036
0.08950803359884947
-0.10576629100789471
-0.20305834362975772
0.04289767421138678
-0.4038170129908089
-0.3012474467699163
-0.2727545372897619
-0.1721933719175915
-0.6407640841909868
-0.3151019851565956
-0.37400707701962266
0.2502719672067373
-0.5012322833714854
-0.29092038618356114
-0.004291979303092659
0.09523379564607869
-0.10664770327323173
-0.25563568284509003
-0.7709051955981625
-0.19809337677319314
-0.2924776927234864
-0.5510664820803735
-0.7294182465735775
0.6362449379370118
-0.4551079678923223
-0.1783555305402412
0.2863875221177425
0.4205481771892797
0.028918090448614125
-0.5102319204331536
-0.0015276474732216763
-0.13019887473348668
0.05003272652230059
0.1753430610349201
-0.3363422001334779
0.2158452759958378
0.44198339618685323
-0.21957689194650343
0.08202730263731929
-0.22799213881361355
-0.768100250412167
-0.16162924096828588
-0.31177159561168155
-0.31266859798110025
-0.13688755916067177
0.07906256768917881
0.5464771545025765
-0.5097626642124622
-0.275299415125998
0.16486538886014476
-0.2180724163364962
-0.40829147601941096
0.03318470356883188
0.13785252877172882
-0.8896167980719081
-0.6018107010595652
-0.23403247371004127
0.38728001441344034
0.313172633837013
-0.01819197369496058
0.6578177955918997
-0.3329477867789964
0.13960225143384491
0.06166352263701888
-0.40660457838610997
0.34852205343699044
-0.1061480125842383
-0.019015649089330646
-0.022478906365329166
-0.2523693926780561
-0.15315792101926737
0.24960493890144966
0.4197207104284359
0.05927484080787793
0.24449620695986665
-0.03684525126017414
-0.2775925147631664
0.3231632167344401
-0.131445378156658
0.6387219966491823
-0.4313731955335797
0.198178232029658
0.3032029603631718
0.5412524699213618
-0.5675257579283957
0.2752916558159513
-0.6099372141762336
0.19524458370809597
0.7920685184247493
0.19475259344783327
-0.6653110876293794
0.28382938001821745
-0.4553329927346489
0.14919799979374682
-0.8017821198749908
0.5851785967775447
0.14208556388917784
0.023276464894365047
-0.15902130631687217
-0.35383241148666733
0.2924640860555988
-0.5255648994492361
-0.2540033574668093
0.39865341992777675
-0.5180523832789287
-0.3816389921893821
-0.0068507932247565675
-0.009125849220993954
0.5800099400113046
0.4318893910112077
-0.15479693523180077
0.8805754076778566
-0.4884302414347766
0.3432181740643007
0.12544058394970836
-0.5468547580457205
0.29447678585666215
0.4574706182783976
0.06056822078758774
0.49564272566393264
0.22933807252127064
-0.13576892122861053
-0.41414590267943496
0.2159723722861326
-0.2975771801566272
-0.3757128497413169
-0.7623506168105104
-0.17740512821597065
0.20278476568539675
-0.3380460722826322
0.024286972486740693
-0.19786204546411518
-0.40153971081918705
-0.3407216309774809
0.07751524938468886
0.594514339925425
-0.46398910973761964
0.1619297729506122
0.14418569179566543
-0.5164082628398143
0.1404049920926555
0.095504237660753
-0.05133263114606674
0.5145502773478541
0.002991851306051683
-0.8716234320133803
0.43610904075512524
0.10784654847416769
0.10038322442532417
-0.23566740220646676
0.035104854083826464
0.39549452289297626
0.009009500333267237
0.2965428798762384
0.4708053110736423
-0.4330180197142276
-0.07110488373590947
0.6902948299497969
0.181555602491392
0.051490253586084514
0.11301838653530191
0.32980252802815924
-0.02870834136852585
0.729305492297667
-0.23707519819473577
-0.10152774212457842
-0.07368084704167946
0.11320183246743963
-0.6883572429611318
-0.4499550388706639
-0.27223668859916705
-0.23637638784062082
0.0264228224044305
0.28079749115891384
-0.38575943636744486
0.14412383177519314
-0.1477400774019171
-0.10477015184095638
-0.7516756976235017
0.1925419907314553
0.6331916302507363
-0.32980367064130073
0.5132159134839592
-0.08531772337798993
0.3208067594180917
0.6911159016982427
0.45830802634780915
-0.00843426011441472
0.029360551925393358
0.17032470487856136
-0.05698213824293332
-0.7514707803029234
-0.17600152358265136
-0.08399683485538219
-0.5402101993697175
0.8230303362026264
0.31778735223411464
-0.5267663882468884
0.02055922725604727
0.556037378398732
0.009450554842036472
-0.02767175521554324
-0.4912611323248778
0.30609027076016143
-0.16492034821738602
0.30731226533721356
-0.20736451689298957
-0.060645810335010666
0.829305184210061
0.29254837663005756
-0.2873069756157359
0.16950791389504608
0.24063617145400268
0.08313344564317608
-0.01555544263320894
-0.2242602156021652
0.0863521836854232
-0.5554183392489537
0.15982494627698282
-0.04408928776450023
1.03438242649967
-0.5214315475150367
-0.2958831721475111
-0.3456306545795222
0.35907455448417874
0.33329771968103333
-0.22638804077430758
-0.7741377106351746
-0.17620634973326288
0.15266093401091146
0.2484152201268346
0.4764783723475384
-0.054823627157973426
-0.16392028315509238
0.24689152621813912
0.028899699316372634
-0.3555064077589044
0.21239051793215524
0.05785198274164387
-0.42646407544692505
-1.1261211011370118
-0.17135493994166764
-0.00613120579028375
0.13827137575892892
0.5353772594253627
0.15593550151586547
0.5428550764704968
-0.07354833299240136
0.0869857177946257
-0.17373320917736992
0.024236959267789304
-0.395139918034086
-0.15500068753150512
-0.43721063921576864
0.45368582448150735
-0.5040921725665856
0.4912796457648144
0.03168393164706676
-0.13102428354913342
0.1315174461763306
0.7139068039951113
0.14057163776439152
0.12987320347845252
-0.14691032420984318
-0.3265417325056405
-0.21558643655017412
0.44203135033290303
-0.7191820027939781
0.23131381336082646
0.5360578015942843
0.4558546864888174
0.4262960889306325
-0.007751750730250425
-0.3842080468515234
0.23656054409071034
-0.05659077662994807
0.2306514228540731
-0.8965271128179596
-0.24184204416916633
0.05165422335143387
-0.09993300068745313
0.29580267668896215
0.07304086948760806
-0.5891640466435997
-0.24886663754387406
-0.3444139459755323
-0.13732712272444741
0.10171251136607995
0.541069682356102
-0.5837816828206871
0.5464606124947926
-0.40800859371910503
0.04334534632571283
-0.052304869094419726
-0.18895990639636526
0.024890861628165447
-0.44850454568967635
0.7404883907822327
0.0909957901593187
-0.03110489220493615
-0.15334830973678482
0.34079132797812184
-0.6740445757365532
-0.839893874006572
-0.15351300719589941
0.026307020124693905
1.0162104912256544
-0.37100482542609475
-0.2602655184671669
0.59916055389672
0.07792753233900059
0.029160142071793193
-0.015364561519157879
-0.21884087467822239
0.2879543224265013
-0.08499038400317782
0.3638695261227996
-0.07582110408836745
-0.5740011538610735
-0.6801167501683192
-0.03153815136881399
0.3197469367957161
0.16347655082098647
0.47513249026452975
-0.08994675398802957
-0.06271983261460314
0.40986698393818466
0.09464011380855418
-0.028710664544805295
-0.2353283839657452
0.7513535028006787
0.025750414839631235
-0.406654855819977
-0.4286010377141524
-0.3301458994859762
-0.17652591110928934
-0.01630969420074541
-0.5704872906667856
0.04448940248228492
-0.21225247079167275
0.17126327051294232
-0.7022463623631088
0.6190835313861052
0.35037698547471424
-0.1336805795436471
-0.7970928864833825
0.4288610094435282
-0.07706761989677696
0.09924033005123416
0.03400873929577329
0.06358257861508347
0.30156810548144014
0.6216143398196687
-0.12739835483630765
0.5874436761459192
-0.4067585210374623
-0.5453546180647542
-0.34109626741733323
-0.4260306520703613
0.03654177888928691
-0.22270996634563417
0.3532801085465111
-0.40294936546525073
0.3783691815733894
0.6142968386089743
-0.2929963958997613
-0.36796246269285315
0.5181574715905569
0.5376855490991637
0.14201771834992574
-0.7827454865287945
0.4749008556504507
-0.2522713754106646
-0.7011858619066065
0.7545104989267074
0.7838559116729544
-0.1308890522548133
0.10493039838054972
-0.9239080085834708
0.3699787391729907
0.35637628841002594
-1.1246134889725359
-0.03147196217053026
0.21092648970048108
0.29324076979178504
0.10500530528958901
-0.017438891070273334
-0.18189835753966824
0.14946590809454846
-0.3786737512771875
-0.4385952231356536
-0.372789306765121
0.2775472232494215
0.2362757062571637
-0.14583487651047986
-0.3909888921948663
-0.3066459530124272
-0.2676469958688023
0.13862947255079539
-0.47597498632174084
0.8305030945457204
-0.009758601280740917
-0.353852452640408
-0.46407066768814986
-0.35093030122779495
-0.3372395737597565
-0.021197167637808115
0.2097960314700713
-0.0430339767963099
0.05297914859888089
-0.7947534637871223
0.35247003977183117
0.1084188948604524
-0.134437476723321
-0.5428173376252764
-0.9553184381186007
0.44231222834479283
0.013753606182463836
0.24599456504449077
0.18786646858577355
-0.3784964658188631
-0.19135477298952747
0.3531172392706679
-0.550872979246747
0.4446270968366003
0.21542721980326784
-0.43763373089069973
0.42890770002377504
-0.035692465179164044
-0.3676392873725928
0.1670770915323188
-0.26376699117551256
-0.3326550390153569
-0.04343178109174929
0.048975891729956894
0.5233484125881225
-0.27668830102896486
-0.6591855104435603
0.15377272337851522
-0.26628105230218946
0.060503833996919706
-0.7459120212508368
-0.10366277475949531
0.038132887059849914
0.23141819000950054
-0.43196523101507983
0.5405929277772022
0.1855434470197785
0.1304124522398212
0.3135447311906844
0.2704568375383462
0.19994154929935973
0.5574471147092874
-0.12467861547346759
0.5001922859052167
0.0017216760795233455
0.7728197109226055
-0.1007691477195586
-0.15258957146832558
0.06297606887879355
0.5967822606686618
-0.10302906654213694
0.05032582506820706
-0.14862083093790734
0.06764387932332075
-0.26838569559943287
-0.8727550826913066
0.022848859284463504
0.06797410850403487
-0.35312078618733006
0.3043005481572103
0.7560101572889292
0.3479446473240199
-0.40297419735898826
0.3104712344689581
-0.3398934619648293
-0.016791028474396053
0.6066751133649124
-0.4023300929847164
-0.5264655260684664
0.056026256759876276
0.8099155446273878
-0.3647302723770985
0.26857422637352396
-0.22965951690549274
-0.6683371538722406
-0.504218894666744
-0.3983106751637262
-0.06579391305051821
0.2864000877486488
0.07329927726078918
0.36129190721842336
-0.2918441283602113
-0.024963638924058163
-0.23757258458053795
-0.7166447200646974
0.24412124084550701
0.1907183527342984
-0.1351225058204046
0.5573100625930479
0.06504675695319419
0.3217713059738178
-0.5730325019208867
0.10127164084121915
0.9759807672007991
-0.10506224750063782
-0.24018211382897708
-1.016207566833412
-0.44752271203138333
-0.6009288005701271
0.31768211567017096
-0.20565907061083755
0.1493894120240522
0.051762684917828934
-0.3291477745918706
-0.6055587641772444
-0.07752489205403226
-0.19958264332686962
0.2755710848595671
0.4190795296380622
-0.3853180217177666
0.14342777630530237
-0.23876297606165356
-0.11825782364218941
-0.042103614083691496
-0.61112095983933
0.7882860447554474
-0.21041667617286536
-0.43038606860915607
-0.921317916345397
-0.23500276981484777
0.4182960871024564
0.5505066348790543
1.1828035929822736
-0.09360450429460933
0.4699726251843906
0.10371262102292675
0.1846877379777243
0.30125012722043865
0.20573519810073929
-0.4081892702181288
-0.2667351480680995
0.23533320206035316
-0.4384088788682027
0.2776342905642234
0.1258175126918177
-0.19901675511233924
0.2698255058071862
-0.790857313820415
-0.22511694789108846
0.39246886732214736
0.18692595974114326
0.29256158539949956
-0.639151449876929
0.11501810506200895
0.14154927643350457
0.448783608717925
0.5077547574411189
-0.5903404340616564
0.0578061315570177
0.35295568110055064
0.664268122748255
0.15066988375348206
-0.08383847342269447
0.343616356505755
-0.06474411285581706
0.7141978680027455
0.9103989299096723
0.19230004393158215
0.26540803582630285
-0.3275463879690665
-0.16904073579160717
0.04620456955433633
0.5884106443166925
-0.09455579133647372
-0.11541126123381953
0.08217035513959252
0.2087301969128342
-0.6494326612696749
-0.08247308692589721
0.39739382648983235
-0.251888988411801
-0.22918891455052381
-0.3964371846963995
-0.05334356673317022
0.33694190356420245
-0.6149179187645674
-0.39478547455373963
0.22810973124394876
-0.028747744041468463
0.3131532362625117
0.21074444113831023
0.16891620620258557
-0.05807604337632654
0.43131356842744084
0.4939254950105609
-0.13337486579846544
-0.268206521262131
0.17858943893645657
0.38593948756423874
-0.16722755217942506
0.3237028574521282
0.1657272816070788
0.211155901882192
-0.4936580718190639
0.4848343721570599
0.2004814739119352
-0.4273129525007314
-0.4472263960824485
0.332760095445403
-0.4332208306741839
0.4891518866119893
-0.25359786013154184
0.4991911874172897
0.06092685831774437
-0.12126626785043189
-0.17555632171063681
0.4049009451407126
-0.6380470959920931
-0.2896221319098008
0.45641057998832435
0.44370057588765294
-0.49129146330299645
0.7396359796776514
0.031008059889640453
0.25852439506105857
-0.0050736533184881066
0.0037780445738556955
0.4044583502672913
0.08181116254444279
0.3524471576399486
-0.2188815558168783
0.39718658714547
-0.27258082463470446
0.28304550983667826
-0.0006449132601872738
-0.28958667255855236
0.2321443921076283
0.16764042528463022
-0.48938410554045964
0.1970699467688426
-0.32145511642122615
0.19188778871756915
0.15632379165625257
0.20257103235818685
0.37320198255180415
0.058893731785831856
-0.042680122541166175
-0.20553780064786312
-0.3540318083491387
-0.47185500769954025
-0.37289799127041845
-0.22099109911672374
-0.3181728401864173
0.22232134364204614
0.08230333925520766
-0.4984937739494353
0.17707304724869807
0.15010031097209503
0.1689854643472231
0.19115765439619056
0.9448657727433515
-0.27370991176945736
0.9641066787895066
0.46827097210901863
0.34009538336018025
0.21491882023777456
-0.24351886987614318
-0.431214979461075
-0.41139569641944895
-0.12691144470119164
-0.3766470326818928
-0.08806361283490796
-0.019427930208829894
-0.011342836560379824
0.07947897746534871
-0.4111701340064244
-0.09355105698677449
-0.33527031894885173
-0.22755322714426082
0.36183942641837685
-0.04475505765974752
-0.4795499462171601
-0.3448799892965399
-0.11206640717013609
-0.5206511502397155
-0.4360262273587374
-0.11066862460237578
-0.3890090526799282
0.4059416500622351
-0.44785148430555705
0.5812156190026297
-0.07955462843709057
-0.09511659843678283
0.4193758451029873
-0.27926868793464427
-0.4079452396210304
-0.3618052932010806
0.38451482811913007
-0.6282471389192464
-0.5451990396066976
0.5268231864180238
0.1150628326242509
-0.16072190592394187
-0.037675678091410834
0.4665309554779691
-0.2603269232456147
-0.2457248124401423
-0.7576827184084084
-0.37172767503347537
0.26046720560626374
0.17188138558903354
-0.010234653612140675
0.3183005155709348
-0.6747546416100078
-0.08577655660097779
0.34767330046193917
-0.16859148068655125
-0.026265469208180264
-0.4628928613107187
0.5353822313254556
-0.3443037992448656
-0.4322418530953366
0.07329474078092775
0.5488684139131982
-0.17060449576838416
-0.33447106407634586
-0.378045968760073
-0.06601771943646477
-0.008066148669570386
-0.5356962178184722
-0.3537072227337558
-0.7581945702859433
0.8309238039279204
-0.031159347430082005
0.4895415978413792
-0.24491450941556478
-0.6789643500598748
0.31537690497816273
0.1282028270770925
-0.8004927970302518
-0.099131762528908
-0.8007420155264853
-0.6451327557870961
0.6799423380096005
-0.32232796657973034
0.37116145703900105
0.2543950081158956
0.05089875194317316
-0.5871690877031255
-0.4599070544067228
0.29522998775678516
-0.4880207343351897
-0.2572248151472819
-0.6272440193102604
0.2072453481427106
-0.06393833725514105
0.2858197425624713
-0.33987351569379076
-0.6447644420515444
-0.7143901360974251
0.105926202264424
0.42351476583589226
-0.6603032141753842
-0.1309974555065635
0.4184029194089475
0.2807437805084372
-0.5025900052037151
-0.25255822572771996
-0.10879098374606974
-0.2634029042255317
0.0818138060815973
0.018969043566886955
0.4387580772258068
0.22431246412351763
0.4013103966970972
0.5386291322223948
-0.5176109301916149
-0.34627016244450043
0.5801215309783777
0.3690069688840284
-0.6674580102466037
0.44423315617105463
-0.05651560921475387
0.5361632091264702
-0.13666527817906635
0.38885344201488165
0.4697469677617359
-0.4317191550730164
-0.259160910820402
0.21551351182671769
0.10285937259414395
0.009342731043142373
0.33124889953867426
-0.5444265910083814
0.14399430504327754
0.36594757702026703
0.5776003862515585
0.7484017853403712
-0.8388821876401313
-0.8929810969818672
-0.5474117936123749
-0.14656431124468977
-0.015477176506943944
0.5004431442695223
0.24574474405118135
-0.49703819441323666
-0.2922320453150493
-0.37194546799826356
0.2532629464407624
-0.2878352328694806
-0.13353438878884286
-0.04605343682723225
0.11348364012644283
0.2732981632411598
-0.34588831471775844
-0.34933140117770406
-0.2613298275145291
-0.15168665193684397
-0.12876594131730904
0.6289753647618155
0.4849714933812394
0.10536351469044784
0.5008663770390849
0.46635180488702643
-0.21760953482735243
0.5995217016063878
-0.44325678194533064
-0.41262822113000763
0.4355644105921407
-0.027627368247734686
-0.2459786653179135
0.04704503623857302
-0.37215530113176426
0.200856863696424
0.7799382773782647
0.029360069966533533
-0.2637061723810931
0.21721818158713008
-0.33299609018317405
0.26928906144703335
-0.2571148299756789
-0.2729352109728745
-0.3075178454531212
-0.07100236127636092
-0.3283276997573915
0.11646539844846386
0.2790603811064256
-0.3365239640048782
0.46989328921323736
0.39334377910455454
-0.10129824182728231
-0.008742048478522375
-0.2235555312263315
-0.4050612021023301
-0.027762304099740846
0.1736249228675946
-0.1643392785745936
0.37641399979051166
-0.41189425349751935
-0.33803638324615437
-0.45870936884658997
-0.020827886978660306
-0.8386912680493585
0.6484113215023286
-0.13039665470103418
0.3730722764892649
0.4650302670122465
-0.018340302568085345
0.08197619236400507
-0.34805497194615376
0.16588761880229072
-0.46255657485368296
0.41085371602262744
0.020784213831117608
-0.48972498306288453
-0.06760472571285439
0.24694302281288433
0.4564867480796597
0.22111096471862368
-0.18885339951315783
0.28026992247215793
0.274446732948685
0.6180279256877774
0.4763954293307853
0.1799035566164436
0.16986450336808218
-0.47449669967748737
-0.2321368019492266
0.28115271112795104
-0.2511387051567624
-0.19559016725355755
-0.38503997261561407
0.06922597618386113
0.7529904535179462
0.5574547529107026
-0.16383188119194841
0.3079395295428202
0.3429380540283969
-0.1738497366990317
0.4345452734078867
0.07702825537693528
-0.17119800971902308
-0.32062455044797394
0.48191824093047614
0.32816925972248684
0.26994810460334884
-0.068628757296981
-0.0494687033158833
0.41216155686086964
1.0286417797508922
0.44891588605701266
-0.10825561875043137
0.370191945242454
-0.19837992525584888
0.4053976086098384
0.06081693639887696
-0.4962787055194961
0.04840811267531454
0.4505684106344484
0.16006460658036142
-0.12011552055303368
-0.032251691445335996
-0.005589508722433616
-0.25658457869681917
-0.018369688069585347
-0.1951406050433891
0.4121990053506027
-0.5331017444648282
0.28356708248567125
0.3005423944868552
0.35365350477685786
-0.16715831385848554
0.008524347588862191
-0.49412704128789814
0.690764081250193
-0.4842258979416327
-0.5361311019381825
-0.15254219105538977
0.08521688759957219
-0.09580236336376985
-0.17938285061158052
-0.40950011684232757
-0.1496671972591266
-0.13526404823359695
0.38273067434735536
0.1610271428344497
-0.3887243057031208
-0.3290241644682589
0.11103772756296713
0.5106122592886818
-0.1879614390808091
0.9539113901290648
-0.15134779262861092
-0.04596410450993182
0.19830931974781368
0.5319669069238676
-0.05740255061372341
-0.05637195989674518
-0.8954883342119064
0.0659128349620185
-0.758695822266462
0.7719515202480542
0.4154813973233233
0.4855008164992911
-0.05120106721106277
0.41611614444431483
-0.2851236315939793
0.7305581555464588
0.6056269005143747
0.46611543026308916
-0.0071585733412075974
0.4447611422074633
0.1070492901076424
-0.1926931393276357
1.0176932756057846
-0.7857689974335552
-0.25010484514950687
-0.11061320657116985
0.20531432449307171
0.3187478787597853
0.4782771199451514
0.8983235152565723
0.07808102339875837
-0.17373211551378315
-0.31501398084044635
0.18627307413101868
0.5169890283283426
-0.08203296080503523
-0.23748370795412477
0.004659906270968617
-0.3596254911198678
-0.044540420101319145
0.607210803392507
-0.1801158609383263
0.45184361594710315
0.8951929272434379
0.03268832072204359
-0.5052378203033798
0.07842199279960368
-0.40840967164750397
-0.08808595008680759
0.10115558514339898
-0.1777267736758992
0.2045750893292806
0.32789305250893724
0.4204958045356265
0.21216308898918743
-0.5262924738326843
-0.15644994055010647
-0.10616764416416956
-0.2126731263595999
-0.4326017626357212
-0.44126822665298476
0.0953137308943779
0.6653111863653561
-0.2564327463405227
-0.7921816054168515
0.5094730472130058
0.19389895901101528
-0.06761861823525912
0.2553356076993561
-0.0855358870190051
0.4837428107153558
-0.6187430772676324
-0.4652535652490165
0.143302556411359
0.08589068149739044
-0.02610215553016375
0.37632314080629975
-0.561357974082978
-0.24124570209314172
0.4581264225403985
-0.31074862398230557
0.7255863758294084
-0.14871592186254096
0.37686633209766773
-0.42194881844946935
0.8565562634381318
-0.3494711677574861
0.17996363599243437
0.288963500409014
0.020515863741014273
-0.08111247893422452
0.13128334040694745
-0.24507036595365617
-0.27923969697129586
-0.10643674971303682
-0.19143012263558926
-0.04366894421122653
0.29452204850940167
-0.19066032366566027
-0.6436826470676842
0.4818191554730425
-0.28555434795303425
0.17543051530045348
0.34324743004085045
-0.5324811973654948
-0.005335118316709426
-0.39060827934359676
0.023364357072993808
0.5320485164631825
0.44860800683106866
-0.25601119970347264
0.7277135762204776
0.23840949558096147
0.36767199263565276
0.017277518319888465
-0.3282340256923352
-0.003957302253649615
0.38158639769833047
0.09422349717398672
0.01831346845588361
0.31421308062814685
0.30802313561585604
-0.3704494119213715
0.004422835809635419
-0.05508005307545401
-0.2652582452164807
-0.4435356591380883
0.4985354561421085
0.16274789438060563
-0.5719196744476487
-0.18123301131914868
-0.5617713516098384
0.68467710095773
0.22876353556871717
0.6601862354353008
-0.31392169747146115
-0.3649831691174139
-0.4052108273632098
-0.4247310282204733
0.29436597068545
-0.555089206270611
-0.032641916821269205
0.32059211639311536
-0.5764846762788333
-0.13834590012150821
0.19796341186747723
0.6632767898453347
0.020261995168875824
-0.2599160202245216
0.8495675644702124
-0.46185782465047776
-0.11276275742117044
-0.5001080985836356
0.21989897892230442
0.5472061582759273
-0.0792707301892664
0.05193298440660366
-0.20131483392523505
0.3000930359267852
-0.20861776771339072
0.4574254816519708
-0.30269264603044466
0.023678670948576428
-0.18480651402961204
0.28638755557821094
0.013363322876131024
-0.10585504782163849
-0.3048562802089662
-0.9783344718191871
-0.05780759141887885
0.3383750778606351
0.06603336786526774
-0.12334599824024425
0.003001896609299465
0.054700150485543005
0.28412465183575203
0.26757570378638157
0.567018334819494
0.5184252314895516
0.1869254489884013
-0.49703030532232106
-0.1559600342405024
0.21385325444720582
-0.6088660560647728
-0.028999378953294106
-0.35501530139488086
-0.26556160384401534
0.2028919724000603
0.3546443364789756
-0.4928804207122667
-0.16877836690410758
-0.08707412186646069
-0.8091440364526273
1.0382977735286447
0.1746212999048649
-0.3022218698264682
0.6978233197467825
0.17378497470045126
-0.38670040773546116
-0.19710278538973766
-0.49466478894004096
-0.26960096323107313
-0.493725183317665
0.07613999124566471
-0.28235770195977083
-0.46509495645570587
0.6287482290450412
0.12696838664237897
-0.03332662106791203
0.17085574098031545
-0.28736314006843966
-0.05939595935175925
0.03680845807932048
-0.36578696966421165
-0.4466148894453323
0.46566923701507357
0.581480155166574
0.05971966396816272
0.214211977040806
-0.09034928932544366
-0.38297037756667535
0.2171865460224703
-0.4289893275520389
-0.663871937319012
-0.16561147161510262
0.298939441074936
-0.29154842453027363
-0.48213630985694633
0.46923665320498664
-0.06974082375808849
0.05916673531886875
0.2315975657321239
-0.2469029961998414
-0.6421809682194977
0.5310489002298459
0.2844927703894073
-0.19697765957347832
0.04305468477727673
-0.20849043960216718
-0.3509511501307532
-0.504354497472115
-0.26264314143229944
-0.014220631237200687
-0.4600558766897806
0.4415388948099041
0.08784887398045767
0.2676450982038064
0.08856591712588396
0.7717530182146645
0.01149192582976591
0.22582872115199143
-0.7404941594631089
-0.5442868690155916
-0.1874949520773528
0.6944120150396197
0.38336900113438316
-0.2832419343971851
-0.36611961296745
-0.654506862069824
0.34932322749226297
0.14641495913645236
-0.5511573479890655
0.24362878079484862
-0.4754530420746244
-0.13527453292447023
-0.4646720130955545
-0.36175098592432436
0.5321030002311187
-0.3943769032562124
-0.22772887481279308
0.23080809354694945
-0.0586459549140326
0.6204400908632954
0.013654964701782518
0.23799110687710415
0.2190420511739997
-0.21284278334076934
0.08314287698982965
-0.1949657239995295
0.23136695144059471
-0.07881794708042428
-0.45813334830753905
0.025542522411004086
-0.5383166865112511
-0.33147695780172415
-0.28978827071927543
0.24567320739577905
0.016079592991128645
-0.21966853513957077
-0.05018852379018087
0.5131692631299242
0.4285620016448418
0.026337618764168163
-0.3397397293749621
-0.09948828765307485
-0.31810508967452095
0.5108851806305083
-0.03040459850916385
-0.14110962316841735
0.3448879592355474
0.6265839570540955
-0.5134230951934963
0.5149903541584154
0.06379452076926959
-0.16939031664239268
0.6326163351622528
0.38815571298684914
0.0921633288162974
-0.04057047154152153
0.7406936448437182
0.2854145175231679
-0.6280528205277298
-0.19932077932710018
-0.15490958869456278
0.7576760452623342
-0.6401713729979371
-0.8076138259500578
0.21906916687085315
0.1618685025572791
-0.7169244093794835
-0.06617564621637373
-0.4124147328297971
0.5718902529412264
0.6225226175267614
0.2530685616936684
0.2413484034670294
-0.5299918471599151
0.2463052182684669
0.043708224523235605
-0.8219578079842432
-0.05599960009338401
-0.30919600015750603
0.18514576152823373
0.028510736448382472
0.3103164770893455
-0.5781616413207041
-0.052284979011379726
-1.1402096891290174
-0.10794149608702673
0.14235513823260276
-0.36526646729533846
0.4760800282949384
-0.36704581204901615
-0.31215884095612184
0.5212214430059935
0.5981463180034067
-0.14563727246999314
-0.13770273711393036
-0.029332893821387228
0.44512613669944456
-0.14965929419082905
0.06822949384142778
0.0923592705470646
0.08648545753640957
0.28336906421892455
-0.0011713438882789869
-0.09068514203806656
0.3181545256287115
-0.7321469941751108
-0.05238217898592574
-0.15569972842688246
-0.13913115220617667
0.003198312098583116
0.5582728645537827
-0.019872630230641928
0.36206961457443665
0.3333035449833123
-0.5656830405347019
0.37100886655475246
1.0427522655185082
-0.021294914359133436
0.050114131430151095
0.12125198481119044
0.9389575387522735
-0.38553881907140647
-0.46504382243015224
-0.3190716487044145
0.3039702937856198
0.15796629228676093
-0.5133106440695053
0.180057056432633
1.4889573129949114
-0.42408194882422007
0.36898140183559575
-0.6066852442116221
0.5676950153653147
0.26387856149799166
-0.011340563581847058
-0.4264857119129115
-0.0875049058955503
-0.07902652840526339
-0.5419664963674543
0.2686994762683825
0.16338471273285834
0.07560376784058181
-0.11683362076507935
0.34653745441819356
0.10007874797405768
0.34345016687672636
0.3277243977255762
0.3066999727072338
-0.2494335496656815
0.1174003869713913
0.7979979660527056
-0.4167049823736983
-0.6286498003744876
-0.517935590153123
-0.7235732567796
0.14857792493082392
0.4095283534780258
0.09134224496882176
0.5063287713236168
-0.01979699157112339
-0.00506578374907913
0.12499857633270342
0.09431332343152377
-0.6717635844692511
-0.2995283996803228
-0.5218175670470632
-0.24772308020853742
-0.08618430208379466
-0.5938842122507881
-0.24610525281403367
-0.1814889044222619
0.11988580470289074
-0.5640071981302685
0.31996148806638186
-0.4489088035636698
-0.8141538430713893
0.5434714229383186
-0.3243729494449409
0.13233414287584333
0.05575981723857365
0.5208289746893203
0.3061522229868484
-0.5371731908449061
-0.42659747784397917
0.1095791503583019
0.856336802618361
-0.5131975719610218
0.20828626469667988
0.05885231902734785
0.6658629289541611
0.09876146058459816
-0.06584593092288427
0.02718229188966988
0.045950784601863776
0.3379061791578558
0.09427427645901099
-0.9628780701343483
-0.5023781225154337
0.091258436803383
0.2585335870131943
-0.6979007441204728
-0.29976372587891564
-0.1742244124511104
-0.8811070338165917
0.06252734055599539
-0.2807448899741012
0.08371279536180072
-0.24433855132421173
-0.17936529971120543
-0.031758254273120144
0.04931484888997909
-0.1825736436279223
-0.2198380167876948
0.594993893585009
0.2028450294285424
0.4413462789089093
-0.23661217434046267
-0.6663697534822812
-0.7290662522963458
0.12941017971058336
-0.39026021884314005
-0.22629204364488723
0.8599694325953703
-0.28383652542440885
0.0516825243761874
0.38322458504435103
-0.13500323131316114
0.1486038979393684
-0.45871371823270807
-0.1012987206201282
0.08624527886948669
0.24588335209694714
-0.2712046577716662
-0.03128518979014674
-0.24748075296680083
0.28139934839698183
-0.020458812242450736
0.003972137399698544
0.09141132056615967
-0.5793629001872674
0.1330022710957462
-0.20243910186325506
0.22937080531911963
-0.30160836112710704
-0.3938437181596723
0.4893660385712803
-0.22131736361626195
-0.470489105806593
0.11654889359715884
0.06828671037741402
-0.12311645441127154
0.23276457988435173
0.43326167482253364
0.2947263919231782
0.1277929975027456
0.1565949769865172
-0.12733643106901707
-0.17574484401295035
0.41604300302783254
-0.16260382153779876
0.29052399411675395
0.12800163188682198
0.24682233477245202
0.07473064528763312
-0.45783578451997636
0.017086313477556788
-0.17927497312943372
0.7415556831090829
-0.23592738430514376
0.5573263447868207
0.1973119299214937
0.06881600227226997
0.06582577119738797
0.39353661854473526
0.23004107836914325
-0.5686917581213846
0.16355137650213933
-0.7643512989290028
-0.03933951167614853
0.22699279671263295
0.541171404321375
-0.1655406040246849
-0.3104800584520859
-0.18744330015280075
0.17261172161276525
-0.37597370067312597
-0.6491136876033888
-0.6411052295285538
-0.055084971877137894
0.23121512320546786
-0.21340992859501373
-0.016169100195020596
0.024623745504671824
-0.2709364667672178
0.45638003767658586
-0.06830167865614689
0.48894897727102543
-0.34659962791049614
0.1579717998426312
-0.04909705712997051
0.6645695231663548
0.28521835828590925
0.9563644070953549
-0.34948392449314236
-0.6054715916750792
0.36782203021055915
-0.43786230149527927
0.6162107776012052
0.3460158217319767
0.20773962786964137
0.1491424863453964
-0.09182559718526886
0.09254867956098449
0.18751161703937586
-0.3332162397085978
0.5613211255904057
0.08065940277830261
-0.24214628856722634
-0.1031547828802307
0.1389342544566392
-0.40904326513245604
0.37106764042943596
-0.011427501437171817
0.12484059838997918
-0.0910403273400117
-0.11315780655538721
0.05963912112129671
0.2000122809428465
-0.9299136530145439
0.11597899875656344
0.1333213813561264
-0.2158987350026607
0.050225408520827255
-0.4053769133474175
-0.18319977759634054
-0.1898010430393842
-0.09446519370457314
0.04361422172033284
0.2715495760058124
0.3410083631238414
-0.42892130861855865
0.39527490852133473
-0.0050468168466479574
-0.13660791887457488
0.011743775317673911
-0.267718676103428
-0.09103336123425014
-0.05948941221553164
-0.05393446566835667
-0.01844691009489654
0.1855689413720148
0.2142521905986258
-0.2549545967592579
-0.25332699184176477
-0.5493080683701603
0.6036457631614072
0.1613205689368979
-0.021998686278518077
-0.13379183163368272
-0.21912646605678987
0.4412397271643212
0.04912297657141639
-0.17466842578022193
-0.11580851275141527
0.005252960535456271
-0.38380539875069586
-0.23048534957243322
0.3936373860474741
0.246489303391531
-0.3880987864524449
-0.4403690475305194
0.4024436860073163
-0.5049953148983283
-0.20611593135240663
-0.11397853258533665
0.48705752770434846
-0.003159787411686116
-0.7699849907818069
0.044467706869720056
0.007494310373104658
0.4020662019990435
-0.3114888672447505
0.31824712347380374
-0.03564867918064098
0.11657126067512119
0.055477840148740916
0.1362585552000439
0.026481038669645705
-0.6848981166015331
-0.3037151117771945
0.2390085971916972
-0.2872634603276537
0.020837101814331196
0.2761091164225366
-0.2728799991786993
-0.034365287896121796
-0.4129588399576299
0.36582495187088254
0.08142581455890952
0.009871258983671803
-0.24330162137844855
-0.47197904026410925
0.08482436469968242
-0.3296479217944831
0.5145524692753508
0.07858930397108801
0.6181740366149152
0.3706141646160721
-0.03543705464321921
-0.3715881501649101
0.09481499959516117
0.24694057680595186
0.22524631660924552
-0.12213896985348024
0.4719434197154458
0.25151319430711316
0.26099792606924826
0.3631251335923118
-0.4753395156337101
-0.30926515738627114
0.368260664133916
-0.20530133761338654
-0.21487342426600387
-0.0741992106407269
-0.49872260200173485
0.06006112165316922
-0.06912150229429719
-0.4836497034310331
0.0010280327242014344
-0.46696081821786856
0.16145478311322875
-0.2649101278451713
-0.13961862759526744
0.4173553563029309
0.000934959688912686
-0.1973628401441436
-0.7199515285244039
0.41405367217040934
-0.00787953960682026
-0.2688402254636605
0.38564175243023335
-0.0008438008896204048
-0.09433079641472622
0.4879188496208665
-0.26298517904312385
0.41971840237797947
0.24119764246294792
0.3518886941593421
0.26232237472640413
-0.15518680618240935
-0.3801346796646474
0.012754851346329274
0.3952612540613365
-0.1251024454827072
-0.017352584775349893
-0.4097262786089858
0.48274912090644573
0.005154796138791224
-0.07622336448309681
0.1693477408817976
0.14444229872590345
-0.17201907900430846
-0.3656786539102549
-0.3964055650237242
-0.16431824812475346
-0.2844668834121417
0.18810740991772015
-0.10954406198656762
0.3766895032411531
-0.33447217612860547
-0.2153155698302044
-0.431561755072517
-0.1809707874132161
-0.23999670024243963
-0.2870903720511472
-0.3080823471244134
0.29134038983080457
0.697926187169332
0.16794765244865353
-0.007766887484336458
-0.33361396818589967
-0.29862904081530484
-0.02307838125398018
0.7128869150742358
0.733564636058089
-0.005890590249607595
0.5928346394317051
0.5326857360987393
0.5732053836215505
0.050385608942777264
0.11304644929438984
-0.24426548383560345
0.020591761094353293
0.013766741399727292
-0.727046002929022
-0.4826122834592455
0.1457608295695365
-0.32245016248814184
-0.11896070394644316
-0.04787745280413169
0.5429293229152354
-0.44305901016289173
0.3526414524165065
0.3456686499588758
-0.19135390006360448
0.04815402956730244
-0.34298124324068213
-0.37979193654022925
-0.30352727918264494
-0.36478031460553095
0.36947020374711653
-0.066383557630705
-0.3316147360766227
0.0260342868945849
-0.17161242925887393
-0.10912146238837288
0.04135338920125055
-0.4935683754037955
-0.32548139074700017
0.3637229929041245
0.006759005097921207
-0.48097196931365355
-0.5208190531528751
0.03264233895563218
-0.19457167120998262
0.1368803678294943
0.273207465022288
0.0015273022707371672
0.2480276356206133
-0.45003693686778
1.1713543425206179
-0.0942216538185879
0.1424546310616678
0.17736738555317072
0.09886860204464772
0.49857881276138577
0.07874189476275176
-0.4855666390941001
-0.860754828368517
-0.11496927676235207
-0.4438959197708322
-0.07416994049621398
-0.25071331186567003
-0.5100174050045239
-0.05623959848262365
0.5603582292160992
0.27523344422732926
-0.5565482937152579
-1.0473826626909715
-0.03364769791892235
0.4056489208343439
-0.0393989753595929
-0.8337546119393638
0.2555781461589081
-0.16733107617346885
0.18942536256906922
-0.07451287340075465
0.37701352599256555
-0.3636287484384067
-0.4641503053516029
-0.013558253954643103
-0.37699072688243956
0.35701655151470063
0.4288092370498072
0.24391935679694718
-0.020131011869620862
-0.48418927608347706
-0.10039082928834094
-0.3420933891749567
-0.5395436993478724
-0.002267870047335817
0.38571878679306437
0.2419497986260468
0.08183360487751906
-0.04419485294187236
0.4007648412369936
0.1589226254427134
-0.275349522129718
-0.3673721125892987
-0.2108382380035387
-0.02604021641477239
-0.12689762807635924
-0.23458557605428482
-0.09756221860012229
0.9476926405229397
0.0902965511551513
0.28931810051176293
-0.014834097145376762
-0.18745600796076983
0.21546588383815476
0.40137283396045403
0.10730559495975894
0.17319715444234265
0.6216391911478211
0.6835919122188667
-0.12058827751700013
-0.025677629906487903
-0.16420706914208255
-0.1698630693822081
-0.11313070630629714
0.400224510025056
-0.37792577395573385
-0.0937167588135471
1.214143059570731
-0.14302924299698003
0.05488963951746504
0.36957905405651204
0.1484595313962526
0.4308106926685876
0.11163235299909474
0.23574298007825986
0.5091365646390819
0.011473097673642884
-0.40560617180576186
-0.5556998894312055
-0.606953811414362
0.3652407382288857
0.08499364197816495
0.06392664721315887
0.15969993635043875
-0.03818759937366698
-0.379401366161809
-0.270597953050896
0.3857637406210482
-0.2057767975473918
0.5395215392616141
0.2460452289191294
0.022870420413093458
1.0833983090447432
-0.03256698707046716
-0.3021140892727382
0.6233177720659617
-0.3992053383392356
0.13015161372481868
0.1887663579570976
-0.295441417436842
-0.60741639477139
0.6459776869030588
-0.6726999778127895
-0.0065325176688237245
0.7240640895051386
0.6259939060897903
-0.2952089271662005
-0.10335753766993096
-0.1045614849641623
-0.17481063898803173
-0.12232973414788617
0.3496683786439986
-0.32518249407624494
-0.06672058237488628
-0.49075555727332015
0.179784386384075
0.08368230289173932
-0.5569700715498074
0.09757231474280338
0.19627665216293308
0.15763608479501437
-0.3049027695623942
-0.272774171894878
-0.0660985720379379
-0.14650324921198357
-0.15326527149477986
-0.9451876430080203
-0.048501761536557705
-0.1573085741039743
-0.45631685867144633
-0.07256157362359744
0.03373041229688961
0.041931149365736255
-0.22305757024206044
-0.08243092901734497
1.0113273730838646
0.27649489498870217
-0.3765180546780688
-0.0912135633664274
0.11874946702644112
-0.9519035264106808
0.30124487567732855
-0.1371991482733368
-0.5151577124630443
-0.44280305909127565
-0.8182760336503163
-0.4231094970726818
-0.7407739623970517
0.624276698677242
-0.36310663612697114
0.13890021856249585
-0.4482399119875015
0.35301651710450666
-0.752204552522038
0.18086117109480515
-0.5355682629792728
0.20122103391834772
-0.14835226683071315
0.04082040936463615
-0.10309223976827192
-0.009776907785588691
0.2268246960398514
-0.2536456049262118
0.22917036686640296
0.09098218054451619
0.15333951532731988
-0.9376738586655642
-0.13753533696265882
0.3328504040005381
0.5219484189848056
0.1679567046478496
-0.13236545222604662
-0.11588859589057675
-0.4544685369971298
0.4622327599313362
-0.6952229474100879
0.21616749578418376
0.44677286841967434
-0.1891397574366973
-0.37928069369614303
-0.1830537399250754
-0.5721498827094195
0.08938758314628963
0.2239291451347852
0.44498634643697876
-0.2500870494249521
-0.4201865457517349
-0.19455136413863708
-0.6467761167011289
-0.28306747685329847
-0.08576100609661151
-0.08878112435580114
-0.402839999395827
-0.11649265836521985
0.5058272751252169
0.5311845490702926
0.2133596684431486
-0.009706846877284106
-0.7025818656876467
-0.1310639103986785
-0.5858683993069316
0.9314215883160586
0.09829606465561726
-0.187435219822808
-0.11030392177230464
-0.05141989866984624
0.28227099718868986
-0.05230053922587358
0.26385346523242736
0.04756185917293716
0.6250623301625347
0.7134039110688756
0.11245044692180264
-0.7028256350657704
0.18402095819220507
-0.037864933610346214
0.41284852981328046
0.3233955370795355
-0.20687351095649492
-0.6895658641895943
0.17013594140474594
-0.34155046768887476
0.14705236127389673
0.06684673456370882
-0.4582704287402478
0.23547788300409364
0.14500776340042482
0.472101770491083
0.4083945272886063
-0.5909907293791247
-0.7965235456664332
-0.17510573673939478
0.6507334807507879
-0.08227165573913955
-0.22111877757374204
0.12315103848039304
-0.44788515372554044
-0.09024492982926702
0.25063951847016797
-0.34367449736527594
-0.2607433523515488
0.5527581218334604
-0.45372756996840585
-0.6463871078375912
0.5222910585398336
1.1170116138460506
0.5714047243711772
0.12198463907783529
-0.10369324778631842
0.5900751094288813
0.24133684138561984
-0.2236120922861203
0.27893715990486856
0.29367674416265477
0.41658344085471655
0.17013156020233966
0.13339095681716853
-0.1943440817978042
0.2628744725061335
0.03291732910485592
-0.16130558924532581
-0.2555902754004942
0.508130322693806
-0.25614104265106097
-0.7467984624997004
-0.07350302364763363
0.5210623901079823
-0.9849816260346803
-0.1215810971689335
0.3575309562120653
-0.35336804812963574
0.5150081167301436
-0.1953736358707423
-0.7025993437645786
-0.5276736282864273
-0.07865142962976465
0.06762855715402984
-0.4943396535849631
0.44719896479488386
-0.2310450179650541
-0.45950067269861233
0.3572826638352608
0.398739709215961
-0.5573397895700626
0.06915213158130792
-0.10049925643496727
-0.008428510204183936
-0.0015426482510347505
0.5932514859909593
-0.23001071645475388
-0.7804764175842803
0.31285861297898176
0.34380333370501087
-0.33392970693243007
-0.3826048316773471
0.03600106691610973
-0.022771594034023044
0.26707369301906564
-0.18061909148652508
0.03481288025230973
-0.7361805868457189
-0.5697787178829566
0.11429921999135469
-0.32235344344106853
-0.007398287308538328
-0.3378495590285074
-0.11505617794040558
-0.4770972950072848
0.46641578591914157
0.11956900886507882
-0.2635688416513159
-0.173206669119145
-0.5815731128460926
-0.0029925015771960295
-0.1794762993782705
-0.29546111569191186
-0.17468260666679392
0.21498484195877232
-0.6490521741477427
-0.06683614566922576
-0.42639068944157643
0.2096264711809242
0.6990499979757959
-0.2633016757339148
-0.24657714762420332
-0.3588595040027011
0.22849845750937756
-0.6483425059884459
0.22731199255925927
-0.12347660446748356
0.34726333016043687
0.17895611841091905
-0.10939955755005286
0.1194687959468155
0.5573679507243051
0.09037663132922352
-0.379062220694522
0.4444301888057683
0.2286552084173213
-0.27538776994060765
0.3897610949170176
0.8667597794968613
0.2978522853839683
-0.06309274506087555
0.23769838869613222
-0.03655558698151163
-0.22026182842021866
-0.0745756134766142
-0.41074685529515975
-0.11561703280882385
0.08884741602077614
0.1938756599360018
0.35365333183307496
0.2516036385480411
0.16121009361824704
-0.3344248724005643
-0.7873135439106802
-0.11216829088790681
0.3786533772388489
0.22018711007959707
0.4907113641727412
-0.14746585206287746
-0.8052697733063565
0.32048505968990404
0.9409734666127989
-0.4091948718758592
0.2044811108144505
-0.7360435519154018
0.45597009923337445
0.2244593727195568
-0.11663941250123826
-0.25016435568092216
0.06048922135923683
-0.01008222879069199
-0.7094989649172919
-0.5874882708378432
0.4687250079984381
-0.06429276692695785
0.3964514058629546
-0.12168340111270784
0.6579316527488279
0.6359075680520978
0.1329707933019146
-0.359141681488833
-0.20034791781986672
-0.20698676489433016
0.05451124024246461
-0.018664055071873648
-0.9608355238312132
-0.5235503703646084
-0.2079489632573936
-0.3646765182876732
-0.33648294623819736
0.17140956564386214
-0.09733251277279757
-0.536508426618563
0.19982898582106298
0.42374778543014424
0.10063578181632615
-0.6419722594403299
-0.1984770494946299
0.4751842351333036
0.20654215651885538
0.0903930533207964
0.10497960152227387
-0.479326268807233
-0.22520270707020149
-0.2887897452951307
-0.5555694430582663
-0.6433920964824588
-0.29196681905446875
0.08422801985507511
0.9378330479386401
-0.02006025634574439
-0.3032828830408861
0.6344906207370391
0.09681025854861369
-0.5538290112606199
-0.5348775674174253
0.10560260139726782
-0.013809823671932859
0.07865782189637525
0.6333719154754763
0.5446593129774734
0.4418009231125175
0.35435706298207187
0.031232465463180474
-0.10980155529465245
-0.11446698387277612
0.2891417631806241
0.3989363410024585
-0.3299779385963472
-0.6681232801803242
0.1495409773107613
-0.5343406923581299
0.10138484301702289
0.5494300100268824
-0.2071646965715317
-0.19756308132459124
1.1126860821854845
0.899361544708278
0.4920164688629634
0.22753825414674164
-0.7926545134527896
0.07941317574049292
0.05668715051498171
0.05191945573307219
-0.22123892500214704
-0.0174470099093977
0.3323091768225848
-0.42830629669636217
-0.6775694643474592
-0.3723561043932369
0.1213474678606503
0.676274074710457
-0.23087957936736955
0.42673772814543287
-0.2021338034868186
0.0008894556988951403
-0.6233043826947404
0.45774527767412093
-0.2848959251585267
0.46468487845822654
-0.01102966866753029
0.5468218677606772
-0.36556926250267524
0.1962170321734984
0.4612285387447556
0.24115713012027648
0.5723820744578619
0.18783096604843721
0.24384715367054033
0.03308786730899281
0.6767693426079635
-0.6727775042676023
0.7373208347441461
0.16354346570387954
0.3697883143194965
-0.10246486735773624
-0.4570274102647434
0.24475919140862665
0.05795594971018344
-0.0751137616660229
0.5502081104839491
-0.4930364627203133
-0.027952331481715303
-0.3777056521211142
0.09667441037941192
0.21616333104354932
-0.5488993838202817
-0.10164470039908773
0.44612560816153646
0.06595843619420079
0.35527505993856706
0.23325744246033947
-0.008168818819998381
-0.1172337869911067
-0.08928809679043073
-0.023345584464383874
-0.7809438855035028
0.11617809529701241
0.2371962811022851
0.04165044342648822
0.09230028668354164
-0.2689631885879856
-0.06659440801082946
0.6479847549951578
-0.1950661781074213
-0.03425605467818342
-0.8224615608356599
-0.2635027074645604
0.2386823194262485
0.3069533780617476
-0.05610423003894988
0.5488748715513848
0.019111030521092413
-1.1758166551232097
-0.07534574725232479
0.08993642203885609
-0.11155330905184478
0.08195022134978773
-0.17698706765000405
-0.029366055829036734
-0.21460215858380752
-0.45457443297205263
-0.39416751487252294
-0.4482350802880895
0.4194495989584819
-0.05787722459650701
0.13484221079523687
0.7035981059278246
-0.29370488022886804
-0.2814754899494025
-0.8111855660377202
0.8103062501064034
-0.13168471035655258
0.07228000171918246
0.07929314024941403
0.31327683084843216
-0.1261954114856394
0.648440641010442
-0.4158071297956814
-0.4555819663617517
0.2719441482671511
-0.0879327404677775
-0.007722404089558994
0.5388702532571389
-0.012479770300295298
-0.24947498440153126
-0.07225357732694072
0.5816794609300578
-0.2561203345551667
-0.2701206568430687
0.36598233546706815
-0.1627530810611765
-0.11152812464088478
-0.5450907775107867
-0.7037816856434803
-0.049223009871503916
0.5342064356101871
0.07907163283010119
-0.07136053499645383
-0.8225448106794565
-0.6220064162863358
0.07605673457531589
-0.4317299775595556
0.18578308058906925
1.0969877418156673
-0.3997289838740333
0.253357619690437
0.7944804283721698
0.6493990062661995
0.13343725344613142
-0.5595845787239104
0.44190285542057517
0.23394808219621333
0.29433636723302814
-0.47481627108181806
1.3759565965494194
-0.1595495237686581
-0.06594541942698133
-0.17542861956358063
0.5242924605208937
0.14356486097478452
-0.004413404040720753
0.10187689911545242
-0.348542774859115
0.4318155876642312
-0.31177268707543837
-0.15213121784127204
0.02818800404481685
-0.12966961057457307
0.4617450012457349
0.5370216086129367
0.25003137290225935
0.7963460445461645
-0.37419227672890726
0.5033011876068096
-0.18565487485198978
-0.640381175239964
0.10178116545183447
-0.23877057404138066
0.17323458078607493
0.2867877989534524
0.2114538685711861
0.5945006207913215
0.37567848452065555
-0.16312742551890372
0.21668840346999357
0.46837162317006636
0.37077598783543597
-0.15173093203907884
0.0197621731988641
-0.185266869597097
-0.51390443565326
0.6693967268693918
-0.4411476747130327
0.19333499319687214
-0.8741738860684375
0.5377508652505409
0.21649722161726856
-0.1486445086735485
-0.23270703789287375
-0.32995763781153004
0.03189099295997763
-0.4721030973560534
0.017439819789720562
0.29638109517897027
-0.3436564831117591
0.2017260156419869
-0.01835304712761549
-0.030176309200091747
0.05440016936186236
0.4427172382322924
-0.477426526384054
-0.9522308472237428
-0.3235383691233792
0.16530064127876012
-0.3698518152139479
-0.081480005454938
-0.47846125738851125
-0.3498053765203856
0.2586068669007919
-0.8320496064117351
0.06864570905233836
-0.04394364104659513
-0.0773221493080473
0.5709614614562672
0.7381074379347689
0.36192343198601196
0.38656220916623985
-0.1463750970640999
-0.0011686141969225444
-0.10851223819497702
0.4222480056627294
0.2426562503683339
-0.6342190494177629
-0.03245824838359902
0.21122580299285637
0.2597845170684908
0.16196500872703584
0.18757676185874672
-0.20760015768389822
0.2760481830250371
-0.04157710839936236
-0.5341666537446773
-0.17454489557421982
-0.432354921616861
-0.46908599360871767
-0.358904627007955
0.37670621842090474
0.0810448748272015
0.16902688353479528
-0.4185538581955892
-0.07986932919177839
0.2100369064502983
0.01683112008323257
-0.22108568001363327
0.9106465998792883
-0.04185939106284798
0.19315067785206577
-0.2778153642940883
-0.17067756478921506
0.34041968429358577
0.3050215979725159
0.27249428234832285
0.4059471773553938
-0.24690772305082045
-0.1443304129494565
0.866394893416932
0.30097182480717355
0.3643089424196813
-0.24850819168262217
-0.12852722009217873
-0.24739443267922043
0.48429864570764425
0.09135217306798381
-0.004315044472775558
-0.37037830572864183
0.279091763460481
0.15409072476979044
0.5274083543694548
-0.2994882145456912
0.6254795521664277
-0.48953272973949374
0.5280549879261697
-0.022470450968475147
-0.011235420773002401
-0.383766382466675
0.26538745919935786
-0.32937007303800253
-0.5341149464480687
-0.07249367593817084
0.5824933005237268
-0.32023876723274586
0.07541219641655021
-0.16240863521834772
-0.2976597854181067
0.12501157804531973
-0.23482278702654483
-0.19540082815073206
-0.27155566401049075
0.0757014981596923
0.2576718758298493
0.21711121824447616
-0.5273549657825849
0.2373207564050257
0.4823146794736653
0.27206887043719247
0.3826625253297508
-0.42179688177884916
-0.03895475973542438
0.08448136338874075
0.23786791286713177
0.8813444227964925
0.0292342210735473
-0.6456789901524601
-0.00433721360273411
0.8349516107257187
0.1780041942918608
0.3971589637856784
0.5138113497833218
-0.10792166370101304
-0.623585269597526
0.039771637975692026
-0.6575223534527904
0.7292005779028666
1.0856290763894771
0.7263094795340207
0.13506743720301823
0.3220792342752282
0.47740153643752686
0.38385629707310714
-0.40819924433397076
0.2936789763637079
0.2823465003552457
-0.008902720853623543
-0.10141786162829215
0.10663519400639078
0.15348431987807612
-0.2284215962288808
-0.06636983005795394
0.6346543995088328
0.14916407997302084
-0.11995207547895465
0.5604649834802371
-0.21122635742706378
-0.35258248070893977
0.061301766007114775
0.43619510177545007
-0.49920919653743906
0.3449740189101333
-0.09862566852638925
0.04508046044516495
0.4793597914927035
-0.19365655535985513
0.09324863727296681
0.2369387326309925
0.2734096879781442
-0.0372426112679654
0.08731831818706345
0.15473168600510756
0.22295202899955802
-0.5208882868010843
-0.5098240869446521
0.48817435281680926
-0.671043909120048
0.2657875280550548
0.73255002105974
0.2626541737088181
0.264945642717151
-0.8279858203878007
0.009322191148988562
-0.23540221651731433
0.7318273837838278
-0.2353966505777656
0.13782138901295393
-0.8633789532707903
0.39242134540304585
0.2947005691555073
0.23018483378563429
0.6037236746308967
-0.19523988585282642
-0.46713746535914397
-1.0355386419883066
-0.17564315558756052
0.1603271480092038
0.12299805243916855
-0.2316507971722507
0.1634576114519747
-0.3012692036638324
0.3146652178297577
0.5929173539962764
-0.33310157900635207
-0.06024013317126231
-0.14371553938847545
-0.39584847200003287
-0.34516668945369716
-0.38623587381505176
0.098486602436974
-0.6263464389887943
-0.28389352669141776
0.5243977835145822
-0.03513770897497512
-0.0695896849146331
-0.009353053291127874
-0.14117315583119694
-0.09473655758509719
0.12938936461698133
-0.3353064494165969
0.32089777637199
-0.1298317932841497
-0.15212113476560069
0.01132936615636361
0.47178292891536405
-0.25557549402470175
-0.053110288397305916
-0.44646270954846234
0.26187374692010684
-0.011267157015635429
0.005292588488500977
-0.31007229414283927
0.6557293894233454
0.1558774801774685
0.37232687648048207
-0.592452816949865
0.16311816050070604
0.8412117315032481
0.14312818353646303
-0.1976991309216961
-0.6636359693700057
-0.38701307809462865
-0.23728730235215223
-0.043907666888962936
-0.27651279114922594
0.20515511867824499
-0.004379573112216911
-0.1073905753064874
0.024969008263485838
-0.49565747253328235
0.08232050021474212
-0.2658484193668249
0.9413963225024193
-0.49602146011743664
0.11232487620247801
0.03647646128309495
0.8031490832076307
-0.14449279167864157
-0.010768246653868559
-0.6557325375784271
-0.34468528906162005
-0.4186859208117829
-0.37605283430846836
-0.13448856422891386
0.29117083377620695
0.49332151203992575
-0.19400420790906953
0.16682667937402054
0.4771400639607624
-0.43054808127385286
-0.6499041273359443
0.23372820415628506
-0.026552645047013303
-0.10785429996268775
0.7551807796396476
0.11270850196400045
-0.6592180992307695
0.512526350171069
0.06522947539072928
0.5735379837513082
-0.021605195913360825
-0.36132969081010446
-0.11109128963539337
-0.18051856609537395
-0.1596533884336551
-0.6612215309758794
0.5947874255269228
-0.09474430425298601
0.3526934618554718
0.6324594229695926
1.0375484848908643
0.2376676833990083
0.4926043906157422
0.8064407501515931
-0.6232419438253942
-0.057746929000457685
0.1628512395178534
0.08770115694523042
0.36356148756645784
-0.17529414368910903
0.1996488179786127
0.2070470400034972
-0.1454046661217657
0.5400406361213168
-0.9319770322337385
-0.5714286238033036
-0.5420344463389443
0.8194704377071068
0.24728751312194638
0.17178119607131648
-0.4826170786832405
0.08530924589253026
-0.3579699304821732
0.07947942685575507
0.23750226824846157
-0.10337925996941426
0.13110364084950585
0.3431815185949443
0.11654729609673485
-0.08222859880390324
0.6633580170273288
0.6721405972283176
-0.07158318818994998
0.06510243440904132
0.4613959633470898
0.3650311629645814
0.0002755000272599575
-0.023749569680224535
0.03294087031735292
-0.3792535525347621
-0.043448447340359894
0.022455581853349504
0.0065477109720574805
-0.049110423867914005
-0.16921357283080576
-0.30192915630751055
-0.02938302541287449
0.1283135672711996
1.0240537468182793
0.7932227304555698
0.5081854673162666
-0.2862940064881365
-0.35427661153752626
-0.3337455621203395
0.19104402077528204
0.08276325176231317
0.6134943135075505
0.0749902258958195
-0.8715181081845038
-0.45858777094225894
0.2003238811356563
-0.02429827964873656
-0.5512058859057831
-0.5106785242006308
-0.059381032167338595
-0.00848416752689816
-0.021122796615487733
-0.33841033726974545
-0.25268608109190904
0.3116188599968416
-0.1869291800381416
0.14663827780455446
-0.2670208898468846
-0.05741867750250106
-0.07724367799134907
-0.19054418758520186
-0.017036285541703795
-0.391452982892133
0.5379790451636527
0.2817234362322801
0.23244906997254802
0.15344397252547848
0.07332205890085672
-0.10565868740587561
0.09494096440496345
-0.24424964746627242
-0.4660915293751412
-0.5752748697348407
0.20980763069781222
0.24818073856864628
-0.37450662368825727
-0.06361993321874886
0.08759945717085027
0.061404856166734745
-0.40537970547998575
0.4625365926780708
-0.3952427848714085
-0.6457474062314233
-0.7587892553901945
-0.39332757182744166
-0.5393247282138458
-0.2566674736928063
0.6612910827755001
-0.30520495938611314
-0.5473956632405103
-0.23342522029732793
-0.34588719565100706
-0.27887769623896785
0.3491691526705685
0.5515642891820614
0.23227048682847248
-0.13283435323966516
0.39801883779898506
-0.1109469208949591
-0.28647992792479565
0.33928329146981734
0.3440164140402678
-0.29071192130346407
-0.14466305572327082
-0.6276947979549691
0.13070517925901765
-0.033564541747813495
-0.4130178378548153
-0.368699051852537
0.14153422007832595
-0.41751592091003603
-0.8498822996359183
-0.10763117751189738
-0.28460216839274827
0.45176805118512353
0.27155627222769824
0.4464454844542293
0.18754253929718384
0.2908304796165601
-0.6037548748905402
-0.009558159349232688
-0.0786360424914622
-0.7649758150110808
0.15725123682471964
0.589878230697724
-0.3267600592967097
0.03992224233565318
-0.0674748312647554
-0.5285229807649011
0.5801292005854474
0.3445036318273257
-0.29651115085219754
-0.18551976752640076
0.028438097337771133
0.19899167715465246
0.23675503741252488
-0.6946200348846548
-0.18555749476001723
-0.03253235180129798
-0.8728726721793253
0.17978222313669412
-0.48623667275181853
0.047885194760920506
-0.32181999614306983
0.6076340274298849
0.2704671986440166
-0.14608696209247132
-0.8685370616060892
-0.036812058143019
-0.26258365581148635
-0.4483486279169378
0.6957478766466213
-0.06547888636822112
-0.1852157698822268
-0.43585336830140625
0.2663521410214603
-0.6960366248037385
-0.046758827140340034
0.12614336254703382
0.21930757697816344
-0.04543428667251692
-0.042581998632733944
0.30952359808032304
0.29466837874059987
-0.16813982303245575
0.4452752329000346
0.24808477699730014
-0.37337899081753206
0.02653690962751446
0.27115824909223324
-0.9386268521324946
-0.4281842619608718
0.03901120424957366
0.23570103916772558
0.3754978123846644
-0.38960942828100825
-0.17543969561106712
0.24395075127735022
-0.032788515786225325
-0.6064543773752062
0.21807389591805867
-0.6093631720746171
-0.6809715865076063
0.5975050300435643
0.30849906791056975
0.3212826066290612
-0.251561140886264
-0.20021950350731807
0.1451488836211292
-0.08792999841904417
0.5133340783229058
0.27297473317979415
0.2842064219913237
0.529266133085388
0.10010106572388425
-0.17834853208787257
-0.18510004507845565
0.01755058050996625
0.10466970691975747
0.3213552713841756
0.00810806686750082
-0.014613848281938305
-0.18141364377849828
0.4829273539947728
0.40266415940395833
-0.351934990524839
-0.45016971620668456
-0.6262117371738833
0.5718034436422841
-0.2192974553227038
0.6305531800058255
-0.2733214892909482
-0.6521443636189578
1.0522110705203491
-0.06982600529413735
-0.2002173890902531
0.3156194240387292
0.6930756024708289
0.4743309009512048
-0.6925126116815802
0.229998834257663
0.4210017487936746
-0.24354448999373393
0.4163583726002458
-0.5738720278764365
-0.510399116714119
0.36537301629852564
-0.16539238326650316
-0.3832544625168032
0.2626299458804877
-0.11275226699535834
0.26911264303994403
0.5884975388463283
-0.923013671004924
-0.1369630823126684
0.35312968522058497
0.5618809901802253
-0.4794802859244083
-0.4472893941709034
-0.31287417418826213
0.44095480314720814
-0.3779900019801225
0.3842777331335025
0.16373086636988923
-0.36814498916367566
-0.5039348191071676
-0.8662511707293654
-0.16320363904568402
-0.001334820962350355
-0.2465828784775224
-0.5999831162788009
-0.7190614170420411
-0.49252143937895226
0.20138425297948512
0.08914191806591965
0.02303802763410845
-0.2614410764931105
-0.39374514355535556
0.08459885731847025
0.19278859684177113
0.10688929437808875
-0.46346296309677665
-0.7925484716293711
-0.23548494964609112
-0.626986940739817
-0.5774653612701796
0.1596081059886138
0.4358685031221554
-0.06301705567267697
-0.06894171713472429
0.31477787434890075
0.6747187700012272
0.3736977780740016
-0.3721198592049131
-0.4068183740653402
0.17819257594532967
0.09654985727939622
-0.3562228891494176
-0.5829246373202341
0.16244059700166452
0.5119846875267118
-0.2617508087465792
0.19476330939748343
-0.7246441473107965
0.3069874051475058
0.7620349667561631
-0.683312744334477
0.04240966457385309
-0.612976516626888
-0.3860595206321659
0.25982860721997825
0.21812275570713252
-0.42128296392854336
-0.22090082947132578
-0.08651163564880131
-0.3505920973897676
-0.11985604602615234
0.19048403362364277
0.4064141251894198
-0.3394271855326273
0.5648557875664729
0.29285821973613796
-0.5284389844055797
0.5216344371940874
-0.2777341187495729
-0.06637148013392903
0.3883308237804347
-0.9511227790081679
0.3216941822050336
-0.17900239180863423
0.4871030310442573
0.136786816103001
0.10621341900401017
-0.48364567812403214
-0.41205681466192895
-0.5149381220064086
0.011936350382025233
0.147427349374572
0.33280932150286074
0.5177977268043672
0.3652025024686569
0.539843146738594
-0.542916798479032
-0.3095254379278213
0.04960561883615892
-0.08335146195078345
0.14391627426322148
0.22491183899832237
-0.029952780979457073
-0.013228565052215585
0.28899092386061465
-0.3469929950589358
0.25114550479238956
0.030855068874636647
0.6992685421098265
-0.046434949839611855
-0.6283304186283039
0.03268480183806193
-0.3082517517968916
0.10795825627224542
-0.6923873824024039
-0.24753836891612177
0.09338559371954795
-0.16713344797522706
-0.2171040943532862
0.30140505893865643
-0.1608964566921348
-0.47892970565333676
0.5073449783197911
0.01564518090907512
0.4699820970840301
-0.111268674327655
-0.4042915181650976
0.2832459653365735
0.6967784277933994
-0.3323142596041602
-0.06027263255370644
0.3366775534129733
-0.6265029693729969
0.8911967927729084
0.05464462132925287
0.4774280002410163
0.18079980104684168
0.7092001898684713
-0.4109664830767525
0.06675251334039725
0.20648472520664643
0.07709495502791143
0.4740312533393349
-0.48922745791425976
0.485434757513079
0.15726093984852893
-0.06933886663159863
-0.5962654815703895
0.1446859547300488
0.5279443102065614
-0.11042491810488686
-0.07997696881411018
0.7633918065324811
0.3346919885271206
0.40333160242556193
0.5221474478337514
0.43476398317853
0.13952830841911665
0.6885865124875417
0.5853661899274065
-0.45652649799255024
-0.3799377164705347
0.3033179353631633
-0.1937049665922894
0.15112689383663425
-0.16481812178304872
0.2984418699385757
0.3127064584765354
0.1960825458732979
0.20283095431023082
0.19627154658858656
-0.016363468851715746
-0.5290324944617453
-0.7710097688369201
-0.19717768599101781
-0.03726703187311137
-0.06333976177176082
0.020854669659353193
0.22742344167120676
-0.7990558986646542
-0.4963711975551146
0.32985866990713864
0.2004719093645745
1.006148343547707
-0.2245219202969192
0.20030059926157784
-0.33994409326415786
0.4730034766452039
0.1603958798982061
-0.7816535980896904
-0.41999157207941956
-0.2890017117035991
0.46703967530867124
0.03695532186909862
0.25511548552400315
-0.23184444066444615
-0.06976407639794958
-0.403111081785031
0.9584299195923783
-0.05771295796398332
0.5621078047030662
0.2042140313972629
-0.4156946705996318
0.17082578725846737
0.4653843925862972
-0.33631369999156324
0.14067808988177277
-0.2925086049520457
-0.4485249579772793
-0.4058409734810864
-0.4264366619813901
0.4131503522695139
0.2050617093216257
0.023383852508373056
-0.2389822848483898
0.3283161544310559
0.12287137738752156
0.8223930936038454
0.19083338833631205
0.6430862026741786
-0.25896739851034367
0.1641225431029937
-0.5157429771972966
0.1304700678723841
-0.2740647824599061
-0.4693194285660588
-0.28079607911264004
-0.40893869486994083
0.09396611713874498
0.11561903594485834
-0.9040646986282067
0.0793090493484661
-0.327602915519863
-0.20796279935540285
-0.3251180294582615
0.38448297377460333
0.34396635891400473
0.6185307518394308
-0.16359050143229206
0.5370277713589137
-0.5264497981111866
0.07928717395162678
-0.2634853635527572
-0.09015320738572713
-0.4247565138781624
0.48144326596595427
0.2663515993704246
0.1414196624119606
-0.19380788144721012
0.3350233228592208
-0.6242220381330127
-0.929254456321032
0.9461330663256342
-0.10087374646500757
0.29381352056490007
0.46318331081433123
-0.4089835567205334
-0.07601145499157794
0.6740309693484045
0.010887388196244041
0.3917391837207581
0.3098763027574272
0.1769235535647114
-0.547479836784124
0.27603489652210417
-0.29231866021690556
-0.008612930535706291
-0.17450912559941312
0.5619187783835422
-0.45094556751087295
0.07526842599840258
-0.033402350493592074
0.4122941955282251
-0.19379059536045362
-0.1473113598191729
-0.31581757342929734
0.5225897731099021
0.33041819079876805
0.3283249821502589
-0.5639381016358164
-0.06787042744543607
-0.3340567732732506
-0.05286890997412554
-0.3531675289375904
0.3507581541981639
-0.11249987949392966
-0.7018926075854195
-0.24004479742066295
0.24039741724776573
0.25246241792025664
-0.16549719802014212
-0.7505270528016651
0.27898742641293245
-0.5990848222361037
-0.061175122810566626
0.28252554218185033
-0.3718962499119014
-0.1437757241266888
0.6900815070829255
0.039785915095241396
0.10870799612984816
0.05762959807934068
-0.5330919225723765
-0.48189579245247033
0.9018887031973978
-0.21150866752314648
-0.1503848057092691
-0.005277368980894269
0.5501059721435985
0.07430787735790269
-0.262556522694807
0.09648419832579032
-0.282352492405726
0.043580968337641274
0.6292385941827431
0.6569642532418042
0.10398758279585844
0.15359094968226777
-0.2557217178643602
0.2893315155444876
0.3617382558315624
0.5624378215728464
-0.6113387283690928
-0.44875704190213905
-0.2034617970491983
-0.21427833375069147
0.27102064353395267
-0.4095655636761963
-0.2853257757802546
-0.22718843049446866
-0.2792355648225116
0.09646951859833376
0.3353171658673782
-0.14381744347650188
-0.4305719323317668
1.268393048031713
0.1354499835206121
-0.008193132239115084
-0.5217531982410558
0.08773671667354664
0.06712407323408941
-0.049149394660979145
0.3932432878439075
0.12602496729757062
0.44123883892200455
0.3192166436826161
0.15770069855767108
-0.49547502141388017
0.1128536940851535
-0.8536647024238869
-0.022502563286574476
0.5551552528583905
0.6589198161210036
-0.814188893665743
-0.1435551365627823
-0.33357296476920745
0.6082139336540032
-0.6635165330777588
-0.36239844598458987
-0.06986060074684591
-0.05600902231776269
-0.35965187710122104
-0.2557547570492938
-0.07013876089769344
-0.22057910986643842
-0.2953653997430639
-0.3670232837253914
-0.2470586760401155
-0.0053729657316009495
0.1499806074777262
-0.2677152688373683
-0.5415855226766767
0.2081395502548303
0.54627346239549
0.06592771495797586
-0.5176914541526275
-0.39117957351320715
0.09768944378252487
-0.11179484891460251
0.1608684112138198
0.073363515735759
-0.10076684577518318
-0.15520336308251903
1.3894172327540868
-0.1306260080425925
0.10729169600508591
0.3795483556609239
-0.15494955736732718
0.14231388855313273
-0.3179809506100476
0.3016478192419712
-0.15153194965357053
0.8654590408488164
0.18090354779408646
-0.5575056290319687
-0.04678786924236979
0.5533581785722915
-0.06356646253995243
0.041761916127692846
-0.6110358014106659
-0.2727371359240909
-0.5131448713634483
0.890780282201962
0.20465260331823265
-0.22220761050361335
-0.3850375240128364
0.20244728082461078
-0.14070758485623855
-0.2572290837202576
0.36174977652171975
0.3237730464593453
-0.4485801997684005
-0.0674681561039993
-0.018364321587524605
-0.10887462063664562
-0.21597059043732242
-0.16887759583382153
-0.332840448853162
-0.04377661417636375
0.5466756538818784
-0.17727661501429798
-0.1124644307213028
0.3461210855946929
0.015665655775137004
0.2919603588292566
0.4921093960872909
0.18698338704549067
0.2115493871190588
-0.34610630924080243
-0.043179886524716646
0.05149879134572114
-0.44051204519949927
-0.7567902251082508
0.4062601581644481
-0.1265757746450871
-0.5345967026485772
0.5116036737985561
0.03958812613389141
-0.06772559597599374
-0.039650464257360664
0.05962639696926108
-0.5445421136745124
-0.25335579573040895
-0.2561780753504205
-0.2751221741942866
-0.06622802177890338
-0.5601497833957685
0.11780980446025995
0.1538054418393286
0.3769725773567621
0.3451567434100032
-0.23521317088059657
-0.20623540352869119
0.016300523050819686
0.3089749121669724
0.013241400469542383
-0.09841146535918915
-0.14771079266306036
-0.3584050692297774
-0.2792145014137223
-0.14531956480914412
0.41969144514306556
0.7216475845857228
0.148639575724078
-0.05857033910283348
-0.06206032216946737
-0.302768733870333
-0.5611994578449365
0.46659187633209026
-0.1785678096118637
0.06615861338869175
-0.5258871529314854
0.045659809804606946
0.0789504526756545
0.44563535556120293
0.1143739365886072
0.7405096372507433
0.373491696400298
-0.5326393526618453
-0.5180487610578787
-0.3260994372213429
-0.18484914362392488
0.14481293014109411
-0.44644037940416276
0.1611130991331582
-0.5620362824110885
0.02444817998376517
-0.5836717317299147
0.7659635155897181
0.3442380700800499
-0.22273318981937879
0.4235050449669087
-0.1888111640528867
0.07307498779250277
0.027296206813929212
-0.029659504620342187
-0.08673734894740877
-0.8182058759274781
0.039128697533260516
0.2906023548582309
0.42421995111132277
0.6359590074728247
0.3733241047124686
0.6061566005704572
-0.7297664902215182
0.04360586219779974
0.27102518596639236
-0.30039467154684213
-0.23711064716772062
0.3208080582019143
-0.13991251329100418
0.041437636570906176
-0.0178752956492423
0.12731360749321552
0.5497090179424787
-0.04891706696537607
0.6327245559380203
-0.3099480634325967
-0.36268643120361654
-0.39235555297534785
-0.6785185179062885
-0.3770270105210775
-0.387697834236928
0.7660508189053618
0.030767627212455875
0.008452873656392359
-0.06343964976494947
0.3525812771708416
0.17733423419519195
0.10408281640065481
-0.05584568486734038
0.03124093402456176
0.22451769389109572
-1.0176047397665215
-0.7307794696437949
0.5624857240022311
0.3043757694731534
-0.062203573735194466
0.2801892804717186
-0.5447861828157636
0.011376034742102236
-0.7292556242164202
0.2892459726484392
-0.2604631201877503
0.265164502341877
0.15949055204366638
-0.21162723989267004
-0.2550058672716425
0.6234268857760538
0.40996999820812596
-0.24795126485715646
0.49553425974145976
0.5647560509825758
-0.6073721686745437
-0.48720325640680373
0.25384392415235985
-0.14844133719559333
0.11437856037655546
-0.6597263060571997
0.21651794794583362
0.8601116817465934
0.32058387267690236
0.4030899537178558
0.08117442858848126
-0.010449426438373136
0.3363350801122743
-0.4797312055052886
0.4085433600002435
-0.34910528541305114
0.18645410156762826
0.32551185776496244
-0.49606669055745634
-0.17195482308050633
-0.22905862475158698
-0.23021822895824223
0.001442516817228506
0.16716906327406247
0.5086447485165261
0.7470191909314896
0.6563765225977733
0.14044672319107598
-0.2896872583048395
0.033668900228702545
-0.2745469399147103
0.09871163868227757
-0.4004227795298762
0.19667331033972024
0.4779963519450711
-0.05808295998087252
0.011921620209932744
0.3157067579492294
-0.3475561247021208
0.492691434982561
0.26755104292785054
-0.16735130747604693
-0.5412997955070598
0.26434592522933037
0.17255946314858356
0.09409009205295817
0.13804128102250918
-0.33251360101504807
-0.020438156159896723
0.33030121482299557
-0.2618816414649813
0.4811734417242665
-0.3365054856904872
0.24237593591079343
-0.15611462730682185
-0.4703577853505465
0.620414714750401
0.8985900749151314
0.8249968558085742
-0.5439478835518237
-0.40070278339422466
-0.24169093138160946
-0.04107309239602829
0.2515327701269369
0.19312142015726141
-0.07341223725240194
0.0035866926564610143
0.36395986962688864
-0.08265802953903237
0.38802064506040934
-0.1021931555188083
-0.24523016938078077
0.42658960959671705
-0.631018139104339
-0.037720460843657835
0.32981122974836125
-0.06818042565150054
-0.16561853982502597
-0.038074790684516656
0.043922488499925465
-0.6198399676681341
-0.2145107871907233
-0.42489082127202293
-0.35607962904784723
0.1911942943186469
-0.07696215066970986
0.055689235091377375
-0.3588943861903997
0.2933902267607443
-0.14592365666209708
0.21946143746586577
0.03132858615360119
-0.5987023781290449
0.3850799228969793
-0.1455379692010956
0.0819062668936077
0.44905944686909255
-0.2569096048891577
-0.15897640501980065
-0.22505209557958109
0.39075712251855693
0.09614216426329682
-0.4266982112805524
