0.22706226520354264
-0.3114983088558343
0.08967304488813396
-0.14297382869175534
1.000094709781598
0.26894852449612344
0.07089538763425633
0.5244570326332084
0.2560261689845753
0.3986943389446663
0.006520105457431832
-0.09879536456376149
0.30830059525399445
0.06551183389363263
0.6378061055881125
-0.4911110616487396
-0.1728429250737981
0.1242773161682059
0.3337421543057441
-0.4333378081405224
-0.020085015018088372
0.6354942424368488
0.022291967988661784
0.588850003836641
0.03823329040159707
0.40794943297183317
-0.4576371505598248
0.16408911575705612
-0.33518262227820655
-0.18919567419132088
-0.5418130247047698
-0.4833416708442456
-0.8058113384340806
0.4255049085611748
0.3622973676505157
-1.1881160317917014
-0.10639018763728407
-0.05301098182528149
-0.14070959024784618
-0.2752323167062193
-0.5921380215626166
-0.47209648853324454
-0.49746683020485144
0.0008654934012396187
-0.1433135765594702
-0.2885040790205116
-0.1810229983353467
-0.11559798214620208
0.5598060340059362
-0.5569762838386071
0.3835895327820218
0.4210655933658127
0.18503488767327428
0.2195683456788985
-0.46020473418902136
-0.17105004243796904
-0.4823155084911225
0.40599764331820737
0.3117225552352155
-0.4027102483091201
0.3509823663315598
0.8832148360297483
-0.05624156327295924
-0.1914470854906933
-0.17670328621542775
0.643016123939796
0.4038465737993426
0.45702011553458377
-0.4443127882135785
-0.24328737116443508
0.11586506567554279
0.1400415748502966
-0.7601395962647377
0.6966632538639673
0.21783075004440686
-0.46204061372079164
-0.04490218223463534
-0.8163981936965179
-0.7674658755258544
0.19292500046141173
0.6330353269733867
0.15382301636660928
-0.29708931926072046
-0.3363714180227081
-0.9723544189966405
0.07375364013580259
-0.24867396442210657
0.09149288969017116
0.29175964374927277
-0.35128761992927404
0.06410193521456051
-0.11682680949242698
0.24062931862281126
-0.7008531649460822
-0.8468818347576741
0.5688706933294231
-0.7010356352573544
-0.6551348024393145
0.5351468074817068
0.3903082298454425
0.1199101951161433
-0.005766944662399567
-0.46108331303183625
0.36045076812655724
0.09326730581857678
-0.12606162098495227
0.5072525599638329
-0.05710113980589672
-0.1250590896520832
0.1658602907255424
-0.17425527730905627
0.4103699115670036
0.14001337097901564
0.28554778076047876
-0.03344730394511382
0.11811232901840332
0.12187944760712333
-0.11385252534172097
-0.21748282064432028
-0.04432825294601206
0.1796439037833147
-0.6949370488192247
0.11664649196809296
0.16285380044249176
0.1890325039591615
0.38297241554918243
-0.4146802466455396
-0.13008104866349662
0.6497896218570431
-0.4683510609511159
-0.269952887012691
-0.15485687262746256
-0.796845159850565
0.014046706838907816
-0.2520879385778631
-0.023501568616620918
-0.8942466893040021
0.34689628803739686
-0.07860085181656382
-0.1618180916654755
-0.7030414659164436
0.48035452773202925
0.19263970928079296
0.5914306301383088
0.23246853066940787
0.020904804606813935
-0.020544351720314685
-0.09223257267741929
-0.32693884432384784
0.12332932801646927
-0.47742456442476183
-0.12772233185445708
-0.1893261847674907
0.6221068216155803
0.3530714291494653
0.22491788107821664
0.18886330735671986
-0.14767114493451974
0.3186624722440684
-0.6154837539709407
0.044097896617848846
-0.5797250199168406
-0.6836309670264837
0.6121977305006072
0.0943642397073107
0.534294538856947
0.29624942679664223
-0.5170993621894832
-0.5429591644393345
-0.7813091354659324
0.356065271219984
-0.3128776647238585
-0.2779818216323338
-0.3622690669584847
0.5812460572455905
0.08738456766851693
-0.17511462921178422
-0.5846639230013857
-0.057902387874202724
0.1927733056260736
0.0862048104828724
0.3042684516341057
0.4034566369952426
-0.17811586205357216
0.14682623907914202
-0.0065949631346973
-0.0431538715398844
0.24612420400122706
-0.17950717759153234
0.19067463002889357
-0.1145753351535085
-0.1927077403577217
-0.5599464750954564
0.17523751092256087
0.28765873544540904
-0.3203720378101929
0.7586640090407775
-0.12882628910112262
-0.067413664312382
-0.6084308910763798
-0.1801015576992571
0.1442311520715336
0.4774773896024977
-0.2962751838182619
-0.406884654312314
0.5227501607151858
-0.6181022855431368
0.3396422660792775
0.32528332680924565
-0.014306537059106807
0.3823909441597255
0.12390528600676302
0.13439727525930006
0.3411240191947757
-0.236895769062261
0.4082254156000041
-0.17618152923666924
-0.17435269950441912
0.1503695418510133
0.49290407814100917
0.5696194556424907
0.1809905428385007
-0.19699212814558104
0.5637004420940573
-0.4390383328723507
0.5312828946937611
0.5524852237023663
-0.1531914575057046
0.3126357565421645
0.044015830831391226
0.1838056383366635
0.03548504766703972
0.5101142768200279
-0.06569541167203609
-0.15824551510480644
0.13185192333853574
-0.6557667720234959
0.4085823196847754
-0.03883377430640439
0.46036895844870435
-0.0839878789812652
-0.08091853958031694
-0.2912830044194583
-0.1682291974487597
0.1704439282647202
0.37756631673522006
0.042415470700129604
0.4371099742309105
0.7493500187326548
-0.12349242986995689
-0.6659706252471801
0.028229852092771814
0.0007268887862833645
-0.029968586022557593
0.037387288209479314
0.23518564982288356
-0.21664056690100797
0.029380168400767726
-0.5820291289110749
0.5144457532916422
-0.05604984463007203
-0.26301343554768136
0.46929596384176603
-0.14743973790719503
-0.015473214646512093
-0.07767413077755242
0.39780079364194254
-0.4235512641238987
-0.34705785272483447
0.7065581632807793
0.32066639955182946
0.004218080713362207
-0.7465119326335767
0.29289990546738776
0.5411924227796984
0.20356066390817465
0.05634660867857947
0.44185950766883714
-0.7058911148677841
-0.9720109992612762
-0.7612595629342376
0.1443108454565569
-0.10068687922253329
-0.24336203108776758
-0.2591379663701374
0.9894736149105421
-0.59416159349187
0.4751094134223241
-0.255275392455815
-0.25929488653073474
-0.16848274984968545
-0.3478565618445917
0.45380397989207666
0.8233295644376804
0.2562197863860333
0.1390182740940495
0.05542998294792232
0.3945046189686416
0.4261327618688699
0.06862729386172234
-0.3154388311622956
-0.1355688400292032
0.02070520296832098
0.8000088110834824
0.05921900386907084
-0.08207477509352086
0.252774381865596
-0.22563655132165783
0.006060285907802819
0.22162579264716578
-0.4209804756777023
-0.10525489134412179
-0.015639628841673834
0.2189260672127109
-0.21217082915840077
-0.6322518558270747
0.6087402883138147
0.5586879868756476
0.3749296667309824
-0.7370597818374706
-0.03440458078085992
-0.48483049014387664
-0.08455923187628825
-0.5616550205069974
-0.17612740433215673
-0.12627733892904996
0.09359560445452209
-0.44344254117108095
-0.34866627103919196
0.6154167537116693
-0.01952249320330734
0.563856453592421
-0.5705868746090383
-0.3714099831164588
0.12294495774820212
-0.018100268578530698
-0.07685459829148411
0.1911890382164488
-0.23405610145830896
0.2780130717236647
0.16698576473571564
-0.24092688754504737
-0.02894394901902066
-0.09952999861668725
0.5130295505900884
-0.06438935497478715
-0.176372656708644
0.03740381127899367
-0.33682487371266867
0.16807423636075328
0.07559585770963342
-0.7479733531589349
-0.3978005632880931
0.44904889434196815
-0.4089221936972582
0.2287695558763205
-0.23517896339420852
0.007783664832672967
-0.48229035104249285
-0.192077137194239
0.020774349514157773
0.044598994161185686
0.13008299480508073
-0.3209316585654726
-0.28249738012053754
0.06293686480125721
-0.26832951197775545
0.492534734905782
0.26507856473570074
0.20878889950038185
0.6954972057668974
-0.46371233800183487
0.4401425407992933
0.007953426985968948
-0.3255589964393418
-0.737160582386159
-0.19294444170672154
-0.3219450268964585
-0.5036879972868066
-0.15042266081900257
-0.7135959509091843
0.3486737373226848
-0.4467799030433603
-0.25284356107982403
0.0220614373596434
0.6486942213858008
0.1382272149363672
0.19128907759707292
0.012985674629577856
-0.05919201471738597
-0.16216570305250091
0.4317569546074073
0.018816848487159674
0.5408761012413552
0.5261380741917446
0.3495964395636757
-0.5717643107976615
-0.06835922394973315
-0.5345694158941738
0.0721055600536706
-0.09708441042059623
0.185724515239614
-0.06481735991315081
0.14701254542962866
-0.4685100757636848
-0.28334552729543
-0.36914091664842236
-0.4828748622911833
-0.774852040080113
0.140149554244811
-0.04380346102564635
-0.3532126567793637
-0.7447304367812448
-0.25056487717087794
0.6257935120364735
0.5154119185570052
0.03553750144857186
-0.22855636283557876
-0.11258712368013224
0.44293861526978484
-0.6721806725200068
0.43740231424042375
0.16199137753599255
0.4359491281581975
0.3459733550889159
0.13772938818216088
0.18916774348413554
-0.06347768685565788
0.03003436531281416
-0.8294232919363186
0.11134882702412165
0.14553374996500704
0.37703897757407456
-0.701910615738186
0.8641862868506605
0.2761852871341492
0.4064758901772423
-0.5542127405338612
0.12230794872351021
0.04320791209846192
-0.16084492046817678
-0.8666167937402144
-0.2957331943859592
0.6464066006913745
0.11475737500500464
-0.2517999208807087
-0.3004009531359683
-0.3618879925818209
0.03842741213761923
-0.04488522278642921
-0.2526082858097812
-0.4299749173733365
-0.3234497271612472
0.1596728189432183
-0.2596505666095151
-0.2688984540107021
0.6244072261442061
-0.008037051662201741
-0.21417392279177744
-0.14662030342330817
0.526728647838775
0.6271606488861011
0.1066551552630471
-0.6195302973643126
-0.40371957977702294
0.21809947554132905
0.19823699099839096
0.30135805047241926
-0.35738129181667627
0.2092248510663283
0.28238796427822016
-0.18471367567141572
-0.20263329230360747
-0.3059376167653621
0.21806120848854774
-0.36582039026817664
-0.6682299736599114
0.1494217233128471
-0.18530442281226156
0.3353099289109684
0.4913626393231336
-0.4262502610550377
-0.7797929577802284
-0.2699843399694147
-0.5709817887066475
-0.13300182168929442
0.5505444743125181
0.1331641517119161
0.07698699612796871
-0.03985158200278935
-0.5764773413097086
0.005916276450566967
0.6001422244712772
0.4695968859391211
-0.1632221326187391
0.19185259053419257
0.1927229419417494
-0.37368519224103663
0.42345654098763347
-0.18935262480595946
0.1115994531553618
-0.3386139465122092
-0.11795826439195224
-0.44755710391599424
-0.13874508468983657
0.17395943055769406
0.21817780363803152
-0.21269842049066506
0.699450108581783
-0.7770954163425509
-0.26673612789781403
0.5633666906151222
-0.07027072189822124
-0.09101930147363682
0.20177988978397352
-0.13067168239208046
0.5682209728056078
-0.6744712049689644
-0.21778927185181438
-0.43440020155961323
-0.34163872399833384
-0.24580109614882548
0.6337752304275268
0.3127571149172493
-0.004902914010105442
-0.3652879532587126
0.048458996005272585
-0.4819436649838568
0.0793227074900445
-0.3076541583271235
-0.1535069862444831
0.014041619198046262
0.06189400539638826
-0.016893342857221307
0.3091717526132495
0.16199330121675454
0.028268856533224078
0.8211458855109998
0.025129550344600023
0.4733553079195225
-0.09356736254492283
0.38130754785038223
0.08189665054551186
0.16580522250701482
-0.7787746149133049
-0.5789785359645307
0.22191779060655867
-0.500505068392865
-0.48343158550980814
0.5675273112718351
0.40423778587560844
0.2649710302280797
0.2578236941247715
-0.14307073368734763
-0.30627508545823157
-0.14345427276789785
-0.32456008970206757
-0.3167730224512093
-0.15311042292386282
0.32869344223879987
0.004323674857274172
0.10544867384369286
-0.32147070001338185
-0.3231231433341426
0.03561369600382999
-0.04931394812048242
-0.20033241528291346
0.554926322946703
0.02786384011239819
-0.3377968268924053
-0.12349594684935453
0.066037579599579
0.23204996966846506
0.2713169084432323
-0.19505042612541226
0.4503445104525072
-0.39117399746132375
0.05298032773267231
-0.39043562062852855
-0.09398386062323755
0.4618878144450693
0.5752833644015233
0.2330807273044649
-0.3141954356375874
-0.13351615449505558
-0.4463433150669201
0.6051105555069839
-0.4632985674020047
0.15278944869178898
-0.42638369428887135
0.0874479404503725
-0.23561797370008353
0.4157693503878966
0.06918850948127075
0.11646954955407349
-0.27822425524929795
-0.25687733543720725
0.5105852710414597
-0.3593812270718657
-0.7552533847957954
0.2216343541118205
-0.08083855754297886
0.1793449063860377
-0.1788317328061637
0.6419589775632166
0.5765194035166944
0.46215329001280187
0.05288019280413859
0.3870510168038258
-0.07415929958584239
-0.5050498083152993
-0.03957054666000884
0.0766165559524652
-0.4051316458749529
-0.004035625201330612
0.03801230379400599
-0.14350651531722664
-0.25825942367758636
0.20850768878344478
-0.14066370633842415
0.4557888500767469
0.00831803563691145
-0.2192951972237465
0.1462630501371232
0.2613467995642993
-0.21081920515530603
-0.5088508336415687
0.010514957305151574
0.195768254443936
0.25258279585300764
-0.4316093530240847
-0.5941521685749217
-0.7759143404655239
0.006211488530550654
0.25301555643598517
-0.0863312580507404
-0.11604440070830602
-0.30050768906234276
-0.34893976970688095
-0.2238348123532565
-0.004377987154830207
-0.13824599173311153
0.12269558248501963
-0.09641913895058678
-0.3012568369249697
0.1691520514579475
0.6801336321972302
0.5851291587998853
-0.2466260078290997
0.09267521367318163
-0.04758906651289025
0.14125195961052697
-0.5217820164937294
-0.28281669119223596
0.4886942866725924
0.06339129568255017
-0.5654235183711998
-0.11490391193193776
-0.9725288619213839
-0.3710413970880764
-0.08620734650637871
-1.1860263116008505
-0.6777289411018456
-0.24463682577677226
0.2630453886282983
-0.3521074463476365
0.26733154083282934
0.11948962423008881
0.2645491848451516
0.08557059338485896
-0.5128873852212399
0.3000110362423498
-0.6018639032960494
-0.08756438365150261
-0.3267835539936907
-0.31908956941797917
0.46913924682934144
-0.5820780280615389
0.539235782711663
0.27773218612325584
0.07865246667624239
0.6995037693865133
-0.20247701012803296
-0.1641856928564281
-0.25364141194125905
0.12839153686841365
0.4973499744784825
0.3093242138888633
-0.6229458963735972
-0.6655340764523041
-0.5034893199433982
0.5617410077749033
-0.017995044088332256
-0.4838304238388234
0.02547635467102893
0.33761656970947357
-0.23208139124952828
-0.08305650641374383
0.30459332750200496
-0.2798498881350318
0.31160818352560515
-0.08820886743120197
0.11311616487671593
-0.7453808962195618
0.3935473070778744
0.13391835139999628
0.09798586496166828
0.4834482185477601
-0.4960115500366131
-0.1549852215432361
0.484363709698939
-0.05849948472488527
0.6669274141876386
0.3675138456536297
-0.5015254439991937
-0.22702001647105047
0.7123401697620683
0.05065732738344194
-0.17822086094377426
-0.08166961556151368
0.4045592763323808
0.045541923786763215
-0.5551334732830764
-0.18739630095307297
0.03927633085880583
-0.054906908073463066
0.3350034803135838
0.268106626222239
0.01614999467789193
0.4413063118631762
-0.087032702273429
0.4568255984965392
0.18015944275284737
-0.1904541493854385
0.5075207323224549
0.9400617772506047
0.18768126404816754
-0.30340114871278034
-0.04228919571517052
-0.26465192462890436
0.2913068691587036
0.0029296971846122233
-0.7674388952731798
-0.18186192381623598
-0.33337912378812984
0.32404935680506075
0.09593543031347813
-0.5754663476881036
0.3705736412461873
0.2112281331416288
0.7598309871611979
-0.7092212523214938
0.24171303585125
0.6252705199697108
0.840579144253158
0.055759650391124994
-0.1571228239193086
-0.2836310165711894
-0.08285921542164146
-0.4039956232546082
0.14336795434010763
-0.02455665682811853
-0.16409885751629208
-0.016785515386203827
-0.9497652132449083
-0.3658452917109505
0.2975591181177454
0.31108484013068355
-0.3849904099311095
-0.07640951706662706
0.017736621756752752
0.5044399277332114
-0.4077012977929299
-0.395750544634427
0.5763014297651137
0.4063454356523563
-0.16919703231401886
0.4200683617521125
0.42827771453390595
1.1194473491115289
-0.5564346360812732
0.17931484329138064
0.5023035991717578
0.4716924950732541
-0.3574644742382596
-0.10367680580482558
0.32035098798705136
-0.048763264246839404
0.24609727189516192
0.05577210061999558
-0.0855844123360616
-0.571267934380793
-0.020878582715747433
-0.15911742613565616
0.15320759078505608
-0.5263730935078578
-0.3904237339327022
0.5306823124488317
-0.3606976347873356
0.3456839206979006
0.4648360798238781
0.6408279185964143
0.0041147336177742334
-0.16931469589399348
0.17280810404379304
-0.16687061032260322
0.19147841550393901
0.19527298560237594
0.20322870158299491
-0.5199028461836763
0.27143834659833643
-0.402577839026224
0.38493099947295234
0.7393922549055089
0.06647791722529064
-0.9565451316445444
0.23425750866399309
1.1134167654444143
-0.44915122768435456
0.0701688030548743
0.36658626976773157
-0.7866414181750747
-0.24108795466477717
0.02506718870285099
-0.6532034997677667
0.4007310655992843
0.30477024972790484
-0.05261643668590456
0.5290015781209688
0.4210130214729014
-0.058787855054321624
0.2694578022994402
0.056716165578090734
-0.1538854611471814
-0.20466855916562085
0.4327115204140055
0.29538670679558876
0.44993303728946954
-0.015166414097665172
0.03973822465860384
-0.12938793886602748
-0.05899039144173321
0.04468493935276386
-0.28648836675836664
-0.019423691078631622
0.41768385392369156
0.018710495496670396
0.12312913481056771
0.41596372157581574
-0.44423124271092
0.5604428775771005
0.6458491582592744
-0.3454612018410174
0.18342189440258594
-0.2487333432323852
0.4754761785607042
0.335956296065051
-0.5947536549337008
-0.7804591258825736
0.28113931510582374
0.011321721235076297
-0.03623462761976172
0.1409835888147974
0.23195226928235574
-0.17864503124989004
0.06922413966181593
0.46985835973860596
0.6891267013100192
-0.5843451236048899
0.8035397747693293
0.10825637609694409
-0.1256036668125051
-0.16624552891886177
0.3455841428956641
-0.8528686297108435
0.2531002322491264
-0.06019891597142489
-0.2258933473004203
-0.1355560344815845
0.12364189595661987
0.21214138427142418
-0.6364181832278442
0.45694179531652185
-0.11354191800527347
0.1902885797524157
0.6790157138072703
0.19385929473900448
0.2788431778885772
-0.06203000055396179
-0.21271359921870528
0.1460283141804002
0.6017854815426661
-0.14718438514301443
0.3126726363924647
0.39487500852697693
0.5209276768620393
0.3140437348028996
-0.673425724498846
-0.4663817785785301
0.39465805491199374
0.4501412711448164
0.2567225955830359
-0.2872740242052765
-0.16989883830749955
0.009011999193607052
0.031260404114603645
0.113765546903631
-0.24017334650851588
-0.5025987992345492
-0.498449062095277
-0.23190376730892914
-0.6989707468893558
0.2667150151227372
-0.2318275801070005
-0.10266338545760395
0.1560526545824953
-0.12106346720458432
0.41405487814302955
-0.6600274713082666
0.005270098783606586
0.1348760866307307
-0.10606588463659883
0.022249532690360722
-0.08661016458649971
-0.06838943350451461
-0.05782650050138124
0.42758531423789264
0.42172991549042693
0.2776687812339278
0.8835775166026917
-0.06978809509900621
-0.9636627304799529
0.29085189661082944
-0.04276601587817637
-0.49051284719153326
0.14792249981025626
-0.0134050686522988
0.17346999843896238
-0.29803017602802445
0.025107178790087614
-0.4201503913490219
0.27987581366802755
-0.20661201012328825
0.0667234996369692
-0.7931497296127596
-0.22428643702047205
0.2697202780334478
0.2565368204252861
0.6573909618525183
-0.23099148785333534
0.7157455148290188
0.33479963816846076
-0.2478078213133601
-0.04550236968222786
-0.6112432576170205
0.4589574285822952
0.15618691993932482
-0.2911767232128502
0.04962637360004929
0.08640083693997958
0.4639812005611996
-0.3915909634001393
-0.1773596101694442
0.05039377721062763
-0.7838656798416471
0.16671749758005439
-0.2336974716177543
-0.024570485743365168
-0.30201531700145856
0.34694732250870436
-0.11935223710495702
-0.008972811500893981
-0.004629018010634436
0.23830679257002962
-0.20391188665824236
-0.22663863141800408
-0.35495245351682675
0.41548203811204576
0.30766136997400156
-0.14515549735974026
-0.04882564624095671
0.16691529309131992
0.30903139111589306
-0.5415460513260316
0.028517528141767688
0.34925090980795187
0.3079642165441668
-0.5847221551525833
0.05381120879270321
0.22651616263492233
0.6422533530303464
-0.4402211631018223
0.4494957940266069
0.2269290650647322
0.5419492555124514
-0.43574939939410534
-0.43792161077780956
0.6148455436880579
0.09122020049460414
-0.8099531316277979
0.5742771044943903
-0.5295086031921112
0.15034716052504973
-0.18265825505847125
-0.002112974019787358
0.3748463478563879
1.0024959035892913
0.14021793635693977
0.6079631648835191
0.967058789938715
-0.19430107936425914
-0.13940277473178653
0.0248179694272854
0.18348005925838146
0.055843372785366774
-0.9580177694449329
0.556993223505573
0.6689148473979437
-0.0009510058578918006
0.39019105700252876
0.22307427513066783
-0.08387402786133227
-0.7504083667229693
-0.45804326478689944
-0.09486530028220685
-0.41922258669726137
0.09952165751519966
0.5186491344326001
0.1294809415184479
-0.2010436391661799
-0.24204939993415045
0.7023186163652388
-0.26341500478130925
-0.6431711415121372
-0.4465172986531015
0.22777057670359413
-0.4528227735704451
0.11024128524322631
0.8470281131256856
-0.024293253309043493
0.4334911604742984
0.6178688967532038
0.11920178614308667
-0.0358550852579281
-0.08900854788320811
-0.010885284949180006
-0.46895961550482
-0.2532935311744934
0.44742254626610967
0.2358617787981998
-0.1954418701606385
0.08084500969466886
0.15479248318639305
0.30238716559322637
0.09994439253639043
-0.45358492196821104
0.2320290436313187
0.07128381204465628
-0.08646029437521731
0.27010927644669114
0.11543811297211555
-0.0006840677833592453
-0.3613452371950096
-0.17340425754576907
0.5362835929943431
0.34823520745152503
0.6662976797547868
-0.5775537098491123
-0.19539871382557536
0.1139210649953708
0.684903689759699
0.8430614892864593
0.0035949765956076033
-0.18573794803303836
-0.3232443702973642
-0.31656877851966914
-0.1635481979621864
-0.33356604590288313
-0.6342083559837769
-0.14331987924729786
-0.38614160476713566
0.30290869579292706
0.5280724718951099
0.5613769085475967
1.0904940514039136
-0.06215654807005603
-0.2358961257186143
-0.03759458442151228
-0.12254111204223729
-0.13312416668047386
0.24669477164945453
0.3656269650593371
-0.11770959387440905
0.3018245009944764
0.26048667028774375
0.8523897933715718
0.7242567416878694
-0.3343435893829629
-0.6884315637972652
-0.08224480535000372
0.03640650367605325
0.15168030181487022
-0.17280303058945332
0.27094789325669205
0.5464829507809025
0.5777752053341116
-0.09624015729799294
0.23539150634336795
0.48862512572008154
0.011094340527045188
-0.26286995560975
-0.058230318905680235
0.07000941110070608
0.23360174491318145
0.11599381942071012
-0.5739761111386331
-0.21545814472892097
-0.2947438930537208
0.3907277706626833
0.2332830161358542
0.11254707174829881
0.19441407291109625
0.7946074433166771
-0.18690936076081477
0.0400736399829126
0.0003626389808942024
0.8009060203490991
0.47668802233840574
-0.09801888078848461
0.028516032013177685
0.06792170642238084
0.5578845244847697
0.1157125341057625
-0.11025231606096571
-0.5995177700324307
-0.17374589352485256
0.3702119101329206
-0.010954745328184556
0.5628820586136718
0.6383249128919547
0.09215452942324737
0.44472515727381345
-0.09356394313332932
-0.005012009167766588
-0.5963662959356789
0.9648189509332417
-0.24240293901475227
-0.2459419828561196
-0.1470239066340745
-0.28820580585020983
0.4045144286376467
-0.14376049942587438
0.2604082158212344
-0.3290461260791225
-0.22274957468876733
0.13195892168244538
0.10110999115233789
-0.1336164060253289
-0.029682580825229423
-0.6110943533475937
-0.033209256165347346
-0.13768949053870722
-0.6346765893799858
-0.36046378799690865
0.19530879860963732
-0.2582909167033971
-0.19958957308399666
-0.8420173424147424
0.2199905190319915
0.20282153287289478
0.029594010377969823
0.133724112891579
-0.3663435190778887
-0.3076893422631222
0.12163369824930506
-0.3173974696768946
0.151370336835511
-0.23187513051387884
-0.40215041554551423
-0.5522334545635575
0.23468709902298593
-0.563181721744037
0.6843868764545026
0.2029596784401424
-0.46460137850444305
0.09905935795674334
-0.057693875020171766
-0.3268048364403314
0.32117898780145976
0.2532652269105984
0.05665771187230408
0.07735195101326817
0.30981506683325716
0.5233123198977704
0.0347722223600034
-0.7164508468714592
0.039188192250926665
0.16401407565522158
-0.37895156962878707
0.01476618751885269
0.43885628887520095
-0.8699570214364041
-0.5857572089141605
0.19106005605454507
0.050911978787558355
-1.2404471533430312
-0.3172817060468162
-0.5983050063146926
-0.22318348443789313
-0.01190332951100783
0.8352205821166969
0.2604556183955716
0.5206465643029312
0.6510744233036957
0.06996413357215296
-0.5442914133381344
-0.15714782238470376
0.5311265268788787
0.21956265591235616
-0.6084536255731136
-0.3046684523197192
0.0263249919143476
-0.4544207789496222
-0.47750446402041535
0.60494630948146
0.10507431168339162
-0.10978933878848311
1.5089470368438067
0.44600743135750437
0.07894582332918358
0.35475033268574163
0.2666366314564893
-0.416388226782151
-0.027040498551948098
0.11955149574103904
0.03542609550218827
-0.03401716947379485
-0.4511806958831574
0.2033154271764764
0.8311354746825351
-0.14833422379453506
0.6712335817406654
0.08108656899051754
0.1425906942652377
0.06800030317435175
0.31527199490718416
0.6316753229405735
0.44963171523381873
-0.6523559791170717
0.42192718145982905
-0.0494868513286058
0.16234489736606708
0.41796356915524924
-0.7794147224001625
0.7200525310006517
-0.10025241797104995
-0.2794241610073303
0.6418289947184582
-0.17307194042871193
-0.3924428279055951
0.9058987836049976
0.2726169524879013
0.07815507021095267
-0.5122186799387486
-0.15024138445435534
0.17880974660681012
0.5153145710085507
0.2706040048914921
-0.23746367853342298
1.0449738031328804
-0.016327821568497707
-0.49424735797317365
0.441837757304728
0.6533201357592255
-0.5061711445924894
-0.15639598818548817
0.004098927687375895
-0.015910602544402692
0.4636866468060706
-0.4403362959098827
-0.18851284256949896
0.28410021153193005
0.4587399408784876
-0.037930882681178814
0.7911040244603151
-0.022586189840454608
-0.51580182052113
0.37922581563765917
0.6526606833694588
-0.6831742013417438
0.19396118493248982
-0.02644262736588608
-0.05211775578122771
0.7076470730227508
0.45418815841990196
-0.11755166227601627
0.5555232719245485
-0.997427006987632
-0.6178415324286887
-0.6603536413178351
0.10197429079605363
0.2189436442685485
0.26115059070526037
-1.1314379048079528
-0.7347427083662865
0.36495743299240613
-0.13207726157928992
-0.458326004352991
-0.26337641989311045
-0.2780451244257838
0.18234713593081997
0.6209851555833117
0.581067257035372
0.5938673462226817
-0.18790548180230973
0.28064777506939986
0.1743735812440216
0.20629608230465357
-0.287227819274991
-0.3669876906783687
0.7768383819199748
-0.1685697348516251
-0.2514265207321224
-0.3328765958234095
-0.1058218585229293
-0.3456503939458408
0.46802422793712245
0.1864225367005189
-0.61796707050094
-0.33276849176509987
-0.4796958385900911
-0.30889397199449503
-0.3053895715765823
0.33337287392884535
0.24323342053855385
0.22676680820973122
0.33206973991342215
0.5576846835890019
-0.06614158149906477
0.0024567857372057677
-0.34663669920598095
0.7109591160261709
0.1702099330979746
0.49723630426637966
-0.27713574949283887
0.49642686066355673
-0.4991534200860306
-0.2971297056673706
0.12764176586423517
-0.12126477835904019
-0.6280335572575599
-0.40564090607887554
-0.47484378769477686
-0.5551081852334621
0.5581755307738083
-0.17123181676227867
-0.42691347672729246
0.3858607842626441
-0.3252232089159164
-0.5504015629116815
-0.06627387683093615
0.018750170300932765
0.535872803746292
-0.29623084256525994
0.021400688963616278
-0.05658657281900681
0.7005923128854177
-0.07651619599372111
-0.24215027549849447
0.16819688794909132
-0.14438088307961777
0.2274890149013351
-0.9210021942384441
-0.48884164363206284
0.03935786216225488
-0.3641915236679817
-0.938373662988207
-0.0025519775690966712
-0.29139646939918434
0.22785684305007856
0.32868503859265474
0.04864731261493248
-0.11187737053617743
-0.28508211268136946
0.19161119091719125
-0.27193715222117837
-0.07136285807594053
0.31085042010273994
-0.1512674632871727
-0.16919648450899402
0.4123127986544178
0.5368135383647533
-0.37619559626924354
-0.3047310686886145
-0.14411823594893275
-0.3071984576569911
0.5309209569833421
0.2584666944511524
0.02850933215962831
-0.305669262806314
0.15746143619506825
0.028166915860414077
0.13016069126539961
0.010975567181698438
0.12248778360779122
-0.4471231316511372
-0.055790394514453535
-0.40247895201713046
-0.20998791501537242
-0.008580507960235857
0.8297771395176737
-0.975408640402015
-0.078668309270712
0.3416109383005275
0.8211821773761308
-0.03673476926073511
-0.6584534407167848
-0.09311920453557103
-0.19647732328923972
-0.2616493198314307
-0.06842710121324201
-0.041851714329823216
-1.0419668468398762
-0.8446096589734048
-0.11993304519217686
-0.2049022694686569
-0.2649982390040935
-0.4768650149013643
0.03821756498504543
-0.22971276831552473
0.4824806802488044
-0.013416256534416734
0.6285905330747492
-0.3334537179046889
-0.40423207163082087
-0.24133642169062075
-0.498761861510387
-0.7830053071771752
-0.010542729164192513
0.14876146477181734
0.08882478073318745
-0.27915944670422377
-0.21306817058512098
0.49178809939442497
0.08448321209376278
-0.09670823065017595
-0.21626314431505167
0.06265022365932273
-0.4125062708915392
-0.28669394184356584
-0.2669461757942221
-0.16958936614907985
-0.6426261630065947
-0.324810408593666
-0.37539010901921044
0.24418345346904155
-0.4956582506196842
-0.2876987519206136
-0.0005952118128567843
0.0994343651428506
-0.09486902134752213
-0.2571125417354541
-0.7727048609670021
-0.20644344862219433
-0.2870138821116308
-0.5613449627614734
-0.7348301625362074
0.6231401794320172
-0.43615715964956886
-0.18320264835183117
0.294699380744936
0.41187260888945315
0.023428338489082278
-0.5268391044318806
-0.0195990228069657
-0.12375872902141272
0.047550851238617915
0.17739896219967272
-0.3407854591448224
0.22857183812752532
0.4443979000254315
-0.23285823332620453
0.06610536184269807
-0.21836134803650062
-0.7702504752762824
-0.1667387145213337
-0.3068948829342139
-0.3246148360618436
-0.12446477387533514
0.07854694389571658
0.532971013254364
-0.5207306932612609
-0.2539668146120206
0.16040466346163101
-0.21395759563627495
-0.4099293900221066
0.04320038261820441
0.139067245535279
-0.8864117787366109
-0.58995385070103
-0.23110928868581315
0.3900534377267149
0.3162890129416308
-0.03598545815488257
0.6655210579059851
-0.33877789048939533
0.14232248850359452
0.06715013546952761
-0.42195319448622215
0.3464134367457205
-0.11340137116304191
-0.028301245613168595
-0.03324211845238879
-0.23831962777162824
-0.16283792423185986
0.23213971869012467
0.4248136555805927
0.0480936299314902
0.2456202678645641
-0.05294005155010939
-0.25887911886542975
0.31102247420239143
-0.11644636628324488
0.6461039352120145
-0.42946299425113377
0.204522469480087
0.2975693999528998
0.5384371373526937
-0.570027781709571
0.28411897594919
-0.6181762477800876
0.18007809532847663
0.7906202305233416
0.2013234423259596
-0.6591273685737177
0.2910110461635718
-0.47509341041767134
0.15039551137057675
-0.8047725756755348
0.5847525294089747
0.14706186373052343
0.03224032968059881
-0.14786659981514547
-0.36476218004306826
0.2807175128184551
-0.5129314247282214
-0.25076102534806405
0.40606427213333707
-0.5232213097433144
-0.37347157652287194
0.0005988838370983968
-0.014684745591149536
0.592048346858238
0.42742638268386884
-0.15593214444962714
0.8825998682025596
-0.4765979955512899
0.34711183186631084
0.11421818677233908
-0.5412497624936405
0.288604367538794
0.4478374415590951
0.06972749892740798
0.49899327146314476
0.24006031530247565
-0.14757343759875532
-0.40284148587022206
0.19907557416051352
-0.2841143367049664
-0.378920721863394
-0.7746989000828668
-0.1797192777129123
0.2024401736460734
-0.34868782379019286
0.02519377506921425
-0.19967473392136947
-0.3869773718098753
-0.3391046196171747
0.0657775976421677
0.5928191645633384
-0.46547857768640316
0.15775605759183653
0.1380214810017186
-0.5070836228720847
0.14623875267744893
0.09032943365449835
-0.07187816706271093
0.5041438019768052
-0.002341769120998775
-0.8750677877335152
0.42830238966952494
0.10474070674297263
0.10373941198856902
-0.23976806402383008
0.027190024285876333
0.38499825669066834
0.00557020121061995
0.2995933865067141
0.47634913420895114
-0.439703957140774
-0.0750082652682114
0.6821166741405942
0.18228366271757201
0.05273043053631337
0.08824276880924667
0.31838191702427104
-0.03649189047599583
0.722414307047275
-0.23631715786147195
-0.10172104800618156
-0.057064225137711394
0.09681449011973477
-0.6774184909783397
-0.4451463205915159
-0.2894378474935761
-0.24322691511652078
0.025467130847592886
0.26404650375184896
-0.3704852945567964
0.12369571938459667
-0.14539562844470239
-0.11026001204423994
-0.7424506960913425
0.20242455316472752
0.6269161264541672
-0.30288206531578943
0.5087659683487457
-0.07874667528589638
0.32000152365006695
0.7019339442022638
0.4454702020647706
-0.003851512426143149
0.020114798307904334
0.16703014044386327
-0.03834679986032402
-0.7422308627702637
-0.18248826520968428
-0.07824170398105303
-0.5622282628200216
0.8335384938459847
0.3250847782466916
-0.5219301152358171
0.038104093000732246
0.5383729750888859
-0.004318829080925629
-0.021965709798449938
-0.5043333242299927
0.31388761459928355
-0.17463265815649115
0.3088651096626275
-0.20970601975844003
-0.06782867403693672
0.8403893627283763
0.2959315793020413
-0.29151935901792847
0.17566406871180898
0.24068452124775364
0.07877724478136991
-0.01450681787097386
-0.21742745765771435
0.08657344946543932
-0.5614869912795694
0.168890930207461
-0.04398475575366418
1.0408654088555034
-0.5124242173457763
-0.30404815874294056
-0.33975304422375924
0.3664909059484655
0.33510212079885554
-0.2117082874270458
-0.7687441317552425
-0.1779944047814652
0.13989813388843284
0.2572221875017311
0.4706755325082481
-0.06857431668623899
-0.16205440390948953
0.24056847559866273
0.02314966175478134
-0.3693723589001476
0.21614457405293053
0.05290375689655516
-0.4142723197675135
-1.1310133673438825
-0.17191923494766084
-0.0037262512737933776
0.136136481773659
0.5493152566536794
0.14317348084165918
0.5529196158721558
-0.08150225457451893
0.09916778205002834
-0.1781715714151222
0.019261889774321223
-0.3804660641279427
-0.15672589360446326
-0.4290785940303866
0.46188316418283487
-0.5102865455607367
0.47980750672305783
0.0492708073169935
-0.13172126135652623
0.1408306871360248
0.7014905302651663
0.13257088940784045
0.1374879179999492
-0.1365660493362637
-0.3192216693368048
-0.21415904200347918
0.44611407629333993
-0.7250417146020814
0.22927192184753192
0.5315331206528761
0.46020363731004565
0.4184129120418002
-0.002891506492907975
-0.3878695974209875
0.2450497591344873
-0.056900955317529124
0.24103648029295022
-0.9059790150992596
-0.23571520844183833
0.05072623432538334
-0.10402153795476976
0.30268670578694873
0.07637710318465454
-0.5907978186637939
-0.2435916494798677
-0.33921532389132286
-0.15154033190483343
0.10919910525083577
0.5477953305494584
-0.585142356339837
0.5515122939077778
-0.39669025611008474
0.05153671109820541
-0.058224948989726494
-0.1766471286717893
0.02691952655715189
-0.45993050720688333
0.7502243257279683
0.10063524586569532
-0.03787174931401711
-0.15026050521123416
0.3429393076411732
-0.6807257336439027
-0.8266057226180693
-0.1456686806569726
0.025725906886033816
1.0166976820952394
-0.3642769632089394
-0.2491973340253634
0.5952725327518342
0.05555638994103967
0.013520634153576133
-0.03486208122825805
-0.2076850592954377
0.2697092980762259
-0.07299278877271571
0.3745508670216155
-0.08912694577281
-0.5614287579470723
-0.674196004924528
-0.023488118781624427
0.31773158838396504
0.1684163619449749
0.47931333184208363
-0.0850999999396715
-0.062428380845822334
0.41222883161446694
0.08554759259625518
-0.024614672762696545
-0.24189848412130652
0.7511091337541681
0.01574860320517459
-0.4035047849099186
-0.4285387425385208
-0.35974517691773183
-0.1650798550164641
-0.01538848911040004
-0.587183782327167
0.03539980605283939
-0.20750034740618678
0.1823909908234187
-0.6978873747610799
0.6090637793343101
0.3454598792319575
-0.13867726961440127
-0.7898149052083512
0.4267323172617999
-0.06592391783947639
0.0970671545982776
0.027957166431608577
0.045990977585906354
0.28654849849667996
0.6250333483912172
-0.10653787665107582
0.5843800600071954
-0.3964862621960808
-0.5530798034182229
-0.3282971434383997
-0.4181042314329469
0.041962212991730696
-0.22445398169842443
0.3561390437663671
-0.4172794766675915
0.375116931208043
0.6096258161110416
-0.2731425063220528
-0.37811917882248275
0.5081476298951901
0.5405114934152594
0.1534639333289955
-0.7687942415290875
0.4568088567523039
-0.24934722736400464
-0.7005522618651618
0.7604345304820566
0.7810449336512484
-0.12373292628586835
0.11622878669372905
-0.9023155528754372
0.3668775005171521
0.3521422210118716
-1.1147926396545305
-0.027853864775275947
0.21460570743111124
0.28998935612530785
0.10833525330955829
-0.007984121001242022
-0.18201317038252274
0.1662389847500982
-0.36869229274601156
-0.4553561604452035
-0.39305635699062497
0.27382774023394935
0.24290696736987463
-0.14290131826790758
-0.381675847733045
-0.31393205085501846
-0.2705394956668329
0.1533362160507043
-0.47455735958092515
0.8176061345754556
0.010313487814577355
-0.33866348452348866
-0.44922534283572013
-0.36517848693952126
-0.3478254155710592
-0.02236331325092927
0.20804785352064104
-0.025131068690848083
0.04656684752633945
-0.7883475999685992
0.3447151368468563
0.09437369069771247
-0.13074701716925707
-0.5423306976285975
-0.9602505367721467
0.44188992140192374
-0.005493859381077729
0.24337470476492262
0.19692537995938056
-0.3783803609985287
-0.21194381937742554
0.3611266945262838
-0.557304973034252
0.4416293108898001
0.1967715991391675
-0.44758670368307446
0.43122079534267843
-0.03221208138078324
-0.37471264292414863
0.18285796381020547
-0.27320306173065206
-0.3295283651740889
-0.050896279268663684
0.03917118182169068
0.5193227962257867
-0.2781833274080504
-0.669290274623921
0.13888524286293552
-0.26788053873742335
0.06295867027892446
-0.7363836519963869
-0.0931941968712402
0.058056048430669804
0.24164610507962142
-0.4376036537817736
0.5314265795351978
0.17728620501896752
0.11681672830790568
0.33094498090326685
0.254070707053367
0.20330746761421162
0.5593290473762084
-0.10483627230775018
0.5053939762846912
-0.004635597825362676
0.7592729086285547
-0.10091953067255714
-0.1362633168089842
0.06319236386614197
0.5893702931893307
-0.10373253583398022
0.0472153638772627
-0.16532603655610822
0.07523825091403265
-0.26141014037932747
-0.8832255745108143
0.016567351188469696
0.06496612714314101
-0.35670967230535966
0.30934310245237917
0.7538228394895297
0.3482941185416944
-0.39965935231429617
0.33423076978429733
-0.34123623442953754
-0.027899361443373717
0.6322851420129093
-0.40112532028790954
-0.5197477973331166
0.057841158878626904
0.8293511044616135
-0.36247739048062544
0.2789452106912627
-0.2362404060896451
-0.6664835940954393
-0.5044122365109975
-0.40643343829400363
-0.06791117668312234
0.288868139271528
0.061936021652064875
0.3639085513750588
-0.29376669108533576
-0.01859307928863736
-0.23447985837294202
-0.7202204152643198
0.2421310201929881
0.2082025555840188
-0.1461584033748674
0.5605558094034173
0.056411611833404776
0.3322818294416871
-0.5815267611982192
0.1235457667156679
0.9847960022369074
-0.10929819058906506
-0.2457124589901376
-1.0173972420574684
-0.4486867108554128
-0.5947797068010469
0.31579720762055424
-0.2284139493756013
0.1385642989041055
0.055343334692668555
-0.3440263494632065
-0.593964855445821
-0.07851125808214304
-0.212265294229653
0.2880074134152896
0.42526020322470953
-0.39323766656196313
0.13974265016769946
-0.24808628312281197
-0.11675744728474165
-0.03947762638174117
-0.6376513645199039
0.8108058098123673
-0.2076368484727984
-0.43550962665383264
-0.926939102898256
-0.24230123960823538
0.4123083487503469
0.5526766244086566
1.1993141013259438
-0.07953228962905186
0.47770401340201474
0.10662274175731735
0.1902523544864604
0.3043871319862191
0.20137375577979352
-0.4125302910314544
-0.2515322778696638
0.23257154623044357
-0.41762762744966087
0.2841940978005967
0.12145188156154127
-0.19754379399595764
0.252568203923878
-0.7806185394785952
-0.22799911724817007
0.4003144051216107
0.18590758470793084
0.3045069931758029
-0.6155948100724029
0.10938773777235818
0.13211350941100186
0.44614350584573736
0.5207045602424466
-0.5756665388471573
0.06810678790394767
0.3465803923216892
0.6623059876001618
0.12754696814506136
-0.08107101642416147
0.34639435640217126
-0.07684232530306702
0.7106240373311956
0.8977590349065032
0.1920176135088197
0.2626653061086467
-0.32867990309693745
-0.169244792700612
0.040346796862077115
0.577428338548166
-0.08535863035993163
-0.1293546236039862
0.07105619786008183
0.2097574681016638
-0.642648987542338
-0.09923578810423783
0.39705254146844127
-0.2550144475762428
-0.23416630721237947
-0.40259096773114933
-0.05146158272267886
0.3375011097038616
-0.6276572754389578
-0.3998555899295592
0.2213420530554228
-0.02308893474174163
0.3138870187072338
0.2159731818179087
0.1838517641493284
-0.04401785358068573
0.44896368730309566
0.4830013671730021
-0.13068273014310425
-0.28049067139327694
0.1681330562042915
0.3758306414403743
-0.16004835113962154
0.3363463903863796
0.17605047105267072
0.2332901180682681
-0.4917533973330997
0.4673530589876261
0.1878812931637245
-0.41963800007896673
-0.4436392291666013
0.33602376890149793
-0.4387085117749936
0.4917663705929032
-0.26512890001628414
0.49885772220326136
0.06569039168504949
-0.12614394720566505
-0.1701612662940959
0.41175169775675463
-0.6351382651932613
-0.2917607966374833
0.47355950423555204
0.44714849170390114
-0.476175944924708
0.7528934178279613
0.034020683920580996
0.2525208557640074
-0.008915083825090351
0.026139547781504454
0.4040596591135651
0.07840427762329452
0.3554180312208461
-0.22530499495295883
0.3946360023326377
-0.28119031262943744
0.2865176476410773
-0.0026738968337114127
-0.2875159342398835
0.22070106286514915
0.1553171364104322
-0.47721416011266243
0.20559144290739673
-0.30882916564357854
0.1785943647778406
0.16725653164153043
0.18898518367414854
0.3746172956951973
0.068811136111583
-0.04082968689387181
-0.2077152589362187
-0.3631935703781603
-0.46769725643259114
-0.3581221572008191
-0.215400276774076
-0.3025708949483988
0.2237924333795653
0.08306504899798844
-0.5086498232884618
0.16837817790303758
0.15092429378462296
0.17368298475459307
0.18058165555168232
0.938457263893904
-0.2732411471956008
0.9563009571706169
0.4730868474019581
0.35548742290419044
0.21656203893401485
-0.24622474421677026
-0.44367168818807684
-0.4213956446878593
-0.12071231825037264
-0.3790325244697717
-0.061949839180496784
-0.01638004272699501
-0.020915877466090173
0.07800629249254194
-0.39862649077062057
-0.06944553888459896
-0.3294954467953568
-0.22763701896550728
0.35409204357266083
-0.03912912955713214
-0.494924435673062
-0.3642408847907216
-0.11921569282167022
-0.5182148224052022
-0.43916084725492827
-0.10128375903660991
-0.39090596052903515
0.4115397599289098
-0.41787180581111105
0.5879233376030565
-0.07794119484656196
-0.07725490253524234
0.42618177551259195
-0.28921560065453256
-0.4109615233654477
-0.38087574210541636
0.380425835904711
-0.6414419658414175
-0.5400271396137825
0.5175863865367767
0.10953305584457253
-0.1601821706397101
-0.03431809971669414
0.47345644522404795
-0.2555434856839357
-0.2437984926765144
-0.7594392183397636
-0.36452905172963895
0.2709508345829052
0.16348782085655106
-0.005241353280289088
0.3160293282518495
-0.6958313895803447
-0.09215748007375377
0.3441546037932818
-0.1882218061101564
-0.032696602695809665
-0.438271598805303
0.5612921060629606
-0.35191430255701367
-0.4289338117138427
0.07029706062933669
0.5582814029000123
-0.17867653489664273
-0.33662801471202136
-0.3749068650940195
-0.04468266694108527
-0.02213045714643726
-0.5536033095040771
-0.3528278842394055
-0.772231041124406
0.8017722156883029
-0.03530180256892754
0.482226019042987
-0.23761092536778033
-0.677313624148676
0.31364463934448067
0.12455171423599305
-0.7959642860082393
-0.098949609100787
-0.8131940345244589
-0.6338418626799591
0.6932481336803439
-0.3163786474558403
0.36663946327249053
0.24917581033755726
0.05340570167990167
-0.5840370726772958
-0.4519999097271732
0.30309220221823113
-0.4875572844721794
-0.2533997552615996
-0.6250427049493203
0.2141002964009181
-0.063678019075709
0.27824810544093287
-0.3394377533883982
-0.6249043153688603
-0.7103016502953461
0.09886124248628303
0.41123384203916313
-0.6647736801920054
-0.1258246670588029
0.40246420799741234
0.2742194177551563
-0.5021971162598655
-0.24352029111791978
-0.09990447134071112
-0.2467815990448201
0.08939225283450725
0.026022786007102373
0.445246634477579
0.2312608864478143
0.39413996872206897
0.5315292650274815
-0.5074385532733574
-0.3382408733421114
0.5820933804250226
0.3710335031967143
-0.6828510936957993
0.4269451063503001
-0.049770851704592334
0.5478253284826778
-0.14420285837956798
0.3800102104340896
0.4560996717947449
-0.43424840462731923
-0.2558394619493509
0.23118508363347512
0.12711138528848115
0.00893932336773473
0.33783210730595514
-0.5497371614066162
0.15812731148616746
0.3785540933785396
0.561307717331487
0.744223278919833
-0.8453604788680996
-0.8946035361414277
-0.5355926490842757
-0.137727072311221
0.00541841883097178
0.5105058508318085
0.24073429357745807
-0.5056408531654497
-0.2996661366463444
-0.3442493647783169
0.2827005279524328
-0.28881812342774454
-0.11962595485141582
-0.05314164516732965
0.1150050872082552
0.2637782987069975
-0.36442587033562057
-0.3484863292287318
-0.28038282123052277
-0.15728841007351724
-0.11988120036309723
0.6467757605838236
0.49033128314048946
0.12326947767720682
0.5070334114861064
0.46965411966636716
-0.22470165693602281
0.5874073555893788
-0.4296223256112623
-0.4002674884587918
0.4302430457891719
-0.027205105307277943
-0.2457842434238134
0.05287037099588667
-0.37589551556526646
0.1974051973101204
0.789470938643889
0.014981871167065912
-0.2614151190568113
0.21310952176681314
-0.32895414576372495
0.25448993775554096
-0.24463160618878568
-0.2788416736691365
-0.29973652921526345
-0.06482434240880743
-0.33961580690696297
0.08837696685721808
0.27854256494239704
-0.3459062281123705
0.4728984560691975
0.4041121164993853
-0.10191101910146728
0.003406273071942214
-0.19895842773452832
-0.40245239564184543
-0.013680549842502285
0.17376293217738537
-0.17567840568491808
0.394238163631399
-0.39163011499779554
-0.33623216797589145
-0.4721247300354264
-0.025002053606403837
-0.8324786449031804
0.6525909452029062
-0.1548679612223328
0.37577981769562474
0.4609309763366642
-0.035385018687902746
0.07423906777080054
-0.3325598380281345
0.1649220062503168
-0.4423230935513539
0.40100700196006195
0.032163935144849345
-0.48684008880158036
-0.06324171459683649
0.24747968894300149
0.45047483775928887
0.2050051211516854
-0.18671527958289827
0.2979028534087181
0.2725335762544828
0.6269133059864448
0.45445098229319253
0.17940634831876354
0.16757175699998125
-0.47863516654156946
-0.2474228150396525
0.28983237439288445
-0.24118433662452063
-0.19123275161318212
-0.38658760222477384
0.06544183794263894
0.7530719426476022
0.550708240531727
-0.16994949941980947
0.3037591885269941
0.3357948643854621
-0.19001632906491087
0.43724070618032884
0.08655132464820003
-0.1636015380796822
-0.3048578356397377
0.47900694732513666
0.3333711990550987
0.2587134215461655
-0.06925956153205952
-0.023273979995813734
0.440422247727449
1.0303462949033588
0.4586362785144185
-0.10895256106334535
0.3719747551119917
-0.20099681299471978
0.39782449709616036
0.05386629299932829
-0.49600667242048646
0.04022134386096018
0.46886099560637634
0.17245212324690545
-0.10336286050060882
-0.010767487432217478
-0.014115327794296494
-0.2419411470237681
-0.024664780036620437
-0.1961653806404277
0.4054884705538176
-0.5406730281833662
0.2768498528084003
0.3086196449586949
0.3446460619821601
-0.16753940646865106
0.016368120524292703
-0.49192823423301124
0.703655318717341
-0.485851007850308
-0.5211269851321018
-0.14774005929865514
0.08879312444866662
-0.10222304649239888
-0.18745161696945478
-0.4095289591634518
-0.1489475814640405
-0.14042890819266604
0.3830945182182233
0.15983616880447604
-0.42005974252432143
-0.3112687702870683
0.09050970991061254
0.5107846282860685
-0.18516402925265765
0.9447848687260878
-0.1379142631469883
-0.027011133890796426
0.19420866504724102
0.5371585825787442
-0.058207904572029866
-0.020828411952194585
-0.8689873762983047
0.07179929982947217
-0.7665378829386058
0.7732118430575516
0.42387495246896056
0.47942180931993944
-0.05764411715188145
0.4211459957480365
-0.2844813960490292
0.7287584849429398
0.6172277510537207
0.4905189521723616
0.000932454298367943
0.4446253590567458
0.09798748669613759
-0.1851260730938619
1.0112491805941421
-0.7793255084829369
-0.2386601493617274
-0.10558862675681645
0.19248471702567022
0.3093844247981978
0.4755023161666399
0.8866410915890007
0.06944056916981176
-0.18139650200834623
-0.3108757615020362
0.1988024394754188
0.5253210361541963
-0.09320594967797034
-0.239899381631638
0.005152581907653319
-0.35139075645755663
-0.05002501017403394
0.6072623174706151
-0.17588667179662418
0.4737885574492211
0.8917721868023496
0.031680430894527496
-0.48970788428154627
0.07957803609316672
-0.41946367680740343
-0.08350354566582738
0.0920484845456435
-0.17316411018073025
0.21585478723546372
0.32739747880753395
0.4187350580651098
0.20985832664727397
-0.508212278690254
-0.14712707020578783
-0.10146305380047858
-0.20763722158998607
-0.43682315200427735
-0.4433190620302421
0.07883171438858055
0.6379394864164726
-0.2414654063910894
-0.7925503101962298
0.4942342235465953
0.20537884780167615
-0.03982826255554948
0.2585354510826779
-0.08603007452030287
0.4867835221127
-0.6097233217934351
-0.4632381708259626
0.1480316310687952
0.0812782221235868
-0.012965032028262756
0.3708306051361172
-0.5546412963587161
-0.23789065489591246
0.4699176545609067
-0.3175635661734572
0.7233002883361147
-0.15247272489237518
0.37380935246844604
-0.4115470675608943
0.8544036245075931
-0.33853518558997087
0.18097305468775612
0.2894669800092706
0.021147602621003892
-0.06628271966380829
0.14608217045202992
-0.2264650538287826
-0.28940919430862305
-0.12638816506490236
-0.18766107404678495
-0.04993378780210926
0.308380638208531
-0.1822559928964178
-0.6475336531306943
0.47890026665474883
-0.2809712788054254
0.16317695262335513
0.3467593124356945
-0.5216489099106391
0.01565756790797691
-0.3819007165933711
0.03661518153502602
0.5364843705609785
0.4531632780543902
-0.26577037462921854
0.7284562641644581
0.23345981855278927
0.3552271469378576
0.017041495203894898
-0.3311988745699778
0.0022885245780414863
0.3835452349540837
0.11681918054194496
0.03473622651360164
0.3194525511402241
0.30289612695288987
-0.3682338861379631
0.0016781443844833112
-0.06940289642643281
-0.2692860560250008
-0.4625945408386454
0.4934026939603982
0.1620141867586779
-0.5538632349059163
-0.19731516252464287
-0.5634616207022565
0.6862108761955495
0.23507562553193156
0.6886223165114663
-0.2996905289609235
-0.3602434470932044
-0.40701237343101393
-0.433951683118893
0.2965678064773874
-0.5493847477695398
-0.01770991736474893
0.3190388491865362
-0.5677489865843927
-0.14589712558384627
0.2091977986504621
0.6361728168406778
0.02312749809728066
-0.25158753651765636
0.8412919133384315
-0.46214935414921104
-0.12075952185736108
-0.4926573835726123
0.2222334129359615
0.5449218692024053
-0.05494906639396213
0.07048866502371842
-0.18929262609875597
0.29762025958260513
-0.21632744319276193
0.4557154481088455
-0.31177970604683664
0.014070558799732562
-0.17679890840413395
0.30740935597080676
-0.006499728233578604
-0.11900435223682719
-0.29555626825398745
-0.9640126536802962
-0.04575215381288449
0.3482090235883995
0.06962163896383844
-0.12463432313605044
0.003203121306487973
0.03995212866878059
0.29706758255549337
0.24535516922226655
0.5608704984302849
0.5140421811292577
0.20220945582196898
-0.4998816208438605
-0.1500696050456932
0.2222163790936746
-0.6050694199786557
-0.013785045097155417
-0.34954810197883357
-0.27458829573144217
0.2058421016559367
0.365585619120148
-0.4808045436603509
-0.17597371889506827
-0.08784446895551967
-0.802033806420404
1.032925737069509
0.1628796280584347
-0.26502138121983787
0.6925458362129158
0.1755968973635733
-0.37549568924373633
-0.19870000285429676
-0.47715926424990457
-0.2609428739686797
-0.5015954276351333
0.0952252287964363
-0.2724003540963413
-0.4439032736491575
0.6504102811909247
0.1291982105545698
-0.021510521137535273
0.1713045927145802
-0.3048767194884538
-0.07021083663354528
0.03290565409938163
-0.35835465044384035
-0.45204918890167883
0.4560097147536017
0.5677943273383428
0.07206305436134292
0.22598803319886765
-0.07187454940740225
-0.37610299170712025
0.22000122821915943
-0.43803307825753796
-0.6429829987166589
-0.17337256731951808
0.2953737565562106
-0.2848050903803165
-0.49768613630982234
0.4821313236020808
-0.06212055119612298
0.057628091240549
0.23792325812497406
-0.22871080074265251
-0.6458330010657036
0.5292323972282776
0.2838961322239579
-0.20239214504893163
0.039378434519439516
-0.1962783719977927
-0.32737098884000876
-0.5053139156791241
-0.274897316292729
-0.0060780428218458245
-0.45497499537276936
0.4428239348784842
0.09549980360748557
0.2634621828148133
0.08517861865620174
0.7760132667545921
0.012413452640701494
0.23809978953005817
-0.7159264603548116
-0.5533106036360892
-0.18005108282630902
0.7058938518930875
0.3932006098403885
-0.24818876917603305
-0.3718776491160665
-0.6610229768392587
0.3402781020923252
0.14431834608957075
-0.5544973610454198
0.22503780158506906
-0.4774399162510182
-0.12152720760556825
-0.47222827344534357
-0.3661959221965514
0.5491084292820938
-0.38761363054569437
-0.2076520377994625
0.22732635498814838
-0.04560938975120463
0.602559132743609
0.008064191842414635
0.23069388922567519
0.22478935580532322
-0.21764673343779817
0.07218367864754552
-0.18806660066978265
0.25394241519276056
-0.09093709931054716
-0.46610711399140664
0.03767139990024415
-0.5241461535367857
-0.32651030301878414
-0.29817792204268184
0.25770009707768016
0.017689418975644897
-0.2129281096022447
-0.05777617136716679
0.5116908447233254
0.42081568688931675
0.0329725485159519
-0.32864205870637453
-0.12247957163111625
-0.3182435059227328
0.5112391110581194
-0.03539567529719466
-0.13045428289767277
0.3299979789076545
0.629747374149972
-0.5230532848608924
0.5085283626655138
0.05776620033631518
-0.17117267375074927
0.6641660088301444
0.4212526927607603
0.10513061638142518
-0.03117950022313646
0.737023343922197
0.29685077265524423
-0.6384298273062664
-0.21423162261421155
-0.15743510399860705
0.7680862030166856
-0.6513766908325469
-0.7973857246824441
0.21980975992871396
0.16487416012366912
-0.6955889042707121
-0.07667469037896664
-0.4052672163184225
0.5738128123344497
0.6118835119914294
0.2559052765996705
0.2558985262292593
-0.5437130312638272
0.2588466181987015
0.04933669157848912
-0.8306036902927751
-0.06577299439472685
-0.3097578126266419
0.20106335387322938
0.043195265453989745
0.30593845230793276
-0.5917961661460441
-0.060451408177426474
-1.1424424624798337
-0.1053622083993144
0.15847781149581508
-0.3744463280055143
0.4717615021713628
-0.3588552322833237
-0.33058117195559816
0.5151315852248696
0.6053029562581919
-0.14910051192856583
-0.1258655640114187
-0.026033168616860624
0.4274529376973534
-0.14934335861440104
0.0616686200525575
0.06393351050889262
0.07556982726321064
0.27439660567696794
0.011521582876937829
-0.049696737089631134
0.322687154595704
-0.7385313239825885
-0.07184440746306235
-0.1646613080432557
-0.13192255444005743
-0.0010072656219873716
0.5617262640780925
-0.008698432516954865
0.3539505560029979
0.3350062875105103
-0.5573384793929193
0.39093875678933454
1.0762500597744558
-0.03816539969883842
0.061766118551540204
0.12116731338247433
0.9479182180280863
-0.38649181623929724
-0.463844316681431
-0.3312271510130601
0.2965466243665241
0.15161182514659702
-0.5028296046550311
0.1814031288217762
1.4799458121391156
-0.4215346005986536
0.3751305360484849
-0.5967205386771324
0.5549581822183532
0.2497069482258481
-0.005067693475862165
-0.43391711897225105
-0.08449561042157923
-0.07993051704977688
-0.5463429150371342
0.27956155265547317
0.16857077226807615
0.06929390622714988
-0.12377844036192885
0.3524064846005445
0.10574700400651833
0.34825973919868125
0.3277118433400935
0.31618693233931705
-0.24527384839701497
0.11347341781660115
0.8161984929395045
-0.3997144451551839
-0.6360263625882134
-0.49816398709886295
-0.7127664311782167
0.14884486730334145
0.4216043651945706
0.08093410079797679
0.4992954863902067
-0.01358235611808428
0.0005666970981934721
0.1211265734549484
0.08836353684585413
-0.6813494588209351
-0.29152325696327513
-0.5042129074334492
-0.23924263084004654
-0.09419004985969642
-0.5815072946627823
-0.2484079435330335
-0.1807636129663897
0.11560388495377964
-0.558203646259469
0.3027387462292289
-0.4551785741951665
-0.8196898370424729
0.5355084581814717
-0.330064711835729
0.1297202935653404
0.04835756264434669
0.5334129648366832
0.31452794311224996
-0.5527020545053108
-0.42509796968349184
0.10114856151685837
0.8559274737010671
-0.5182671316849605
0.2196079335724357
0.06017982946259598
0.6699730910189156
0.08202704124693475
-0.0872369107368909
0.04515541664679756
0.04875116497861104
0.3277327194333937
0.12104129127994843
-0.9676445646165005
-0.517636971857608
0.10115246128589954
0.2418247413581303
-0.6871266698119806
-0.2958574729651494
-0.1715399336902082
-0.8552537084463707
0.08457290254047167
-0.290691674333061
0.08939977870217844
-0.2637007166058763
-0.18221439590714125
-0.040652328533557575
0.06295804580558571
-0.17473698148725125
-0.22200534361972818
0.5868413519433294
0.21669970493719973
0.4641907341684475
-0.21710843442628294
-0.660046692282203
-0.7176324961596421
0.13340902922206044
-0.4082594898861036
-0.25264768151714617
0.8584622664607567
-0.30367000581337744
0.04223946360046017
0.38422613807068867
-0.12373892881165222
0.1542166615470981
-0.46097672356102637
-0.07688929205897489
0.0714915799728372
0.262870348318398
-0.27401519407314967
-0.03706768743514479
-0.24768879220191634
0.28432192919604754
-0.007766286022346028
0.005138966534340096
0.0974284299868106
-0.5743698461896155
0.14326124495895085
-0.20387492982383582
0.22646614443051513
-0.3069469398141169
-0.40581002712025255
0.5022415105350347
-0.22206033373265466
-0.47374231688938945
0.11541623208152885
0.059249985983277687
-0.11871433243433022
0.23414669776765176
0.4202662948634587
0.33718960869222064
0.1431221285553965
0.15893646460333496
-0.12670138795271502
-0.1871537670262986
0.4116117480622504
-0.1684870785031568
0.3014864755356338
0.13875984219926682
0.24545887708337585
0.07908343054499903
-0.45761845147442015
0.017179339268610337
-0.15962519124849814
0.7341472031446106
-0.21622374287955803
0.5615560886000937
0.20620176101548296
0.06851013119281359
0.07141891550126642
0.3850244932900651
0.24353869267797054
-0.5702406110274153
0.16322626294254272
-0.770691398585181
-0.04095522052319831
0.22722972547241427
0.539265665229652
-0.16580922484768718
-0.32673595491683644
-0.19677218135364843
0.17301430553971647
-0.3810002431268749
-0.6370109115124262
-0.6271039874312905
-0.07171991646377912
0.22847138063096986
-0.20956672994014724
-0.014655398379779862
0.008273005420311742
-0.2571432979571896
0.4492361194371114
-0.07058053601155154
0.4646570151968769
-0.36305820590176624
0.17422126130872925
-0.06087319429614195
0.6718711304112682
0.2918524303470614
0.9638897493447864
-0.3153019650964545
-0.5946039419829443
0.37078053775247527
-0.44311565591736524
0.5917371690263922
0.33923704736776567
0.19429751384002006
0.15542934569000755
-0.08624068934354176
0.08643251065061976
0.1813748822402121
-0.331504859516914
0.577776081842087
0.10450787596011053
-0.26084264972437593
-0.08550080837340575
0.14328951967525294
-0.4138936020271375
0.36038582415302595
-0.016490377092503783
0.11023534551588285
-0.0875313200024935
-0.13314427801833006
0.05280617749637903
0.2152973366313075
-0.9255872273394532
0.12010665828065818
0.15134630017971093
-0.2134043981915504
0.034660623528779966
-0.413298984078678
-0.1749083257104434
-0.20467189525196713
-0.08047271254438361
0.03604779087020786
0.281275082337915
0.34249854952861836
-0.4254961673419184
0.39916040999485985
-0.02756199440408196
-0.12618934218534258
0.0007693017607253935
-0.2665404365924382
-0.1022126681465023
-0.07021957035195563
-0.04053253637945091
-0.011335694853538665
0.2017151438051554
0.22540678447800508
-0.2574063184562707
-0.21971123557053684
-0.5237938248884679
0.5856425146577259
0.1580734798484614
-0.02976337435812757
-0.12610893259880343
-0.23998129815243896
0.450111682978805
0.04812634048075145
-0.16885572275675476
-0.11660514999154256
0.01794479927503018
-0.38410897066595834
-0.22741285305434308
0.4030216613614503
0.2560203015769321
-0.38809209929450444
-0.42643150555384257
0.4009601635189081
-0.503554644703332
-0.21385267058047028
-0.1058213531440722
0.4889245781347094
0.0055164282462591184
-0.7726736303406108
0.04464989824645832
0.02342300427023033
0.4144052416347702
-0.2853086272535736
0.3171183885806303
-0.026165316865354293
0.11228849493349136
0.053146687415562555
0.1396242731413503
0.0404511779978781
-0.6819496058734674
-0.3065796060720754
0.23593672336230645
-0.2855833482948708
0.015016240831518443
0.2922894039788279
-0.2752620312843494
-0.02935247727132897
-0.4137279169466266
0.3613570987887237
0.07669337639043895
-0.001150089383702771
-0.23753774269635905
-0.4738744232698265
0.08879279277508771
-0.2945881683890796
0.5183137615076197
0.059274829795988485
0.611596866245823
0.36235526575143484
-0.032506401385186075
-0.3618141657138278
0.10770211126786286
0.26472242024497095
0.23007258410718703
-0.11998280765768514
0.4777565569837709
0.2546288002688833
0.26294995948905886
0.3590518083950078
-0.4750442326471041
-0.31833409168732685
0.35683490878054586
-0.21325511849559858
-0.22441990023333838
-0.0920313239741379
-0.5045779140195967
0.053210624532098474
-0.06885592470718133
-0.486591113290299
0.00568952483800066
-0.4723021648100505
0.16321139985453986
-0.24436256925319466
-0.14268733308807627
0.40212523697466657
0.01625763177142778
-0.20325766331372552
-0.7175593662095634
0.4232187204027718
-0.004678655775612837
-0.2519019133988832
0.3720948440379391
-0.01515468029769892
-0.1078526631294021
0.49907929581218013
-0.27203033663204185
0.4342713880022722
0.2364797777912821
0.34520198206466507
0.2728307552634535
-0.170477890373707
-0.3897728427843179
0.015406649881661537
0.4001205655653975
-0.09358345311789588
-0.0032889308591466265
-0.4167048411446603
0.4764398014828598
-0.013099431848667327
-0.06747228962182078
0.1585439736336323
0.16239473727990383
-0.17304535050696043
-0.370673014713651
-0.4035762065187723
-0.17873363858616442
-0.28661744364177866
0.20061237296770051
-0.11848606531867774
0.40457119639852085
-0.3345941206354358
-0.2211381003701952
-0.44088044390946285
-0.19199263393148486
-0.254369272443559
-0.2822133271663754
-0.30444670375291283
0.2836362600156597
0.7044946335929755
0.15348895615819774
-0.010958868458887617
-0.32605770196928613
-0.2939173030296948
-0.029333897691677036
0.7121872939256159
0.7212924819934043
-0.01918702092843384
0.5970675682182368
0.5206932746633752
0.5666715615977369
0.04599439841600744
0.1117834403662859
-0.2339510771649533
-0.00038180059832903336
0.03232143656206037
-0.7346254790438237
-0.45847087789698565
0.14902315873735933
-0.3347886368000474
-0.10194526328237612
-0.060497317183323844
0.5622865667832091
-0.44146524848551205
0.3652687181887082
0.3813310574389529
-0.17307520616151795
0.04388279765493766
-0.33241493307563225
-0.3862106737348176
-0.2933357747299446
-0.3774646975823061
0.3941975505359641
-0.04511888658725817
-0.329664799674002
0.04539893882512193
-0.1716223601221704
-0.10905697872537767
0.05743542035881332
-0.49784549490065555
-0.29953174068098515
0.35264515057324397
0.007054333744615101
-0.4822750644602559
-0.533824230866359
0.044987175354521174
-0.19061862509732688
0.137251024283474
0.27464554943579966
-0.01875940680849944
0.24528114722906197
-0.43657104861417023
1.1781686014269437
-0.09929809120475247
0.1364513877998451
0.17857807368261075
0.0812477509981815
0.4606774909212663
0.09696113415647004
-0.49388299521407153
-0.8591043498042873
-0.10929889443327774
-0.45777153387327674
-0.06691021453711894
-0.2670396527619761
-0.47930788117826684
-0.059402494937930345
0.5904369191064067
0.28609382257216237
-0.5571051665292572
-1.0381242049773465
-0.046742472122892405
0.41584932167141775
-0.027485703480816685
-0.836916404801207
0.27782891988479946
-0.14365099626609298
0.18509722883712842
-0.0712544094990541
0.38125997925651683
-0.362025511527424
-0.4521752534071941
-0.007329398350759525
-0.37317586029968414
0.3589352478319677
0.44297777147308187
0.24615308215766485
-0.016748781324115353
-0.45983224084474894
-0.11907312439902851
-0.313002572785754
-0.5433819498289515
0.0011844845168009867
0.3857926390988456
0.234902185560667
0.06997816657629996
-0.04946109627999046
0.3866496080835029
0.14542120596100483
-0.26645498417422225
-0.3730687621249526
-0.1976034177736962
-0.019426336966658492
-0.12011379815837565
-0.2535822534563359
-0.08860746358657885
0.9366846391772442
0.06678714052874757
0.296261828286426
-0.004716868331730971
-0.18721366051205543
0.21579617743764315
0.3999860653632267
0.08630573175494854
0.16825981798711337
0.6401275703403801
0.6637935632651684
-0.11451915733144764
-0.02603143967231539
-0.16301901151677195
-0.17097585675684887
-0.12985286072474242
0.41872917279149596
-0.3731295724122683
-0.09355031184844813
1.2463206254461114
-0.11836350232497349
0.06064519882188125
0.3817178232678674
0.14340754590177063
0.42268336893900793
0.09629148989940536
0.22201020625180112
0.5176816792560603
-0.008524732084599257
-0.3912687917842762
-0.5517844503317775
-0.6034876317023052
0.37295354473455805
0.08383840033066645
0.09222616293925845
0.15399146023307425
-0.047664710108783655
-0.3999231010236728
-0.2798503638640503
0.377555855769331
-0.19654909780485014
0.5393733045390006
0.23713990134915042
0.024318620015273667
1.0615239388532118
-0.024059610654447054
-0.3103569377494509
0.6177729710957585
-0.40360090311727603
0.12988876569873156
0.18567507677166115
-0.31449621169620295
-0.5975982887570489
0.6414572503614454
-0.6612390242779309
-0.013617382461677192
0.7221348410336025
0.6229928353166415
-0.299682922873559
-0.1013139886514733
-0.09897130611347613
-0.18212761786417514
-0.10726915490068856
0.34076585660945896
-0.3108263609599793
-0.07990035306677341
-0.4850270836213777
0.16697090571435225
0.07390309480913221
-0.5498905583107594
0.10958263246143915
0.17064046997177057
0.14861357838416525
-0.29726933321067794
-0.2510101319816167
-0.05403213377017189
-0.14609054637945376
-0.15560600275975878
-0.9410306329277
-0.053419497828866465
-0.1563848500961502
-0.4564982141010241
-0.05988535763041406
0.03301123429585217
0.0753759827535358
-0.23068897548140127
-0.10174729030871808
1.002451668822603
0.26540711477842027
-0.3978359413111157
-0.09784679664916762
0.10834152560684451
-0.9554810481449509
0.3223503967887217
-0.14803842968491362
-0.5093444688166271
-0.425657585134607
-0.8133472701473852
-0.4214341175338067
-0.7525455087796408
0.6148627787686417
-0.3720486562486933
0.13897827607282282
-0.4430476786006281
0.3462759552273484
-0.7480463243469383
0.1973457787675344
-0.5247258716028411
0.20739914775255072
-0.11853126158444008
0.02286392286320866
-0.07741118831417079
0.006664854080788325
0.22967518890674518
-0.23938999216097478
0.21799461049985278
0.09092818868671809
0.1757159912668589
-0.9458541283799095
-0.12618228611924018
0.32354415244371915
0.5214544898075464
0.17937080696187838
-0.13293111992025278
-0.11171176092736998
-0.4539877324520419
0.47109146164650406
-0.6844305446030737
0.21372588639472911
0.4553813203058879
-0.19161325000280666
-0.3788291129744518
-0.17494281568984024
-0.5711417935624074
0.09253045208598562
0.2285050683559115
0.44283795738119486
-0.25557011958762804
-0.42742454109737044
-0.19617528507227075
-0.6639984111229935
-0.29552549556098695
-0.08155714601122376
-0.093697814672939
-0.42024886686953206
-0.11747330386182747
0.5148977287648329
0.5434752607359608
0.20640332073641351
-0.02704329132606299
-0.7026622251470097
-0.1576450300466649
-0.5714227146473682
0.9384546876437332
0.09336114363802317
-0.2098941213867882
-0.10503227840656179
-0.05618488963685916
0.2836920822112883
-0.06163368691720145
0.24652687794029246
0.0672604792042358
0.6419269196646074
0.7068020248447453
0.11870464889329495
-0.7166968927921068
0.18639573140302726
-0.013873763504261042
0.40527559326770024
0.34890535745687695
-0.22420476084089722
-0.6904430750682786
0.1691510772810291
-0.3371834184316969
0.13810550038196018
0.08168203523146673
-0.46079843625310984
0.23873486259864565
0.1303553722101719
0.4847658916061286
0.4163710024064418
-0.5873434529647718
-0.8051872512591317
-0.1747581686278774
0.6560940747087619
-0.07666031660700653
-0.21702915869580028
0.1231601429693658
-0.4313699042329635
-0.1134557137216365
0.22856799897822191
-0.33404430205293767
-0.2628677635504509
0.5553987007913345
-0.4634752370661467
-0.6286537647872612
0.5422448099774232
1.1160070099337882
0.5608842648654355
0.11580121016124022
-0.09833311493829719
0.5635695109359758
0.2573054534899061
-0.2182920649156734
0.27429663434548557
0.299346042904849
0.4179266901291546
0.19806375688695788
0.13443241054920255
-0.16948630750755878
0.26895546814952015
0.05631683862438171
-0.14473840064795776
-0.2623998591478353
0.4984871656369155
-0.2598278716554823
-0.7417085619369456
-0.04805904359867515
0.5146817386936636
-0.9633050586332869
-0.10882547800111367
0.36054732711139764
-0.3558504910411887
0.519093438597906
-0.18945857795693705
-0.7058506808683461
-0.5418650360249598
-0.08486053791115193
0.07291603339653283
-0.5026380738790263
0.4374357945644051
-0.2301935613503312
-0.4495708339534852
0.3372883654989375
0.42265202403254853
-0.5550701813806043
0.07999144932304601
-0.10751975440054554
-0.012670490705084032
-0.0032383656242799025
0.6000114496865474
-0.23105198443943703
-0.7917632527949483
0.3097870624877188
0.32456868538839156
-0.3196361886746301
-0.3836805227661953
0.049656993172908344
-0.0189770956031256
0.29823049809536367
-0.17754760084292018
0.021803105661187143
-0.7324177182288744
-0.5617718296637254
0.09922378590936085
-0.31211542302814854
-0.019311958517665935
-0.3520479355515205
-0.10448229738531545
-0.4820535240747907
0.46835354077092306
0.1317797422674399
-0.2503600654955033
-0.1814098849831812
-0.5914948693005349
0.012859111298203291
-0.19687540097086148
-0.29333101713049803
-0.1737748547237746
0.22419885866780362
-0.6358913725550598
-0.08123957417378591
-0.442515018102617
0.2103854215769634
0.6953382940484094
-0.25689148549201457
-0.2629725900821719
-0.35443073409662185
0.2278194082576934
-0.6528764504701243
0.21827515787009866
-0.13008238875855235
0.3462619310271315
0.1711062125261973
-0.12380650523107106
0.12203281175759256
0.5555041342453039
0.1074199553529915
-0.39547654842169416
0.4444585657478585
0.23121405115477156
-0.27766424161523395
0.38343035486723176
0.8741095040005922
0.29805356135933375
-0.06352121445730845
0.22373329027701627
-0.025998552822745716
-0.22884590193343932
-0.06329747214884414
-0.393327342476134
-0.13026212777681798
0.10296085360810625
0.1980125882662667
0.3366833628412755
0.24742164246897055
0.1699666429027572
-0.33874833640244545
-0.7879993717608482
-0.09699126858363928
0.35758002901354485
0.21660306932761697
0.476818351803742
-0.15365136962796017
-0.8237420500729846
0.31250857086253075
0.9573238309534725
-0.3994013277431968
0.20968455942708975
-0.7384422433220472
0.4401267259960548
0.22772699874901584
-0.13432555206082855
-0.25520603458049046
0.057010853602626414
-0.005939016190086987
-0.7053461088577586
-0.5921836227189651
0.453653556666815
-0.04619852124414541
0.39634546624808925
-0.11059311259888178
0.6458744526945471
0.6453915577347663
0.14300563643276837
-0.3638973083904396
-0.20428851424686897
-0.2092742220723534
0.05887971308474463
-0.013677003513678343
-0.9628821198495655
-0.5264564736515793
-0.18622174218914125
-0.36386326978471234
-0.3422851128500237
0.16933610179469244
-0.09490674663950963
-0.5239577738345461
0.20154381140791575
0.42341110645745567
0.11760238447490517
-0.6597569083311235
-0.18835435785814356
0.48540539278598677
0.2034689005508374
0.09305929936167578
0.10639149212882502
-0.4735232106465831
-0.2225518752983428
-0.27810708925831934
-0.5665313131445746
-0.6383673030486003
-0.2968592581110666
0.09203987060990672
0.9385004108936397
-0.0025128238830421923
-0.2902295932315342
0.6364966177753442
0.08265460764381932
-0.5593708031580518
-0.5342255889890464
0.09846094946325426
-0.011097298415752029
0.08360704284318989
0.6284192013271369
0.5409872109975099
0.4496111250138299
0.3475066896563334
0.017562653433690414
-0.1079743394492452
-0.11307440541177396
0.2978952732279622
0.4084507908157724
-0.35365818045127306
-0.6609180969519948
0.14658136779726413
-0.5493908399154132
0.10165906137554089
0.5421060997669996
-0.21291203459735492
-0.1928461086786763
1.1027387869787153
0.9016040692480891
0.48544439834594155
0.2317279114096466
-0.7625431775233618
0.07917955495716743
0.04825874929038521
0.053003304440650774
-0.23837742070034526
-0.02665185255988644
0.32545422115704326
-0.4181711183198907
-0.6664224067055962
-0.3681895756716142
0.0987638666796156
0.6896162343746762
-0.23689083877054765
0.4290342962485235
-0.17656841466170142
-0.0003392818425614496
-0.6175268064961166
0.4585031467033263
-0.2744503556148584
0.4613560135998866
-0.012659103897259697
0.5263843344776576
-0.35583353041594157
0.2134713283703152
0.4561068193453807
0.24115693515843797
0.5698398002824852
0.18796272119821633
0.23488572848325676
0.03805133703076176
0.6738199332886369
-0.6830032477029233
0.7396572383324383
0.15321802341482266
0.3729649203723798
-0.10592889321911579
-0.4534702000070196
0.2519283162884114
0.06187057753553141
-0.0711924356401769
0.5585180022888335
-0.4979684393390987
-0.016313512120686206
-0.37690287794257576
0.0909101313388395
0.2193461571650784
-0.5574380781879135
-0.1037691309244922
0.45740252546740123
0.06741287564000864
0.374144078080666
0.23269752323382467
-0.015084682704296573
-0.11335388815289091
-0.09642247968691499
-0.012554539379352598
-0.7993968711531615
0.13786456768752015
0.24430791170243793
0.02894522101650219
0.08157939487284681
-0.2767645972445494
-0.06836381639350711
0.6548996125032792
-0.18692123473961186
-0.028566848390410574
-0.8244911935318151
-0.2788527856039107
0.2471587982218604
0.3003416074991103
-0.05470201872066912
0.558610348236249
0.02026797715469254
-1.1806613467369906
-0.09224850521758349
0.07996670183840371
-0.11901654257357219
0.08273561445236449
-0.1635772926365788
-0.036994864841371745
-0.20793222973994555
-0.45242712181887285
-0.4019575170923905
-0.46059908277418743
0.40701514852543724
-0.05813133397974237
0.12448679928826017
0.7085655170615756
-0.3067785606326475
-0.2662253121353928
-0.82032123253734
0.807742889335771
-0.13034077763787938
0.08298027679167422
0.07190162643700973
0.28557172391139474
-0.12815594270491779
0.6437249650789072
-0.42704040026278656
-0.4507484048017313
0.2893601075430436
-0.0749798834403693
-0.001002906907013697
0.525385625535004
0.005529240120253784
-0.24221250978651832
-0.06262099382861139
0.5948398877258722
-0.25523030885972287
-0.27346461497503916
0.37300602772303554
-0.15867838553185662
-0.10638044733199917
-0.5373939689917641
-0.7041831691326352
-0.04309247200101433
0.5343486626272949
0.07342949483443269
-0.06095742406345142
-0.8281482972135722
-0.606157338867012
0.08199213927459839
-0.4375065971403449
0.186653059898117
1.0776685819930385
-0.40890951605150516
0.2504737537793549
0.7875577916150989
0.6425983726393494
0.14484129939086465
-0.5601539239177596
0.4492834046379943
0.23714516611258465
0.29749915466206306
-0.4782137004823036
1.3717923189216683
-0.15907363440628364
-0.09228948263308986
-0.19313311369283942
0.5344418734336482
0.1337173610296471
-0.007846113637602419
0.10368164358917563
-0.34536745573330097
0.4372428832448178
-0.33039128432865955
-0.15789031900571915
0.022760794987888484
-0.12615921027627847
0.44975732736811125
0.5489901824730651
0.2699362174795501
0.792228223191966
-0.37764087795118856
0.4885064726394321
-0.18347253311082098
-0.6507506806951185
0.11491436289891699
-0.22774635846490113
0.16369802054977878
0.29077757943142746
0.2081573392954124
0.5853979893668239
0.3780951113354881
-0.16965143246639036
0.20624305055580994
0.4808334022100383
0.3714533425812613
-0.15326824520519472
0.02181166228094072
-0.18111701791716042
-0.5251975994983472
0.6732232418411945
-0.4160732798736087
0.1792388877861626
-0.8810897774888502
0.5362778992608072
0.21106465837235397
-0.14283564693727402
-0.22809139448614804
-0.32022870397102926
0.02054062002085593
-0.47496996189131363
0.0022927292857017304
0.29352402225560487
-0.3488169675389448
0.20040136576863485
-0.024199597460401522
-0.041930382944926875
0.05716761705027887
0.44353099489789527
-0.4745312076792935
-0.9488163873838447
-0.3194682580316681
0.15829872630320782
-0.3744298894040176
-0.07327390783910198
-0.46699103478202414
-0.357111447498763
0.26357161372886967
-0.823754205295365
0.06246161229763453
-0.03748548202330224
-0.08159101345040534
0.5624149696420637
0.745297372015171
0.35963449078134874
0.38484059432733364
-0.1473529345865252
-0.00513084208153239
-0.10781902255683463
0.4114755236675436
0.2449474926186935
-0.6341244418256312
-0.032154518706540444
0.20980054022510058
0.26556887346740454
0.1604799702693624
0.20733307404688806
-0.22556076153259363
0.2934765070995178
-0.03464572359994852
-0.5367877910872043
-0.17564969024569246
-0.4637995289410902
-0.48666695447513975
-0.3550839352601757
0.3681619839397369
0.0860627009104043
0.16026090378880697
-0.40706337627663486
-0.07542786881118439
0.1960864839204029
0.006773562681795582
-0.2038502582613963
0.9192572121828042
-0.05924153151312321
0.20108574216305292
-0.29078238302555715
-0.13875032142429858
0.333736894136696
0.3021170200177879
0.27474448256828476
0.41254167081519444
-0.2545876479770315
-0.14793646166378463
0.8519716423790008
0.29990731559944567
0.3631972469324429
-0.24331583315066435
-0.12380197617481935
-0.24329047913009766
0.4844109394691091
0.08020317117041688
-0.002330904437690374
-0.3713576659355823
0.2694332732183062
0.15404918986918759
0.5318486281239465
-0.30011277410777304
0.6366497644202694
-0.4820874169110027
0.5373236224858635
-0.021271356545968397
0.004123213998770883
-0.38381447549172015
0.2621287098215581
-0.3295122398249299
-0.5333747852952648
-0.07427053830517959
0.5908342434547328
-0.307246416069064
0.0841389176885817
-0.15916480784552844
-0.31577087727610015
0.125004865780262
-0.24749948099189126
-0.2097422504782938
-0.24908279196931482
0.06931234831926342
0.2599883926991802
0.21899595728172136
-0.5295536883550108
0.2330628044151513
0.4770484112429612
0.2728437303656379
0.3752177885449683
-0.41779423004000654
-0.038421504391492375
0.09971081012292257
0.22886246284757458
0.8850360665656226
0.01711844735515276
-0.6381305228682302
-0.0032745673815056486
0.8216273654677353
0.16862194393698834
0.4064430128563357
0.5218182273403197
-0.09886060211853527
-0.6282576183250657
0.04061710935696093
-0.6671096006926255
0.7075143398250126
1.100080089833929
0.716684746721833
0.13802490373652015
0.34347299184988334
0.4854180842785085
0.3847827743574493
-0.4072864896239903
0.2979742757851475
0.27941621529615834
0.004010794605982312
-0.09800923148842723
0.11139085689915247
0.152021197448025
-0.24462454610209555
-0.045762311956157556
0.627415746943813
0.16199338859094775
-0.10495621134649646
0.5419752982057497
-0.214358742130601
-0.3689952846358644
0.05307736553500491
0.42822251485974716
-0.4938951201954226
0.3374311627975059
-0.08872519250724192
0.0407784681856365
0.47319913342792896
-0.20380115049941194
0.061783421389015034
0.24130209359257926
0.275020864763317
-0.03687684752516307
0.07935555011446398
0.14732377037741914
0.2117723681033554
-0.5296300519041094
-0.5079341496013907
0.48481116408261243
-0.6574849156503452
0.2656919488252734
0.7363329106651039
0.27160186614511184
0.257985499271885
-0.8280421479795868
0.0022982624381621846
-0.23375783883598586
0.7328601015558793
-0.24512868000982627
0.13976810752482352
-0.8599839905823842
0.39245092646979896
0.28478244767655414
0.23138408249247783
0.6025894003934743
-0.20907408406365094
-0.4586530481338508
-1.0456882595376011
-0.1772913129225259
0.1698108436959051
0.12267434203272343
-0.22513248977741904
0.1381255997183675
-0.3085371631020087
0.32856822630760774
0.5901331097914653
-0.31647777442380515
-0.05141959566663648
-0.14440587873045987
-0.3643162248798597
-0.3816755483455432
-0.400714975842244
0.07197646587972223
-0.628539131716955
-0.28994062954545535
0.5274455254370051
-0.04443015452974892
-0.08004695266858718
-0.02628697719967304
-0.13962691199048233
-0.07232596104797304
0.13906398039136111
-0.33777706076529845
0.3085603195593437
-0.11780290947421232
-0.12722212725024612
-0.0035941740217030733
0.475012828789293
-0.2689311938653375
-0.03188767696705114
-0.4345982787330144
0.2632286611474021
-0.023202283386184488
0.008578192189509067
-0.30106405647211726
0.6628901820264681
0.1731484322243751
0.3857980122053041
-0.5943070037098122
0.15976490707716598
0.8306298535713138
0.13841077192844187
-0.1920079808567216
-0.6519779006104889
-0.38216288234214374
-0.2419618361308578
-0.03024910090298447
-0.2556678861733495
0.19478646271113223
0.000010158959531226332
-0.12444361847649017
0.021350428207979312
-0.5113115887411193
0.07412740323231407
-0.2559031321403507
0.9522891063093974
-0.4964160365624139
0.12112057083962266
0.0375211614419315
0.8074611965514993
-0.17337345167315737
-0.025934166705845967
-0.6525710104330369
-0.34407336539000066
-0.4099961366543596
-0.3710586302137914
-0.13429726748891174
0.2954408284515285
0.4770510327323955
-0.1795720448956582
0.1710821906244295
0.4836556351726455
-0.4099545467016243
-0.6572816574785272
0.22815180757651626
-0.006528587563147483
-0.1225176615487172
0.7581262422049592
0.11668644678571909
-0.6456162293159621
0.5046828763322737
0.0634314075996874
0.5737243451868845
-0.009501220939498844
-0.3570349122193584
-0.1049742809688602
-0.15410810192293126
-0.16445091382186147
-0.6878664236709198
0.5881512976331769
-0.09979351372294955
0.36161158168432406
0.6423264523445021
1.0386007455961113
0.24168431862595915
0.5004452389970868
0.8128794669022448
-0.6154984365161311
-0.062850679969718
0.1698207249809968
0.09293441714603416
0.3691652933827096
-0.17928962603233892
0.22207389965624075
0.22510034470847082
-0.1534502492842965
0.5601482805918778
-0.9155459294811427
-0.5627139611319698
-0.5283616335653629
0.7781519988092757
0.2423400036351748
0.1795311642354745
-0.4872610577104483
0.08830899570394915
-0.35946459228373406
0.07522010484979186
0.22532078215302143
-0.11738539396169123
0.13111804072725952
0.34537975109587765
0.13181953877397076
-0.07273813199177294
0.665885964628028
0.6834564318185347
-0.06293739173472476
0.05716773864614849
0.46251763695550874
0.36539546995824873
0.013008308493973983
-0.02424306245125329
0.04553093390119274
-0.38801137157532384
-0.029487980685855925
0.03102874923543295
0.02068450891135784
-0.03718535232449716
-0.16961709989048773
-0.29017476073762916
-0.022138826354671015
0.12899739145860656
1.0181812835549906
0.8030334685457622
0.5093133256291449
-0.2801356391131695
-0.36116286277187176
-0.32981130440018724
0.20533250347567988
0.079920048015125
0.6395347326085025
0.07927522226174762
-0.8622185920733012
-0.4558626442426492
0.19891794464694826
-0.01038351286172611
-0.5593497880548669
-0.5054533334357739
-0.060130888475850325
0.0004876607246244418
-0.005842113471890922
-0.3797072928195161
-0.26581849758313575
0.3243461033154705
-0.18355495147499204
0.14713324770131608
-0.2746036123998745
-0.0647259324969982
-0.0641506106595121
-0.21379893748831863
-0.026337206682435742
-0.3779341418194247
0.5401835559675442
0.276487424679786
0.247908361000835
0.16103134399700067
0.08204624020648207
-0.10715904556020282
0.10958577480187466
-0.25213942229428854
-0.4569522996453833
-0.5891386389921508
0.21957690241151379
0.24034301834596075
-0.3652742559096645
-0.05631411043892556
0.07861584940330126
0.07837628398442238
-0.3816016320123767
0.4578889003115778
-0.39753691205211633
-0.6424420299962021
-0.7381942417300269
-0.3880515420921119
-0.5210218144543508
-0.26102321107003806
0.6432760500445893
-0.29680486414028756
-0.5449589124100328
-0.23867922232019756
-0.3279728439462631
-0.2823196748683964
0.3430012080801477
0.5536268882139138
0.23243210725542127
-0.12262759975565854
0.40177387678056514
-0.10204567855431046
-0.2889742555852471
0.3335152860083388
0.36891006272356447
-0.3153571396143241
-0.16093089212592943
-0.618603260880631
0.1383179075498798
-0.02208559087709305
-0.4172854566641611
-0.3692204795648599
0.1535347779497466
-0.4143440513056812
-0.8522561597872982
-0.11312446572777815
-0.2752198470132385
0.44313882412713446
0.28008253229521596
0.4636171484227772
0.19125866406562908
0.2927074702073641
-0.5856291310923359
-0.013487497904993291
-0.09542382448361625
-0.7539882824844859
0.1555778925600864
0.5795562621040717
-0.3396973682326165
0.029482609362148447
-0.10073581133584673
-0.5234473111462563
0.5772287360499163
0.33157079852631105
-0.285327152106386
-0.18934315267085766
0.03414369224745934
0.21882138711499505
0.2364876537883641
-0.6831224762618462
-0.18251065146131681
-0.029542350096762444
-0.8933046854975643
0.183929816711452
-0.47414797092720656
0.04267681502605441
-0.32561888140188866
0.6128859786778758
0.2733854078841904
-0.13607564529688357
-0.8692543221834382
-0.031996728186227674
-0.23864406923560363
-0.4411662450650059
0.7129536110820548
-0.10892995459888834
-0.21141540845257265
-0.42724474770849336
0.267226602816362
-0.6834687356147402
-0.063291668054141
0.12030828578408219
0.2130605841235523
-0.039822538441649166
-0.044929269822336644
0.3186538136095211
0.31510200628462104
-0.1627498823449628
0.44252890194315414
0.24416265927313088
-0.3761469011581168
0.02559515150054932
0.2682393673302491
-0.935943169081727
-0.421887855810839
0.04535468407559631
0.24541134165495326
0.37339947116949435
-0.3862889031510426
-0.18138444416353527
0.23684034497053033
-0.021309490983603668
-0.6043593141839724
0.20977038727221547
-0.6039708239080468
-0.6890141113131011
0.5871585532733125
0.31325024587094025
0.3099493052219838
-0.26416933551805355
-0.20707280444058554
0.1393651856144649
-0.07687244881595916
0.5114714989580001
0.2897133270412681
0.27919072086683266
0.5214708674482595
0.10188021021469582
-0.18758710999420328
-0.1788878282745166
0.019268265118089427
0.0882946357872686
0.3468386625879722
0.01374196117289826
0.0013574976392089983
-0.23737205748282014
0.47943332088581214
0.41329770537288907
-0.3557920783991862
-0.4388119381043214
-0.6319644460593188
0.567179305965017
-0.2038271155284598
0.6284247327110504
-0.27424903135300777
-0.6621557914960934
1.0618008998081103
-0.07044523501640089
-0.19056489565241547
0.32219003408902114
0.6925008105060718
0.4680766788834185
-0.6878782089684691
0.22144085539159647
0.45563877380133244
-0.23554206792390162
0.42034651566746184
-0.5627321765135943
-0.5077153668084609
0.3370786720304581
-0.17065481586623193
-0.36885870261065073
0.2581623356456568
-0.11306371289809934
0.27199550878177714
0.5819870810871327
-0.9080778611765967
-0.12432153525184403
0.3611369291789982
0.564312785743443
-0.4736897234294248
-0.4357286725906243
-0.3048226543578658
0.4267658445511057
-0.3781789921913018
0.39138006082283316
0.14924151578177444
-0.36168742972918805
-0.5107955927537792
-0.8518527229834614
-0.15508589939912026
-0.014227508683389385
-0.24052921390110094
-0.6042701320365292
-0.7085785427339931
-0.5222331961290794
0.17693843633664605
0.10914334186529645
0.03266816736469401
-0.23053377928578248
-0.3796344765261431
0.08418695589943308
0.18501247111255656
0.10712945583875877
-0.44677906312658533
-0.7867284120902701
-0.23072772464609034
-0.6236690363479912
-0.5624244800136682
0.15718047072669486
0.4285970203220805
-0.06177702102006636
-0.04881377357066887
0.3146619118931201
0.6679203116262549
0.3849140437981174
-0.362893442543869
-0.42368746454583234
0.1761987293296129
0.0857041472010144
-0.36967634817126716
-0.565288580950703
0.16490817492636148
0.5121178734579878
-0.2435564245196798
0.2105001832620972
-0.7276691405756058
0.32101984500625846
0.757197545344848
-0.6786817835671995
0.05047799119345567
-0.6219456487827103
-0.4063293682194373
0.2582082615574215
0.21216809042591472
-0.415764900010465
-0.2263706499354711
-0.09738431045840992
-0.34090111991367705
-0.1046946571064024
0.19804720140251292
0.39954199076449104
-0.3299371710408304
0.5760672704508588
0.31958897274343645
-0.5749328376801941
0.5196555120323169
-0.26876352871931425
-0.05675638956517412
0.3976227240842677
-0.9371530117024223
0.3126672765253769
-0.17796476745940104
0.49192792062391416
0.13982795657262648
0.11192051982616366
-0.462919611769905
-0.40904068488460993
-0.5176863629099376
0.024669604346337526
0.1579429287460511
0.3304720764931893
0.5137384519850078
0.35621772498290205
0.5510270476644502
-0.5389326444951787
-0.30058845385069244
0.043443440405440216
-0.09167661624374866
0.13921527939099756
0.23317761109026838
-0.02592286273400672
-0.01148777846122137
0.27905512271383554
-0.35213234355564194
0.24917987990555746
0.03499024807049867
0.7021196884838282
-0.04023309414436278
-0.6225021861498378
0.03848557577908386
-0.3012203115536644
0.11244401183398899
-0.7001737493977487
-0.2589284645594488
0.10037615726155236
-0.1712587803351247
-0.22548419622977622
0.2955217563440603
-0.16134463406540756
-0.4737683365507523
0.5104025240136364
0.014837841907031664
0.45045695810607256
-0.10612675516771096
-0.4366963367974283
0.2746938672873057
0.7013005408101267
-0.316733383928915
-0.05331429801660292
0.34258694576892496
-0.6250509243248421
0.8888553684578268
0.0558378890360106
0.4851941977206423
0.1925764420462993
0.731696103401763
-0.40704494051448475
0.0834142672677828
0.21248046311432486
0.06648793148003707
0.4651768550373476
-0.4885294939824873
0.4836185184885405
0.18402702789285125
-0.08400635578725713
-0.58942397611921
0.14362153727451918
0.5264547027733514
-0.13584918847152475
-0.07716559012093469
0.7615575868871971
0.32084450911940815
0.391615796198077
0.5259030296461752
0.4263058235230996
0.14836992332613322
0.7028155524029346
0.5723415728132166
-0.44144405383996055
-0.37842290768984144
0.2963910511646642
-0.18988321014819454
0.13938887470149205
-0.17666007723514945
0.3043965358364032
0.30761760117564757
0.20757650746001954
0.2079223081274888
0.19447251493799625
-0.016101419423116683
-0.5300031023256174
-0.7687880651964373
-0.18434659848070858
-0.024189313388270878
-0.09490383042222915
0.013448836664525145
0.2261381722448015
-0.7853806541928233
-0.49080825617317136
0.30820763758012665
0.1949554546677649
1.0057497483273035
-0.23080612531715358
0.22197737427650238
-0.35055390310727236
0.5009799267855027
0.18135113076843984
-0.7727887130948078
-0.3929678757421435
-0.2949394771494578
0.4694147414726073
0.04497152499298759
0.26390694624432987
-0.215108005618835
-0.07572955465749276
-0.3944690059738287
0.9538250176292754
-0.04886901378501553
0.5533949960923831
0.20520447735889763
-0.40775638212290194
0.160379566294924
0.4674255626511988
-0.33228312934338783
0.1329865332074227
-0.2976378233455134
-0.44669785184866295
-0.4029875673871119
-0.41084555500287595
0.4143276029461426
0.1993004315133522
0.0351437426309168
-0.237714457087129
0.3258447070466128
0.11238293535966187
0.821480199053406
0.1905258888726493
0.637794639260623
-0.2692717462203425
0.17707987529349778
-0.5326636899387197
0.15213813838136442
-0.2873216517805864
-0.4779472508252709
-0.29753283736098946
-0.41134812713445423
0.08416617315947954
0.1297369708601794
-0.8904071873682379
0.06932088251445657
-0.3460861383382274
-0.1978488030194548
-0.32395520365899017
0.40678687056049256
0.3215287161697891
0.6337358431955139
-0.1591802586911505
0.5584889238080902
-0.5183977001399213
0.07124722373219558
-0.26107104168387174
-0.08349509279316196
-0.4165564694336906
0.4783900598054166
0.27807452908830543
0.14748880318165408
-0.19789705369176194
0.31535665801372736
-0.6291056438334249
-0.9277066001507729
0.9475954214395728
-0.10956885309704226
0.2719047104844511
0.4721715704462789
-0.41570969788269047
-0.0704883050333434
0.688977957836035
0.010034255430245685
0.3930919897487942
0.2988901638703187
0.17374747458953643
-0.5519697594434181
0.2697526912810372
-0.3052896037365416
0.0009187218955556149
-0.17283500956873954
0.5798662315350388
-0.4257497894810897
0.05701103673711742
-0.003973641492252544
0.4084654741625016
-0.1936223623382417
-0.14008350669364433
-0.32084765191397013
0.5019696934407579
0.32622125172240846
0.32462252757903365
-0.5516836028145041
-0.06297589770089533
-0.3461443004310553
-0.05981477669683201
-0.36031638453650655
0.3628327820216997
-0.09938596924659061
-0.7116785088320595
-0.21730855810577068
0.247314682579372
0.2736271199598678
-0.16196459192440826
-0.754411827379484
0.29105072114337105
-0.6071989213291891
-0.04884187126990092
0.28417468982334365
-0.38568074471709907
-0.14496983734531463
0.6951628660560472
0.023977686930760907
0.10777746207018389
0.06792120325892005
-0.5257087226992516
-0.4791424191100194
0.8916314347974108
-0.20582449236350334
-0.16237932939273095
-0.015234263363722241
0.5455112500649175
0.07155405336882105
-0.2666662815091779
0.10054823560144692
-0.29677226187342237
0.05042722049394978
0.62670781960157
0.6524306766089532
0.11659427786085608
0.14314896452673403
-0.2530379617824252
0.2983308370513413
0.35782812788105783
0.5888504851407577
-0.6035925036848457
-0.4429816715683054
-0.2078639922118984
-0.2343718194524447
0.2547688248672972
-0.4157812619124542
-0.2890312780399104
-0.20454366014606365
-0.2824710610253376
0.10234830613804095
0.3314894592654148
-0.11882718378729885
-0.42006066254664287
1.2890277819109028
0.14217916949940287
0.015610192511945559
-0.5193741670089309
0.09457306268641415
0.08980660752399845
-0.03627957072764196
0.3781540428460985
0.12035841832673552
0.4520667954174902
0.30381235505506904
0.14174691368395173
-0.4899763422682089
0.1078919156576444
-0.8759202507121018
-0.01966776656012942
0.5534931689798405
0.6573788018644741
-0.8215397438533938
-0.13398006142883015
-0.34193799753255394
0.6074132906840761
-0.6744820403841544
-0.37352001429760784
-0.07890263150354504
-0.033673521380590474
-0.34232767050260454
-0.2790223470113749
-0.07484491547038105
-0.22116168215399087
-0.29670600224797256
-0.3355186181500585
-0.2328274667401672
0.009957603214234986
0.15707804142672796
-0.27178827768870756
-0.5062943279043118
0.20212997044930744
0.5415353176558306
0.06985531198841648
-0.5364990363094675
-0.41980325726215406
0.11266407725550844
-0.11625377075189597
0.16158509010684
0.08160415251480901
-0.11219040485778933
-0.16228480452960461
1.4048584329327949
-0.13333682862609073
0.1153711971704988
0.37290206222737426
-0.1326629738848331
0.14760739636695527
-0.2932624443913577
0.3061122092466882
-0.15419073708926134
0.8676829694299758
0.1952957118344947
-0.5451508810571188
-0.04486595413603395
0.5475011741607795
-0.07428606687150854
0.042654906842455466
-0.6269922095890431
-0.27666776322776415
-0.5048714319968536
0.8807981432988391
0.20882614425539284
-0.1970983413566527
-0.37670648041489296
0.19530847606673127
-0.14266906121623135
-0.24137307383650622
0.3477724351832506
0.3477907483748804
-0.4379985212676448
-0.07750480572435174
-0.002840106503180192
-0.10635610447969703
-0.22712474452491666
-0.16745455785754404
-0.33660350619751594
-0.04611093301386808
0.5473623996319642
-0.18112657802262566
-0.08463626958771273
0.33838041385461926
0.03459757752686606
0.2866004236874493
0.47529767483232743
0.1520831671624215
0.20289360848241123
-0.35412341516448564
-0.031839548845381115
0.05629689757219208
-0.442885420093269
-0.7702047080268261
0.4202845781277365
-0.10872069134833097
-0.5321781147931903
0.5140579287277318
0.0660170397590145
-0.04844382762954281
-0.008143350650316416
0.0698013043362637
-0.5251902514582338
-0.25546474356092447
-0.2524341297865565
-0.27434621422853306
-0.0650776685361551
-0.5677783893155973
0.10721971624659511
0.1530933007364471
0.36810885197406706
0.3525465684353432
-0.22116038448893877
-0.21395843822220875
0.026857547291945574
0.310733219806881
0.02494978630005832
-0.11548625827691834
-0.15806381742049605
-0.34412957315854814
-0.30293015363419634
-0.13270735161411948
0.41706517754875905
0.7301897783967382
0.1221667646119899
-0.0690070917580537
-0.05265125026556042
-0.2786735804782246
-0.556522494378852
0.46551292625577234
-0.15795062183971956
0.06735213872728103
-0.5259902004497903
0.023699600029687903
0.0859776161286683
0.44708969450641267
0.10857461306650226
0.7141155447472133
0.3725311863569607
-0.5385900228445276
-0.515319741045276
-0.3310381454816956
-0.1881542175655963
0.12878973898561358
-0.4470836837730352
0.17762399559086103
-0.5518424229436129
0.03941814572516099
-0.5679911487356979
0.7790036184820636
0.36370597494494067
-0.20146028675614305
0.41678957855035925
-0.18425759308638154
0.06890408606315425
0.02564084583937061
-0.030928853649415444
-0.10311713385362098
-0.8264962088473253
0.0447729791174971
0.268582733167183
0.4135515297624526
0.6447443739052512
0.3725356653439675
0.607545412281977
-0.7356492983050982
0.025181900278564574
0.2555753873822097
-0.30616395346352765
-0.24853728257454372
0.31153450919552733
-0.10881855492956657
0.048302805240124924
-0.030414103115305614
0.13440711613771059
0.5527578394770828
-0.05253672626043695
0.6558287322552723
-0.32669755702614744
-0.3565762720709832
-0.39555020812331493
-0.6861917347809435
-0.35796272052415573
-0.3955521096600013
0.7586953651796898
0.03211216993095198
0.0066628246022042295
-0.10606763700586803
0.3537030176660489
0.17182374166340764
0.13121497625473746
-0.05519495344707393
0.012645114816002574
0.18344257522509125
-1.0074449204948916
-0.7195996233494595
0.5442216952669652
0.32169503390887016
-0.0504388264571896
0.31277511137834196
-0.4958899990320084
0.024245861530179654
-0.7087319630008978
0.28528282085869927
-0.23678005760844356
0.267373326456633
0.17706858204392406
-0.222863650541878
-0.2460450834385468
0.622789378585903
0.4133236401800557
-0.24972807650340595
0.5037282520465591
0.5706005375104284
-0.604635400069348
-0.49115066397938406
0.24073079823015348
-0.15601363895266201
0.12049414151084391
-0.667103063431943
0.2091846546828535
0.8764773982508065
0.3267611408186378
0.41450996955314773
0.07837392671868183
0.003436599127118182
0.35026852180309737
-0.45874235940893393
0.38736672468111333
-0.33703695433208036
0.1886394160751428
0.33404061271509433
-0.48235319615419503
-0.2021954121132254
-0.2257585957121367
-0.2275664009353482
0.010505516991660645
0.13091152218120697
0.5201315637093258
0.7252149207564645
0.6631785219355646
0.1234899528483167
-0.30050214351844234
0.025884133203738592
-0.25422052084334024
0.11045532583403284
-0.44279966508837054
0.21794031179957626
0.4854217856077619
-0.03557691187244592
0.03750757999013562
0.3354089825855029
-0.3186132183619843
0.48800989279627655
0.2791252242372757
-0.1680790558704534
-0.5310613601671675
0.24410312957262975
0.187006161878771
0.09228517161754994
0.14207932740622256
-0.33857096413321014
-0.027185655309198475
0.3173826784894656
-0.26216549422928737
0.503728482774955
-0.34084671848094344
0.24530951990729785
-0.1538389227211695
-0.4618484150215443
0.6045481182769639
0.9165867019060546
0.84555924789334
-0.5379102654176173
-0.3992241151756908
-0.2585791751443109
-0.02432810475028656
0.23137876823324602
0.1792946927691486
-0.05289919397108495
-0.019963193715257517
0.36491067906045843
-0.10499184754449034
0.37653083412885335
-0.11544708796469588
-0.2184428428965098
0.4393280424684189
-0.665060327675252
-0.012978111145963134
0.3343101161363237
-0.05877483343675481
-0.17651968513832622
-0.03813355177413273
0.037396809118772044
-0.609162159315749
-0.21505973889188307
-0.48084632086944956
-0.3274402001276713
0.18811313029019888
-0.03447492167640282
0.09666393142079933
-0.32635914472591965
0.2967552759408705
-0.1475223525670595
0.22651022817447986
-0.012435870076869518
-0.600152900737686
0.39189040793915
-0.1481797629954481
0.08400960934524268
0.4840885951771231
-0.24611432074566963
-0.17329800779821833
-0.22537534302167586
0.4007034893745467
0.10751794402257835
-0.4320474595887954
0.15979659132358165
-0.018600885129407864
0.3906387206760061
-0.717040469264789
