0.10193751950117563
-0.41613598633666155
0.0922793325907077
-0.00720292945666567
1.0458819876512642
0.12589895209450205
0.2042756647293386
0.47858683709643635
0.4529392909463828
0.49895452830379067
0.06748433268217752
-0.29204792902092386
0.0673255325342332
-0.0027014261192828126
0.6352508422056409
-0.3718845311657024
-0.09216918378245612
0.14365931830101117
0.23792465014539835
-0.45699304526960144
-0.21291459985347752
0.7181854532342854
0.17721055610068495
0.6078286913451405
0.17469036360312948
0.27373329337369146
-0.2635158557800398
0.14835139855904794
-0.058060649182226615
-0.1011084681915555
-0.7608228179555776
-0.6245411645811569
-0.7575101709944618
0.40772660655206105
0.4738180135621691
-0.994388314646686
0.09167603316595138
-0.27269317996768005
-0.1814290599154854
-0.15837724491713803
-0.7620939305437906
-0.3082891989661028
-0.4232305122268536
-0.12282063643169346
-0.12689535821156206
-0.3398175810880501
-0.17089574092582455
-0.12178232850984361
0.42885271995792484
-0.6172087235349751
0.5279393836621519
0.4287297609544311
0.30061506492428747
0.0765836987649956
-0.3041521134427212
-0.3754556168116829
-0.4040538320409635
0.37045109937674786
0.30902490056706533
-0.351204780917427
0.286783172115413
0.6598778448781485
-0.3339842361240821
-0.4230215168500246
-0.017274379377957824
0.804032434327101
0.3037162572250046
0.5332039596304831
-0.6565141862711327
-0.2564825394230474
0.01448273618303624
-0.0571570934086416
-0.70276940819395
0.6785952389658574
0.11571713231734285
-0.35694225409983354
-0.09045583365463941
-0.9774707844042851
-0.6421343993064274
0.11571930116528042
0.4654592018081141
0.14828265948649297
-0.2770945440746324
-0.31893023342730775
-0.7520415469897272
-0.08419381973815594
-0.2755043814593642
0.21491022331194767
0.28693972308882454
-0.28847334220494714
-0.08190131304560203
-0.0873222097241984
0.1551070401235961
-0.8380440911193693
-0.7279749976610954
0.6324257015541673
-0.4213982601349123
-0.6739592438850155
0.6872057060006151
0.3645043237858875
0.1793112519091306
0.03013509655976827
-0.46975192654441195
0.35579847605390597
0.05612069807218246
-0.25737021723308734
0.7173829706352066
0.05712537094450336
-0.1561104497262456
0.040263089904756404
-0.14661601045880804
0.37946584691356083
0.07018087115781456
0.3324598022344204
-0.0889305955534264
0.3686127541707878
-0.03440084089233077
0.07306071671483466
-0.1419655942388125
-0.06879758945718101
0.20525300213982986
-0.5410115210005698
0.009442809480042058
0.2109922272349582
0.17115389245875295
0.30588253177049757
-0.24331949587644713
-0.2331251073517584
0.7755418405972044
-0.5801701178089022
-0.15466001683239977
-0.07737111771276492
-1.0041452825767658
0.09221730957189633
-0.20657534466014357
-0.10567120899829253
-0.7619750176639105
0.4578500665607801
0.06238429981493495
-0.10918099068038195
-0.8703732765651184
0.30834178369906523
0.28865629370311496
0.5568455282576156
0.03191147405259352
-0.012076658159253153
0.240503460617261
-0.10621207261188657
-0.27849062672386177
0.11415919778415849
-0.2828028702844306
-0.13910245308349162
-0.14501039648501568
0.7261552120535664
0.3523356585159016
0.28614764046382557
0.40613915842171217
0.018504392129119744
0.26263640042897135
-0.659292119740958
0.09444398831385924
-0.631957798893803
-0.5878256522007563
0.761016990593848
0.030164229253109284
0.5022403898532383
0.348896602166097
-0.6992062110782393
-0.8282848317459911
-0.8027718182798232
0.4987095630696993
-0.13211063084932007
-0.33996903590835925
-0.4209209855285868
0.4345404548365956
0.09073666043877329
-0.050308298392709186
-0.5180808757887623
0.09688090904811456
0.25372280525789287
0.20780934460251038
0.1863439060043969
0.3173877847307446
-0.21810892890933167
0.2088304187129867
0.06343175465128886
-0.1567981780138263
0.30400302767437615
-0.12778635634177354
0.10754204294413669
0.2891984544382667
-0.22124111533433966
-0.49690960708459825
-0.06992365628827987
0.37412018063449237
-0.4874658629342666
0.7583550750242476
0.038119118777911846
-0.039134263893227654
-0.694147426853038
-0.22091793374594085
0.010508902162358294
0.3959593002717231
-0.2354614760824185
-0.46060296061533157
0.5473483584735918
-0.6211267991935205
0.3471628139344354
0.4535881889527017
0.015578963362132128
0.3011270374094481
-0.006166404414694061
0.16644431167144005
0.4036697747263518
-0.20038430934391094
0.27607232792387604
-0.26911939458316714
-0.011107381585323024
0.3103672427684199
0.5070219815750545
0.5677235904249591
0.03673415594944746
-0.2092923642632417
0.5445415740686296
-0.37257665757944325
0.308238840699253
0.6813354971920376
-0.19437793807123663
0.410517452824879
-0.002883069148889827
0.05288036001815602
-0.034903070755974146
0.31631603177985274
-0.1757049348242355
-0.239870421550957
0.114549258847511
-0.6479073595821269
0.5138922022996516
0.19312493330576877
0.49128236454248214
-0.11966685711844677
0.02333222669596107
-0.2945804072379071
-0.16378580628659692
0.2375448847716827
0.41331977894248545
0.005308156381104929
0.6135673236864684
0.7527237549347618
0.09901719719730753
-0.6054028227297995
0.041147618491707436
-0.0489414504879075
-0.07526893105869464
0.06828627988470991
0.2885228254657373
-0.15342974856056135
0.12008292145808862
-0.3995033138359646
0.5141292605678011
0.007182326720397417
-0.16994631255163858
0.4496973693929917
-0.012864110236249953
-0.059872664009071326
0.0706439560509174
0.32140036206575584
-0.46679627399746504
-0.35227866515255957
0.6214548348558265
0.34697707040442705
0.045799047589750945
-0.6100024589853852
0.3348413541435463
0.3880007093965725
0.13094836739379628
0.1192316638835506
0.27129312550500917
-0.4054355661571871
-0.8977048381630859
-0.6630226941825417
0.08204444991743552
-0.0619923448880717
-0.13690084058782923
-0.2063279931870173
0.9892853733245526
-0.6028330688024336
0.6984169935670353
-0.2865457480013899
-0.24530514782525972
-0.023704187310867868
-0.4049510320004694
0.45080867612992415
0.8374322942965324
0.16160376265221704
0.2707271434585792
0.15631932099397022
0.591751688110054
0.4894875227896007
0.22497355477688477
-0.5209000324219064
0.007746869667560005
0.15098524213760445
0.7039374939599695
0.22908298860897097
-0.015526667956227858
0.026917866848540476
-0.1654124572724129
-0.097681115816705
0.13950330414423381
-0.3885740445460765
-0.09457598490772133
0.24451362902701862
0.4165324640191174
-0.1547911061805946
-0.517286815694804
0.4715616711711121
0.4724262509567913
0.5099618184034224
-0.9330270349494861
-0.1290623234531558
-0.34085823556539296
-0.23026254675323987
-0.5085151148454355
-0.050694756659144066
0.023627163897881217
0.18797377904319884
-0.35435801873227935
-0.10344297096882622
0.7304236340798809
-0.08829180015703623
0.5422886869789855
-0.7083641587341954
-0.4209281229178335
0.09000749057178346
0.04205719712810594
0.07548310578792783
0.018598195050993367
-0.3649621512764408
0.3994177692545032
0.22192706485709732
-0.1636036425596603
-0.17195605770971525
-0.04376547249163778
0.3796518209083864
0.017523631187923834
-0.07143893749317307
0.07558978292987602
-0.2441252327590544
0.1981010707097859
0.06712454886494847
-0.6456996286257763
-0.4275994144576296
0.34329822112849273
-0.5512462791657627
0.09732288185908247
-0.26295184826301804
-0.1818213382447266
-0.5503180456995415
-0.20379862342275357
-0.03686331179755748
0.03708130410301929
0.24979973141563566
-0.08520378744317339
-0.3399660462489256
0.20672495587013975
-0.2870072669478424
0.7047984662485627
0.11389611633588892
0.35049290350479373
0.6942453978621851
-0.45350423042553395
0.3164399586055933
0.15262045587049328
-0.4814023460401781
-0.6185940884429851
-0.479520407595442
-0.13459474388041975
-0.3949776975496811
-0.05377758289452101
-0.5391874280442374
-0.14259417731279508
-0.3577992462620675
-0.4122446344851846
-0.0062383419151223534
0.7225528233911157
0.20000177471607716
0.10913470166903745
0.07680927228664239
-0.25838214569795587
-0.06740310122067228
0.5621975229963851
0.11802266273603844
0.6676147762085624
0.41853402282383073
0.3659430616435864
-0.34646317559718776
-0.22312861125153802
-0.5333811450763783
0.14103285015061875
-0.04372033601133074
0.07428227295438723
-0.10380682863863924
-0.17710822625895065
-0.5374999925505346
-0.4703681147878502
-0.3400011692686681
-0.5144993166561325
-0.8550781525898404
0.04946359408046111
-0.05442992758020832
-0.3086589861646116
-0.4859528415840463
-0.2389950756505648
0.5774281320016716
0.4872756702478373
-0.02972768039015591
-0.36337789890877475
-0.2750332865129533
0.48607368867682227
-0.5623195278902041
0.7555080922521569
0.07504380941264327
0.3223762228636382
0.2824690242095122
0.14558794781273857
0.5054823037854266
-0.062305310453109664
0.06564071240862869
-0.7738825600820862
-0.047276384895054833
-0.02518400740405615
0.4178474243384386
-0.7375277728946965
1.0950650482549895
0.1229568234639664
0.34773493538819916
-0.5332648012617768
0.1902220534662462
0.05652537301983709
-0.13657152964487745
-1.0810778835638948
-0.3710618746229911
0.6735843024243469
0.09281466726578064
-0.353062637144659
-0.5530338103839734
-0.5025060079759235
0.1572518042550377
0.05025931910093575
-0.21594535419213734
-0.38506014300898356
-0.21051760487437396
-0.004632271696434365
-0.3512351028921431
-0.28346498336197945
0.5998785811527257
-0.33347347948305106
-0.0819115226051868
0.07971179747375248
0.48356757771742237
0.6628710881814608
0.30678835412237376
-0.45976177740690655
-0.18015148038472917
0.04952313303674913
0.21176928195919087
0.15950368900499964
-0.506003122346937
0.011388271381696785
0.21689263764591304
-0.13816744094648778
-0.2799726215553813
-0.25291697033233934
0.30213603585750964
-0.49903498799789947
-0.7553253196197347
0.05126428062337883
-0.04467453142511266
0.5021997875731353
0.519874726153391
-0.4823384994892742
-0.9155510891929606
-0.3767655035692917
-0.615629621476534
-0.247418514523444
0.5872884058306702
0.030556752613362083
0.047855528721554616
-0.09534454586030841
-0.5181999225912638
-0.09060126976144155
0.4801694607442117
0.40132745678852866
-0.20435505041996824
0.1075576745041191
0.14405113205240255
-0.22217566370072223
0.4616441754111054
-0.3288608387763562
0.09287000162788328
-0.4093833162391413
0.0358162577735166
-0.6830948067673356
-0.42643500612729773
0.2216014642781056
0.06640026016970141
-0.1901690291366313
0.7963351531059443
-0.7431437333672603
-0.15422051242936372
0.5048411832532193
-0.046412140753179565
-0.16353458889518038
0.24061574410644362
-0.04443853598656849
0.6366680443531303
-0.6919247587824372
-0.3705520364876936
-0.3732534619269971
-0.5038959351478346
-0.14286766672531684
0.7493552787742136
0.3179690025835684
-0.12583557152983443
-0.5311385196798325
0.10315042140102984
-0.5727320080184349
0.11192875181076815
-0.4056282674435554
-0.26182763928826586
0.07097270015114758
0.006256844766483989
0.2081702023230032
0.18881606460826267
0.029437217271500216
0.05652862806349032
0.7543815758384405
0.01516405587143575
0.3972405188622432
-0.19349938913676248
0.6972641183483009
0.024570606689844576
0.38623879863143246
-0.8176111934579967
-0.6142647097402268
0.24002488385812898
-0.36199966373518455
-0.4055764256548513
0.6073369067487581
0.3334843529707484
0.16350681348964202
0.1771309268122096
-0.22758854550629173
-0.030666482368612778
-0.24701960370671236
-0.4613823416022057
-0.3764105054748457
-0.014708066720466064
0.2574009442970376
-0.10120947289788951
0.02929288156995543
-0.22736825896295426
-0.2954462396533148
0.03511026619029491
0.11496197898375171
-0.19786581571176637
0.6034032135977206
-0.03793012124618361
-0.4055197407059604
-0.15511184379709264
0.014750057411350286
0.20606949235939162
0.3602752040093828
-0.1360279826711475
0.5450105532536905
-0.25783578045109967
0.049220287249316735
-0.5547853352849982
-0.03025857298321084
0.2979071551040811
0.6090951882753504
0.23271767525931172
-0.33997174365173005
-0.05651109727833332
-0.40529353658570766
0.49099157409767813
-0.5994200125006667
0.3764662105709283
-0.3435604637783798
0.0744615230891515
-0.24941623354914874
0.391211466467495
0.1128590922306613
0.1383039689446429
-0.4287536052014718
-0.2854462364960558
0.5832514089048999
-0.42539443356958667
-0.8565623603937618
0.33821406414977806
0.25720045492675964
0.19793510246642945
-0.1752538849329658
0.4843145074921479
0.6659341464270397
0.29270129043375553
-0.031628730672752056
0.39541711953060027
-0.09159192375494851
-0.47459316167619264
0.023469462714339855
0.14072749885882382
-0.24024335634340102
-0.029056390895286586
0.012245711226435864
-0.19911128012736104
-0.25473265295702774
0.2680129795419156
-0.35994480714010657
0.6139238555474996
0.10881844586644845
-0.34230635601672293
0.11350237842541176
0.35651117338268595
-0.26663195111100585
-0.6297676116164357
0.14510102174096215
-0.1481537407458784
0.23577970575529142
-0.4069824656274216
-0.5711238496554661
-1.0464555400527236
-0.04577249407465894
0.10272972570728432
-0.19286888051843987
-0.18380539510287677
-0.15702431680795226
-0.24710415288195664
-0.3132721099677914
-0.08546366066431547
-0.22080841190350206
0.2517666825858382
-0.055415176581498
-0.21599786627686898
0.24521242220968664
0.5894144544900318
0.5521172029754362
-0.0067013778939725615
0.051323013438584336
-0.16962023137367052
0.13019369138436268
-0.3788680720628068
-0.3079935205453968
0.6048239659653754
0.09700888908875263
-0.6543060143950081
-0.03896087971433293
-1.059722624779256
-0.2776896052928106
-0.18428178041659957
-1.2687557481548166
-0.6823770231873112
-0.26366296489543223
0.46514367941142526
-0.12984902167685874
0.23933927670831165
-0.01991884431831593
0.23286506211358105
0.13311727788962466
-0.3922099556664122
0.45368263535757325
-0.6483302516077702
-0.07667496427404916
-0.30600450746849606
-0.34281186672683694
0.36477283939020033
-0.5655642830623898
0.3395437805869093
0.1444660299669859
0.08618726790007343
0.8069943458472877
-0.3316634858498151
-0.14219440662203858
-0.35607557555140557
0.017653447757147635
0.4145697075957311
0.2489077037700995
-0.4199328916956578
-0.5497258675389435
-0.476812739456191
0.546581471915831
0.1434923322001818
-0.16441586714972886
-0.08641878235049041
0.4452110552699186
-0.38176161058181135
-0.05573851422221728
0.5565420947419117
-0.2437599342104232
0.16804669152294913
0.06759581821096755
0.1499528576925948
-0.7971800835664307
0.48056536476963946
0.04002350449275262
0.023332077534904162
0.24970411927734235
-0.37334544777341677
-0.16608885445105304
0.5737794196772525
-0.04725255690926785
0.5189885843815281
0.22143897322842854
-0.3501520056705588
-0.11844825896959142
0.6009371952945917
0.11085959944203962
-0.30246298484681916
-0.11226738639984954
0.45953256820118593
-0.05678227163149426
-0.6663585693682411
-0.3803511504849668
-0.159406426129567
0.17530743182779088
0.42991693952290394
0.25715855747569244
-0.051343907605451655
0.37085819828402905
0.07411318692107913
0.44704653398684885
0.018699829302114238
-0.07257858429007047
0.5767552151065398
0.7796560756015514
-0.012360605379808216
-0.23698099532085448
0.050955568083662195
-0.12185773273475947
0.2721595111656861
-0.009719286096158521
-0.6683084538446112
0.025571218651183218
-0.14626612970800826
0.3857877865990667
0.08161194044549329
-0.6837031611602677
0.20218994778043312
0.2659940312610762
0.6876075265238216
-0.7181335720942439
0.3117910063658815
0.5557083380031977
0.6078841161509104
0.009642650921213148
-0.11837144873198796
-0.377049733114957
-0.05054902230305884
-0.46941926679367274
0.30855460828934783
-0.14367589926848953
-0.25292567882644723
0.0903499490990281
-0.9568271176176982
-0.3649961572993314
0.23748019647752822
0.22538795541573023
-0.24845039756162848
-0.18400204582662255
-0.09100209086620065
0.4863642161005462
-0.7191193826339172
-0.36352723989010005
0.5623444680651629
0.3912097631719632
0.027212215529770625
0.38198707179096203
0.3095629184247146
1.1367768088203747
-0.5806172957700767
0.11183341152364626
0.1881210171629623
0.586281227771
-0.6274586461392249
-0.1156500324489094
0.31607136201042974
0.075832371562565
0.3020306506590141
0.09504690813123656
-0.183935031919314
-0.6600456784176505
0.146609753216548
0.038987302893686966
0.13044401183628182
-0.7577564333703131
-0.5533335581250438
0.5685339344484739
-0.28123179116707503
0.5043432847321081
0.3865434646008171
0.5779131051064077
0.029794846973554587
-0.1819057319413064
0.03688371627564132
-0.05432665774238269
0.19206181967726024
0.12021929183085342
0.35571072630644857
-0.6166935335736257
0.20501306344029863
-0.5125453000747527
0.16523421939043334
0.7087264737354559
0.016643234849499196
-0.8574921428173017
0.17420092643679636
1.0877632926856173
-0.5951789838672559
0.05970357097417892
0.1991799147469018
-0.8441875718780649
-0.45949458972531687
-0.03702061726713384
-0.6111276966410676
0.45571724910161965
0.3218809770857737
-0.011350173972476632
0.33112670472015243
0.5499118938545808
-0.025616799047052007
0.2687758544289804
0.014209916871851051
-0.2632085024217628
-0.06285417371076422
0.346024568716548
0.21665574897912432
0.43639045697476586
0.0025130425281541945
0.24827058885737785
-0.16934858153488427
-0.03821074245820753
-0.046134227689785735
-0.40912484053652143
0.04982290658829124
0.44183421940360573
0.13228927717438763
0.1867915980787606
0.43458868352486335
-0.40213683246841225
0.5218520327907339
0.6951861822858445
-0.6931332939885388
0.08086029601423189
-0.4587615780536142
0.4986257239017869
0.0720935804442596
-0.457273962933902
-0.7846499501358208
0.18987055729399227
0.20226017715166295
0.017744627597827366
0.17106957114520768
0.1685836939937697
-0.0022322635581408586
0.1812338972892619
0.4996200960966641
0.7107076902027805
-0.5011796299219372
0.6389807460147462
0.11065779449954881
-0.053738099509720895
-0.21167884577196447
0.15803599785017475
-0.6231246180034024
0.34390973912643374
-0.08297070962513423
-0.25885632222682076
-0.10270074460667093
0.06940674699006964
0.13497316814483698
-0.7202883645912659
0.4242859194555601
-0.06969985736228737
0.16239558438650384
0.5491220069808287
0.2748881703110582
0.45744631822218806
-0.047712630035893384
-0.15435975436401841
0.0637012866000649
0.4204085541802565
-0.2605271978164782
0.49061015091254756
0.42528543055447715
0.48597892234508794
0.31794347663557404
-0.9945720266389707
-0.6844283026599989
0.5388873841787687
0.43560751220800253
0.0908750910900112
-0.4058054457035733
-0.126310024855754
0.007259581466566502
0.04964439113536478
-0.040253638148437715
-0.41582113311263935
-0.6278899429229511
-0.719505874073062
-0.3067261594766557
-0.6549205615616337
0.2588316656397813
-0.1184111419969973
-0.17877231085845854
0.31998476694304917
-0.21585591538955456
0.19220075493826536
-0.6497667194537063
-0.11093642350439399
0.09410695438293473
-0.14208363253759518
0.2414492697774272
-0.13895691938549407
0.016031672650905878
-0.33250219726041486
0.38372079077860216
0.5377880396794111
0.08380388111133819
1.033525402257925
-0.02675676057717459
-0.9961583507941509
0.44215033532577164
0.06088367608719045
-0.47583902580711473
0.18741237847045208
0.15919047144169915
0.29043490702992
-0.29655813949357607
0.03801526875868255
-0.3487602250071649
0.07847140207577233
-0.33765407325152025
-0.08071577291037028
-0.6123029028795429
-0.33234277485996333
0.29416467154567605
0.20436084598480708
0.49516868105379463
-0.07864393033126563
0.7792623882339046
0.4811975866341175
-0.06526395487235569
-0.17744944247237698
-0.6592436315597274
0.3130745922390228
0.19409553223876475
-0.45569912975199983
-0.07950308918081765
0.03132793843634654
0.310962509324467
-0.4123411897978958
-0.1691012674020431
-0.25813406688304946
-0.8175110460982095
0.16218421624587456
-0.002545067615003202
-0.05366244729765503
-0.3207732845178911
0.2298864172627303
0.020705848470324674
-0.09142826570985157
-0.10954231112677827
0.15651170978420062
-0.11572945610279702
-0.42341508903799796
-0.5107668922244765
0.5573632123301182
0.24361570936460844
-0.2137147332686015
0.04049161599158596
0.06374261288723129
0.4065081396989137
-0.5587376755868888
0.06830994717324039
0.3664196013396815
0.44912959569814287
-0.25224604564092146
0.057841503791734326
0.0617268712034968
0.7124843029773618
-0.31957052347896925
0.3614968824527959
0.1778001402628879
0.683208917253419
-0.4278424976217899
-0.27237890173595025
0.5833156818300698
0.14897839568253252
-1.0223815556790712
0.5290951527182118
-0.589076318104137
0.04324172135591768
-0.1300003889331725
-0.1290513081284813
0.5146561613275161
0.8540864151702824
0.07467115944552358
0.6072559314060751
1.081163602434652
-0.23665802898932528
-0.13033395985203589
0.05986962827278038
0.12190742362567987
0.03175944972282022
-1.082339173622629
0.47392709307957237
0.6401586098171758
-0.16392220956247727
0.19183026976672313
0.43925066193321405
-0.16386889323172535
-0.7741534613759051
-0.45559082336009665
-0.13478273875757732
-0.454190080420873
-0.0906483385440659
0.5562102477842139
0.1210610119584267
-0.43651666288219143
-0.19151622091916745
0.9206437452838155
-0.03694894959126844
-0.5978463279035857
-0.5489735046025045
-0.03190497844712269
-0.4914390399012411
0.11437207788063962
1.113835595644436
0.0033771238994284884
0.3895509216141781
0.6013716547151742
-0.024065365978998207
-0.020736282605323387
-0.1512206810198085
0.06761038394986439
-0.5067960497357334
-0.2081849921153347
0.345382067703978
0.31126761491747207
-0.3498434518728046
0.015309531667424851
0.26703199832761565
0.2606617537772403
-0.12176690711307674
-0.4860397745082837
0.2434216082930714
-0.060934906689391284
0.0660553359447448
0.2122390506014706
0.06578872777227097
0.06551288198787224
-0.26599034336595323
-0.3167675607964102
0.5356932501686705
0.28515390914860167
0.39168663168621404
-0.5524778622668687
-0.3153324666123457
0.1881816705721871
0.7979627137800651
0.9245414875233349
0.045660080648646836
-0.2064706510775012
-0.2816865803115936
-0.15996001243528662
-0.37203073432721345
-0.47146680911378525
-0.7038594098764666
-0.06483598383496514
-0.3703595244735278
0.34125883674100105
0.5003908769195315
0.6256786795018812
0.9975137518430793
-0.001316521826384732
-0.08083119443018906
-0.039627483859416064
0.1594364134711656
-0.19951893428213352
0.1874540330227149
0.19968121992607252
-0.2408031695787096
0.1787907134017613
0.346219088049535
0.8833515876901235
0.7404466403513453
-0.1785876559679118
-0.6857259838758024
0.11936566126231894
-0.01675337089338069
0.2515326021523408
-0.15236888566711732
0.16218436630087915
0.5451615057474584
0.4575567473605686
-0.18634696552206498
0.1755047930253744
0.5257679055031026
0.03721061180116375
-0.37646495076674674
-0.1264596258184843
0.1846578243441719
0.1371897596263259
0.3054683870690752
-0.8316052672881417
-0.2771940589040188
-0.3079667453695435
0.4358883206533877
0.21595595381185834
0.028940848527665933
0.16640621743752793
0.7607793901184107
-0.3346002595569243
0.03181714342682005
0.03218490101326982
0.6359500400733156
0.6832118401360459
-0.06966795400320129
-0.17799776663274622
0.22269955083854578
0.3811972742704382
0.28568622323638965
-0.10893079449449249
-0.5819632768892092
-0.08578237667304765
0.4702678759305318
0.18193664577312926
0.6552802088546391
0.41089450029735425
0.08406013288665082
0.33512232689550636
-0.051394109236634185
0.05046734245784614
-0.5549948803548697
0.9601047244100395
-0.1252244432957874
-0.2480069861125454
-0.4006878615004366
-0.4516450462943436
0.24436353546668566
-0.008532980186716504
0.18555859761246996
-0.2912297262794153
-0.08080651065713096
0.13640853245120718
-0.040020213201051376
-0.271015732019462
-0.04725708936504983
-0.709690936541034
-0.11824574109256655
-0.05548437096712298
-0.723532093516954
-0.30035594962040857
0.2164374994163667
-0.27239339236168714
-0.2945842984991387
-0.842390820089814
0.554951478262035
0.08350071853144725
-0.19550097365913777
0.3052897907267651
-0.2943627078422389
-0.27391919079485594
0.18553052720746085
-0.3623383087360913
-0.0008459947769676667
-0.30687825030540206
-0.3543660596205882
-0.6677940476668112
0.2383990526653402
-0.47841395003346465
0.7329654101163391
0.1913061535928376
-0.4753507008154225
-0.025489881787241098
0.18504506993734934
-0.18056646545161245
0.3258264342371746
0.3252793163905185
-0.017155259336778594
-0.11092212606916037
0.3937534156758783
0.37804621067431105
0.17678292054981215
-0.7503479045534761
0.15841788149240346
0.0667591384700464
-0.6082554555607406
0.0358153825662725
0.4056485252179227
-0.969169817640519
-0.4406387982455395
0.072178423027755
0.12379655471747529
-1.1569419201658553
-0.27906771309728723
-0.6743831174613146
-0.29294425286114417
-0.05598013950680063
0.9920915902047117
0.07442367434674212
0.4439169067185703
0.6285690461317781
0.0559120667846009
-0.7857634062017312
-0.2767116707030308
0.3940077762028573
0.18387308613455783
-0.6878844180537109
-0.10604821686670468
-0.1392488459795886
-0.5096773756037658
-0.3490609565129007
0.7852602385070516
0.21535093610030143
0.011165263141322901
1.7445342769822552
0.6862052268181557
0.00014914692566323482
0.4695631454146205
0.2033679402817456
-0.17000007664609357
0.13061165347931905
0.2615103678371002
0.12765315543700884
-0.19244237856032
-0.39830813998249115
0.3189678013219203
0.7778075478792711
-0.2291714605799668
0.5165493407638954
0.25257377453841595
0.15229491673009515
0.12621475517088077
0.44889990011183506
0.7528771632542873
0.551831017408957
-0.8096807555036667
0.31931701210211455
-0.1310756492575636
0.1191816321368759
0.44793575558554916
-0.8937325516767674
0.7477074257708479
0.008600713152002627
-0.4473161581009722
0.6424030518487109
-0.18002839379734456
-0.3211667126761281
0.78848873799707
0.2268561941486874
0.026592078443195957
-0.6550087922156771
-0.21967773927155357
0.05914515701643714
0.34555031232767647
0.03138812310097233
-0.2238202146372611
1.164665285328772
0.07482962754739463
-0.5230284340317053
0.3890272157919473
0.6654665942395983
-0.5505032588248845
-0.04343866925696894
-0.09929375935737995
-0.1240582513042419
0.48343288289976893
-0.30114417843663127
-0.03154737033286303
0.25782656820239713
0.5347098788753124
0.08059294621989475
0.5677186565461698
-0.19844512037826723
-0.642658288450149
0.21106675450828866
0.6668148968298023
-0.6479621865862722
0.29774352023202705
-0.058235593416957804
-0.024074704407109137
0.6121178997851
0.1292207895259703
0.11219333133371129
0.6401370613505544
-0.9716818913512183
-0.53048695162035
-0.6727199370430371
0.0952218995889845
0.09966989137617316
0.1988301723458642
-1.1613469879536047
-0.742094551574597
0.30327416952157016
-0.04118065360899203
-0.451229759203735
-0.16996416664053438
0.012135880054735182
0.03281866668760039
0.49049633672745857
0.37924518551286335
0.6413523522556724
-0.06835848467343478
0.219987260073998
0.18676190392937886
0.12676923365117454
-0.24390654895806602
-0.3433749626220223
0.8245011233472699
-0.3133224760150397
-0.3511401198170313
-0.47140039856267646
-0.04631533343407125
-0.5332225942057487
0.5691251715436076
0.09145064021736382
-0.6028867703473405
-0.44772411535653484
-0.4472594325684664
-0.2173202025979204
-0.12084846657232594
0.43900839959059196
0.2470508014264395
0.21954265930582098
0.29737726271700915
0.6738822364952229
-0.20296661293025708
-0.09018434048027173
-0.4811258786856513
0.7759123671121123
0.17138629058195604
0.42088490871607565
-0.2378355452239846
0.4023128677087505
-0.29450977452855914
-0.2365158147723829
0.03769745979879808
-0.023220137640412485
-0.4762413650934913
-0.016828191381816748
-0.29811074590198217
-0.4035445887965288
0.5633051504194277
-0.2459145086705484
-0.39149436314553515
0.3188817915050675
-0.3915019928966685
-0.16169652352317515
-0.19728496375034904
0.07689587084448121
0.5183586778947555
-0.3472702938521656
-0.0499626414407144
-0.05778951806110185
0.638063140832794
0.1102918180028544
-0.22640237212764094
0.13430925706487976
0.007267209079621644
0.0710362383144311
-1.034219124788357
-0.35574845052609755
0.16146337367822933
-0.46606664276846954
-0.9272957852628542
-0.13225887352147175
-0.11093848998038211
0.24224007644264084
0.4553095435961252
-0.0006548201186168572
0.0073026596052769436
-0.1539330946577908
0.17397657600047162
-0.08542557742056514
-0.19457696231677638
0.20306061929659855
-0.11816825515528688
-0.23319445890968024
0.5534857525500935
0.48210850611850736
-0.35283521394604755
-0.2870081900696374
-0.29808116699318904
-0.18326254453057872
0.44736393756308485
0.34554568691314275
0.12524774137436093
-0.318307214334941
-0.12279028273161878
-0.15875064868278999
0.24023699282258812
0.03650389266157432
0.009329787155847893
-0.3891839442304703
-0.1467311544199972
-0.3700507834608306
-0.08634336114794754
0.16344412009677933
0.7298947477032319
-1.13602716651227
-0.3995139374155948
0.1815488956810229
0.6656620925936118
0.13513436538923
-0.8849697965777668
0.007728470097330274
-0.27208340097568356
-0.28751492379115645
-0.1743167166870801
-0.00881414522678263
-0.8657713446134021
-0.868885835943799
-0.002143621137748605
-0.24232179419847014
-0.22193549144267646
-0.4892583022714737
0.1372815885779158
-0.28310304001735004
0.44823536959590726
-0.06715234547758756
0.4370057927203141
-0.2597556025043213
-0.4912692728133766
-0.39117067478537204
-0.4335913773223505
-0.7336278831667007
-0.12932511935349478
0.05121621612850784
-0.1747036788186428
-0.30166745425763775
-0.31001475908216064
0.3957529012848999
0.04512798258806731
0.16169974090612854
-0.2523831606929193
0.023505339003393515
-0.25706372811045214
-0.04112667108243497
-0.358002578389717
-0.049993508622733884
-0.5606917632059899
-0.34931455381180654
-0.4494547243211761
0.2629246450103716
-0.5922501636628038
-0.41513379685111784
0.1251757062849819
0.1380588974723772
0.014004315725833
-0.46583690003506967
-0.8076865031120157
-0.24884007198830768
-0.5424607235158762
-0.507220030726606
-0.78552476123189
0.5075266477255466
-0.48383765118690986
-0.16697059433994585
0.33594657930083344
0.6803983385129831
-0.043135636118709346
-0.7685982094229137
-0.007832222408534721
-0.18048789046874336
-0.014800639272609313
0.11853499537108804
-0.09337966455099748
0.19407878687802277
0.5440467314105455
-0.22786574970141493
-0.10698962947483893
-0.01095465649597708
-0.8966101102258505
-0.2663833032732791
-0.4439553426111322
-0.27363357828317153
-0.10294446711827579
-0.04217859044057822
0.6216621792811073
-0.4155967446303247
-0.2113649904946765
0.17361543673539376
-0.2815051456738937
-0.3009904936854488
0.3088500025097144
0.11019311372422329
-0.9078314751623957
-0.6276848940040488
-0.3230248065023808
0.3330713906422277
0.28891538503407904
-0.1579599203868764
0.7344702532961715
-0.44233577479987507
0.27029342349643637
-0.16486926143963265
-0.3278988575897514
0.3215227355754026
-0.11810063668107
0.08276928068913128
0.12416942837633813
-0.32888026769895
-0.14197962948245813
0.3239485585850705
0.39906267399267137
-0.22024529125649717
0.40144546023419553
0.016436531233847404
-0.33356634659398915
0.33104342405745446
-0.12309252603996715
0.7083178743723193
-0.34419318250377695
0.1432294519539429
0.07453419870162303
0.5889022481273304
-0.5711656903429408
0.19470786939437792
-0.6054464117991539
0.16998806124527216
0.7443463500320004
0.3042401085447466
-0.6642001029693303
0.34807118633018364
-0.5539886857987711
0.2960524850830203
-0.6432200866677534
0.5170417669176974
-0.08111546208016726
0.05593448270024225
-0.23040801128235458
-0.4406383250734943
0.20059411098729002
-0.6049023325454294
-0.18541786483964828
0.367993463480128
-0.5409582187013482
-0.27068643655135416
-0.05008064527731073
-0.07661118176356908
0.44399843375685555
0.34369180155812307
-0.19902032525373164
0.7404624281891886
-0.6035733906269364
0.173663497550772
0.02432243608481662
-0.44095395471334164
0.3041494690400286
0.49745328590886
0.14970978461742915
0.46390875053649244
0.4640721554657707
-0.03405774760454881
-0.6188457478087488
0.056284186088511406
-0.3759688899457276
-0.375204466826264
-0.8736927071389436
-0.2026449160406765
0.3251090008116476
-0.37420034959684695
0.023500151178585987
-0.2377556975312507
-0.34334236920049926
-0.28393710057630756
0.2600961699069686
0.5878550207478493
-0.2740732120610528
0.20421810628592954
0.06464520750484651
-0.4069180798328597
0.1763798960641177
0.19178359843717144
-0.23123643972752356
0.5084135454941526
-0.06177959290333799
-0.9350942758525326
0.17033334891618426
0.1384431891523905
-0.10783982826146601
-0.5347964466517556
0.1739275123452514
0.4474321360787134
-0.21116140869237277
0.3321349619570306
0.45960701733864645
-0.5574939839230005
-0.0345800926642039
0.6558147866661469
0.27446442676038557
0.29022571795594243
-0.03899486136708689
0.19402315863321126
-0.2771389264523903
0.3492272484008952
-0.1392893999535514
0.01883365137548689
-0.017522847675338
0.058523197521069756
-0.4400604500196704
-0.4625423004363055
-0.30584367186082057
-0.19482214495500172
-0.08035356933340791
0.45190517545500847
-0.3702584950559054
0.18131072206010265
-0.1507161860115425
-0.09645543191835997
-0.9613300614802885
0.3299273799580866
0.5148231282527682
0.018679734617241036
0.5164783848306694
-0.1253568008246479
0.5058104907200561
0.6765209103125137
0.45072968913604317
-0.1291404574301092
-0.11526841890538765
0.14741062710177452
-0.1758502371798211
-0.7321470498363527
-0.40489994690171804
-0.33455951702991243
-0.6631679947176938
0.699809579038183
0.525436092238463
-0.4872207805970657
-0.008809899280063234
0.44487172803568303
-0.04580601197348482
-0.20498630177433153
-0.2906868104712105
0.297960839696073
-0.38186451472292293
0.06057431861545676
-0.3450584547905111
-0.10235960577558313
0.7235387053264263
0.2647578035140143
-0.41215228531503384
-0.16942372820229895
0.17267018405606466
0.000059489455300746296
-0.09643022651292948
0.02014307319838875
-0.0023231257487398836
-0.7537069046400073
0.3228084206278896
-0.12782833686157688
1.0559780040462445
-0.4055417217656882
-0.2125194622736727
-0.4076656170326785
0.36445802288514845
0.45505816407771194
-0.4340669376790751
-0.7050883673071042
-0.1919339013569888
0.015275109452343201
0.39334331641822434
0.48518439702570065
-0.19043501052924597
-0.1920044310419837
0.3783754633263137
0.16732585751467205
-0.39801302181215237
0.19838994704507354
0.16558536959191855
-0.3999757877481547
-1.306119249148076
-0.0927756831056119
-0.16261990023721543
0.16640886198191251
0.4406432763372436
0.13719582226532506
0.5659464989907276
-0.07509563697680838
0.22775492812857484
-0.015532673124051934
-0.11590352340218027
-0.29414764316965186
0.02154087483124371
-0.5104655261920729
0.5030391749372727
-0.48747876191725925
0.4477958378625841
-0.18703306852206683
-0.1637625036366895
0.16327781480276113
0.542170313089296
0.10057646712086508
0.1005480744506056
-0.2613905085874487
-0.3104735323613026
-0.06857541131809033
0.22016876513856662
-0.6639903107915224
0.22256175323897234
0.5379289019586704
0.39324212538821784
0.5118109658881393
-0.15866640387349148
-0.28462718632824396
0.2692394378217356
-0.2378232311460861
0.23404137487266605
-0.8950031748174949
0.07773958103635052
0.05739645799570994
-0.05041585587463325
0.365333575159082
0.3602163692612451
-0.6778741854319801
-0.2717496438901403
-0.34071036877795124
-0.24666673448341025
0.20042213764090847
0.6341224651755544
-0.697686309688839
0.5050632391119589
-0.34734854214083555
-0.028253227251933383
0.10629578669140034
-0.0689318785782688
0.09838729066156642
-0.7083495117190985
0.6010028103112494
0.23026529954061992
-0.08564205878900606
-0.0645895998005287
0.4130402649974787
-0.7297372288176804
-0.8859299509777903
-0.19446063678973358
0.10254650663638656
0.902493598081208
-0.4497959911342644
-0.2195107388944087
0.48705366498830616
-0.02430036321628023
0.03322264100834293
-0.005718590539852903
-0.32971277107558766
0.3925987298288926
0.08054892224367075
0.31559555585355964
0.05539734134062561
-0.5706168384286395
-0.6183324844192734
-0.055464994473982614
0.23517718226794848
0.13183198325411136
0.46824717451881376
-0.2567957931467749
-0.07376083995926723
0.38442917830295503
0.09287939124749578
0.014295804607904807
-0.24923266291676677
0.6544273019077933
-0.1039186603019639
-0.23711655204677448
-0.4520891814552572
-0.13702665426780375
-0.37641022955154396
-0.22267911017925202
-0.576025499496649
0.035911797611016885
-0.2443359053179241
0.3075528906030668
-0.5745094257088192
0.669464570147243
0.21647149172184668
0.17265685338803385
-0.6641240198633392
0.48675043991267636
0.10834185986102413
-0.035146157850786494
-0.2068026859377787
-0.010135545481946742
0.3135165678922687
0.6741845107990883
-0.010173771785928588
0.47956372099646283
-0.5033224223002858
-0.705756206583955
-0.20595989722274
-0.40466832357562654
0.15606387442822162
-0.20339747674060613
0.4268436397128243
-0.43890171582226606
0.48238655306470835
0.6385009739767421
-0.15983710133416956
-0.339860471210904
0.6041956184517572
0.44829180294393906
0.09964516785294007
-0.9318837036936556
0.5473663524438372
-0.34459681458678887
-0.7608407666671768
0.5886161144210516
0.6197267796439285
-0.13635847113779573
0.23107139923298137
-0.73256596524867
0.35152252861541144
0.25538484051686483
-0.9528526481756551
0.2720100906870543
0.1478649740804536
0.37937909332326497
0.0419310029606647
0.04116996620705446
-0.26385890781948246
0.12387463822630848
-0.289986608840668
-0.5425394415844857
0.0028387241579476683
0.25521044946205995
0.25682496072440986
-0.20027218590296614
-0.4251623675682395
-0.2024615368393592
-0.1626440406446412
0.36417247718187606
-0.40441425829954214
0.5590097332365583
0.16752357828072997
-0.36777042079476946
-0.25191876218770165
-0.3456442504981834
-0.4388696034685327
-0.010380443809955333
0.290172082337029
-0.05547706107348365
0.22628396928124656
-0.9232201910660139
0.1607429869926432
0.1496857829249231
-0.1262907802065457
-0.5581383655514262
-0.8557406291503526
0.4283566737966497
-0.04039945995858395
0.08175530994702046
0.34854880068120875
-0.34335775268557406
-0.010726599613379604
0.5133712016839432
-0.5884774698950646
0.3041618265336351
0.21652775725265166
-0.5613351541291435
0.6612447433407002
-0.1479806654701986
-0.5611456651408415
0.007677850154772651
-0.24541091434186618
-0.24029882164899546
0.23567163174670325
0.01863869411309982
0.6413568278766042
-0.37310790334382715
-0.7127970307371917
0.15272627980919892
-0.2766896915408268
0.0027116626214915727
-0.751786852579508
-0.04877448838837477
-0.019667534258499347
0.16735250781946243
-0.15417850446889225
0.4869317704581334
0.09453800189673277
0.234367225659004
0.32544495082728525
0.3544025921481525
0.2509881678306384
0.6942869495162455
-0.20744831658118384
0.6849356571715506
-0.1428375596760124
0.8083799294078399
-0.023174081306413456
-0.04980831243008532
-0.08128260500635456
0.3647641833133561
-0.10951061496265625
0.08410304318060534
-0.07032140591497761
-0.04508239545209802
-0.06428442618722487
-0.9264011563236546
0.035258348062814374
-0.031030785431641613
-0.11095769007084078
0.355102588509481
0.9010616753032029
0.34975661303915667
-0.506200302306793
0.10605943314616426
-0.1262354620530188
-0.17490649867323976
0.48150461178425075
-0.40313183260559327
-0.7288271709436249
0.16763048421435867
0.7800641869738647
-0.2383840302720033
0.6159311022491831
-0.4910128277604573
-0.8319796389039374
-0.4905230148673709
-0.5462207769639361
-0.09609729770875172
0.18055692739993373
0.13919238661989444
0.13842153653133754
-0.10336734538165433
-0.13934163761863522
-0.39033899747088013
-0.4515277187522593
0.08256219454045824
0.27584541540832863
-0.18230649318449207
0.38385396101127967
-0.03044621783857066
0.44211344954553594
-0.5663406649740684
0.2935984761151184
0.9798271022052802
-0.16611268552150327
-0.2064370574632205
-0.8874025964788841
-0.4344556346912823
-0.6629494568150469
0.15343055405415668
-0.2634837679234344
0.11502366557277312
0.05103000875122145
-0.14289887119140215
-0.6953989164356794
-0.030761897547349693
-0.2364583737057404
0.05320605097717144
0.48106869902627203
-0.6782611707855258
0.010046992266926182
-0.16220992001616244
-0.13013545775324478
-0.16851849675731415
-0.7038650848723705
0.8100336477654745
-0.1395092850726708
-0.21050679501410444
-0.9009848154901864
-0.33277918134902806
0.24723778644952013
0.7346666926667575
1.2186102974143629
-0.35470903438667367
0.48113664915067217
0.05434764510806856
0.16560938882725953
0.20522021896766146
0.24480285044125102
-0.3973098255676239
-0.3500448388463867
0.1474849350764906
-0.3774166229705507
0.4100979192190484
0.5229936342915581
-0.19220493738000402
0.10601166161332191
-0.836249369661959
-0.4228098644060031
0.3602890391569091
0.06132962490422671
0.3811657571925368
-0.451677973870511
-0.02331901457280062
0.3918803994854154
0.39099353693894057
0.48732127951555254
-0.2431077382207529
0.04163952482736785
0.47528681126715855
0.6458198213894921
0.11575788118277618
-0.006468440267532588
0.4396826292950154
-0.26459984701839667
0.8857178859650914
0.7949230396728968
0.32447803358053207
0.5096409825226571
-0.3470590740632638
-0.28465567365175026
-0.022035991629478814
0.6597667474116335
-0.06738674512564327
-0.08197140018888424
0.20682074255615585
0.2889836473729101
-0.4720075479575753
0.06324245474306733
0.5402754575372912
-0.2039855034020499
-0.26402860444437914
-0.2096155370580627
-0.17764115067266906
0.2558681731222392
-0.6250020729719722
-0.33820353598851166
0.09106824876222157
-0.086362747513703
0.1324001831437053
0.24047060135293186
0.18736525135897425
-0.11058033860106359
0.2948595698424986
0.5226203200584605
-0.0449372577125997
-0.28846896945716605
0.2518753221049148
0.37743057226309945
-0.20350789825116683
0.06458935514387823
0.24789811879272483
0.46661034550291586
-0.40866191175908184
0.5671094496091331
0.2492226817643205
-0.5824256505535764
-0.541903265642623
0.3631928171966638
-0.3341562379042964
0.5409937778454211
-0.04624110660997246
0.5756232677049881
-0.008885699438984216
-0.35225131967327716
-0.2070958450112221
0.3651971334774035
-0.7941323475070238
-0.46248452685901775
0.6697377373414326
0.23306637987560436
-0.49117227823362614
0.5636810156624671
0.11046121841434266
0.16842227261426734
0.018515341346728626
-0.027236793672784466
0.31871813232127977
0.08309207333272287
0.417463756669866
-0.4264998762352235
0.3839241977108104
-0.30541986091543794
0.27994095089843635
0.1464758470658747
-0.4971263083269514
0.2580597653076122
0.09558310087594027
-0.4833731629184422
0.21293657617262443
-0.2197681871376122
0.33590403910806127
0.11603251262242269
0.41011660765632685
0.4765959842996261
0.057415079489735114
0.05061705394912736
-0.3856230006738606
-0.08928741905613896
-0.41833217977954895
-0.23535163807560744
-0.23637338450590856
-0.15958962283528932
0.1559497887149456
0.12635144523082412
-0.5913259197802373
0.15452258280304612
0.4104250890721842
0.2087858246540394
-0.02200986337842761
0.9447963499817968
-0.4205745163191804
0.849409891394987
0.5928668851259429
0.3056009714648446
0.2036300010067699
-0.19879483258593778
-0.30356927315834226
-0.4892576200731453
-0.23455492574473696
-0.4345126321467614
0.02284208687214989
-0.027180580896775403
-0.150026373676403
0.0829858616603408
-0.16605013465372168
-0.11266890724844127
-0.19733852324996157
-0.42969057042083747
0.23889777988248234
-0.21974330660763938
-0.5770143975987317
-0.3961907866723493
-0.18356810176680038
-0.541892532173633
-0.6043549810347417
-0.2041779140597471
-0.519683532476175
0.6331017947964861
-0.3621401678727906
0.5340452187226862
-0.21748352600326254
-0.1538356941725382
0.2885071760696953
-0.5287569080647272
-0.5366862546088426
-0.4456611951591286
0.35646667303511026
-0.6208052403859154
-0.4288282125441102
0.6500108974290526
0.1417967821690746
-0.14672354364397802
0.013467399945417883
0.7942722961126351
-0.020929360194396833
-0.30606970119684973
-0.6972603055523143
-0.20125767391692923
0.3060672749610955
0.10679010323178768
0.15619910138100235
0.22242467317786568
-0.6527763954447288
-0.1588692252841592
0.30630712331020327
-0.13194183694844758
0.2771804353121145
-0.4424506734410833
0.44367333085868293
-0.3884846867091826
-0.40375919799618465
-0.094369564741871
0.483080444075923
-0.2913433606674552
-0.11195892631413078
-0.4080011729930907
0.18295733916481677
0.0200907044307721
-0.6405758643194657
-0.2560891170193515
-0.9482323810155417
0.5608991691364764
-0.10487901685381983
0.41367858983805605
-0.13125651703083804
-0.701010669887325
0.37188496856686437
0.18289642094164837
-0.7338957323694234
-0.02311872627617257
-0.9713155316401906
-0.7166833367070577
0.834900874278729
-0.5557350535912088
0.41183050997907183
0.4526120188645803
0.02213712857376778
-0.5544794890056771
-0.5392407734567981
0.17662612765252655
-0.6144474961138244
-0.07224556678408978
-0.5836103744104215
0.1308549170354173
-0.06526848101902843
0.2854463910461458
-0.2885288856967087
-0.611390929606593
-0.7108325289238855
-0.03450006105004911
0.4144517970723657
-0.5202778237360685
-0.20827017889469038
0.3703035332663606
0.3101599860093487
-0.3147806136952893
-0.17943297266300184
-0.07006547580706513
-0.4950534990307926
0.0877714656850773
0.09165390916060943
0.5426513218824077
0.15903795931739506
0.5304067122774514
0.4420375184011297
-0.32850141793203436
-0.32927185363036804
0.5738864600627456
0.27876563534833965
-0.8547842680547378
0.31694841153608305
0.1445948324440382
0.5008575760969101
-0.3088039226820158
0.35328630944706846
0.5218122046709676
-0.5279123477548224
-0.09324863631891057
0.2653687572785642
0.10020892279781926
-0.014803447648505642
0.5076761710002345
-0.6426251088249647
0.026011386446862402
0.43036643038756855
0.6586869471648352
0.710675899982549
-0.9114087769127449
-0.7885613910742519
-0.6093795956600458
-0.04360526129349074
0.08300148435642878
0.6550207096565142
0.18179426509648103
-0.5138491668639436
-0.31158461559167744
-0.32321123707613664
0.2951924491493861
-0.11522147604820825
-0.1102218878175868
-0.3529500461920126
0.07646948942072246
0.334214269421734
-0.464629336177108
-0.4733902747632198
-0.27932530838661007
-0.12364864330603843
-0.19473109031312905
0.5315837303528851
0.4319712561061532
0.20430465605171466
0.5226801405333987
0.39318608551118833
-0.16250435891796391
0.5319325482375182
-0.3851699079343577
-0.3650329436816128
0.4150768534305276
0.07525413933668641
0.0117132863350304
-0.15403401674802306
-0.3629349514710972
0.17473048904781027
0.7632159549374801
0.23768361905482774
-0.3488690542606865
0.038642766161542816
-0.1901382835761054
0.25734569742722585
-0.2358874224761453
-0.4420601334068029
-0.30756615755555955
-0.013767717303790844
-0.5284256257270185
-0.04133422190559025
-0.0029849094870730815
-0.24915368856714729
0.44644974108736685
0.3968143635905145
-0.35027944148580753
-0.002854754531755033
0.1471398194370429
-0.32111435386979414
-0.058598696829791734
0.15570559362205502
-0.1621140483452663
0.44901206004673994
-0.203385119586644
-0.341612375799027
-0.3801077927288301
0.12311715405334085
-0.8199006638314719
0.7054852856629249
-0.2097183864063433
0.1716246960016582
0.2974029571593523
0.05560825268334062
-0.05831653258483921
-0.19789674391810938
0.18639277138568297
-0.44161929163003183
0.34316211825374926
0.08890027747621318
-0.4224690138060986
0.04979180935849899
0.2883245435428587
0.21198735463635027
0.1282148565376423
-0.407738110373024
0.36780489425853036
0.5033093831441711
0.718991860248231
0.3918153122028219
0.2638253233305301
0.15450091368592667
-0.4572827678158551
-0.3692027648566499
0.24777489664515714
-0.29227088614698127
-0.3500121547728493
-0.5567896428311057
0.17919852545366416
0.7349693201308071
0.7284442203801168
-0.15510495111075476
0.4417972869004309
0.18789843386376126
0.09313091019698849
0.6463822010666438
0.09574512175753468
-0.1994685924790841
-0.403681019193708
0.6090718831598267
0.26167727439804805
0.5516813085056231
0.07060891013543816
0.10453610244336685
0.36986913494527246
1.1338670564764024
0.5715125091042903
0.010046553693222368
0.29364257442426667
-0.2170095597315081
0.16888910628644965
-0.05049682939462892
-0.451166131194325
0.18924683071710283
0.24400648425382238
0.3342069656894467
-0.2462917925864166
-0.19814139238280665
0.02239324549962218
-0.3093532105163977
-0.020942148451649528
-0.25411608158602034
0.5444862314217794
-0.38972047168223267
0.4103072804523027
0.2082664913124933
0.46997320611304333
-0.27064150036207135
0.044712569997471016
-0.6510420506007377
0.5621081305932629
-0.5797880913015497
-0.6856822096266145
-0.10667392950965905
0.340107299867891
-0.012790186798898193
-0.2308980822134007
-0.4592850557738752
-0.2221330127157673
-0.16825885910878166
0.32211595213009653
0.12976878110766885
-0.4400982730642769
-0.5113555332941635
0.2838358381936117
0.7026425173859708
-0.05683219159750233
0.8767923750356876
-0.09510747990734704
0.04718350881720977
0.289539946917495
0.573707493634194
-0.15453712762673266
0.12935105734651844
-1.0195716322397947
-0.03766940682167051
-0.730627913513085
0.6070579373206632
0.6816135106313544
0.4615062299538886
-0.05170434837771419
0.24049322686436791
-0.2546953687360856
0.7711828135584194
0.6268093854101304
0.7150176250752075
0.08338948029329393
0.5405895603514025
0.04428287582312611
-0.002606224229809015
1.115255061645625
-0.7537339537691844
-0.21615567020096949
-0.05888215280278967
0.32788217489035254
0.12154684876271689
0.5023704181745483
0.6424456647055768
0.03276966648491716
-0.20293140534239196
-0.4477238337902146
0.2843317499749634
0.4284969668577933
-0.05670944703435216
-0.15384877557704804
-0.1933793585363427
-0.5687009657957711
0.002315919016859914
0.655370701827755
-0.379233700017505
0.1663675833163577
0.8814073571353293
0.18253340586760997
-0.5344111193394407
0.04773910457296908
-0.3946306801046238
-0.009107227479168756
-0.04185094287878114
-0.0907276970205334
0.10267431729207022
0.21195375570741973
0.37993003596689034
0.123159097590827
-0.5157989551239387
-0.3197224637766717
-0.30181412778462197
-0.24494087320856434
-0.3814037404029269
-0.4566215188335638
0.11325888011881004
0.5178908675508326
-0.30014854092643445
-0.7841738420667612
0.25892634968382977
0.12331499208162687
-0.031532834754983634
0.04178366116916389
-0.13388357473733123
0.47912951770136797
-0.3940690729013775
-0.5309363781816512
0.01853292797597475
0.18112567981661387
0.13165439488829114
0.2929887283800064
-0.812332381947078
-0.19563641151880523
0.4881989830071343
-0.23268763366000675
0.597809907576187
-0.0045322457656833
0.4345242225600189
-0.39579646407287505
0.8514675605521975
-0.1966221124148936
0.23298977050598993
0.39833534261636727
0.04519865341861567
-0.12348714699684381
0.11752630830652983
-0.2360817111279119
-0.3573439707867124
-0.010030028693212605
0.014602667693021558
-0.024518965557958107
0.38924891006362733
-0.21370187302905824
-0.8218018064735311
0.4323174072201473
-0.1353915755221969
0.21158825805319534
0.6024559879104371
-0.6929515403768425
0.17608453959462197
-0.4209470423505388
-0.15020124285417816
0.6581707522527295
0.19905642709328236
-0.15129819384524681
0.7880263249184375
0.0356687487976415
0.19173856508659157
0.22380847036437998
-0.26832628088181293
-0.1273638874827499
0.253161912846607
0.07261548702895422
0.0793748130398124
0.18866846264829457
0.23442884386602592
-0.24346659037235105
-0.08011283509729528
-0.09207654594536024
-0.1535238490497766
-0.5838506215257947
0.5796658189648285
0.24309352629721415
-0.6355167381854409
-0.2798075338897965
-0.4218572070123937
0.8965692643753811
0.3382193171417274
0.5274018956892569
-0.19992775439446064
-0.3850366235438799
-0.5811021210983235
-0.47102608619979136
0.2598676731005846
-0.5609309520351569
0.07583245289369919
0.3082216851177496
-0.6129886889533206
-0.108639692210565
0.3340327945960279
0.6619898351691924
-0.01842489378635103
-0.22781880857542602
0.917019383588715
-0.4289041830208093
0.04542539057647251
-0.5531002752956211
0.20601128754248035
0.4806448351303285
-0.026051096609707614
-0.03532510641813594
-0.238571169046064
0.3397561223453305
-0.25435450960744266
0.6952836150533974
-0.446469548316358
-0.1744876996262904
-0.16563498549371805
0.3338956615570331
-0.19853122928203468
0.09037985995887411
-0.24615065854179333
-1.010292733343214
-0.11490031265803201
0.3103543827565509
-0.1068274155927977
-0.13964939162827378
0.05160809995023756
0.12621416866889806
0.09260387610812981
0.23344116682471383
0.5680257713173718
0.6914572831282019
0.2960355360973319
-0.6550242246677035
-0.18729446668730107
0.20784713044579886
-0.6793360662722382
0.09900894600649122
-0.36286169887498326
-0.19283476611096148
0.061281422219692114
0.314748196353173
-0.5371836713149091
-0.08360850091364057
-0.297383236616728
-0.8125470460991735
1.1841771170684185
0.050240406808121627
-0.2634990150863282
0.6116281326534531
0.23351336298720937
-0.11462051507121619
-0.16687188388904192
-0.731897448156138
-0.3206497260829883
-0.4558176074238377
0.142612386710374
-0.373043622342794
-0.3690419422823098
0.6251094529431432
0.2151520884471012
0.010615400133976481
0.12675829735594665
-0.06899745095466965
-0.062138905629848806
-0.2668513550448084
-0.5970901035480088
-0.41244658430008035
0.1853962355819344
0.5215257829279761
-0.030780278593220523
0.23654127784159568
0.1616932379716476
-0.38160579471011724
0.30937507106534534
-0.49171124522902493
-0.568072463658482
-0.1514399818966146
0.24073158282049853
-0.2227091311644828
-0.43843460144598057
0.40959323937734393
-0.19230399570142861
0.007211603137257795
0.07162632548645964
-0.23023183699654148
-0.7136607090471117
0.5107659799153687
0.33203830705758525
-0.27385466738944536
0.1742388074500457
-0.23833011227790854
-0.2683772488790395
-0.614084750069283
-0.23673187905993084
0.03043435346608717
-0.5030187620065808
0.4406075231434854
0.32831407524617084
0.308035603804914
-0.060204067598992765
0.8730799557831437
-0.014680963589469374
0.2597864365086752
-0.5490678979195588
-0.6088091605361353
-0.12151607657281922
0.9253921443394048
0.434511520279176
-0.260563053576344
-0.4404187576018594
-0.6403431361719274
0.19471485880289632
0.21487586881317422
-0.7116774739786411
0.17429987280644316
-0.4138234955157285
-0.35765467875671186
-0.6557899971124734
-0.1586068538099656
0.4827812381323868
-0.29214503747564063
-0.23427649066775083
0.28060597366836215
-0.3233151528475128
0.8039066860109992
-0.023794609191459173
0.33935178084179957
0.07847982429532173
-0.17575313590968827
0.21119706599046292
-0.07236105127845124
0.1644053648547882
-0.2635313165245835
-0.4982917752990739
-0.0184553511303983
-0.4685993775008247
-0.014087191445447981
-0.3746500622193193
0.48417342522382306
-0.025284621521613145
-0.12949059565992974
-0.11673260619210521
0.3654567926733917
0.38590181894584885
-0.03367977947279641
-0.28623880685717246
-0.17207790350505972
-0.3618925247145416
0.3603158276360234
-0.13710338626097046
-0.19449014285313204
0.16710385347398235
0.5911785848103486
-0.5155811805273451
0.6862708814946696
0.24706024844745975
-0.4097976227102188
0.47184577344050277
0.25526522086810444
0.03584515411012712
-0.1395597804837826
0.7456302000825639
0.2987058274628139
-0.6508998309106275
-0.29478382380156454
-0.3298899075219686
0.6561729859303905
-0.5930612587526021
-0.7653090305662698
0.1678275098034841
0.017757679594635437
-0.71278957155617
0.22704451092384823
-0.3958856482245173
0.4262719947206863
0.6184264262033542
0.14254228246691467
0.09082244020365887
-0.6611303124895371
0.3322557717038991
0.13819011104005907
-0.9139395758912748
-0.011659042951522777
-0.28251948760872997
0.19230364088535992
-0.05866918500134299
0.32901742034229126
-0.49210509822575427
0.008073413413234658
-1.121345185579508
0.00526339030687181
0.10280440986329355
-0.45634648849885445
0.5239086599907654
-0.5183641618654252
-0.38823076465705153
0.6680955652081525
0.5732176312115042
-0.3769807039856845
-0.17554014348214006
-0.0457510705679924
0.49573589671469287
-0.09763115028879449
0.09519848823430853
0.3390656814650181
0.00679281164813086
0.297974709250284
0.15478199012871113
-0.04137559533723433
0.2812172220382801
-0.6792298777370116
-0.20291429387522664
-0.292607298506638
-0.18226358175467713
0.022619131490529874
0.6628847273522286
0.19457205452046109
0.34354153579627955
0.3000145879406763
-0.7225412899945325
0.326393653733046
1.1529178631729342
-0.08979564218637698
-0.11116128146008282
0.24387039624673532
0.9729974303111997
-0.2386535976498508
-0.14154036407087708
-0.47516049927705023
0.4063252571222312
0.22387340483120993
-0.4683107148587365
0.1400620689045871
1.520667153007743
-0.467844746545058
0.41000355366934044
-0.7761372628151623
0.6032161156025629
0.29913306023793934
0.12661628311167322
-0.40364503654070827
-0.019675875969380707
-0.0396601665011638
-0.4290837261329042
0.386251820896269
0.24759686349100252
-0.07109195020775752
-0.09497494255645346
0.4721260039770127
0.015409766358457887
0.30550514523857786
0.4501156049364512
0.2255280541865037
-0.26427465834498165
0.11756576405694127
0.8379095098137789
-0.4089395647608031
-0.6965032801673082
-0.6476111768469806
-0.7360003902238267
0.05789394568873234
0.5075951848106994
0.11958945131961483
0.48680922774888585
0.023246677932858676
-0.22539669873258658
0.34950464642267354
0.20914051075540568
-0.606648440216914
-0.460250258737476
-0.3357072341887156
-0.2849782150389677
-0.004285437634675773
-0.5517581734294963
-0.2183531241172799
-0.11808429356676771
0.012223071673559734
-0.7190419347420207
0.41895921577131795
-0.4386850488846251
-0.9200111049080398
0.5175728191564863
-0.3369621773021104
0.17636446800917638
0.024001998571373934
0.7179483682752593
0.3598559725123516
-0.42413503604607883
-0.47808624214815776
0.04542002419060227
1.0238657203992934
-0.566732216346231
0.0530602028648353
0.050693902590783955
0.6432725618203732
0.40067217122331505
-0.011505652519851773
-0.02322848200137058
0.04266157165655187
0.20119279072456125
0.18584404953966
-0.9467588448454366
-0.45802047450300165
0.41678188073784145
0.30343181975521766
-0.6027385293669281
-0.2739409529763204
-0.06399922803062723
-0.8372663986145372
-0.02062852225047062
-0.16053477923387113
0.043882909694181176
-0.28449604928554756
-0.09061546705583733
-0.08235552418032605
-0.11317181843679805
-0.13935751475589134
-0.2502882179836496
0.6901191078379967
-0.1294912548465048
0.3940086877999415
-0.08957727159945096
-0.8223122471098644
-0.7385991616596876
0.2655572734424985
-0.1990255539068859
-0.35808204280644074
0.7293108482589452
-0.3789127288928942
-0.07603835607315822
0.6372750888632221
-0.1152040419352832
-0.022548772727204926
-0.40682319018638696
-0.010067164084802842
0.018695173905487847
0.19880266382138384
-0.167863593593629
0.018457902558958336
-0.3413871579677161
0.5252138670810895
-0.14129522809434866
0.06565392180112085
0.06321201420513059
-0.325649039692859
0.27577643994866513
-0.18462603177100922
0.1568108466822917
-0.3215370100897951
-0.20985698573798806
0.5414790889750782
-0.3695965482632962
-0.5892555331880583
0.09478671321140152
-0.061759757010658084
-0.11981233912761889
0.15065822867052334
0.5385253897814087
0.2721595601070107
0.11651805844128657
0.25660687405343036
-0.29157824511102554
-0.1360721765757069
0.5160128800034348
-0.17830000853671985
0.31449651661354733
0.26748449026433174
0.5212912068876319
-0.087742409172453
-0.516823168642433
0.05621389657839893
-0.35379663468562744
0.853094475595836
-0.12110814336999379
0.6182756809960525
0.0955952171021379
0.13391822212171575
0.08619884298206275
0.19848058306675598
0.24973536283214123
-0.6693756388180698
0.10997283478206456
-0.6611358666547161
0.056481460653359544
0.1550194868702157
0.6730535369786736
-0.35230636173522856
-0.23312581435307123
-0.2007523443867902
0.07950147737201424
-0.07466046731804002
-0.6405975448939615
-0.6513405573375315
0.036064181302836854
0.1552953182422208
-0.28204757638562866
-0.06691732635496729
-0.05221809996502895
-0.35573845193438647
0.33829671338887146
0.007865344475211101
0.5286114318259665
-0.39340529195610713
0.3207597699821135
-0.06364329288314036
0.6541659454717843
0.25105824366014784
0.7849955034314842
-0.42024155015973963
-0.5602044183196572
0.41180857485418837
-0.5652778782266348
0.6307696081058933
0.4000429685139376
0.20293366623054204
0.2498608489030754
-0.17035360435373564
0.1768853134668632
0.11516608506686737
-0.4260970033947658
0.47893721726968913
0.08079362277687786
-0.2974096157921948
-0.03641873963231476
0.10666858868400479
-0.2628037827054804
0.31470234343721276
0.09941569992049085
0.23229206525255613
0.002393352363137637
-0.13960367015311786
-0.09058727025837551
0.14246192362602017
-0.8718972653147933
0.031172341570540833
0.09782028171003308
-0.21166731683118659
-0.051411079108563615
-0.3929804495207909
-0.13002019995401376
-0.2921253205916675
0.08516817465221037
0.20801633821256083
0.46639035046466737
0.17342963450990503
-0.37108668082469903
0.3894345721782554
-0.2085949788569519
-0.007732426496168502
-0.022650581382870655
-0.31399355595442596
-0.038855673318846665
0.10484252029302493
0.332692945384082
-0.10587798508362221
0.005414038463135963
0.32246806950370294
-0.2015519196630329
-0.3300352253973636
-0.4197482857788759
0.614312550131716
-0.10745643395497564
0.1210508275901749
-0.06615109405653123
-0.2863560633384887
0.487422271803998
0.02413483398620599
-0.12107129718941578
-0.2007231969891506
0.005530083032108272
-0.6007308160573406
-0.2139760325399668
0.46425861769161897
0.21873084517024488
-0.3038720542692876
-0.35593410010549714
0.4741750956694878
-0.5803339229098595
-0.3118795030784447
-0.0007779416616412101
0.3777146164835604
0.1995554458403897
-0.6256322881201645
0.16698101582873906
-0.002178494623432097
0.5260472279356703
-0.26410702333436437
0.3945367053323385
0.2288603044730048
0.1925207253833856
0.14731965278478162
0.1693359824171844
0.17337923661214102
-0.6292451984211097
-0.3783514271373855
0.46457032731596726
-0.24138119051585402
-0.024836680446255855
0.4095452341889971
-0.034358532609396496
-0.2895074586603358
-0.23260131895313563
0.10338025665924819
0.23623243006276884
0.08111137824417022
-0.09574246009590053
-0.33674206478388785
-0.12987026126010096
-0.5274987294336878
0.5226914640734263
0.07786075868653869
0.7001593889196057
0.38564463796713455
-0.19469328801997685
-0.2632779652388237
-0.03378380837651893
0.1580807823991224
0.22389893773842434
-0.24791176405225893
0.5274362940493044
0.2844387740623278
0.2750433047794808
0.3487738794265098
-0.3218933010748177
-0.22545480315160507
0.6527662996872216
-0.15151153002972773
-0.28901162149660653
-0.1870149127206332
-0.6086721983199695
0.022672318678802785
0.013695436804774974
-0.7049242575475295
0.2786321740087209
-0.38818239616451944
0.22063189002703865
-0.11969052035622318
-0.15944193613658836
0.41701197883586566
-0.16635673112038946
-0.16434393325104998
-0.602917533402114
0.2441862762481102
-0.10125095620967405
-0.09315096238135837
0.4219644861475905
-0.09233876886301304
-0.27375384462121705
0.45129290797761235
-0.2591297408470634
0.43581992016083065
0.23304157123406305
0.3142804818655177
0.3740010424942569
-0.14012552079104282
-0.28455023320379397
0.030065057467684796
0.6105530559469687
-0.17596161406554997
-0.05179172602632093
-0.4864219239728605
0.3910239515504921
0.04042833944697569
-0.026238924081125176
0.4166164965229009
0.05392465176772961
-0.21832612150757713
-0.24547108675540985
-0.5077259281608978
-0.20691425834689028
-0.3593827304053175
0.38335017069305527
-0.12313853573912273
0.45089524152391763
-0.2828597388884244
-0.3416835241586078
-0.4097889190555496
-0.3261223943774707
-0.4181142061942813
-0.3065989400319822
-0.37062502397070296
0.2526018657107209
0.7287018676218022
0.039117536470328805
0.1453400255127374
-0.30142867628796466
-0.39787420097480264
-0.22822903685063922
0.6072220959811644
0.36206649491754683
0.007470212936870436
0.6919805101332832
0.5979189263122276
0.659995179720487
0.15543157882492353
0.3198702746380705
-0.48005130440275534
-0.21107047487560546
-0.03168330909449519
-0.7795260889094817
-0.4467003535628302
0.19801976938518034
-0.41650837073121216
-0.12331680169220954
0.03643598397474289
0.5760466030200627
-0.4330832497001632
0.3029541316344443
0.08663115578479831
-0.1782675015166219
0.074152965548035
-0.458122471582969
-0.17619574435238292
-0.40867214925981576
-0.31160831399219757
0.24965661600473318
-0.11917779694769103
-0.2869828355694289
0.052735021604286926
-0.19655307465868793
0.1411362003329362
0.1697314871863629
-0.5405087734838017
-0.3726511204339244
0.3471196093307609
0.059414562873271994
-0.5783743012361733
-0.6534508264375117
0.13291717622791752
-0.19100296843453082
0.30479879768953194
0.20522180349984329
-0.1263899404366962
0.4117567691495015
-0.39760717340332524
1.0185784293918227
0.1000084209052374
0.14347595082822193
0.12424153604035056
0.010260847484028937
0.6242220974357485
0.08296924109325629
-0.6423582261891637
-0.9511007688530838
-0.18822394842539453
-0.5395096829112145
-0.12967806515070895
-0.14381617440313874
-0.5766791123179626
-0.018511255695950354
0.6778273178772637
0.2974934666833783
-0.5027996801672276
-0.8934348080924858
-0.16238769189863125
0.4856997283145828
-0.0012706583742039322
-0.8666106296719314
0.3922861290603967
0.24719126368813416
0.07736199307914736
-0.27261622336828023
0.4478067175302138
-0.3291132422592229
-0.4069751866701402
-0.08381384402519691
-0.5653550279600184
0.28426910948935247
0.3193663990055914
0.07951006580930373
0.140964883260016
-0.4478160651136905
-0.09548031665200905
-0.29728359722202813
-0.7437389516612407
0.15775312650517628
0.4928644011870975
0.5556895915556812
-0.05411266501251276
-0.041239340583946814
0.46679910707469885
0.3727464971806822
-0.32360523105728806
-0.40589762590241585
-0.12934278886734416
0.00020392303856548843
-0.07881050588831129
-0.22198540141910061
-0.12385822411981323
0.9035074370553758
-0.08811345952545309
0.30591437716401676
-0.0590578844311944
-0.3119939528769486
0.4054367329891932
0.5268962570326463
-0.012554422557473355
0.22768944406207298
0.5289313001827787
0.6178138085093071
-0.18186171807870388
-0.12556612328070738
-0.2829099862776576
-0.08586365038122805
0.08785527909018032
0.5842260468659607
-0.45024633460683744
-0.22776518406714705
1.046545257081731
-0.17191796701165904
-0.0260741704035017
0.33798775742013043
0.011301824184930124
0.4941212265247399
0.11078992642857269
-0.04226652678227792
0.44981105489999873
-0.04246573500498301
-0.43626340171484623
-0.7702011237167061
-0.7112290471392195
0.2763611070229274
0.09392153988952812
0.18884563219048978
0.3633432722854491
-0.06531707025142587
-0.5348814012882162
-0.1892881041983174
0.3257318076715169
-0.1517608791084707
0.7107976640148039
0.31292050470683286
0.11275005015244598
1.0360113950901146
-0.07838307832853589
-0.15963354425463872
0.42558513822689636
-0.2547546400367192
-0.08060274660399548
0.16263521586671212
-0.15596855712409385
-0.5287514461764143
0.41408379764595427
-0.6261028675578162
-0.0026810089162198824
0.8589681219730373
0.7686141061177404
-0.36681554013212964
-0.11420353230707168
-0.21108271737052312
-0.2748012139172563
-0.08290043951749584
0.2818253428894606
-0.0932409330498718
-0.1209153809053874
-0.3927763719739124
-0.07462277212200334
0.09937271336283922
-0.74607467013442
0.2666122602467702
0.17528182207736728
0.16882493909562904
-0.26153884056456034
-0.275623538874914
0.003035760027953638
-0.23813811384059252
-0.2833208151948133
-0.8368305172755569
0.09358686134143454
-0.11309199318773143
-0.5202617662148804
0.035489896382675835
-0.007482005265794624
0.15622920436428772
-0.048238194288542896
-0.09334055776320449
0.9159621459481255
0.3620399122016595
-0.34488475965242205
0.07103123334091656
0.33438967227885713
-0.8701960419442746
0.2985045451910775
-0.29024722924872615
-0.6674305177490389
-0.6319618543812524
-1.258219423458327
-0.30225022861728223
-0.9329888572803458
0.6329985996166967
-0.5300996224287398
0.265405146561976
-0.4280066487066416
0.3429405345849896
-0.6982346500642741
0.3361554524588612
-0.7074569539908375
0.24306689992617012
-0.07074235580801633
-0.041026729680905
0.10191389792017311
0.10220923113519455
0.25312953774159735
-0.18748875836927356
0.3174742415385854
0.1987833116792728
0.07700653706128141
-1.1526221567313548
-0.2450973293613914
0.2426021626907009
0.566932845686671
-0.007207162537336615
-0.08212577021759492
-0.1886227704045978
-0.4537347502052628
0.2656275292867115
-0.5934994420018743
0.18979523202699458
0.6031557780630088
-0.17224555174681994
-0.33515925993427625
0.04162228641297743
-0.5012725484710115
0.29755985880392427
0.5391450747380372
0.5904860752550313
-0.19992192760383146
-0.39769346692945423
-0.1339174446287235
-0.5856322633511445
-0.17579291016149143
0.1356245490899025
0.0782103339587451
-0.4162695533849299
-0.14813346740797076
0.40036182849549634
0.6205302153549599
0.2247664303598968
-0.15774881266851135
-0.5915005544774029
-0.10282118773827345
-0.20954917546607116
0.8718084545440733
0.12654387232258288
-0.12447678916664182
-0.031335847121319566
0.0667446013436063
0.3163836615874207
-0.07997941507713986
0.0432944080220624
-0.010897501075083074
0.6469823545866137
0.6354324639450571
0.1619534645395395
-0.6690787128457311
0.23843984637715154
-0.05950110424189068
0.32434011433412646
0.4053202922767042
-0.2188961800233168
-0.7090947658073111
0.39089150440743814
-0.41033057143399176
0.394390718206883
0.11264883802025459
-0.27716422860531
0.26298744354523934
0.06886052966190133
0.5702684803832904
0.5717075921590496
-0.4410406375110871
-0.9000949499707482
-0.21213758475203895
0.7924835571769518
0.03460011180157311
-0.11197319292593934
0.232107466347599
-0.42633685908385055
-0.20051089136733113
0.2998216151141412
-0.3784845783250055
-0.3264915646876875
0.41933786012002583
-0.4165299017933241
-0.7140276388931872
0.3940765068261584
1.1422791565098294
0.5851056699878677
0.2926739149436734
-0.1286215759533407
0.6074363660367738
0.1945831716772777
-0.28306550847515
0.21926237629755335
0.5020507599796945
0.6528156772131938
0.10335210730628505
0.15320729806023956
-0.03155959548926914
0.290294824772948
-0.03441061179192697
-0.32183741969797103
-0.16602613616842898
0.5743236723814132
-0.18000671623855638
-0.6288158078792813
-0.12190585077941139
0.5748091503433796
-0.9062170646188786
0.01603941248746394
0.4531449394669903
-0.3550068020787683
0.5896012275803468
-0.1781608910229667
-0.6134874336735107
-0.5292097698367396
-0.22984520841104084
-0.0012924638729570818
-0.5536094315620809
0.32937825642142277
-0.08347949274423165
-0.5199916200854179
0.44833754402217746
0.5747508690305628
-0.6154039754933963
0.11790187987792626
-0.09703702525356586
-0.04902587612002946
-0.13654128945692617
0.665908069199119
-0.225182049588939
-0.730625440781931
0.2757578823222932
0.09250488732638414
-0.4757300393049037
-0.3317665499004416
0.057944765063739655
-0.172534661872956
0.0454343213088226
-0.23778342432355234
0.2203398123298505
-0.9016603252352684
-0.5468993470330299
0.083863391688989
-0.2893943276882174
-0.011014563428556085
-0.3422498117050345
0.10559471900584394
-0.5898188091569774
0.37274724069002996
0.2107829658440197
-0.4589762107201535
-0.2507642304842018
-0.5833464154393073
-0.14341537006840224
-0.20495901108878695
-0.379716285323208
-0.19183042199368927
0.32886386042096205
-0.6504386647449837
-0.09359940346426032
-0.5487760664723184
0.129161527563056
0.7328538127049546
-0.32367644371655147
-0.31884414851794124
-0.3490507381800909
0.13656895803762126
-0.44820417690399483
0.280627865008802
-0.19979418334463817
0.2143977142949756
0.37328911616034455
-0.11757251046948954
0.1378305326546914
0.5234746398497041
0.27594541783148613
-0.3377760004402498
0.41252075043729447
0.22670973335150227
-0.21367651758827236
0.39047719861404345
0.7964861410847174
0.09225320917935402
-0.07909632345910696
0.023895287674885152
0.0985568249268426
-0.15259514763378754
-0.12329507406563711
-0.4514652346339595
0.0818291212405903
0.27591081688241276
0.39064815764783817
0.32070820735494227
0.10461318461815965
0.33033737931065105
-0.18878165563164517
-0.6334963999871911
-0.09855753033323003
0.450982678935082
0.43996267354042384
0.4335190591071263
-0.1391012806582874
-0.6619262681713991
0.29631258790891213
1.105391365031669
-0.2356436859387376
0.1952716429123449
-0.7988762077576083
0.5787053567984495
0.003950530839805568
-0.13784376295128226
-0.1995445717756923
0.27158187803604966
0.07249902850601339
-0.7407596866301956
-0.732106476367267
0.322313036706392
-0.028450078960990333
0.5115071165215251
-0.015812634320409896
0.6710939961872675
0.5286559319549983
0.24367850780106437
-0.08628072048697162
0.1222371491999279
-0.2043887478425845
0.08108644837992367
-0.09223025385601744
-1.021122409914158
-0.6089048143901719
-0.36110383623118775
-0.31372502734704494
-0.1000034341129205
0.25912835126521266
-0.22826897114158567
-0.339524040337588
0.24327180103456164
0.35021699360814684
-0.03728147747927162
-0.6825590458461376
-0.30616535432934416
0.5501071043553915
0.1516513090264438
0.08714300321979083
-0.05009722178176463
-0.5400788889814734
-0.08421955966073469
-0.34201700390056927
-0.5884258683225153
-0.8547240873199559
-0.21675433265545674
0.1288121348248609
1.1156455388865025
0.014458484536256151
-0.27295687598522106
0.66567673514685
0.2905686469115446
-0.7511400482634764
-0.5476422428230634
0.12221039796170524
0.05376748738074946
-0.10910844280152517
0.5994450804526879
0.4422827833572155
0.6983723581229287
0.2418402370141842
-0.09407828308899785
0.04368276469498942
-0.03703885199817449
0.10358503452477057
0.4857467125125348
-0.3079909320385516
-0.44221130045446855
0.18296552608583813
-0.48379900494673467
0.17183528337372475
0.5773235459105692
-0.42614575013811384
-0.27696320415862424
0.9939566295798323
0.8677540776597928
0.7309573074358322
0.1882345833383682
-0.6975799620905717
0.04263527809071001
-0.029360414974894628
-0.0009465052963223794
-0.2735335191237594
-0.01860586672863573
0.24048281888611603
-0.4191060400902718
-0.7568673438850015
-0.27504077260084947
-0.21759591654875318
0.6325977072500134
-0.3910608320579229
0.4490932576623474
-0.3250575258234093
0.046137383622141016
-0.5771818382132694
0.29130695861445094
-0.29136781637547193
0.4005998200831085
-0.05177793611912801
0.41687478786812643
-0.32559801055207105
0.27586504488327607
0.3505947432274143
0.13284790113763645
0.6347972347259146
0.18838058355379267
0.280135556881662
-0.249759329273962
0.7210593566635889
-0.5424490229059641
0.6425316594569964
0.2181782741788083
0.3768629867064119
-0.26302239554245427
-0.6472227942116892
0.47094262981390944
-0.1230782056095546
-0.1492492636781374
0.5635443930382369
-0.6154642272197771
-0.07058856475365335
-0.32417876210174984
0.15905380843163247
0.020991105214393277
-0.4271420886078152
-0.3713177509651831
0.41827741906996546
0.03212228537363565
0.21839628717203743
-0.030419602912810536
0.0077717708760190315
-0.048355184213138176
-0.10519797038402345
-0.21905045100877635
-0.9404945304682055
0.16241595820654986
0.09072914816216815
-0.10793981693361127
0.03225876087710087
-0.29229646390946057
0.07156095492478706
0.540586179311335
-0.25205044680523087
-0.19398071360219177
-0.7063355221812501
-0.27867581512702816
0.42713302854771557
0.38515557516329013
-0.3327694114797456
0.39037981145231393
0.14742898783848218
-1.175766775033204
-0.017487535805849334
0.006349702487894654
-0.0008794936054472935
0.12284541650665141
-0.2598349853000121
0.1572948075669116
-0.23347200580934813
-0.4523511531307857
-0.47714560966732644
-0.7586548958420929
0.37151777525336294
0.02408736955586918
0.016865007878943714
0.6514401765535833
-0.3682967633065158
-0.17785648924097475
-0.7445914512885375
0.9649968103530991
-0.08791238016970773
0.08139834995971576
0.09912021774379916
0.23236641453566695
-0.15413147760697227
0.511191153308756
-0.4793979887753185
-0.4935068330199772
0.23497158168900842
-0.2578205697255373
-0.032600719121600806
0.62063326547385
0.013125905282329127
-0.24463816671035846
0.1287303896663159
0.7046603258546841
-0.10658640215669395
-0.16483048249944182
0.22572849093290795
-0.1522839928932616
-0.13109766915360477
-0.7014782258913222
-0.7494561315710062
0.02263441765992789
0.40740351789783386
-0.02803943596255346
0.07149417832089935
-0.916442634892101
-0.5131804969834886
0.08122563816977715
-0.4006698306513697
0.31794326749640467
1.0587619585368906
-0.30043065022230436
0.10383182698883814
0.7239724966097614
0.6780082669321642
0.2078113222768393
-0.5268968897909191
0.5405788806033162
0.16925731919570383
0.17984505965340933
-0.5586550047035883
1.3650612481366136
0.026158282527341193
-0.13572997087823535
-0.258407823449284
0.44673183855624365
0.10926058042891336
0.07430880598144855
0.1875037504488655
-0.4016821777557642
0.4349221995132362
-0.29152110658722385
-0.2683399955193962
-0.002037769037610266
-0.09865836695802238
0.3230618307242717
0.6873180903527664
0.1823600566783273
0.9471397523654647
-0.22121822560907373
0.45400950337669943
-0.16072203525274442
-0.7333196259330705
-0.07426279549126097
-0.2853579333426704
0.09270211596715745
-0.05511009411207322
0.11913350213428847
0.562892796120605
0.29195744485261155
-0.04579860612037348
0.2271154561440986
0.5318951038953561
0.42844106738720794
-0.2774892755855778
-0.1971330632168595
-0.19465291391571768
-0.5361200928052714
0.5193856536003721
-0.5600353022973049
0.42892803308686417
-0.8361582238840883
0.6554613507380946
0.19042073679578456
-0.1168121261999533
-0.2412991512742596
-0.37385913884202066
-0.02662891149533515
-0.47306111795329947
0.07401199945511194
0.14834691091553615
-0.5460763943568436
0.04570403244766639
0.0515855454497279
-0.08548832977881009
-0.010694592471055123
0.5690780289597364
-0.4913540124397844
-0.8287158704855743
-0.37010832219499434
0.07591360969323648
-0.3335135446699483
-0.15222767485939015
-0.5448443242139794
-0.36217726063798117
0.5242379969256379
-0.9497986913330574
-0.12161867904046064
-0.006113747670428701
-0.30715311498900816
0.48602939483004465
0.6501501806493869
0.44286484885036054
0.4598790726007513
-0.2287045106187358
0.1303772901004345
-0.3123098064213179
0.4948187124249376
0.12329259257525883
-0.5649108516989358
-0.20132438946214762
0.08351402554068107
0.3771384997407921
0.2247947405612987
0.08090989036990633
-0.2827927201091946
0.23345065469217188
-0.14420203140215548
-0.8154113489431984
-0.1207217829245662
-0.2901224613614399
-0.6020098679715912
-0.1871765069779025
0.5862702677505826
0.1085991811057643
0.11895309703222841
-0.5528423553182417
0.050894258932170866
0.14766980659159656
0.037778315140083604
-0.4297017125056556
0.6615387333401784
-0.013110753436840409
-0.021845514542077813
-0.3303211971084972
0.03896990786730011
0.3190796700077812
0.25006852699301096
0.4287150231259556
0.6599112310819326
-0.32274337197241965
-0.16299407619394982
0.8520990186459224
-0.0642804934086287
0.3533391737225894
-0.2711771631080863
-0.08365478846838176
-0.18493764270114021
0.5562986008465278
0.0029009165234107795
0.17240497892700726
-0.07677614644314903
0.22387267635886282
0.17475002418617092
0.5082119889893777
-0.03435289486575431
0.5901048527895799
-0.33475564058652035
0.3767330068700873
0.05817998339925403
0.0814669333948552
-0.34895641130059163
0.35647527734452716
-0.31455285435654673
-0.45585218860387106
-0.14724698766117186
0.3513351647286609
-0.35212611780634206
-0.020646097405186033
-0.13142329797547703
-0.341928586429269
0.14510873570933225
-0.1856976627095875
-0.30009555715530656
-0.38530763284038994
-0.1225107906740785
0.14083257803875196
0.4833032713768769
-0.21268150186801532
0.2992026073452158
0.16588371853729636
0.22183782514480532
0.3953527030434587
-0.6786914379533673
-0.24555320883572046
-0.1274691266669755
0.11661875210161153
0.9782536047298197
-0.03593971318879733
-0.7020868808217029
0.1595473184083056
0.7610667150131232
0.35961088668545527
0.4568689503427312
0.6024067746911506
-0.10690046577901352
-0.7258227304126199
0.05357606356862674
-0.7088867312275091
0.5243526525924909
1.0786986252802628
0.7472975864298613
0.11088628560003244
0.40161673278306903
0.41847055096458186
0.42605177309600956
-0.35548097918324945
0.36660541571369354
0.0869422959110957
-0.30853054601632207
-0.0909426059195428
0.187253053201858
0.24593082439560396
-0.32470950419257383
-0.20625290026835105
0.3818167664885072
-0.10596256833473403
-0.0972062998854048
0.5169657303897238
-0.4436706885411665
-0.26489581253201433
-0.006051469916896573
0.6056603494964922
-0.4064283380514407
0.1813171275397979
-0.08758950578719578
0.02895121774858427
0.5764484182140422
-0.26111284552115954
-0.14971285883672097
0.20816379047097333
0.28806739465237674
0.10236246947363659
0.05415925251106573
0.13209998271513435
0.3137817032502781
-0.405396315731595
-0.42020187502282447
0.5126469803575419
-0.7775014967812762
0.39879150842424543
0.8338812935370178
0.34854322566914125
0.36498459471912065
-0.8449670258107796
0.057670020351337135
-0.20210848157570252
0.8146254892284293
-0.1779347449797994
-0.23981966003412108
-0.8109899901187609
0.5069575518733966
0.2768588124951742
0.330086340410939
0.7126671486533415
-0.40379469651875216
-0.3616744753462358
-1.1273139522791797
-0.31879411178709227
-0.027612614374966125
0.19491903586419
-0.19744539538543646
0.21380714655053767
-0.12141183024944478
0.27712199660279535
0.5853816352870449
-0.33701249276207795
-0.04430229191567412
-0.13475427911655358
-0.3443977329119352
-0.309223400645629
-0.3670888221137027
-0.031093228343981545
-0.7859069978351997
-0.4815883922871469
0.6652008083456705
0.05233891902009261
-0.07100273530269054
-0.18358354170695126
0.07803336243207373
-0.19812960981153835
0.24508078597042246
-0.30537130831701353
0.49514129756459657
-0.1446604541804754
-0.0739825035321425
0.15686563056916383
0.2860808848935105
-0.37692612918010987
-0.21159027601766736
-0.47073681256719335
0.32719850370262593
-0.12609642905934526
0.012458860053982602
-0.1751885456181492
0.5444758530690201
0.08878553543670344
0.25287636034079175
-0.6069180954231221
0.1344925552701385
0.9746513075100521
0.18503792185077123
-0.35253013775821046
-0.7345404511495476
-0.4522702694288972
-0.1404376348350446
-0.16024644756023393
-0.3750727805524867
0.10446006634052463
0.24575697359731946
-0.3134430831929388
0.22633521999893896
-0.3630508119976782
0.1973518975722026
-0.39934127837674416
0.9519074222392884
-0.3381535584344314
0.16655153353554988
-0.0038946964756093844
0.8015504459030848
0.05511428918858016
-0.036480395580495824
-0.690863191129792
-0.3032080350448552
-0.3680818826749992
-0.3142449216149582
-0.03838006739920885
0.4763637894720569
0.17834402036953337
-0.1221217421051639
0.2898516629848316
0.5586009572070841
-0.4723375293473519
-0.4961254688814108
0.17152454431000277
0.11161026673883279
-0.21272495305437772
0.6561572630413944
0.21625949878437484
-0.6071610950491404
0.6887300340288194
-0.015018673722730183
0.5951115343802105
-0.06242784306248845
-0.41919697859568666
-0.03264757072101267
-0.20559268459026675
-0.08393430213986312
-0.7375171350702792
0.5564319701661387
0.4131465306786482
0.4035910771416216
0.6818002953696335
1.0867507506441803
0.16403369822415872
0.7535404970025037
1.0189034961285899
-0.58783309907366
0.016742487230197802
0.15711135191813563
0.1874032586164387
0.286608881122888
0.0034697639537926905
0.4049648719817042
0.3217963979614834
-0.06653124025432941
0.44112437484392303
-0.7216968031351682
-0.4319981314870416
-0.4460986802257373
0.8373545789734224
0.3180318526677203
0.35934882007332636
-0.5697839813884226
0.006287246734387532
-0.2508373619328699
-0.10845973730288487
0.28988587810702887
-0.24693655766495537
0.35806798520467753
0.24731410497728146
-0.16152962324296918
-0.12705972749818867
0.661482271790689
0.615778448401861
0.08037326497944479
0.03678899711841556
0.3682301046516089
0.5124613343312138
0.06942652470464282
-0.0530970914896945
-0.0016930741124978627
-0.19056108007244466
-0.05313626399803459
0.17100404041623044
0.13137791359199946
0.02778926021296124
-0.07556843314582297
-0.2532982970459942
0.12226952013290265
0.0461967201673447
0.9655660500885547
0.934529444387714
0.5531936887199778
-0.3487504310412564
-0.3324010566373499
-0.3182217510161177
0.10739390849456602
0.15012715945677355
0.7455772558927496
0.11033567719063497
-0.9003078955769427
-0.579911230013658
0.16270052868034127
0.08960234519817953
-0.6666546413311468
-0.6850371228995874
-0.19005891122257818
0.06227347802267548
0.15048045561312548
-0.5707513238781048
-0.16913487899127477
0.1003963019604475
-0.15602128182539832
-0.05841480549306155
-0.26612892996245513
-0.15608360794144877
0.106632410500454
-0.35348659317066267
0.05364485759622737
-0.3865859114534795
0.5175229406155879
0.08234514774736332
0.11813787357340605
-0.048826484563619744
-0.12941784601628717
-0.22612151276162484
-0.10251696902826635
-0.10088584257806618
-0.5461650528427988
-0.4634522007184202
0.41581287163259406
0.16105940119289316
-0.43760029174209875
-0.09047294700828931
0.050109143724542324
0.1737481075437391
-0.49598971285971605
0.3473008760310314
-0.35587802924462947
-0.614188924020048
-0.64758610550871
-0.39183906940511015
-0.5966667852355902
-0.5461496857321525
0.7935086392479538
-0.2953822649028453
-0.5154612253576918
-0.19024894775777942
-0.4185655601298045
-0.24888015978410372
0.17261163018876005
0.8267901377696923
0.32506744244493746
-0.06620976239582023
0.4530177814579035
-0.13794736157067075
-0.2711208514836152
0.47738260140254724
0.34580808978281247
-0.3515328976890237
-0.1983741117697168
-0.7792809673598583
0.19884118303712084
-0.04323363232771594
-0.427311499710126
-0.44056450272995523
0.1528260172590852
-0.46973321489399317
-0.7445533377121641
-0.0676351153211854
-0.3371727909566502
0.2256866666775986
0.2964481999415715
0.43301321053618314
0.3343075215719122
0.23809199153038452
-0.5955279981326986
0.06567588811480993
-0.1533321026171313
-0.7361771887176712
0.10158838245448804
0.5258236713032763
-0.2959246563793903
0.1378628525844573
-0.09430834889628978
-0.6262920252822816
0.43150558932071886
0.43332410078142014
-0.27949377602684355
-0.13371146699786882
-0.038934981303043126
0.41881426387489934
0.11017497491117545
-0.6966379569780238
-0.3355219560529899
0.048086217838307174
-0.9064863275299353
0.36004716465507247
-0.4260291698455792
0.015468973788368525
-0.27016215967840435
0.6733629855087253
0.20430818813200416
-0.2033888169533799
-0.9825574960736797
0.054038748159983725
-0.24019261182987536
-0.5854541814034571
0.843032997157253
-0.1335632953739076
-0.11735911945468193
-0.4210496294126825
0.3465294178574413
-0.7368513778321122
-0.16582716414734694
-0.002972372937270084
0.29493117365583543
-0.1771054762368065
-0.04562290396626198
0.4512928158530276
0.45177060932966046
0.007459024306412481
0.5680505691412134
0.059828923001311984
-0.4168800207650687
0.015069333389091031
0.3409179309498741
-0.9693816034381685
-0.4409187666433298
-0.049538613284029
0.23078487122813585
0.46871068576610364
-0.19600690005766813
-0.3583721851291166
0.3262190574852381
-0.04874253212358753
-0.5942823489755175
0.16804909305005747
-0.6838011644237251
-0.5736822415323377
0.6983590109388735
0.3870356269192283
0.3112503842711627
-0.4267709963155522
-0.18002259100916138
0.21884626162481038
-0.08028165437987737
0.3837663474476815
0.3891041224037005
0.3547052842197696
0.8045382575127719
0.354632339449526
-0.10068648918901692
-0.09352554215679619
-0.12993809348360463
-0.060087223652882056
0.5183662099312211
0.091071035754296
0.14950709124980607
-0.2980481155418253
0.49449243099349405
0.3269784358649856
-0.40664830193847584
-0.41033459421170243
-0.5321299194083996
0.6472338821742849
-0.30087229631316964
0.38910240640848925
-0.37882145928280747
-0.7835665826913356
1.1780264125455984
-0.14658019513771187
-0.09864541079878503
0.15400894874152696
0.7606348143032107
0.5440473719138668
-0.5333683785305664
0.36844014256614316
0.23303319270397924
-0.17659853459845606
0.47090372978598666
-0.8189081400310658
-0.34826105103912586
0.3802528287221905
-0.22637507283663072
-0.3385546074058409
0.1909476977941978
-0.1414269517622312
0.3180766021967228
0.5467656721689031
-0.9213348667502542
-0.2213488648774948
0.2345366504825621
0.515791997672509
-0.5702372960947555
-0.22161366025402687
-0.2535204334180779
0.3583307229389312
-0.6518564467022219
0.5113148170147683
0.0427717715392727
-0.19992237819274
-0.3423977870621127
-0.680304162440729
0.11124857949527332
-0.1467949556980953
-0.31320979403643956
-0.6704309842171995
-0.7349851484348434
-0.5383034361774939
-0.048269543278353234
0.20335786241707968
-0.15403508852643738
-0.18928972616141318
-0.38720660135913076
0.10639354661679357
0.22708799647294892
0.06499245211325322
-0.4113702299792013
-0.6404296861212089
-0.5061348750957805
-0.5755831633398414
-0.5793304175029739
-0.12059273171366378
0.5171037318932411
0.13971808702743685
-0.003737186636775509
0.18668668262870058
0.8660227157031273
0.4088339627526126
-0.3540039305192365
-0.34865458737357263
0.3495167663998057
-0.002410976278089578
-0.49774909384064936
-0.47695732358707205
0.12225888504957386
0.5480057000881589
0.012405190840782062
0.11493409657998994
-0.7407498023612812
0.3055080194450014
0.74554335534388
-0.7988322877162548
0.007003378203642439
-0.6560014968344257
-0.29156037935202606
0.24052667998470245
0.24398198134162952
-0.33583713721994607
-0.3399605894560588
-0.14257793413925074
-0.37265785389540174
0.2118656033666513
0.4083517128053078
0.39953922056427654
-0.2490588794386737
0.6181202788426761
0.23672034604049316
-0.47664200780128
0.5708494994493621
-0.32994951660049515
-0.10629450931732552
0.33213006596840755
-1.0225979517535304
0.22560301548407058
-0.22677660208572936
0.4938400664238944
0.022202975756814163
0.10191832665994278
-0.321122625871733
-0.6332311824325346
-0.3646631826928585
-0.16226239165019984
0.24079280593560398
0.40470762769510676
0.5561959214738421
0.16184271296042133
0.2949418239735588
-0.5264992109651835
-0.2829684983965973
0.09123603868318252
0.28944074354067284
0.12676103082993873
0.09118143745088275
-0.004712515437588422
-0.21860916246152945
0.20205636160923124
-0.37159819693299107
0.32251217187063463
-0.18220482766829318
0.648380226060442
0.04804172622887507
-0.598864992490791
0.06754187153078328
0.007027577062118335
0.15306947118013692
-0.6065038793030052
-0.216480955188873
0.1593178742074183
-0.06391777032898457
0.03134207058757912
0.28445966952301227
-0.27081618151300724
-0.3185661639533302
0.6199350155833225
-0.06817360828605966
0.45930864989926906
-0.16415969168629063
-0.45823963605253776
0.2684395123479797
0.9988478292095746
-0.49088727905626517
0.029455664445320325
0.34393961717549143
-0.7381387669283823
0.8475931576377976
-0.055354486206772247
0.2321403415830326
0.21954147028332924
0.7820265524705922
-0.5377694242234268
0.06471468091486388
0.061678865824367254
0.014367831140105753
0.5193536446346768
-0.5383763784232058
0.1558727367984252
0.0027742165061916723
-0.1962057756805735
-0.5464052284094665
0.2535787668625476
0.7574849682923832
-0.2047962841432687
-0.1358136006454041
0.876571331383436
0.28906977892273356
0.29952889230808893
0.5532081621180325
0.6182729724394613
0.13910956810897518
0.4392706598218495
0.6413746877570728
-0.39670294012731605
-0.3879277151998854
0.4053133186668391
-0.09324035726419547
0.10490067903914466
0.06734417193507315
0.20251791330583474
0.23400653836768173
0.322376475124292
0.19751570465333
0.2745965246188589
-0.061735739169838655
-0.5068154917091892
-0.8303173188445365
-0.07721265765792698
-0.2540775698921768
-0.10752348280146883
0.04805122093498904
0.5515001931788853
-0.7782803168709723
-0.6309898730003709
0.3261680044046999
0.13291571544301786
1.1016445261223926
-0.21405534699088832
0.027268461050717816
-0.0731375700847018
0.3106665461263817
0.16722615160761853
-0.8143382036979098
-0.33535013038235606
-0.37977153298064004
0.5747505221656816
0.026064980711264066
0.16023874364056664
-0.0968509250486336
-0.0061613610931681466
-0.2828505410261397
1.049045535607184
0.06284663110595108
0.5149334489161678
0.02212235079719893
-0.6042184377355247
0.2635285576213776
0.40676656240913606
-0.12403545340749098
0.13490761750928054
-0.1644229933863294
-0.40323026052554856
-0.466349973894866
-0.722489337039942
0.4750592395354893
0.4751579304744493
-0.0008227287690618031
-0.3517341097231072
0.6321538770921566
0.265381524394189
0.7225802154329648
0.4471003784643516
0.5440473572436231
-0.3088044885070268
0.15081774151423818
-0.5306540720877269
0.09234607048404547
-0.15347795963318453
-0.31122023860560266
-0.1474315803394426
-0.5156264922354801
0.008288641127619865
-0.0279984769905154
-0.7668991121493581
0.05567540727824597
-0.415032995793249
-0.37762793856437227
-0.5267778346111628
0.24584240752539502
0.42223589539429807
0.5554134018763878
-0.23044689693282136
0.5131063813630952
-0.6526906860292988
0.027938229369439092
-0.3441230692868074
-0.11703082558532107
-0.4339551235138529
0.631665604408012
0.2631713563842619
0.1412896839389599
-0.41220266097522773
0.2848212121263573
-0.5450680948399531
-1.0185994954762099
0.7269447754671147
-0.22042514155865514
0.3472540681461657
0.6046874613238977
-0.5672737406359325
-0.005067950873294555
0.7170551475675792
0.0314157517903111
0.35038875260745095
0.2536561676353929
0.11808409760994017
-0.46523828162839315
0.29367702249220634
-0.45891869959048676
-0.060897264672068754
-0.19944887905185518
0.8196927469894849
-0.6668975272970887
-0.13615915630050154
0.09622015882748271
0.2763839488225583
0.037718128675999114
-0.10913629821980603
-0.32099068394148905
0.47648701342979355
0.24892577367165875
0.5581607117331696
-0.6275732200026242
0.021649905028311676
-0.41781548322409545
-0.22002798988920141
-0.19241338416060189
0.29174777739286906
0.1782675531196311
-0.6848092237549895
-0.2534291679052166
0.17916599915359943
0.23702021229797662
-0.27625922786103113
-0.749520801309153
0.1403929330313034
-0.6855756064926045
-0.2532445047626686
0.31789624711173614
-0.4533149922820286
-0.13230450838026803
0.537575846676368
-0.12169168968626014
0.029339062428382023
0.1285310380996768
-0.5487110212403382
-0.45468210837725725
0.9825096871284769
-0.14280968898853336
-0.3930554399947889
-0.007755165758834736
0.6877864106480852
0.22401682066355366
-0.3541599315160687
-0.019418784552331994
-0.32056945705418116
0.047035899193097974
0.6098403154990559
0.5735159867358135
-0.24282173165678225
0.02360607638851156
-0.0516833453246823
0.2602388896200093
0.45699847672813976
0.6679397444387861
-0.5687070021286587
-0.3316507166786015
0.03890789460033986
-0.2975300636774653
0.17638449766882605
-0.5071511199611322
-0.3021626166174059
-0.24327819652899077
-0.31165321858453726
0.140226141780666
0.27637959764987735
0.16713391752052098
-0.20886301295634005
1.4062256358107554
0.08827801425028026
0.01718998374363244
-0.6175810560561851
-0.06499428767525198
0.17016975536925177
-0.011791062829373776
0.3543797901153906
0.14018627164124434
0.5705887388743696
0.4561740461758775
0.24263085972372997
-0.6399554608486372
0.015141805228899238
-1.1959153767940913
-0.13594852289956383
0.606928529082328
0.6025928703222904
-0.7711557308332834
-0.32562239711718527
-0.5023569042877649
0.8393079345911593
-0.5972130653809903
-0.5274441806654786
-0.15342996939607012
0.20614645430371042
-0.36400963086038135
-0.24013437950839228
-0.09346711383998028
-0.027481889990897707
-0.4231253145391175
-0.20506512739191832
-0.1205076473265932
-0.0684096013795971
0.09386466706518508
-0.22175189026781747
-0.5742823568380995
0.2629640669066018
0.7797274900370721
-0.15934814665824062
-0.6068040667361045
-0.2500656564904959
0.16995139497719597
-0.11551876117976104
-0.11619210685836977
0.0341173889665661
-0.14082618096975583
-0.11092562198206657
1.6304138267028379
-0.13820164835818002
0.4381847510065537
0.295169037868302
0.13017650295857616
0.2900128733363925
-0.379556691604506
0.24412326323745145
-0.16562941624806798
0.8519991504769476
0.2506858885968547
-0.5647054750317508
-0.13803596225695935
0.5194555455040171
-0.2832900400486761
0.07100545891162964
-0.8718305993249023
-0.22171174228553753
-0.34359659177040774
0.7854960920353613
0.3076164535312068
-0.18871182959997437
-0.36168691026465055
0.3132770037020652
0.03246542778076701
-0.3877485441201127
0.5580490024566997
0.40866333485317313
-0.6597063906271692
-0.3494180191787502
-0.05636826375781839
-0.12856784516635816
-0.3560103025906791
-0.2521109524499986
-0.28025515749358587
-0.058312354456453996
0.3924658187198747
-0.3335333586141364
-0.15557505867341917
0.2558887931164282
0.03230413757480259
0.30940924810419485
0.2896130937019926
0.07502606627523367
0.3639222644454128
-0.47751648079832015
-0.04730271382734523
0.2084130664105519
-0.48211821792716053
-0.905761534682273
0.421655683964975
0.11728447910500236
-0.30658749174071354
0.3303076801752137
0.16085742015206564
-0.19111862904923896
-0.14008648675922628
0.16337874212595296
-0.449527905765178
-0.3796273315445342
-0.3007076168665837
-0.02823592954666321
-0.09302317555675932
-0.5888995736551241
0.12447040473820598
0.1855040307664239
0.09033893683711959
0.5433080753735897
0.06152645479616496
-0.21917062463451653
0.06225562770671329
0.40360410593040097
0.03484124564468254
-0.2748622905366306
0.047556014522953105
-0.3239936234782725
-0.4995910625977744
-0.21144158890032785
0.427481922149205
0.386778622529673
0.17070644327714324
0.02590578501249032
-0.21896835929788944
-0.2876768276328375
-0.4577262926750374
0.3532614490788429
-0.1394202861997769
-0.1856986806874764
-0.2999199312091135
-0.010493038957777395
0.17846856771682967
0.39014592746386134
0.031124633365964913
0.8988984390926527
0.2842944187250534
-0.5047433556293588
-0.45786221022035517
-0.46219836968334677
-0.25816342261736425
0.11584461123062251
-0.564386951773547
0.2472459121543531
-0.3390130983068906
-0.15989023971793806
-0.40732530607355366
0.8327471259321999
0.6102741745936466
-0.4048949968049473
0.49482945828786246
-0.37775243926508584
0.019318185402482736
0.15659076351185475
-0.04254634142512816
-0.11778843925795994
-0.7375625136362025
-0.0000311981704954986
0.05495352911860271
0.3711495693773489
0.8006327685843938
0.42823533665042607
0.7218837665941656
-0.850746357792726
0.048518587640045435
0.32060063142568346
-0.4548171751561535
-0.4528025029749619
0.22602399883696522
-0.0006972137057822201
0.14875624220214495
-0.26018969869028996
0.07631038528305867
0.5541440053132265
-0.42161616268046187
0.5494720719335979
-0.16291112475303007
-0.39549120471169674
-0.44173579945479235
-1.0406344707249726
-0.2133323507507153
-0.4786432782922777
0.7027881042254436
0.012342883872875377
-0.2624878220485317
0.03112732597200084
0.32886998611597434
0.13392770674809057
0.020909630150923914
-0.18289289493204747
-0.05194205489646759
-0.011941008514046763
-0.9337428424113206
-0.6405869324024143
0.5657802097802745
0.1782495096161895
-0.028530866238083246
0.3571253015684396
-0.3712357027587477
0.05478295924392398
-0.588349489061883
0.20751318018093726
-0.440916274903459
0.375253594345789
0.17713416667372836
-0.14516020853110156
-0.12004865830753636
0.6986208925009854
0.3187286037034405
-0.02978219977588211
0.5222555033357729
0.6516071092840383
-0.4820558768672001
-0.3149032226142684
0.3050119460660938
-0.23615712377317308
0.014643687690689982
-0.8296967972951147
0.25858639347904605
1.270558750079448
0.26427540822048623
0.07050124980341235
0.13009946815117335
-0.07523407098702743
0.2245910245676579
-0.2597847295269739
0.4625937470850226
-0.5799614227997396
0.0805600330908382
0.21187016720560403
-0.5395612767345151
-0.11505218701610222
-0.24922384447778145
-0.3232817096109204
-0.07538446183518605
0.035731296559777775
0.3860325849607487
0.8493003614280747
0.7168823213167238
0.22572874945403396
-0.14622786014128403
-0.011063511210580669
-0.2155124896104801
0.058956881760359146
-0.5621954935243663
0.26656202968573783
0.6460922045243934
0.19807864268056008
-0.11995637322831053
0.2660846560788316
-0.17176615863805914
0.4420207408178223
0.541548006611476
-0.09633256406298073
-0.1518017377259007
0.2276699229494264
0.13399710980814733
0.17983468093104202
0.06751273680878923
-0.3022079016904776
-0.1034808388229124
0.31904607705459187
-0.13690856765619852
0.6311640783375462
-0.15404377713899486
0.17833017520061262
-0.14708770042692834
-0.5549732151415931
0.49181193099183307
0.9001004163461795
0.8675572491270374
-0.588596379220572
-0.3995436704988756
-0.3513422905343708
0.005124619424990895
0.26465190145901396
0.23023223707454998
-0.18505971239318983
-0.1598928672772276
0.19880457752659325
0.09290559465883619
0.3106934572927191
-0.049367671227795215
-0.20474913255484004
0.6067920852348281
-0.6055894914819562
-0.11054951922797167
0.44729289245210496
-0.13882732143192175
0.06139848725938548
-0.23234263824029228
0.15068763157362616
-0.5125710039980075
-0.14355613837069778
-1.3229513065782936
-0.13888818292340246
0.35197917988954014
-0.17746534675585007
0.053338720817606426
-0.3706437552553033
0.42165112783373293
-0.08754882615582074
0.0893605963507095
-0.04256644776983073
-0.7217375846668993
0.2783445288441679
-0.017304614306564735
-0.007485844263623578
0.9452642457146941
-0.10774861578425197
-0.5191894090341234
-0.21557937966447835
0.2929888450849885
-0.1153562739218777
-0.4618659344904463
0.2642356529544282
-0.13955930759907828
0.17167104836440866
-0.5582537529523866
0.3933774991668264
0.22914249342439774
0.914177229422672
-0.6533511332004658
