0.2608364403192664
-0.32600660490714495
0.06200503741759426
-0.1387424352680724
1.0109614741329627
0.2571547918152727
0.060500279714920085
0.5332414576528544
0.25483283412364194
0.4121114253220697
0.011081697637220386
-0.09285645151788433
0.30953063179740686
0.04503719851309085
0.682551926026366
-0.4700185385093814
-0.1751696014313197
0.11626927118610207
0.3796498505991865
-0.4645547910357031
-0.005906660675800199
0.6271646145124636
0.03146198622421799
0.5685794525951303
-0.0031549052219292588
0.3990335509285315
-0.4777751355534257
0.179382600428106
-0.3267936355495814
-0.16952563973585688
-0.5667854084354893
-0.4846361368820026
-0.8090039540645215
0.41692137226018905
0.36520988303716584
-1.219139352637508
-0.12053466981541779
-0.03772788124101921
-0.1480535660284018
-0.28736466164952845
-0.5875454160896197
-0.4604691493460095
-0.534585714456624
0.02862277622497169
-0.13541644778851786
-0.30183519967879285
-0.13023769009317523
-0.12967624699505176
0.5595095065940998
-0.5625931310065159
0.4003994625994906
0.42790463627934566
0.1657584836542842
0.2161231428622957
-0.47276186079195515
-0.16883693095056074
-0.45867558765622907
0.38080875334829334
0.28591952405377374
-0.3856615971028143
0.3452509220699806
0.9003925858592823
-0.07837360860026442
-0.19720594311814524
-0.14628170904944787
0.6615602418211786
0.3931670423484925
0.46350914370169577
-0.3935288218238564
-0.2443086119249568
0.11629294738609237
0.1334840896002487
-0.7655120395901905
0.6962522068918705
0.1696505472329036
-0.4609987909309111
-0.07592503143616078
-0.8089177905104341
-0.7831227349039093
0.20206292706550333
0.6345966860787914
0.1580638709664367
-0.31001026128448633
-0.34215547962034953
-0.9685315483043694
0.047514482313749086
-0.2743316020845842
0.11633918792544395
0.27992183088755146
-0.36023263034739494
0.06719293764153886
-0.10720982391800278
0.21747416093974212
-0.6880488487458988
-0.8517940978941272
0.5608454705687974
-0.6680577951141681
-0.6627696552592975
0.5121865500342763
0.4079453005284003
0.12798098570520283
0.003990654980498167
-0.47010738987575146
0.3526091308450241
0.06580585517357851
-0.12244375907462816
0.5184499889315426
-0.061962996818444485
-0.12898425820642354
0.1818153414042354
-0.1737215032401185
0.4092880339309631
0.15679801079192643
0.2941984573450291
-0.01630522108948292
0.14184237836521701
0.1102217525591486
-0.12129600766123178
-0.17324300470880047
-0.06892691344086993
0.1764851056539651
-0.7096626655375378
0.12591003682315952
0.1523853360660279
0.1646884010723203
0.3890530721449105
-0.4487053040351561
-0.12137061237751291
0.639009924830163
-0.45524702874874967
-0.27015396086221843
-0.14578784167304923
-0.7958487343905346
0.00502283615632583
-0.24986154629261237
-0.04624312331156557
-0.8894205491558372
0.3745997791334458
-0.05167066800403499
-0.17390960999260638
-0.6818571192488515
0.4775419071890387
0.18040294453387984
0.6163157025569408
0.2294576974693333
0.014070066396376178
-0.01631415293352821
-0.10315412979306914
-0.30125510496579677
0.11630285587783169
-0.46227646518538384
-0.1205552212923129
-0.1808969836770008
0.6258945552343025
0.3496563286506875
0.23665380687794552
0.18838958767196434
-0.1590606046858974
0.3031592143761335
-0.6152225377413042
0.03788119533990005
-0.5732227139331834
-0.6899660985236705
0.6132376340993462
0.10271639117788828
0.5488703765135359
0.3217098041752223
-0.5088198733101674
-0.5060493143317025
-0.782613030287304
0.3479662179463235
-0.31128016026512906
-0.2994220468941263
-0.3505967920220153
0.557044975805203
0.09046388889285595
-0.19815174547295997
-0.5753683211020498
-0.055877656666204645
0.21103464058681906
0.07254051977401849
0.287819129999466
0.3947271875628048
-0.18972706263850536
0.14885876454307997
-0.0264656039490112
-0.04670935433301201
0.2554909288511422
-0.18806816154610917
0.21487951153082877
-0.11641886766698353
-0.19471170803030716
-0.5655187553941671
0.1980843748543854
0.27093363028125683
-0.3173944321951142
0.7786797327123226
-0.15851030761881943
-0.065057573076686
-0.6011939076952312
-0.18383046323711744
0.1342886007101192
0.4517920497634703
-0.2912133227966678
-0.4186027923088689
0.5382720321275601
-0.6119581494451796
0.32208599540837884
0.31187326659224596
-0.014700458972584096
0.3808747102336327
0.13168897514019234
0.12672436389044012
0.35003538333047485
-0.22434816560108684
0.42371012099042094
-0.1688883568733085
-0.17676427863422783
0.17753817473757844
0.4685925943045948
0.5670068547112267
0.16627091732995375
-0.214688873879373
0.5732783939740393
-0.4776809615622073
0.5298919666382959
0.556759827234749
-0.12929939324888878
0.31881776589231275
0.06812359132476228
0.1641747298456277
0.031144544076131896
0.5133560905223522
-0.07261803471723403
-0.14723314897994486
0.12462219604462764
-0.6621217077799405
0.42102090845352586
-0.040628980527982445
0.4670588752464239
-0.07858177938223503
-0.06761295869434726
-0.2888685721361516
-0.13523555981612018
0.16853272938068892
0.3710251708542036
0.059756315903308904
0.42934957634396653
0.7472732709991854
-0.11456995166829947
-0.6703157970596288
0.04256367977657185
-0.010782001806973618
-0.0396973947901871
0.02636091412633889
0.2480567793495452
-0.19928281557218075
0.02004062262266522
-0.5913749846311781
0.5081557952262142
-0.06902554266579577
-0.24758161126031408
0.4753049286284569
-0.15324622776992225
0.00555423228874822
-0.05260470953577415
0.38948610300125575
-0.4311911869491564
-0.3213915930618178
0.6741969178323756
0.3390992904468087
-0.01516249322151324
-0.7614074985097689
0.31242702603378414
0.5295146907417676
0.21091581848480145
0.05394091874819421
0.4557100867289926
-0.7135149374057295
-0.9702088017395245
-0.7552098480406907
0.14910731529758156
-0.11692162842900457
-0.2509676043602626
-0.2514411395397947
0.9705307583900391
-0.5979920035113973
0.4673739893000581
-0.2716727099889675
-0.2391445789262537
-0.16350856442406864
-0.33407131797236217
0.4652556464482451
0.848482521104611
0.25229061387977525
0.13276142125322443
0.0636795580179603
0.3841288290686954
0.4170075144432334
0.08655428952359168
-0.30645273301234316
-0.11404562647440854
0.01982032285757455
0.803288704180449
0.05602202162558409
-0.05660443952850882
0.2489741124011595
-0.2537035010393843
0.006448771091864824
0.23862299621415023
-0.4316977036621876
-0.09945718002850314
-0.027234040146148678
0.22322057155494435
-0.19212196737832754
-0.6176097328431747
0.6235602263444142
0.5623501761163542
0.39436938053597176
-0.7488023236538796
-0.030610706771395407
-0.5003895908895998
-0.07630814955755803
-0.5586178797868069
-0.18461644169025634
-0.12332069665889797
0.08867077799227864
-0.4469926202111405
-0.3339472399943343
0.6262654575864834
-0.019239068038325362
0.5686995125910536
-0.5483391346254102
-0.36959917961487565
0.11182621447756332
-0.0321094895267173
-0.07934618872428688
0.2050922289153867
-0.24159821187054864
0.28613543630497895
0.17454971996909707
-0.2250905407643525
-0.016256792053460832
-0.09819735911372597
0.5068451184067075
-0.0627507631066065
-0.17322303179224782
0.03678946610608072
-0.33590034574996624
0.19849934059087238
0.08344854771599118
-0.7492869880104511
-0.4152596638272614
0.4645748262168116
-0.4144798875710322
0.24774023432077105
-0.21505884467183312
0.0039645684814837885
-0.48350975876209623
-0.19313060199435023
0.006633689115625095
0.060449765734892726
0.12811462808294638
-0.3103056047675033
-0.2901486228591185
0.08463678040613677
-0.2584949719101891
0.5006013714062877
0.28338047793707216
0.1790356914295703
0.6806814133246567
-0.4487593705141203
0.42151728514709425
0.018748736516714354
-0.32875340425798294
-0.7303154843853916
-0.17587409462001202
-0.3224689931164296
-0.49918488958450685
-0.12585747598794367
-0.7172653875974496
0.3572897034242695
-0.4471421256100306
-0.24422901981850806
0.024077934140428123
0.6462947521011272
0.13606259948591987
0.19550015853951988
0.019183201509888927
-0.06443362162925893
-0.15616431967831806
0.42352357411011415
0.01816617863287365
0.5660047310064108
0.5236264828044558
0.33840619466052024
-0.5660656971560318
-0.06574710933681273
-0.5434147113195057
0.07103735295819819
-0.09025240458334965
0.198037621391959
-0.07080262059802622
0.1618223427038854
-0.47928356084914675
-0.2658727228474389
-0.3539692748075693
-0.48824514431557514
-0.7864080546155974
0.13099292549486788
-0.04893945461026903
-0.3501135650312039
-0.7475123969238752
-0.23268764632984523
0.6247890630020012
0.5332638063987765
0.027390565919877437
-0.22980436637540563
-0.10411790737691926
0.4284796706576862
-0.6874129324429129
0.4167941110736165
0.15638200343595746
0.4444351623616364
0.3301759525244783
0.13308862323948328
0.19245033515822477
-0.07542725476364763
0.017858663359551684
-0.8246028105501128
0.10465722527043518
0.14991553099196425
0.3832904145659861
-0.705491091396661
0.8547975338069834
0.2870568706189654
0.4150980440896192
-0.5374921734157836
0.12604102501293657
0.035445281501218236
-0.17231539834785115
-0.8682659694425457
-0.3006305732917426
0.6687680917143984
0.10416961298307796
-0.2471794052986944
-0.30344003262825514
-0.34545775468467427
0.041122315329212844
-0.025661971807751344
-0.23678864292615456
-0.43685316337299446
-0.35973485352661083
0.16135405646440312
-0.2587684293879172
-0.2373685415756949
0.6322562427876172
-0.01690516698516028
-0.23329691002420733
-0.14732146387901315
0.5151064838087412
0.6353336130898112
0.1233592158250081
-0.6136000597732453
-0.40596887566363565
0.24409341471456095
0.20638725266403965
0.30683516713085013
-0.3622164452224629
0.22037816943328922
0.2726122967691115
-0.19731633734541423
-0.21100076474377302
-0.30651015359731004
0.23184431151220525
-0.3782637527985246
-0.6602840165038579
0.13442384519562678
-0.1886100450779887
0.3256608195908392
0.48882136475453064
-0.4281447333818539
-0.757703356286893
-0.2856682687826693
-0.5858363379351957
-0.13072138479631215
0.5435492102905228
0.1288487556331663
0.06707260571329969
-0.04568083966727727
-0.5872335082693749
0.00841310091751173
0.6032952544022213
0.4823276924972769
-0.17128616534992006
0.19141754931061059
0.19098724637166095
-0.39690786896655805
0.41674651771067983
-0.1699144446639925
0.11306035478633267
-0.31856941514987397
-0.1283488692309928
-0.4474439124366715
-0.1494697048721618
0.16262269021814196
0.22164076601758112
-0.22607105572080502
0.6813624511319802
-0.7757058431255155
-0.2634038560494239
0.5570002203103093
-0.06362534250369262
-0.0866116715952539
0.20607614944502975
-0.11893668920358141
0.5712517299143434
-0.6636024570785674
-0.21234729379465006
-0.44431557951782885
-0.34512284546194505
-0.2600662669752646
0.6358487316534145
0.3420607299771241
-0.019777954628579494
-0.3651492012317657
0.06959598864591701
-0.46637440359625204
0.09574711393725711
-0.3044894187470653
-0.17398865727458626
-0.0023893382444950097
0.0784629780250759
-0.02700136049581219
0.31120243018105376
0.18178872283428277
0.033268522168968764
0.8308911852374004
0.0347469371861539
0.48175471666368197
-0.09624856916922347
0.40009394367782675
0.09943141465645476
0.19117356033137226
-0.7754182188096725
-0.5908305255961936
0.2180933416553965
-0.49794922460438606
-0.47622261093327334
0.5786210337875344
0.397112395165618
0.27393786782506774
0.2532510800648962
-0.12192768312152942
-0.3233826142057626
-0.12818417007531618
-0.3186635319086536
-0.3331324662265768
-0.17273451542115467
0.32910271443047445
0.00565780404559817
0.11238850001688175
-0.3455786793474743
-0.32296225037109405
0.039519580001879225
-0.04409393434580076
-0.21015447107331986
0.5539241131379673
0.021141185572761654
-0.35646393989425684
-0.1347917145910088
0.0638546873595864
0.2139345916366731
0.2931415113992518
-0.2022162371953384
0.4490119324900654
-0.37798109759549403
0.06369552127938662
-0.38765824019487327
-0.08768824750236992
0.4638781951087015
0.5565281611689146
0.26574217645885895
-0.3218542343196309
-0.1341400944477252
-0.42107020333048517
0.6107860859099866
-0.4510845942505541
0.1755743555572918
-0.41734215354269527
0.08150514201854092
-0.21727946172000187
0.4202078828210961
0.09005179208492918
0.11719297411744238
-0.2831755124903398
-0.24484675989695298
0.5277264006578563
-0.3580372014070348
-0.744667759126286
0.20629405450589167
-0.08133234718082866
0.18578022269245498
-0.16502841218072578
0.6414044315130697
0.586782151509285
0.4617586757439043
0.03934853061768804
0.3664737427493902
-0.06996981240290129
-0.5009968229918847
-0.022348666797591763
0.07065582421376564
-0.420007899951036
0.015063570735042317
0.035771246633175144
-0.12019731359922058
-0.25146160179113247
0.20078158377652044
-0.1660350067204213
0.4499476607660695
0.021446653273243098
-0.20898496549358914
0.16781113213485688
0.26368040612395627
-0.20817423272892407
-0.4968521443353131
0.020828293118954448
0.20910710859333617
0.25750686744703993
-0.4342835475430322
-0.5936620478841081
-0.7394133097586136
0.02163208731154206
0.272350729678001
-0.09215620308481834
-0.11094691856179163
-0.2953870088198788
-0.35812917495982277
-0.23549442089486988
-0.012829202344873414
-0.12529524704551184
0.12416756961653133
-0.06258879921167489
-0.30232210115607117
0.179011421524402
0.6715234054401635
0.5904238762238027
-0.2549014388499374
0.10613868717604893
-0.030934823081155034
0.15640536267170904
-0.5483054476830331
-0.27045965830378693
0.47233603587432
0.07639735864986848
-0.5616497400352825
-0.11851130932388731
-0.9967460697933503
-0.3841747046545292
-0.089931690341758
-1.1891297455764136
-0.678567035388747
-0.24747426820583082
0.2664475295404885
-0.3510174464075129
0.26748177442404103
0.1320775004211644
0.2510144675214145
0.0846359016320956
-0.5183420490209043
0.30981147203272974
-0.5989638380238874
-0.08494258084004667
-0.3148857389288317
-0.29339498614012754
0.4918692323630955
-0.5762413100828202
0.5526707294017887
0.28455475560432114
0.07507310780362224
0.6970327141870603
-0.15833813825217746
-0.17733466020157618
-0.25053156175300106
0.1402633922513724
0.5060834536884322
0.3243907378179973
-0.6230164339689462
-0.676703345267897
-0.5018783046298384
0.5759231497785137
0.0022880704381456644
-0.47070473601988927
0.025553516501643392
0.33116971769770603
-0.23750412768296292
-0.066614035243498
0.30018408395884255
-0.2780793177279298
0.3023969011419905
-0.08843502956321667
0.10207801676205695
-0.731125226426894
0.39382880176736057
0.13944972892532903
0.10047530189008773
0.47015969904552546
-0.496278977321919
-0.1566719265834265
0.4850141362738448
-0.04372742681272393
0.6837511738430374
0.3581680971235712
-0.5031105732122592
-0.22690797039654262
0.721117848693002
0.06474403705924182
-0.19435284349719353
-0.084644830800351
0.40969733156228516
0.05665085622805102
-0.5487407319877018
-0.1716830534892934
0.040722197230053145
-0.04605464775890348
0.3476472782526466
0.27028149204184615
0.043605954781787505
0.4452097603244304
-0.09497963875408505
0.46169927383490883
0.20032475157727414
-0.17997341547441276
0.5092392407874881
0.9623487969897886
0.176882269192947
-0.2847578328005121
-0.024444516578974913
-0.2770564073236285
0.27622650566849827
0.0015027001015280683
-0.7643478758006756
-0.1735148276038344
-0.3295548719422053
0.31882482549912816
0.09282246535017646
-0.5428418159434302
0.38591775292315
0.2131452999850529
0.7567042999483342
-0.6992895570988056
0.21548189072144053
0.6385584514813556
0.8353750470413716
0.04110636479610068
-0.14593380057769834
-0.2949254866281739
-0.10262335101625512
-0.41282423234670557
0.15104160576219242
-0.018077029125415738
-0.14829050167681765
-0.009402464986488052
-0.9400326085787746
-0.36674541059932514
0.3034362435045677
0.32753725202347367
-0.4154085912542527
-0.07771068203926793
0.008498363770706712
0.4855734687918809
-0.4137615866458523
-0.37191176562461936
0.5967389911155093
0.4005325932116977
-0.16044714064370771
0.4117287785154038
0.4485800183629651
1.1248371444524197
-0.5668522053646826
0.17505512116189662
0.507649536071168
0.4719220130893825
-0.36161063020201917
-0.09079962098345647
0.3147417714358071
-0.03254392892823935
0.263199638748217
0.06499576659557309
-0.0812961170799786
-0.5676821767146141
-0.024763094246746036
-0.13555283865017195
0.15214516328078376
-0.5052047094485033
-0.3907066313536072
0.565810261219945
-0.357702043844748
0.34864828533218484
0.4521971979269508
0.614780099416593
-0.012722814303186171
-0.15213038718922353
0.17253000225416815
-0.1586954141978472
0.21466892524287073
0.18668518776653817
0.19789324824918259
-0.522465856672764
0.25862731915956577
-0.3978694175670823
0.3970570594050095
0.7192700344148081
0.05946022902821673
-0.9504318421782512
0.25035718580189376
1.122105421311313
-0.4561005627978856
0.05936060159607413
0.3632267210176899
-0.7833495322611146
-0.2430359734688162
0.04174603168839626
-0.6320461414744986
0.4066980611670563
0.29731185615260647
-0.03605147528243432
0.5364591514781795
0.40864779390127187
-0.05542598090310673
0.27328814939096907
0.0959685291054225
-0.16538220575283655
-0.19802244491491836
0.45962529470318336
0.3107864460785958
0.45603724097917153
-0.018120386617109047
0.03964856224787871
-0.15243260486601382
-0.053654381538348325
0.034407063196044224
-0.27708761137356724
-0.029776945415582252
0.4166530421021863
0.009961914594823682
0.14069287010567386
0.4107791547239806
-0.43893992374848584
0.5583721228111684
0.640993013575077
-0.3540404075210669
0.1882467286248588
-0.2426623743408155
0.48382186190429827
0.34690968880630435
-0.6063782402490531
-0.7881126161515642
0.27963232826474893
0.01572053456713905
-0.05804229533323775
0.13922037078117414
0.23199240939380322
-0.18131152201676978
0.10275440173572141
0.48115529739557067
0.7108307314292259
-0.6031555257841635
0.7794795048875139
0.11282731731228238
-0.11017304811156171
-0.16374955143398479
0.3555539565582043
-0.8479504994785619
0.25997670653430255
-0.057930555163541064
-0.22599648556773547
-0.12528958421135647
0.1177230841543618
0.18886143815000753
-0.6314134992180765
0.49070864046706325
-0.12218496267668832
0.2013721703830545
0.7024998352428719
0.19639986407915538
0.28932942984236193
-0.07749365991635705
-0.2284764147446286
0.13400095280926866
0.5995749766913726
-0.12536109684907612
0.335892153832369
0.400291155646565
0.5054198486225204
0.317523762975017
-0.6561638166667667
-0.4547686510644317
0.4048323179471501
0.4408065250403821
0.23330469972069948
-0.285538444089966
-0.14280744037290227
0.017395235313138357
0.042133979253458916
0.11700695950540539
-0.24129758396223103
-0.5237843131511231
-0.5186426659961081
-0.2389465409913271
-0.7197503850323411
0.2632196984050235
-0.22839887928455033
-0.0959876036556902
0.16032387254485206
-0.11027793498984677
0.42283750088896116
-0.6825441026512991
0.003394702641452695
0.13791268376547383
-0.10401710538463019
0.02424978150184895
-0.06749828267524456
-0.08865829333673728
-0.048838673417379845
0.43586430751341865
0.43378677350947525
0.268996440491695
0.8849309769534224
-0.090202332409128
-0.9545331119773584
0.3358740656920497
-0.07044809100573471
-0.48895898087081324
0.16003133878009212
-0.0025031010407542405
0.18633518620976813
-0.28308691306400174
0.030772188045352374
-0.4204229020778265
0.27496285847930674
-0.2122738943741903
0.08521342668787388
-0.8003734105848769
-0.22800329898724245
0.2542074148497648
0.2785407667427986
0.6601967111512669
-0.231720876239342
0.7173760331034021
0.3322036266507887
-0.25140250173975176
-0.02270670694992622
-0.6125925035578811
0.4752963778556657
0.17569909865031466
-0.2864799262789251
0.04401470450970436
0.0802326821147995
0.45454899614139455
-0.4060222076070447
-0.16797846076285164
0.04603570155424368
-0.7813145565356254
0.16700075473559675
-0.21368151974503685
-0.007286477911266024
-0.31314183860266703
0.3319528354446186
-0.1266544088064836
-0.005361402286675005
0.007108658671620933
0.257457558332606
-0.18796766356905936
-0.21262102763984417
-0.35861523646859855
0.4123254523922182
0.3173177156426685
-0.1500402099071475
-0.06576994379068163
0.16050881743567152
0.32921850064883923
-0.554075768016048
0.013297749970891962
0.36923848718531843
0.3151390196855633
-0.5788993164825323
0.045027996555647695
0.2288487245039306
0.6444815888532807
-0.43896220588296303
0.4547899917173142
0.242993611940514
0.543808902934586
-0.41929297831524326
-0.43628612603709094
0.6377575012301739
0.09568785712689046
-0.8301076083913518
0.5766042308279655
-0.5204429302224879
0.148935909485604
-0.16426807037680335
0.0039649925665644885
0.3741306579261223
1.0120829094915884
0.12459314579993859
0.6155943097418242
0.9756085618760996
-0.19529231745665548
-0.14229229254721087
0.02972262525587782
0.19122828661393737
0.04679793794716919
-0.9538788967935268
0.5711764973081571
0.6937598821435557
-0.030399986312912415
0.3817403613866754
0.20151499742536522
-0.09345567197340367
-0.7443239443522148
-0.43057016584270613
-0.08588400044158448
-0.3947791784356489
0.1005914653147022
0.529571144501024
0.139524283114858
-0.21265223795398533
-0.24322109936696631
0.6936943129558505
-0.23038314406969118
-0.6569733036208025
-0.45089894619778653
0.24146189158085302
-0.45808849064357177
0.12111004093047599
0.857714408296468
-0.0255982041269255
0.43278665309611564
0.6181394646835622
0.11153643392210894
-0.020473470108954263
-0.07680894482680702
-0.01917194106330888
-0.4703539363920668
-0.23379974543046064
0.43147826140864176
0.2418849229735895
-0.20305427767913417
0.07048641832229077
0.1475279170444977
0.3175318143270851
0.10185806444642662
-0.45693829659408686
0.2392649787194178
0.07231417122074617
-0.07506976240840482
0.2791310849672851
0.11833498856643025
-0.013827220920705626
-0.35663451805170926
-0.17805262209599138
0.5181856375768945
0.3394733709641887
0.6659114381244607
-0.5523350546442591
-0.20161460312735646
0.1058323834474798
0.673704821107146
0.8712475431547488
-0.0005954660840153429
-0.15560638561423462
-0.3330577510991449
-0.3152174136119044
-0.1630019189313449
-0.339335926457607
-0.6324817445742904
-0.14438015129406281
-0.3838471420687119
0.3168947424229986
0.5367403599896563
0.5435361844613741
1.0921908835035559
-0.0448200998792993
-0.22398798571687187
-0.01873561929049375
-0.12714166234821173
-0.13381917473325053
0.24173046847890467
0.36279229722406037
-0.10718911635141769
0.31745431833244486
0.2548466583547917
0.8571029869901282
0.7465051290935609
-0.3343988230276722
-0.698632996417032
-0.09162884510374851
0.05559165945933353
0.14402444191554867
-0.16267946305872855
0.28288727942435843
0.5459233011185418
0.5652438043442838
-0.07698184435511332
0.2220014198790613
0.48253773752279994
0.022055092840665126
-0.26764598721343
-0.05254897029173624
0.07550954750237772
0.22955832944792773
0.11262633508461001
-0.5542565362155181
-0.19440509140213078
-0.27922842006367193
0.36078130328319924
0.23366977380463327
0.09435024145829864
0.19656573126962418
0.8013839622652305
-0.1699838305277796
0.05864337013897772
0.00749788492122213
0.8022842744502325
0.4863779087814128
-0.08196374026561101
0.025694914734899925
0.053323021362385654
0.5567735985205858
0.1395099348904716
-0.11551242553808888
-0.5904025452646726
-0.14324068759901065
0.37995336129580043
0.005399958656581862
0.5646282876539409
0.642729237918108
0.09466652679840323
0.4381471390953962
-0.09021547352950987
0.009913223557870067
-0.569880668602382
0.9703965110469106
-0.23960349756570445
-0.2377392649875666
-0.1611055159253513
-0.2738455310554235
0.40935332178787104
-0.12738812122800885
0.24576931709506014
-0.3171290129524697
-0.22143409872015454
0.14297895723826365
0.11860456963579029
-0.14298562254225283
-0.03777523760281536
-0.6116167669312123
-0.03313729166659054
-0.1627047511261478
-0.6372997617888106
-0.36148531141661344
0.1917358133670755
-0.24349269206997382
-0.18899189105111025
-0.8473981429697193
0.1924298752808966
0.19798685641396296
0.025765179837727317
0.14852277198949676
-0.3668949285276214
-0.30009134921633474
0.13769961994791166
-0.3246511383801926
0.14565100962162972
-0.23487891267684652
-0.41648455111183924
-0.5574399831849365
0.23290343214830445
-0.5520872126140189
0.6914345384111216
0.1832922157920439
-0.4655082080519442
0.11931255625711136
-0.06649570225635389
-0.32763020522786407
0.3219767032395478
0.2456974972524859
0.040265822078313196
0.059531919512240024
0.3130767850629836
0.5341112970626658
0.03960746592256196
-0.7234100071391774
0.042785385470668964
0.1707878338633154
-0.37436940455823264
0.01986697246761359
0.4587181983927805
-0.8744518256099646
-0.5873795537974023
0.22652201650389336
0.060055188687130216
-1.2282041101778758
-0.31812160796402883
-0.5969283342524572
-0.22322342281699412
-0.024361397952372913
0.8400344537728333
0.2663354556579789
0.5330680869864097
0.6564323668120541
0.06701948451018457
-0.530129964609908
-0.14024589326562242
0.5418811488070624
0.20418756129897597
-0.6133941958489819
-0.31179193344518236
0.051897929336844936
-0.4407456500621971
-0.4812951556808263
0.6117675688599586
0.09637428143308202
-0.1254291238921942
1.5010998973414509
0.454841569146445
0.06168704655996082
0.3329980618163873
0.2704902344856087
-0.4038348685719959
-0.04953874121069166
0.117846607909636
0.05274319175200711
-0.030233899410124682
-0.43771608694130915
0.21628680454082214
0.8224520716377952
-0.15436337305626902
0.6647127095493707
0.08714021708065615
0.17012050165151715
0.06920104443281859
0.31508878383053446
0.6533030253409181
0.4455407006969641
-0.6597026529885597
0.4150766774899463
-0.04954626756882193
0.1596566592639701
0.41644593594883633
-0.7854957774315793
0.7283132009247958
-0.10427803773955337
-0.25757630555856004
0.6412236296969825
-0.1728207919263145
-0.41760694261262765
0.8968905654312889
0.2707957639077684
0.096228912769965
-0.5052852268774538
-0.14120579257234112
0.18765646925343735
0.5131460517758587
0.26416935290031773
-0.2418736917422038
1.0428838487680707
-0.018207039802788608
-0.46773320209661745
0.45203197927340427
0.6606628563183939
-0.5025327737328833
-0.15593827663037133
-0.0053288146501546275
-0.011583398253211476
0.4829775043343922
-0.4471217183603831
-0.17693272781053598
0.2851048932912651
0.46838332357017853
-0.057479251434833754
0.7907462172404828
-0.01083891030006181
-0.5217792734252474
0.394808238463027
0.6556717797527448
-0.6955300517363762
0.18244322015129383
-0.011201724829906258
-0.04184521991628895
0.7190388352408742
0.4511074297873106
-0.11742590935476545
0.587199622931963
-0.9907568046429633
-0.6251717325703275
-0.6628142923713701
0.12618907575384328
0.21594785006434872
0.25386387535493665
-1.1089312365308757
-0.7183249411187083
0.36851199899011955
-0.12492090832922656
-0.45894220140973035
-0.2726899107589093
-0.2895337005169802
0.18904203985722362
0.6216231676615096
0.5846030116908235
0.5908396248526627
-0.1870130464453257
0.2954865074974105
0.18326551835978996
0.22311142015659838
-0.2943790311551261
-0.3593685580260744
0.7735511506061479
-0.14443183410032284
-0.2477935588356744
-0.33241434906899386
-0.10397779504007823
-0.3323477025077913
0.460715713007078
0.20776043049976953
-0.5991122049360695
-0.3374411952211433
-0.46854155300911376
-0.29926633588152934
-0.2947047087005446
0.32913267425342707
0.2532769687804515
0.23307993498234977
0.3268156688819803
0.5610517524051404
-0.06512013287933106
0.008276892874730045
-0.34907337099581165
0.713809898647722
0.17629992046499413
0.5075178804400522
-0.268257111615917
0.49689286801567456
-0.4915701776228395
-0.2961516059015736
0.12033424948193085
-0.1361545279974599
-0.6265646303089052
-0.4126408503877519
-0.4820097831466021
-0.531563705269493
0.5829570947870549
-0.1767732735666787
-0.43368265625204155
0.3779916801017171
-0.33692680434962485
-0.5563692366958248
-0.06781373011455326
0.017085256306378763
0.5346416622336946
-0.2927880263824445
0.02600961618254524
-0.039949012994261526
0.7170510927483541
-0.07107440319904972
-0.28172333032317176
0.17795510018873567
-0.14028519926395053
0.2379466103813716
-0.9090511296081001
-0.4775055367383528
0.022577461810408022
-0.34147060508644467
-0.9461057083530432
0.0038783192745519297
-0.294600051456175
0.24154722034326484
0.33057838909181914
0.0497791689825317
-0.11047886156330533
-0.2941907223499973
0.1965426988322905
-0.2620539912646788
-0.0757224179507587
0.3229984664236155
-0.16920689933469701
-0.1533588531273132
0.4083938926687225
0.5333971735848971
-0.38064727159663664
-0.3083699581454775
-0.13913593942851915
-0.3067736745634611
0.5235660502115926
0.23933029750223805
0.004288131575002917
-0.29619040679500624
0.1403272883267786
0.013841367903278745
0.12266316291979935
0.021298828425377513
0.1558392011391721
-0.43775343443870623
-0.03799913022475775
-0.42125318673825995
-0.20980012102906362
-0.02946591245266462
0.822585097159826
-0.972824912142157
-0.08618098520761469
0.3545070974007806
0.824344512928053
-0.019138011216358733
-0.6399084901402855
-0.08877576127585991
-0.2233866588024142
-0.253633752308302
-0.06717719060166585
-0.0321221973819009
-1.036244746949062
-0.8339066283844864
-0.10905579816886608
-0.2011388848919072
-0.2735977674705254
-0.4732506272836544
0.05038808414996128
-0.2330163717154995
0.48568303543897323
-0.009394751674550252
0.6432190271851025
-0.33532490154664496
-0.39208961319421987
-0.21558135461182787
-0.49025893032394263
-0.7715469788957716
-0.006425054792042658
0.15317927276466872
0.09349660647854181
-0.2783960145489699
-0.2076761997639996
0.5032692940692163
0.0917983376242014
-0.10861907262056718
-0.20280439129885472
0.034037058685010384
-0.4111985558640244
-0.30410416895906955
-0.26843524921811707
-0.17023078645617115
-0.6417834769898608
-0.31657897773774846
-0.37772673439530435
0.2508480460381176
-0.495972612990464
-0.2911430019254101
-0.006927378801374495
0.10724520124424441
-0.10416615408387694
-0.2523739631510102
-0.7722608933761863
-0.2035968162527171
-0.28550977092442975
-0.5469714948423605
-0.7316498149886161
0.6401825544740887
-0.4651499711804693
-0.1746581636999286
0.28662361384223334
0.4276600785797839
0.028234642059185792
-0.5112621071037421
0.005316208071301598
-0.12489757658057402
0.05156976162325431
0.16940288001110043
-0.3428433684151509
0.21316291766565382
0.44361761876863054
-0.2196068670929597
0.08109356779084792
-0.22887278864991237
-0.770463077399261
-0.1596912269336101
-0.3087841500890922
-0.3107849295709644
-0.13649501109237344
0.07227305007888532
0.5434039152245043
-0.5070057026017339
-0.27566090998641185
0.16899190312179285
-0.2177144198065168
-0.4033387608580006
0.033511034481418775
0.134030615295987
-0.8897442848973831
-0.5994198636911948
-0.2320822981565376
0.3811241077180687
0.317209344533471
-0.012235037292087407
0.6579245221802461
-0.3339183097848498
0.1427371314959859
0.05790982674351296
-0.40544258492961355
0.3507430196336459
-0.10863931959467137
-0.014345195142076526
-0.028648711208458695
-0.2447154375946513
-0.15318746409724593
0.2536110046015487
0.41784620444591625
0.07195162752221047
0.24791281154264116
-0.03301719782329239
-0.2811469450307077
0.3213699735437634
-0.1321057046225158
0.6392488577150409
-0.431471941670769
0.19676036566813213
0.30644360356748557
0.5424301333299447
-0.5721436830363726
0.27404944085528693
-0.6076281543336307
0.1970057625994554
0.7846810568717492
0.19504428840201934
-0.6621936479385301
0.2872907494107498
-0.4554840081141006
0.14396371542568576
-0.7962782226118051
0.5779604582971859
0.14200204815421277
0.024198329187973214
-0.1604638406866637
-0.3573379310709879
0.29665909285945546
-0.5287598094356107
-0.2504218744624156
0.3966917194627997
-0.5226268840845977
-0.3855334585281946
-0.008606489587409913
-0.010695282762416675
0.5830714565597362
0.4322157604269956
-0.15246806960026024
0.8777808485552601
-0.4856431510426965
0.33992892766371674
0.12698781299510611
-0.5482695652682168
0.2935168114468382
0.4584653200375901
0.06465666075284061
0.4958628218850861
0.22984704508722917
-0.1303905076456885
-0.41620835140498946
0.21608334834844464
-0.3014822529577424
-0.37821358635185404
-0.7631832034327727
-0.17332855168105898
0.20417961141843566
-0.3361747197591563
0.026870386210381337
-0.19424678856311636
-0.39774965947934104
-0.342050919165914
0.07582357378860505
0.5944812226894005
-0.4635460107610488
0.16532505376405462
0.14400137550929784
-0.515974767673188
0.14719676381065022
0.09221576590653659
-0.054611960672120284
0.5112993333240212
-0.003761537031552636
-0.8735134944632257
0.4372689082317553
0.10970782936164104
0.09900108206684596
-0.23538970945766505
0.040529577178232475
0.39308145563951
0.0024591740854056155
0.29105236319401495
0.47256126754429434
-0.43534405949478117
-0.0756927570042409
0.6946421569126805
0.18446742488040932
0.05035054740665637
0.11780822841497912
0.33021236867803333
-0.02463692922140868
0.7252954825235267
-0.23133899309234343
-0.10223310636462886
-0.07323384209019897
0.12049379386948053
-0.6852520583704108
-0.44625974698266935
-0.273640641856643
-0.23162760208226615
0.026187056975724765
0.28021191607007623
-0.38678951805204165
0.14914751847875168
-0.14795711674117293
-0.10566939492156636
-0.7504235576858319
0.19402121183193063
0.6357333762181951
-0.3317388186485895
0.5129785329162984
-0.08627432797019557
0.3239954866695232
0.6966781121230811
0.4542287376232737
0.0011121320593915935
0.0302248382373927
0.1664903309299143
-0.05554860539236792
-0.745535958414904
-0.17568475500307468
-0.08313481449628424
-0.540831422940996
0.8290558191331322
0.31726334495308106
-0.522950659286607
0.018465142459407856
0.5564071765379858
0.008547937978685442
-0.023687815634598645
-0.4859221308576271
0.30418706874645024
-0.17004240775374166
0.31001438842323736
-0.20650293106286138
-0.062313854882720114
0.8271737259289205
0.28811073246165514
-0.2854240075351697
0.1652937875751035
0.24164908048622796
0.0790252109050362
-0.021452631724552883
-0.2266777528814744
0.07826809298723526
-0.5500563754202351
0.15857738947821928
-0.05151173220695425
1.0300305877236091
-0.5190669942736639
-0.2957459287011956
-0.35181929355335445
0.3574485872531456
0.3373514641118996
-0.2349274073455931
-0.7769665926740147
-0.17439784600786615
0.1521413658735465
0.247130958834042
0.4828432469318478
-0.057733166566507205
-0.165146161094578
0.2491830476718873
0.032137974281188385
-0.35873200029125035
0.21719123259942175
0.05683810613516215
-0.4262880952747446
-1.1220505164644017
-0.17024753707645743
-0.007119722510716357
0.13400572983493456
0.5358672925973926
0.15185826350488757
0.5469228191924627
-0.0752052437586545
0.08914838383105556
-0.17418363046751
0.030160873367832117
-0.3905305375494785
-0.15559581338932366
-0.4412269295027137
0.45708565197862916
-0.5075013350802778
0.4931549794316313
0.03541782712470892
-0.13339803966665947
0.13529253727314866
0.7161255418670049
0.14325116987388586
0.13965664619122506
-0.14654538016245353
-0.32788896942978385
-0.21790405792055637
0.4437842186249616
-0.7223144935241697
0.2321827924883469
0.5378900439807204
0.45927553647057223
0.42988657069481034
-0.010017292805988455
-0.3887924032841234
0.23620977221203884
-0.053479366017979
0.22487201046673239
-0.8933192331643097
-0.24335309285220721
0.05243910426991952
-0.09956692362337378
0.29792806339149164
0.07203271951301499
-0.5922723460667277
-0.24017269005959765
-0.3390559713321649
-0.13839528089644731
0.10528833952085014
0.5391776037836206
-0.5865132022898207
0.5430126144369699
-0.4129335239052575
0.04440440141407149
-0.055801452662066174
-0.1921701085766369
0.02455956730791744
-0.44812144423068806
0.7360967581172667
0.08539279137937558
-0.02608235275555886
-0.15067438321906623
0.3444374484395478
-0.6747818765427493
-0.8404275051371819
-0.1509246929094786
0.026779539837383584
1.0144387647448896
-0.3729525719576765
-0.2634099958470204
0.5922732666439136
0.07834802048293943
0.0340036787981847
-0.007448762561164814
-0.22107302711745314
0.291169218445676
-0.08219125545453008
0.36150876961155065
-0.071555177449468
-0.582617821832153
-0.6828550197343367
-0.028957644909418306
0.3289295769401074
0.16976422344772737
0.4713876375313898
-0.09189214664312517
-0.05458818061215169
0.41004395763698753
0.09048242831144077
-0.02638788420903655
-0.23375669920583822
0.7493638120834413
0.02584848676885422
-0.4063812581429696
-0.4350574014825158
-0.32488163803896486
-0.18048138389922408
-0.012741729884812992
-0.5739445845285827
0.043198949889295006
-0.20716045828181529
0.17100139535754133
-0.7008550377521008
0.6193223261494434
0.3512677767845784
-0.13655923936394565
-0.8020675839543346
0.42738585544478874
-0.07411999927422405
0.09855180281982312
0.033860965611222094
0.07075052243457003
0.2948985913547668
0.6206328353911402
-0.12650358449868004
0.582685526523351
-0.4116521033862732
-0.5447019542461441
-0.34265012654098653
-0.4248791861899938
0.038681629615601495
-0.21438314863561447
0.35238916220179056
-0.4020037876243279
0.3801496000564968
0.6201768472596605
-0.29171081830578977
-0.3665974905232473
0.5229431693258206
0.5360988520677639
0.14031728058088302
-0.7736772020614131
0.4730067944261372
-0.2518583952605267
-0.7052156162731127
0.7549984572872663
0.7896594797635608
-0.1316768496415045
0.10675505949152131
-0.9262351375388975
0.37107611636993093
0.35255686747481274
-1.125245705888236
-0.029791722782002598
0.2125732901632336
0.2935921243233866
0.10510046757722297
-0.01621225519864386
-0.18687656669234023
0.1461433756773394
-0.376492518108242
-0.44014138678424514
-0.37407323062886944
0.2867987193966637
0.2356522611415091
-0.14711873914973306
-0.3936808063906066
-0.30280633055475104
-0.26419810297160706
0.13259817252352554
-0.47837505763355
0.8281043891812304
-0.008906242437332703
-0.3581039556579255
-0.4700436103306728
-0.35465449125234516
-0.33615225894994927
-0.018288408834395815
0.2024771173898898
-0.035031282660720905
0.050598937411116866
-0.7933200659622521
0.3421811719949453
0.11471153269119957
-0.1361664388130191
-0.5412752256086267
-0.9598660187241539
0.4399003483137056
0.019922396929310575
0.24575150301603077
0.1870622900191276
-0.37528380742294376
-0.18784755205283774
0.3477016429171659
-0.5480596626013707
0.44610834729875415
0.21410030019759685
-0.43964521483345936
0.42818799410412667
-0.0392082679105102
-0.3737627151382325
0.16686169020748254
-0.25881537326666676
-0.32754366395731277
-0.03866721574941144
0.04970637837478797
0.5235050103197881
-0.2701589570380744
-0.6611125708809615
0.14911884874739964
-0.2647437848987597
0.06480593257211857
-0.7573433081911208
-0.10052864514619372
0.03315305243901443
0.225677392194393
-0.433498325002281
0.5364300752731821
0.18817843062487535
0.12954539436667795
0.3120814920109801
0.27289309378141935
0.1976179425864494
0.5522927867743433
-0.13069940854575265
0.49003708102245414
0.005475214490468946
0.7732347811761359
-0.10439175815533569
-0.15439741981021232
0.05456396066843235
0.6039722948303012
-0.10320818335635185
0.05101780284121397
-0.1514369122710373
0.07225458801699214
-0.2686147805305207
-0.8631992252341057
0.03132184041843394
0.06754523048540044
-0.35460937309686213
0.30425408087074834
0.7610777687434467
0.3551524151009559
-0.4044982910520926
0.3137409715180585
-0.3327783616825008
-0.01704886720656528
0.6130053725150225
-0.4024846511965379
-0.5255238749849477
0.059356513951606946
0.8011376983578882
-0.362219916446322
0.2674848808443291
-0.22782672758212094
-0.6736741254048627
-0.5070077873427744
-0.39003513545857177
-0.06936380806009394
0.2862901804135132
0.0728397387501231
0.36323476224601264
-0.29001595305489347
-0.028780164984798035
-0.2373921632286903
-0.7111169420161698
0.24670974890374403
0.1890650992938998
-0.14102023365352717
0.5646970377736382
0.06597033309218821
0.31669233522144635
-0.5791217845269092
0.09991075415421755
0.9706966732269217
-0.10424869364365544
-0.23836988122011823
-1.0158239892144865
-0.4493489030497002
-0.6021362032246613
0.3150645782074891
-0.19965998587726347
0.15220802593115695
0.04638634077402744
-0.32884558383890644
-0.6057800001365368
-0.07541990626608543
-0.19338126842641193
0.2724430902923799
0.41700508343817666
-0.38349455327496135
0.1457958091109304
-0.2367468711627928
-0.12179035380125836
-0.04260823041070488
-0.6124096391945291
0.7899493559401152
-0.20684014439510592
-0.4369215230021945
-0.9236518771837374
-0.23351971418764567
0.4149615534289119
0.5447187095927419
1.184070931256826
-0.09441812728159088
0.47233047487518665
0.10592543861011651
0.1828907540095855
0.2943157065293197
0.2068477796649294
-0.40456400127107495
-0.26580738822302324
0.2393971708270413
-0.4388963467706413
0.28124714249236393
0.12741465271410862
-0.19897307726960628
0.27841204737113884
-0.7927894340180827
-0.22533954419610885
0.39572983673263457
0.1808049894530985
0.29050527557854666
-0.6436365582996834
0.10983071274121772
0.13931653259995588
0.4464949727484054
0.5014797473741743
-0.5958784998080275
0.052473366187421454
0.35288580621408766
0.663747383936659
0.15596665114346497
-0.08239209804159517
0.34137737164322385
-0.06162536706479031
0.7180095000526893
0.9139764792130792
0.1894959502946686
0.2611990891737088
-0.3327487646936512
-0.1649187081906666
0.044662789591170336
0.5895564361878188
-0.10079326950996598
-0.11259802601355313
0.0873146486259437
0.21122725551504215
-0.6498878368663967
-0.08982746498940612
0.3982802776486938
-0.2529220353349745
-0.22811241572226892
-0.39160926386917233
-0.04342719107221279
0.340738248852644
-0.6103028961401841
-0.3893317398929112
0.2272089722058544
-0.038217013506962896
0.3060535832880438
0.21122524284906816
0.17056907938520327
-0.059099267832341006
0.42739290824278864
0.4913582827996788
-0.13327397880471364
-0.2656293131500577
0.18019958622636015
0.38683971065950407
-0.16557066000721282
0.32446670809977257
0.16220753981063263
0.20320899444925591
-0.4987383737218547
0.4845948374541332
0.20553462479902634
-0.4247762225457068
-0.44514380896018624
0.32542997702394594
-0.4258188925582694
0.49111856931944137
-0.25878820991263407
0.4976406548510753
0.06369401434300538
-0.12237611033099145
-0.18235656068341805
0.40585004483070003
-0.6381454934080175
-0.2911671524532675
0.4571144113538294
0.446555148374393
-0.4883110636805279
0.7371602427966321
0.0358770858749194
0.25880700136180584
-0.004065880282949729
-0.00017523043198371308
0.4000232817906505
0.08207186080085566
0.35351382377573176
-0.2207444606674716
0.3969934569918225
-0.27099173441401186
0.2833784231929744
-0.003686751694003186
-0.2897594525071874
0.23264338123151965
0.17678672239596152
-0.48929994834911295
0.19522355975559108
-0.31612162539078015
0.19121297171353344
0.1568400569061676
0.19906562543613385
0.37337082556686396
0.06040272016060243
-0.037477767905883766
-0.2035677142444772
-0.3550814967311575
-0.47346013214250504
-0.3779994046172017
-0.22052383354415686
-0.32209837190332197
0.21902149905483673
0.08603388562756106
-0.49441299280773787
0.1788410397981685
0.15056033936943597
0.16531390109746671
0.19947315053141032
0.9485607504677773
-0.2757046756607625
0.9592019088639282
0.4688651474466867
0.33858358002439787
0.2179424440845763
-0.23721324072350894
-0.4363867216528897
-0.41729104736266437
-0.13182968607819515
-0.3790432800524002
-0.08410422067982522
-0.01124725175209396
-0.010292122907940314
0.0847693356108533
-0.41094458452410987
-0.09630811388492608
-0.3369524362811361
-0.22431137801667658
0.3655335533225683
-0.044366393576911314
-0.47785901718228996
-0.3532580570653313
-0.10963441403520303
-0.5123965160729902
-0.4374208836343816
-0.11478805093856907
-0.3922062974017562
0.39882256621645024
-0.4492151959788225
0.5800166074998818
-0.08062818252270096
-0.10008201004507147
0.4168601567218044
-0.2750941695931947
-0.40444740915492783
-0.3673165131807867
0.39093236104902945
-0.6247480916938034
-0.5458749900424242
0.5205112381181632
0.11179615094657457
-0.16198066199049904
-0.03917667047506029
0.46973362450250167
-0.26291827755588776
-0.2455943965638768
-0.7580501822314172
-0.37855692324097767
0.2653866016777893
0.17469536646465458
-0.004068868956758842
0.32555138642696974
-0.6724597860791431
-0.0874636353386384
0.349389567731018
-0.16351040504238137
-0.029718540387255188
-0.46344489242890136
0.5341740729187641
-0.3483918497383942
-0.43260952173549544
0.06868403861325141
0.5503909423274372
-0.1699890650534781
-0.330451899601747
-0.3831218034278033
-0.0669185126331258
-0.01016926955759981
-0.5346802076357363
-0.3545110383136667
-0.7581764789710973
0.8270923020780814
-0.03721261245357128
0.48797128606952994
-0.2419782807484986
-0.6862651434685237
0.3171241204540243
0.12863287607748322
-0.7983498971112273
-0.09480886991315166
-0.7968384427327462
-0.643750900808164
0.6820346512276523
-0.3264723357387388
0.37295953334353527
0.2608203776729141
0.05154563537497259
-0.5882646902628988
-0.47026414286826157
0.2935591431733036
-0.485391307236503
-0.25455820521702843
-0.6273439714451914
0.204651138139589
-0.06259755041653282
0.28468937877390704
-0.34601917257852394
-0.6477457511298851
-0.7147722996838082
0.09932162831466405
0.4278342203872139
-0.6580613697430034
-0.12352809843733815
0.418872052101825
0.2772759737733673
-0.4980518713109086
-0.26019145405220917
-0.10960418665312789
-0.26445197655432323
0.0748860212909948
0.01216754738789731
0.435071362127076
0.22352595283238166
0.4015303483464472
0.5348749773645843
-0.5209462299907112
-0.3549588935356301
0.580548583707854
0.3732731360535112
-0.6692441560597915
0.4443801569908651
-0.06430738680705177
0.5338641424995219
-0.14282926358451817
0.3901591096427375
0.46837393398774513
-0.42815624069242975
-0.2672330264704802
0.2151622176997416
0.1035905832154478
0.002025359534126103
0.32387132211467656
-0.5401398942138385
0.14386175062597353
0.3660946769080367
0.5817404557671308
0.75036679337747
-0.8371206229703193
-0.8901411651888276
-0.5427572671381863
-0.14541843998842288
-0.021670107720658652
0.49178008444870014
0.2398748854133025
-0.4933006432019664
-0.29545735160021325
-0.3742907464877698
0.25738631004774226
-0.2835152648568486
-0.13359931460173102
-0.05163949413913233
0.11939839341022454
0.2705702500808069
-0.3449943727421802
-0.3538103555435684
-0.25247451823525646
-0.1475099484200824
-0.13144521301638976
0.6291482828322423
0.47894017174659465
0.09852430923141779
0.5055169913581778
0.4632098307007227
-0.21306625809424617
0.6063360805055799
-0.44132847413028004
-0.4162291809271045
0.432792383472373
-0.02684891828329781
-0.25028122715895046
0.04934688308721336
-0.37270334670505395
0.1968868762394071
0.7792231695676735
0.028716451604322978
-0.2659430036927129
0.21571699712016215
-0.3397511560487074
0.2729989615583056
-0.26496779038695306
-0.26961646994257926
-0.31189878927725034
-0.0684621635733252
-0.3361924550275213
0.11699803131834882
0.28588398899682327
-0.333952361873318
0.4754824912701906
0.3918181985393281
-0.11483649301963018
-0.010696429588045037
-0.22760481557995035
-0.40938385821852036
-0.03139329171007409
0.17375425746993384
-0.17162979968489103
0.3694285508195674
-0.42007808802401336
-0.3356993668896907
-0.46051848521554034
-0.020758501922478145
-0.8393036675121625
0.6526049096117628
-0.12322924685683828
0.3722185848299163
0.4652410805851469
-0.01568495717501336
0.08515338349303134
-0.34722032506683803
0.16217830094167004
-0.4666519535969781
0.4136584336891493
0.013049799475089883
-0.4915727560674904
-0.06688424174874004
0.24183216719418807
0.45230487891568755
0.22578874442183247
-0.18529022164264947
0.2785467807842908
0.26856414650128557
0.6177548149588388
0.47727028067805866
0.17854921261160286
0.16787195549945294
-0.475967546117102
-0.23037387437461246
0.28504602038376325
-0.2522025202305896
-0.19690728954515666
-0.3931318613038298
0.06412052762383293
0.7576494733044239
0.5509775639756981
-0.16335212995940002
0.31446476722102373
0.3519366817770385
-0.1693357666332806
0.4377225557227106
0.07082553094573354
-0.16984171983633128
-0.32248286955074074
0.477969243948231
0.33012031496841143
0.2708105718360706
-0.07012167150544284
-0.05333873099177818
0.4035305218566871
1.0299247043808752
0.4528309269746802
-0.10952898426317155
0.37517375121531593
-0.18521143480748845
0.41130552166909484
0.06167338015495794
-0.49361300749226517
0.04297970929987982
0.44988068107601364
0.16366885379426058
-0.11944575780796989
-0.03744319224662657
-0.001385153623457549
-0.25180018268191867
-0.014004920063391721
-0.19031603885721643
0.41093878022133135
-0.5362978033798493
0.2942792514714286
0.3050566534727984
0.34752088142771814
-0.16636299357336562
0.011099034740468958
-0.49093820524791465
0.6890528734670848
-0.4841297595103692
-0.5321367463127619
-0.14919956179271626
0.08962008797725525
-0.09615157270975747
-0.17428930905741324
-0.40348754782072893
-0.15430693652852587
-0.1374758123262218
0.3821690748210278
0.15829452836487864
-0.3854246527054575
-0.33019184754816366
0.10928687731111504
0.5102070332123595
-0.19398857986422388
0.9552962714395183
-0.15333721688502425
-0.05260923138954744
0.19445100370027454
0.5254070853763819
-0.062004627333808286
-0.05943005714828528
-0.8929275939602095
0.06638284111583022
-0.7645382704366841
0.7699415075253415
0.42598776878754363
0.4924635556171064
-0.04673537845242734
0.42472245162599015
-0.2840154069929651
0.7367818209149042
0.6076253178506578
0.463290261767462
-0.012515090035597004
0.43556542853761193
0.10456075120251922
-0.19991265352190316
1.0145642645527309
-0.7847772917943548
-0.2527530224725354
-0.1221748922078663
0.2058946588838157
0.32334196998635034
0.47340362586880164
0.8978085630681937
0.0804556855796939
-0.17581112783242395
-0.31648830438885683
0.18754866546983937
0.5121704453199544
-0.08597227400415473
-0.23617681102470148
0.006496952760253594
-0.3605233056414414
-0.04628856600533043
0.6090103921934972
-0.18013889120686352
0.4450449707525137
0.8960380288730491
0.04059736255735675
-0.5079334972204467
0.08162507614973571
-0.40954968885764703
-0.09224815818810919
0.09926652764866165
-0.18015471534809696
0.19856166266830558
0.3343773119638582
0.4228075037919767
0.20896542213644856
-0.535838369546283
-0.1587990791167328
-0.0957981047248037
-0.21350741913592336
-0.4307196482563892
-0.4414451930893664
0.09723307587014987
0.6671794788469856
-0.2569206027677558
-0.7884120808088652
0.5077492158764518
0.19835972219046358
-0.06478355951055219
0.2547990573527203
-0.09050256777210533
0.48589002169050216
-0.6249892620748423
-0.46270240970652365
0.14228968916182624
0.08074797410317945
-0.026333248557165793
0.38103560971964656
-0.5564211780352653
-0.24538717422588252
0.45799641760328713
-0.3057063743912432
0.7216269906920213
-0.14805372771727482
0.3740802313776984
-0.42712067933824877
0.8554726794904238
-0.35107284940250216
0.181132668644111
0.28151295149861244
0.018530171403848692
-0.08676967074458242
0.1295654573828134
-0.2493600764349208
-0.2759507178472524
-0.09929225932403184
-0.1962625504118557
-0.03870545481019854
0.29247637615500943
-0.19927444151820572
-0.6424067684211936
0.47664302017957
-0.2872970965905301
0.1704937592081094
0.3419397494382586
-0.5366716586847922
-0.009017559577110807
-0.3984940168281257
0.022933168328908318
0.5191720660569847
0.44600349884420976
-0.2546846179977664
0.7277465306873991
0.24591504565803338
0.3669353886895851
0.018317129076697296
-0.32102619373696434
-0.009381064010752746
0.38330127379720497
0.08407161057668372
0.016370475297258002
0.32004046084185583
0.30557419320275464
-0.363458398110693
0.00628897457886506
-0.053798690145875586
-0.2666808984534347
-0.4399167573935683
0.504190819791036
0.1566384868491655
-0.5718347710884997
-0.18005951255429414
-0.5664728680775567
0.6874388612393026
0.2254691546336695
0.6554554784537112
-0.30144374896251436
-0.3682465420372032
-0.40504538980341126
-0.42525740259640726
0.2894925482302897
-0.5572887986906253
-0.02569140472409299
0.31928061633966637
-0.5785271306641602
-0.1350159872146915
0.20226139949700603
0.6662881095021959
0.020548276840214385
-0.26895843590518803
0.8433796631676771
-0.4604968526627738
-0.1140337922140323
-0.4965444146253599
0.23026175941218918
0.5515775116348158
-0.08051940429305368
0.044483087948320475
-0.20523252014934404
0.3006855187767104
-0.2035913012107658
0.4639523961212737
-0.29509453960327753
0.035535256565924433
-0.19080830502780213
0.28247764724307284
0.023423614475379693
-0.09886064788266259
-0.30521450786602633
-0.9819824173716716
-0.06183963014691863
0.3398033394862683
0.05664035497919731
-0.11737911817939502
0.00650869474625959
0.056297282347717185
0.28846901540504877
0.27800494877592863
0.5663170493250298
0.5083984583239433
0.17814875512562642
-0.49676363161866505
-0.15785749061045132
0.21113247822299488
-0.6176000616936635
-0.02866727775139325
-0.3561106157459392
-0.26496776245666104
0.20609693846536273
0.3502843182010199
-0.488665077429778
-0.17112806776237915
-0.09098077144822751
-0.8148950459035844
1.0392202868794613
0.17582943607995935
-0.3045857330699112
0.6954886349947815
0.17159206151257123
-0.3879241761406025
-0.19882473140913873
-0.4964099152916445
-0.2661141112696979
-0.4877800390353679
0.07979502117029284
-0.2880220706424366
-0.4648141904112756
0.6212948738917373
0.12601545980761555
-0.03361527477932516
0.17084133100089233
-0.2908667718592097
-0.05432182696189095
0.04870578352100337
-0.37015930042940626
-0.44776952039730844
0.4605925684865403
0.5834104332270956
0.05093530772083388
0.20634362739465767
-0.098915567479886
-0.3757553639800193
0.21844527624482374
-0.42866646956627874
-0.6581277033858673
-0.17123319010678198
0.30439645639815255
-0.2919232890943299
-0.47535879623693106
0.46170870156247434
-0.07055504950969094
0.06177147789116208
0.2273045260376449
-0.2497365691969877
-0.6404418676562408
0.5260932909092757
0.28159204110501557
-0.19701538728826065
0.04079787220394452
-0.20619548368176985
-0.35497724631719024
-0.5041621803605737
-0.26044426652659775
-0.01745518463678621
-0.45761385592002674
0.43989665062999933
0.08356358329728335
0.2688659369435675
0.09012345699781243
0.7614924767537269
0.007892482634809751
0.22539259324217695
-0.7498853035147638
-0.5406944979147605
-0.18302463869639887
0.6917313310036753
0.36978951521176295
-0.28663473040876336
-0.37208474374472517
-0.6622703523826365
0.3431841654007829
0.15461651732448334
-0.5502862943502478
0.24952157929942156
-0.4788631633967691
-0.13919327785356034
-0.46263816571009814
-0.3600843803086721
0.5344912906363329
-0.4005468051739226
-0.2388451297806394
0.23465221192249297
-0.05676016098351116
0.6228684896806196
0.007396486966761873
0.2395583845917085
0.21842463358079173
-0.2125957681974332
0.08795365734352238
-0.19992206247715374
0.2294197736220836
-0.07637998598302519
-0.4563753786408017
0.024695255467753825
-0.5385452152628282
-0.3358208572740176
-0.28161581725815493
0.2460107546236387
0.014748461526826394
-0.22410845241134483
-0.04933633920634498
0.5137760342147181
0.42998967440015656
0.023633237175509993
-0.3332703001687799
-0.09645369583435051
-0.31531436660095147
0.5138978957919439
-0.02773507648243207
-0.1461272733562006
0.35485534555587606
0.6263725651387443
-0.5152976402092426
0.5138188977317798
0.05758074172876094
-0.16714645918568685
0.6276961398306292
0.37970257814525193
0.0870285759530813
-0.04519912871272884
0.7410071810917344
0.2904660837325784
-0.6237219353825494
-0.19114299781383998
-0.15865461818783858
0.7556914494417686
-0.6370905723579923
-0.8096748345322684
0.21641502635905727
0.16087392260271874
-0.723119032360554
-0.06512510284372913
-0.41570883260634084
0.5740900150091449
0.6225227847930084
0.25403865176505797
0.23659476851589217
-0.5310235458575036
0.25200623930416466
0.044322605894508045
-0.8271394787466211
-0.05373264632736928
-0.3054138014446428
0.18548698376806963
0.02917703274846486
0.29967082909006837
-0.5797508169175941
-0.04642643110667374
-1.138584756472178
-0.10480695385889935
0.14349335039605227
-0.3677501151894927
0.47509489585528747
-0.3709045446001157
-0.31501317399596956
0.5243812725602074
0.5963412854114674
-0.14444790306363983
-0.13389107358567853
-0.02554211786943887
0.44725476922115565
-0.14961502969541782
0.06108072366864444
0.09407654513587115
0.0853074752181016
0.2802306782815477
-0.00493174193842573
-0.10184015242980397
0.3089990489388452
-0.7285585335656395
-0.0574675351964207
-0.15328929935932145
-0.1393112922857277
0.010403231393340939
0.5538011069814472
-0.021933995464220465
0.36500558333760447
0.32804184336594266
-0.5718465438926573
0.36361871442495647
1.0410213812242308
-0.012071625375624657
0.04169483690198516
0.12038771410535185
0.9408182630629067
-0.3798853415712651
-0.4665565071003948
-0.31593730699073086
0.3104704631111255
0.161601701590837
-0.5212651724806739
0.18049675542191246
1.4950505354701245
-0.42482711017538605
0.36901429395192076
-0.6063531028817565
0.5670062534176079
0.27080793549673865
-0.014549954552918559
-0.4248044459146483
-0.09104661889274235
-0.08094055664858522
-0.5449332155149103
0.27026024449148145
0.16653214387526274
0.0762802985157603
-0.11764663441068947
0.3431701529448808
0.10517382563208194
0.3363143898294778
0.32351806495068236
0.31521538888585277
-0.2483784717311931
0.12240763052456245
0.7970275918194769
-0.42248015893573093
-0.6380502670171272
-0.523110309717682
-0.7204840863514022
0.15498655546363665
0.4104711235389504
0.09011621957946463
0.5085070475304957
-0.01430740587975911
-0.013396651088351218
0.11608129633709449
0.09819170711937517
-0.6719007676811315
-0.30512063047808585
-0.5374430043259869
-0.2529865853161746
-0.08369225297693203
-0.591302001307427
-0.24576891854016655
-0.18115601611201643
0.12020716337936818
-0.5619558002661211
0.31767644581958304
-0.45371835566326296
-0.8159586963495102
0.5391962068291262
-0.3284340353002897
0.13335643427743943
0.05888470060993669
0.5127137577280234
0.30777483840715847
-0.5393414698479124
-0.43015957371730246
0.11130621386243422
0.8588910245331214
-0.5151727304439656
0.2088485959032803
0.06235480717235256
0.6601455461179535
0.09629954664112209
-0.05604319578762533
0.02270500771879214
0.04462255089243713
0.3458176898172364
0.08732164894489104
-0.9614454209622336
-0.49992205060828915
0.08251643220073168
0.26136514097954455
-0.7011592972923706
-0.30647262883298315
-0.1735440137650053
-0.8823943549786071
0.06460501721425342
-0.2811992108187719
0.07904692082297533
-0.23909719768513432
-0.1773321582432695
-0.029900416305545966
0.03419487165771315
-0.18589847460977488
-0.2121833890440092
0.5944904035947718
0.2048248544842054
0.4288281016303167
-0.24712125875493637
-0.6597556764744943
-0.7308818071287286
0.12470997381094016
-0.39635463005955623
-0.22343594891329052
0.8613002940494046
-0.27945940776717293
0.058043739833484376
0.3856980974832649
-0.13593035062172146
0.14383500654305523
-0.45876260664710705
-0.09700483704769182
0.07992910496857969
0.24495308544197184
-0.26981734830147
-0.03495591018483681
-0.24377633286685907
0.28777699410108365
-0.022889186076380557
0.0034106670067939014
0.09239844842470143
-0.5792222882562468
0.13495403363989936
-0.20608442349953474
0.23434853102918854
-0.30127377945662626
-0.3987525919992946
0.48366180137946124
-0.2186012091788295
-0.4650268374623978
0.11738494155630746
0.06602510586885389
-0.13121658275653791
0.22903540339424347
0.43451918253002264
0.28945649406911533
0.12779107414514912
0.1629988861520579
-0.13242524038533535
-0.17955294356893164
0.4208078789981853
-0.15767335192104845
0.28664948760178816
0.12302919976992586
0.2525927661221604
0.07951898693203804
-0.46256899263241047
0.01650239945304806
-0.1891597896225056
0.7456967542026569
-0.24326216530924366
0.5593055054403626
0.19815087310277735
0.07432027829116242
0.07063937116618105
0.39392440482572233
0.22766353037758735
-0.5760588835230316
0.15798766145549029
-0.7596858083202264
-0.04350398562321572
0.2283417821876039
0.5396322611926917
-0.17064929321036845
-0.3067191237769594
-0.1892011787393205
0.16929183344734722
-0.372486948136936
-0.6558960531111578
-0.6413283139332774
-0.06135627040123441
0.22123022373922444
-0.21334285064679506
-0.01315277475316612
0.0218938915178165
-0.2769872935939499
0.4619935156925786
-0.07603776792067815
0.4869544095946616
-0.34320581590863986
0.15635643311259406
-0.041005129075914644
0.6670836100600226
0.281991922418544
0.948756492655103
-0.3535421095918831
-0.6116343719701093
0.3723329295562572
-0.43469140022513203
0.6184012383550744
0.3424664661202655
0.2127385667623944
0.14829239558319648
-0.09986515230926524
0.09958803663312484
0.18502493580653936
-0.3369734684352061
0.5529757174330828
0.07194050142337549
-0.23562459345527462
-0.10467034405964613
0.13508727807502166
-0.4104156239523394
0.3735174786292754
-0.009049879781848081
0.13159586853086652
-0.08650852733502809
-0.11349615240355544
0.06277976859238182
0.19925045460277002
-0.9215897505433371
0.11912875121702862
0.12452934412006084
-0.21922892350584727
0.05112335008913789
-0.41249827572127484
-0.17569156888767704
-0.19206865684130023
-0.09295681266588576
0.04506062958388467
0.26825266332027603
0.34193012783186644
-0.4263477120511572
0.3971926125251831
-0.006168589006107854
-0.13973597719707664
0.012182863723568966
-0.27278643779929856
-0.09043863539162914
-0.05645021701008042
-0.0568829005152721
-0.018201360628866195
0.18896221188138954
0.20892250775785937
-0.2565946734088978
-0.2544262528860856
-0.5583321101919586
0.603540422190966
0.15865290664424986
-0.012994056973634283
-0.13449555513992
-0.21146485771051218
0.43332145326714977
0.0523651185196677
-0.17306934041895666
-0.1236280834905897
0.0037769515324187395
-0.3875867730426479
-0.23327866094334238
0.3986850711297231
0.2418508881360046
-0.38765690830944655
-0.4394998305368233
0.400227711594314
-0.4990344234615086
-0.19921412911132758
-0.11074125510924958
0.48704273482184146
-0.001958836781395597
-0.7687031070825199
0.04573585161442542
0.016592122663478426
0.3953422663589926
-0.3118288557966259
0.3193505470883083
-0.02640283518318096
0.1185969280613915
0.05613962119243552
0.1379966578844431
0.031160194984556435
-0.6868077453293692
-0.30245469301418043
0.23766098130953606
-0.2835750044982612
0.01810586096475763
0.26958777007830603
-0.27461448438293257
-0.03917906945788535
-0.4145080386928201
0.37331607720247634
0.0755954157808337
0.013739224876920303
-0.24511451437645723
-0.4719240108053759
0.08599540554052446
-0.33051013632793114
0.5139979828276116
0.08456142802131579
0.6186384989204329
0.37637295019671285
-0.03845540238744574
-0.3617341236711383
0.08685061202320182
0.24057875914947635
0.22481507302870757
-0.12407847283449988
0.4715926423399524
0.24394186861362865
0.25336017501765234
0.36564502229892654
-0.48010769674626513
-0.3092599321828665
0.36664862170246637
-0.20442097914885468
-0.21523556116807815
-0.07395826706766515
-0.49056897765786633
0.056255618127396496
-0.06771113633309898
-0.48069050486278037
0.006911972723832639
-0.46670291140070863
0.16090506641355043
-0.2629933941333652
-0.1348856798967497
0.42226230640038925
0.002679073066439331
-0.1942972425531095
-0.7230713681993395
0.4158362344185468
-0.010208402683202195
-0.2693858321373328
0.38658587314226533
-0.0012676602958885642
-0.09455195358086266
0.4836544611189202
-0.2557175918095919
0.40786853956754243
0.24078271559839726
0.3556499751143095
0.26114777381740023
-0.15987490737977275
-0.38299699391943887
0.010061423292488731
0.3931066205318208
-0.12680559969240765
-0.017907368347393055
-0.405072889986205
0.4827672229225692
0.009027765548030699
-0.0820439608557617
0.17055727551300257
0.14101993742272836
-0.17574652907928337
-0.3671437102339222
-0.4032853784989925
-0.1659209588666683
-0.291704888214925
0.18446992753056754
-0.11151774831499726
0.3694664652869086
-0.3377822183335596
-0.21339168277139375
-0.4264192068012618
-0.17506059274105476
-0.23693244554997273
-0.27556714863770754
-0.3042665741200032
0.29193356486188005
0.6973110063779607
0.1758138600936763
-0.007998611854508274
-0.3312342133401404
-0.3044429642682932
-0.02495689253146492
0.7138927226333965
0.7364926836324853
-0.004796429627513482
0.5880044324812822
0.5288055856794354
0.5675832325802604
0.051224920698931274
0.10811973885582588
-0.23905370799094763
0.02513891501380472
0.014158377808903598
-0.7246185955002612
-0.4940800119160072
0.1458442593605828
-0.312008283908674
-0.1166668622059002
-0.044838214511223884
0.539813086923084
-0.4498348605002084
0.35040245759823074
0.33957466448746526
-0.19250636782946234
0.0466748317464303
-0.3464299437116696
-0.37636427756931806
-0.3003405490711494
-0.3668091364650574
0.3657751632264424
-0.07246133333119185
-0.3319404353485543
0.02111915266466216
-0.17579621465084683
-0.11595153114876534
0.031111069494244525
-0.4967519674008397
-0.32884671570923435
0.3648045577507864
0.010173420096133793
-0.47052154541045166
-0.5165473550219709
0.03910491103955555
-0.19015157664168506
0.13232235213713373
0.27101174766355546
0.003511666953959802
0.24868477618136212
-0.4530700494254544
1.1708447157745763
-0.09604104064109496
0.1416401811164068
0.17377849864712974
0.09700332540548139
0.5056904691177644
0.07409195065479181
-0.4804868659968905
-0.8586966267295816
-0.11978291940900229
-0.44503446209119235
-0.07356113013884229
-0.24839387994136317
-0.5145305040809068
-0.05382085821879886
0.5528044664735279
0.26924759299962747
-0.5597048366700025
-1.054973839042773
-0.03736647619580412
0.4050803851986087
-0.04057884897987284
-0.837795771598315
0.2531951703285888
-0.16787690347810263
0.18859598860638413
-0.0730124328820713
0.37842805207853625
-0.36343881946726775
-0.45263268079476815
-0.015213984409339153
-0.37986706672885523
0.3570243719607646
0.4275066642873036
0.24020273562315203
-0.013516539521377019
-0.4903233588117517
-0.10331957921652314
-0.3461676719942083
-0.5349241168892077
-0.0028566914516413083
0.3827828759008354
0.24752084098606408
0.08638260416709113
-0.04051185237177954
0.40129602756827876
0.15725526985836985
-0.2796687867964789
-0.3662201653304181
-0.21533558912351114
-0.025749621636385406
-0.1333357146399446
-0.23117706066371266
-0.09503817758729252
0.9488962301779178
0.10449291340847681
0.2839834974721552
-0.01123868697225037
-0.18562443059364367
0.2160709105028679
0.39580626870983593
0.10601905694806556
0.1820450442857803
0.6134971758782769
0.6850131100493031
-0.1254998559512376
-0.02622465322980013
-0.16197179440357737
-0.17563947164361043
-0.1100879578638338
0.4036201439857659
-0.3815952736718472
-0.09183983645460013
1.2122006359501558
-0.14872605434357564
0.054434429493869736
0.3722564201522619
0.15128864735395345
0.43459810903240387
0.10971050123230382
0.22704948885000517
0.5062503814568663
0.016793362395703185
-0.40872403885069636
-0.5526410577006952
-0.6071370654692155
0.36198113588729064
0.08293317512780142
0.055556838382660206
0.159243479693762
-0.039717720618548884
-0.3788120581505035
-0.2596779025561454
0.3928695516200606
-0.20880375448490027
0.5328313569851354
0.24547654810126052
0.01900134703299
1.0868337682585045
-0.032347989346139944
-0.308812073622038
0.6193207931106262
-0.3971108374109027
0.12495231199295839
0.189834338636134
-0.2874631108470783
-0.6147765068496279
0.6477761621391406
-0.6696893359071916
-0.0011277074421842058
0.7246368291392516
0.6258716029847884
-0.2951848071377057
-0.1074026681690492
-0.10136511707880642
-0.17852270868319625
-0.12593613508636164
0.34861298927199635
-0.32866584169189655
-0.06898662499659958
-0.4974402832112907
0.18155362690837948
0.08278506066777146
-0.5574051934958629
0.09444839624804902
0.20196440019866463
0.15389634805977795
-0.29789642877118416
-0.2627953945657302
-0.06083807876710542
-0.1492574933333892
-0.16121669975519373
-0.9431513563466907
-0.05741843590317078
-0.1538795001453598
-0.4649488284276241
-0.0769131738852242
0.03498666175717825
0.029315900221988656
-0.22537474679297034
-0.0807066658182496
1.013157843860256
0.2777826381506923
-0.37533666658521553
-0.0968581404763607
0.11541807623294552
-0.950842871974652
0.30243010567116213
-0.13524406360626398
-0.5205279140024259
-0.45193205256993074
-0.8217115163062683
-0.4234645885835653
-0.739224125228223
0.6229355027066734
-0.35630784009643696
0.13085837862677444
-0.44955449613742304
0.34677719556208303
-0.7539608471073208
0.18797763091344524
-0.537233529539063
0.2041933725486315
-0.1523141673769157
0.042614098295669284
-0.10711280386069429
-0.00700390706551574
0.22756330900596064
-0.24943984916360276
0.22591001111742037
0.08504775118936557
0.1508220445435682
-0.9365065572466741
-0.13685240483160904
0.3328000151342958
0.5239266771331309
0.1620670598116206
-0.1321121905591835
-0.12185032947074019
-0.45438325700807913
0.45445243118449086
-0.6973959372483127
0.21148335480277697
0.4417039892349087
-0.1908343760782733
-0.3831778981559951
-0.18681461190782683
-0.56865142257128
0.09427494002483774
0.22352781365692376
0.44333272457416745
-0.24833631515334945
-0.4184148843790977
-0.1941872216356144
-0.6452278224663459
-0.2796442423617109
-0.08790345308154082
-0.08804368997205594
-0.40446840271458584
-0.11783076571470451
0.5036065074041125
0.5271532436959537
0.2130965743800222
-0.010211158960077458
-0.7016494967795112
-0.1275730982047241
-0.5898924385807524
0.9300850632269834
0.10222630288969561
-0.190261996158245
-0.10546625307790174
-0.05536690401708875
0.285597323496603
-0.05540331403150236
0.2654030826321465
0.04281877375486096
0.6178062564431697
0.7173298914283707
0.11075703552296982
-0.6996266768599586
0.18354581277425297
-0.04265712211638047
0.41094859274327683
0.32207035109634996
-0.21035831734751662
-0.6891564137742497
0.16932274558466875
-0.33925410974848186
0.14999100884623234
0.06651615086096543
-0.45819195823928127
0.23266825613598227
0.15006438977758124
0.46377527304882543
0.4074485602053877
-0.5934134787894293
-0.7949994438814414
-0.1792167355559161
0.6536282068752741
-0.07525278581912478
-0.22046099701675595
0.11813748729768088
-0.4430996411120363
-0.08591848955138688
0.2576160507867247
-0.33955685699131777
-0.26351212526842976
0.5523527290491834
-0.4531484032032351
-0.6466257287045121
0.5262338458640814
1.1146813719708715
0.5750908450785918
0.1251109188849028
-0.10370861897613193
0.591354008104033
0.24116991327929457
-0.22214927795170955
0.2777337779713286
0.29158773665113313
0.4139367662562918
0.16348785134020757
0.13139005315752278
-0.2022412030251057
0.271991761816216
0.02912916779540232
-0.16236100183821026
-0.25754128748970495
0.5055693650799811
-0.2615561044746541
-0.7440513544299592
-0.07050159587431909
0.5237917226172131
-0.9905147695909453
-0.12422996411866641
0.3581542156574415
-0.35880004260695764
0.513552461683295
-0.1931301595953247
-0.7038211836225592
-0.5331311989352904
-0.08036314973721263
0.07290701246713663
-0.49090267700081036
0.44222109852075325
-0.2276082615809441
-0.4572269392765899
0.3617014958236889
0.3892169869329855
-0.5535201722168851
0.07301747982864278
-0.10070107361776968
-0.011907731595600565
0.005158793303870873
0.5995248119978093
-0.23255366354810916
-0.7779287995997389
0.3072969470520239
0.34874076842897084
-0.33933313588096997
-0.3811311081038278
0.03860708917687486
-0.02031927863680403
0.265491907535468
-0.18509484031227774
0.04027423513865825
-0.7444502114856414
-0.572780744573217
0.11908479939933782
-0.32128765775254076
-0.004571115807097547
-0.33436601965376783
-0.1175619439627164
-0.48107249750415604
0.46849886898820314
0.11521448790812798
-0.2598482127541116
-0.17673053769733463
-0.5798814158843232
-0.005039730012069107
-0.19017411597448042
-0.30006391478178396
-0.17189430544601966
0.2080143236188062
-0.6547628044171929
-0.06593257834327552
-0.4218757036673042
0.21282557395716079
0.6951763466985244
-0.2652719946418397
-0.2411762706174466
-0.35753101716802743
0.22656530294508395
-0.6532518265622429
0.2225763579015089
-0.12873519617724252
0.3473366816213152
0.17924845701187583
-0.1210984329393025
0.12255632971687608
0.5577970217525751
0.09504112065792049
-0.3752918691320059
0.4487440683052972
0.2349787050219766
-0.27002169522462804
0.4000381675928579
0.8631909013218483
0.30271133200265227
-0.07170172044587936
0.23656006164766832
-0.04213687406138045
-0.21838622487142698
-0.07688010398017459
-0.4095211367985814
-0.11317545026708495
0.09157516193518363
0.1901915798475927
0.3493915391050109
0.25116905043219634
0.15934312832255887
-0.3328515842758163
-0.78637015625088
-0.1262136593492759
0.3848043591640058
0.216112887211042
0.4880358957127307
-0.1529198669734656
-0.8072307274187627
0.3173358400351624
0.9357466212749671
-0.41078995863849216
0.208569682716378
-0.740250079119999
0.4500159291137387
0.22351469420086068
-0.11639315448917287
-0.2546726504299641
0.059851777945880195
-0.004544906141276969
-0.705805148627242
-0.5821355897165206
0.47536139733031857
-0.06306980328359581
0.3899414018193575
-0.11882417721395042
0.6582432117894504
0.6368355474557472
0.1269491307290027
-0.36418424976596536
-0.20338923076760146
-0.20697939513718352
0.053068228438049925
-0.0161626049065711
-0.9622003340378762
-0.5160518292173618
-0.20030130691771728
-0.36449084207964144
-0.3379606661605474
0.15668267431054966
-0.10041797936600211
-0.5387345063909009
0.19964589044102077
0.4239183887905884
0.10240400845068119
-0.6393945320150014
-0.20409868697431466
0.4722523989327228
0.20915551771119478
0.08992309362083875
0.10517789698789318
-0.4823366068657478
-0.22391610055532216
-0.2873519550646745
-0.5527536153490064
-0.6422402627733576
-0.29034804760678484
0.08089008274078281
0.9387187950938687
-0.01852620080738128
-0.30468206906538553
0.6311184314347874
0.09413072721344658
-0.5492637069820289
-0.5351242870585083
0.11565941941991562
-0.017441916271318452
0.08409324012032857
0.6307113964516433
0.545085725360886
0.44943275538871946
0.35440034901268247
0.03152723487187564
-0.11406729571800242
-0.11267414026508245
0.28227302130809556
0.39815404263405774
-0.32921123345924336
-0.6738007790688213
0.1502865152768756
-0.5392376037246142
0.10446813708310065
0.5505816611398017
-0.20362533356912746
-0.196771668452105
1.1150817259716979
0.9058160980286408
0.49105837438596434
0.22639042609255677
-0.8049529966394958
0.07743674554740769
0.05410726501857645
0.056425186021640886
-0.21972199753577817
-0.022999893737892227
0.3399074352863411
-0.42634259178719747
-0.6795487158680763
-0.37207253699957676
0.11820172360007752
0.6727510310144958
-0.23198069225752727
0.433563969955995
-0.1997399801497158
0.003074355457885454
-0.6262087184545649
0.4587773611663734
-0.2856434035058044
0.46719710817942744
-0.013735354891829121
0.5434777420046827
-0.3692937325006099
0.19610736937748416
0.46184252234489664
0.245143610280126
0.5758077725748745
0.18259099262075615
0.24456086445008707
0.02917759331426374
0.6714960061787132
-0.6714797562362796
0.7368560521715307
0.1615150457103275
0.364290161119846
-0.10572008989546411
-0.45699083593257206
0.2452448851720982
0.06011816686427253
-0.07770039960658377
0.5440728482418854
-0.4921869510294685
-0.027037678337257016
-0.37195453810515355
0.09652952795996739
0.22111383687890743
-0.551200675699295
-0.1030925129053956
0.44737918586076914
0.06832106791432262
0.35420571177191784
0.22623283349234147
-0.009983806842928208
-0.1149724814506554
-0.0898333713048181
-0.022271530055482082
-0.7688120758525041
0.11128985946945726
0.23144423582553147
0.044182598954009084
0.09785592816100017
-0.2672345348416288
-0.06054164961359787
0.6478752036321584
-0.1902212317420905
-0.03495506320208949
-0.8210523713099684
-0.2611010402001698
0.23364742778687914
0.3121399026805433
-0.05520883803896823
0.5424473121511271
0.019189442845919877
-1.1789279675376885
-0.07435560404980775
0.08592077439897387
-0.11363891903596306
0.07611664457640388
-0.17255279602646417
-0.036264579535843514
-0.21346577252959206
-0.44834891174549235
-0.38687182063888914
-0.449884540814166
0.41647842335252333
-0.06111972247191118
0.13540148434217358
0.7095222979973356
-0.28937325966766825
-0.28569914123540135
-0.8094762658379868
0.8105987001985956
-0.1262924800040757
0.07227037519553946
0.08281238089740664
0.3202512949471785
-0.12200449123837856
0.6511745680675853
-0.4235187023644079
-0.4603430817137199
0.26600162750417866
-0.09606795386494646
-0.008662480732842027
0.5389094175401896
-0.01238830795568978
-0.25097399888964594
-0.06687146915969665
0.581186046327323
-0.2628193224039179
-0.2667008751946221
0.36459073337896714
-0.16393482806226298
-0.11541556925441222
-0.5457567486613574
-0.6993864620774839
-0.05413787130266863
0.5372004143715395
0.07814115896881477
-0.07317735888908607
-0.8197577372767918
-0.6307782759521493
0.07660003741430696
-0.42639063849391384
0.19009497471142434
1.0978268018288897
-0.39648739035601294
0.25624468631992764
0.7924787163996679
0.6516156772896954
0.1287369523908766
-0.556003254799154
0.4428173685613189
0.23982299388681494
0.2971688014097585
-0.4779887088758503
1.3766553939125952
-0.1599314274548275
-0.06675272609804778
-0.17290110874770162
0.5217060604830406
0.14149406822998262
-0.006274974130230534
0.10700167763832547
-0.34284498323534907
0.4301967691224939
-0.3100278290791928
-0.1508959155490609
0.027344540048692294
-0.13268056126875977
0.4623216040197777
0.5326662051529609
0.25535101660850795
0.7998774016329937
-0.37237119816918374
0.5057163491976268
-0.18417522058398036
-0.642843739137985
0.0978181950956951
-0.24024884409365235
0.17720689596175432
0.2839030563253668
0.21092610399984651
0.5972747040853075
0.37235096132682777
-0.16972172453682832
0.2165987598361033
0.46907862112122845
0.36313298206436184
-0.1574702997865613
0.02215259105505167
-0.19173647045293185
-0.5197191254078924
0.6682892627434994
-0.44391195852120946
0.20106634665646914
-0.8742842042720673
0.5362544138559352
0.21962808656894242
-0.1470881156221071
-0.23289581127096912
-0.3271169684021516
0.03290990519155974
-0.47158674283643864
0.018340915754338407
0.30121705519839387
-0.34888908192630663
0.20366806424444733
-0.02348695222067448
-0.026322501493573045
0.05561185993240135
0.4450373961320835
-0.476486108498115
-0.947852419359451
-0.3222092335497537
0.16365407639112783
-0.3672463394507418
-0.07428880326461322
-0.4831351920943057
-0.3500273416025341
0.2618733835094982
-0.835320919402003
0.06844822264639099
-0.042932388328193974
-0.07397129239389552
0.5689963631208959
0.7342753576495881
0.35919624750109497
0.3787414610482757
-0.14891334252534086
-0.00519391505513081
-0.10788174700422004
0.4256365631872779
0.23464353539882207
-0.6333451739378037
-0.03159517902410269
0.2086331856020894
0.26748767458737954
0.16812645919638844
0.18688854543614447
-0.20162784678636037
0.2729958070877722
-0.042162392730764935
-0.5381190639820791
-0.17585678339779334
-0.4300557717492166
-0.4646092828431329
-0.3522946163853324
0.3744332746942788
0.08468656488005029
0.16763532758134872
-0.42146344728995594
-0.07931001780096289
0.21748086911050146
0.014646072832826961
-0.21888849367780006
0.9105890788829831
-0.03921302622370934
0.19730205805138523
-0.2775140690514578
-0.1750551859441881
0.34327831721791346
0.3011725228913284
0.2668797758947188
0.40568489503901034
-0.24917844048130736
-0.14633302082274915
0.8680565707277463
0.2980091999931922
0.3657217368260797
-0.25469669270247797
-0.1341728901611939
-0.2463516624200097
0.4847589836772236
0.09472812047458867
0.0030577559451512464
-0.3773982174328843
0.27498457039868346
0.14781836725758926
0.5218140867612554
-0.29432532013382423
0.6183733696951659
-0.48934616662223357
0.5300630070571921
-0.027602752918799316
-0.008581486219498807
-0.38506817930530884
0.268271920706917
-0.3294344392030963
-0.5391561497299964
-0.06918325181661014
0.5796637806962477
-0.3238216488834261
0.0813882601903513
-0.17004261547910732
-0.3017164818110171
0.12743322957126868
-0.234854575996057
-0.18929230093159538
-0.2691546290598968
0.07184187822913712
0.2567021110299422
0.2142070375465315
-0.521301931286958
0.23975002692188035
0.481275567449602
0.27225732891946774
0.39201513557420964
-0.42406550869173376
-0.03950805395231269
0.07923448125119684
0.23793377554374964
0.8823932679888503
0.03235576819835418
-0.646555270284364
-0.00827642551882584
0.8410214789426127
0.17899712664797118
0.40006836760730574
0.5080589029365555
-0.1039514131167409
-0.6300742601004119
0.048583021086831005
-0.6586129603355793
0.733704660209229
1.082679759339876
0.7285248669838708
0.13764242458420844
0.320554185887615
0.47356056414693165
0.3829143932539662
-0.4050975045484051
0.290618899583099
0.28502963572504886
-0.01041765037813148
-0.10644481964663834
0.10008352218653742
0.15669733053503188
-0.23041580265567266
-0.07335760648305054
0.6357807571594625
0.15186207031776064
-0.13021416652176637
0.5670108156888551
-0.21436021592660298
-0.3501726358350086
0.06423165290794812
0.43400233187431764
-0.4934964086094307
0.34351734675311274
-0.09863745794474285
0.04294903812156423
0.4762004031299239
-0.1916222748532842
0.09601450360337746
0.2390570529842306
0.27219190568253937
-0.03403003391118718
0.08571109109817811
0.1597673205263291
0.22228638524732316
-0.5239737422003679
-0.5102684790838756
0.48476732499961434
-0.6712512039334961
0.26278119380910836
0.7301537483488739
0.2640793733209684
0.2650181282567495
-0.8323298428934873
0.006763805129774196
-0.2380517477655951
0.7322238928966904
-0.23247241064841428
0.13778157698333976
-0.865869512897996
0.389959930406764
0.2994493213279006
0.22851924161124657
0.597975153383089
-0.19388910434426365
-0.4647008904482039
-1.033795363896441
-0.17241099104637608
0.1527465147001308
0.12387130383081074
-0.23157863416707117
0.16583528799322017
-0.3047001389770677
0.3132518740027542
0.5919475691529672
-0.3400942903044543
-0.06200232975363541
-0.14106655669648308
-0.3947933752691388
-0.33839353280177425
-0.3871704795742653
0.09296609592815687
-0.6275083491772921
-0.28736415002533244
0.5282253626511799
-0.035862056966903776
-0.06883021034232574
-0.0035816409273596852
-0.13676423764661558
-0.09600297311871415
0.12281208581596165
-0.33032638836285855
0.3223227978208473
-0.13553822931811524
-0.1568103807373614
0.013693947975581497
0.47055780592456153
-0.25269250616820516
-0.05981540723236461
-0.45012596072238925
0.2601952580643999
-0.003091008007626136
0.003069053819616377
-0.30945736128335727
0.659741355991751
0.15274059744423787
0.3736430648592095
-0.5911265511797495
0.15374029182427815
0.8337481476880663
0.14346244665698019
-0.20124813583325485
-0.6722594373536543
-0.38688900025520084
-0.23065143728052184
-0.045120122314999234
-0.2823354643260772
0.20966102088217664
-0.004446603554577956
-0.10517890768550975
0.015265337877145397
-0.5024060828245749
0.0813137032458865
-0.2698922542121386
0.9359101272540598
-0.49594130142484905
0.10800688611638307
0.031122216040973497
0.8050082746597484
-0.14146779367178836
-0.008545776175643486
-0.6553853046557614
-0.3458471099105691
-0.4260022318022868
-0.37574797471280275
-0.13440107260468676
0.2930273358987317
0.49974585817107003
-0.18797544776078712
0.16766433840102984
0.4750810996341482
-0.4245843561023517
-0.6476166104652202
0.23305963342676553
-0.028466535377381127
-0.11705026313146316
0.7600258048959229
0.10826049573795779
-0.6593989456733843
0.5159697529870076
0.06815274103773933
0.5800893602336399
-0.02888551688964303
-0.36176753818201635
-0.11238885378087154
-0.18090360656734616
-0.16084548543613755
-0.6553879809995441
0.5919002093477195
-0.09231883990643452
0.35479070093824105
0.6371091293966152
1.0365789150046631
0.24190283104622004
0.49021954447341165
0.8036244496860621
-0.6228488482419621
-0.05867089160360016
0.15977702890137915
0.08642756080870297
0.36587534686736456
-0.17094204881048858
0.19998250534461354
0.19402860371945785
-0.14581438128227156
0.5359310565829009
-0.9331739233536704
-0.5799229144040802
-0.5493573895057349
0.8203388302494243
0.2521181988636913
0.16683927697163864
-0.48412312965288934
0.08581555031552332
-0.3599791987956723
0.07562026531424604
0.24445635590481762
-0.09525270505979441
0.13304381742825688
0.3415677423592284
0.11272348005083435
-0.07988047112860067
0.6694783515715242
0.6707709331839479
-0.07229790119970789
0.0593010687290898
0.45809220490582414
0.36961263737891603
-0.0034501649963109256
-0.02457699545901805
0.035570235742507714
-0.38016953823623567
-0.050068489255727495
0.028127752791301548
-0.000981876020848698
-0.06098884660164181
-0.16781152718337683
-0.29622826178974754
-0.022646796140088125
0.12900850626341123
1.0207813296240789
0.7948241920056198
0.5024378053253907
-0.29106057482828246
-0.351124277501939
-0.34249513716815133
0.19021964641079553
0.08297789045437308
0.6143001167528541
0.07447298976570356
-0.8774730874750164
-0.45750009690890736
0.19723841997383323
-0.03169532334125696
-0.5481094970264909
-0.5141878409660959
-0.06230811915694612
-0.011536443369107745
-0.02895340323454322
-0.32979359785952445
-0.25128994013238104
0.3088242243211063
-0.191580310096814
0.14504709850178937
-0.2682984508736684
-0.0593440040699699
-0.06872615279450729
-0.1882875280795405
-0.01999944414886179
-0.38906390186975603
0.5362481334003307
0.2840247344299825
0.23184719236001503
0.15143105134724122
0.07365404465291807
-0.1045799088883941
0.09075656667573095
-0.23739010988242304
-0.46432284733612433
-0.5810230057631676
0.21049002246355147
0.24677588966938122
-0.37232186328365097
-0.06047225300278523
0.09061812167569534
0.06155796743352269
-0.404931628822488
0.46407941503567585
-0.3883338513288961
-0.6492157455091726
-0.7571581602839805
-0.3952972062007075
-0.5474013735869214
-0.2585875831642448
0.6609171501832315
-0.3113071858562703
-0.5497749657148081
-0.23719642923643325
-0.3462670437389795
-0.2775964637618882
0.35014775449047125
0.5537774914583354
0.23603313286958813
-0.14082445810374072
0.40333100583545844
-0.11081922171828294
-0.2881176644569522
0.3365354583057112
0.336587106454254
-0.28927859628806507
-0.14563284784261035
-0.6240175179370611
0.13650832389819323
-0.04238705729775213
-0.4188995880545452
-0.37585737700771876
0.14050502940793547
-0.4078616179042264
-0.8491594508542554
-0.10575977102164932
-0.2840300356653906
0.4551803805373098
0.27151716359929773
0.44256952400441835
0.1832002509188178
0.2957133300802393
-0.6098670282345673
-0.01069474742102067
-0.07090123891334905
-0.7662521481266098
0.15135872200072825
0.5841476285419661
-0.3283170874478616
0.04744251137716
-0.06384044939306975
-0.5368115608440097
0.5801077077502131
0.3547404989174209
-0.3028483835263005
-0.19542703133015904
0.027892996712063623
0.19660973406531002
0.2325766893345989
-0.6950144078016979
-0.1888578597289812
-0.037067082795424915
-0.8684552777598907
0.17310490050023247
-0.4902252152455164
0.03827592082746668
-0.3221029146086461
0.6060670225203673
0.27185221121807374
-0.15393679063681462
-0.8721107621301408
-0.03642499122889639
-0.2634247889864938
-0.44434801704644267
0.6896462679917388
-0.05610054502193835
-0.1857508443759622
-0.43807760896168274
0.26192970107244357
-0.6976502001401498
-0.05106328081589147
0.12396530768593915
0.22532621129786126
-0.04175046520682043
-0.03541228884981535
0.3104225953835843
0.2903118768474563
-0.16565223940233154
0.44710300424896365
0.24740966149906046
-0.3754551482780366
0.019728088383390487
0.27276358833143566
-0.9344623312817516
-0.42702409284371473
0.03529792169651781
0.23117993503417994
0.3769015724041399
-0.39421292562357574
-0.17280904713581485
0.24804460450163893
-0.0333582266160568
-0.6070939587943216
0.21856495991649452
-0.6139080018429832
-0.6779176870963278
0.59380199678887
0.2997434182866359
0.32849405070297105
-0.24917237875446838
-0.2035083488213974
0.14135022181786816
-0.08480436706066118
0.5092479864716775
0.2732142885951041
0.28073453993528213
0.5317625285937578
0.09723672118321473
-0.17456226928249907
-0.18521945209695126
0.014822719623498763
0.10137708835347982
0.32231719745497567
0.004370335830786616
-0.017590016635248427
-0.1744789041238976
0.48826790335866377
0.3989651587694184
-0.357293212191141
-0.4483957752013645
-0.6209913625705284
0.5749680060836097
-0.22363675778473402
0.6350391481535975
-0.2750305648393073
-0.6495853148308147
1.0493489208951452
-0.0709873526682512
-0.20059502463736745
0.3186711155896414
0.6970372643782017
0.47698671085672034
-0.687824723342075
0.2304681125567724
0.4198430655162809
-0.24640864111884536
0.4151616568726616
-0.5748141542166341
-0.5133102541144985
0.3655513901804123
-0.16353914098275374
-0.3861638912383102
0.26637538476128814
-0.10823622823940121
0.268768128409359
0.5925324096269021
-0.9213713593298269
-0.13632304843462126
0.3497046218694346
0.5579665038280863
-0.4762220573451722
-0.4497508869732347
-0.3078474072912103
0.44057083730048574
-0.3819037753918682
0.3821304162170153
0.16606707730460385
-0.3677146547738942
-0.5052399615467763
-0.8721981310329571
-0.16758661410407574
0.0020805417466475185
-0.24716428170511967
-0.6025670521229236
-0.7211950543906795
-0.4843270239932994
0.19465911803949545
0.07603335445159913
0.02235623965606017
-0.26317513101712114
-0.39076695161144553
0.09357016510415365
0.19075887168730368
0.11076048094572823
-0.4659798038733644
-0.7916844679496293
-0.2384695711363395
-0.6314292972514433
-0.580435316324918
0.15010859235622
0.4358761353144727
-0.06993604547933507
-0.07087536251868323
0.3141598050338058
0.6737073035049471
0.36989570243289605
-0.37187436181373024
-0.4004593017922563
0.17829241951857444
0.10573498115628292
-0.35830721895282247
-0.5874345544384474
0.1644507982059683
0.5092298950182199
-0.2544518516250187
0.19294284287435065
-0.7295627986209237
0.30556471935186164
0.75758518891114
-0.6837504518493579
0.03946027129112867
-0.6154233631214325
-0.3826900960787967
0.26059021201788785
0.2216124075217612
-0.42026232127342
-0.21497833076727715
-0.09125480095948339
-0.3504074313474972
-0.11602325401249355
0.18288079478840327
0.40342398205851593
-0.34284180292250377
0.5638478405810965
0.29459855144250213
-0.5242902309983674
0.5154873894100518
-0.2815426865017378
-0.07023120910018285
0.3908047429827148
-0.9489531795118559
0.3255666775023378
-0.18034246319238803
0.4903691736062631
0.13061882341684694
0.10900040826608685
-0.4894525369754998
-0.4119119824737583
-0.5244109795515474
0.004909526267233553
0.1481659261441448
0.33294622139776514
0.5126989095799857
0.364395371483093
0.5436077053328623
-0.5462699236586016
-0.31190197100665334
0.04807560835234459
-0.08935157244986534
0.145416538650891
0.23019393272385474
-0.03647746525673632
-0.009384435475029021
0.2937239675730664
-0.35573308557867
0.25133667721948943
0.029627867591517663
0.6939858307319938
-0.04832353327036229
-0.6310075783596975
0.0362210384881014
-0.31489181534728244
0.1082252604814503
-0.6974927906529965
-0.24098550288464413
0.08052649622594206
-0.1611089434280885
-0.21778777940398714
0.3000775473497153
-0.15842602830789632
-0.48237342344154444
0.5096484771280985
0.017974348216763313
0.4721609199636414
-0.12007159216098467
-0.3933140739595668
0.27980960566065344
0.6924084968694927
-0.33829430229599966
-0.05491414484443511
0.33740317740313014
-0.6218436662099831
0.8930162680974912
0.04964815253932791
0.47512235461395397
0.18063210626025875
0.7054091757047929
-0.412108279042993
0.05876373082919
0.20503751287547978
0.07666168141652631
0.47775152163361023
-0.49030584203563937
0.4876103515466633
0.15319555033708435
-0.0750788923781363
-0.5919365096448038
0.15018316304878657
0.5277304161083519
-0.11156320874625249
-0.0777371902583398
0.7576184371320233
0.330418871440929
0.4084432823100778
0.5153773284914104
0.4269777428037122
0.13659244743918736
0.6828727640726294
0.5879522834295591
-0.46482517103825144
-0.37984773510459563
0.3038559050708893
-0.1963611769847082
0.15583961338465888
-0.1651902494649048
0.29601791808857
0.31958739812017667
0.18542617885319101
0.2038986508221232
0.20030554628548464
-0.028552741399223765
-0.528203725972072
-0.7705291028466144
-0.19827176931800658
-0.03156386123451853
-0.05456134043170608
0.02278052763786892
0.2256085572145811
-0.8087926110866475
-0.49983774412801485
0.3328924256173033
0.20534499924299354
1.0040801019916819
-0.22659388225254798
0.19782828829257004
-0.3400380287402121
0.4655460475031883
0.15836320058532083
-0.789996074829447
-0.4227877146801899
-0.2962035415920484
0.46875023232244795
0.035885012012164236
0.25543736184559734
-0.2275349248117684
-0.07182557204868069
-0.4062714007349058
0.961995259035584
-0.05543350973291877
0.5631929668526436
0.20876440612288455
-0.4210443157849943
0.16896451291780384
0.4715749080697054
-0.34120846131072474
0.13714202058015168
-0.29168816225079913
-0.4555104083523101
-0.40102759160285545
-0.4299541506485211
0.4142682038700435
0.20527875315177502
0.024417501042929772
-0.24071810339099917
0.3280680458463189
0.12182966647725131
0.8204503537634174
0.18977404936611075
0.6374529118594936
-0.2577347218638899
0.15895075428393018
-0.5119373808876289
0.12814339503020597
-0.2768434073216647
-0.4628679340905532
-0.2820799064868793
-0.40503997274604553
0.09242469988736955
0.11420190257775503
-0.904341905652669
0.08844724149294349
-0.3242761724551223
-0.20529137810586756
-0.3242842335044022
0.3813566481101819
0.347866782923462
0.6072607419649932
-0.1619869598451983
0.5314840346673185
-0.5317424746845368
0.08193016359009032
-0.25917805712353365
-0.09141014539333249
-0.4247454524779605
0.4876431915964951
0.2616058118050398
0.1352187274860023
-0.1879393165954259
0.34204001419903224
-0.6287037773459437
-0.9369618484725062
0.9408950884701929
-0.0983236580462493
0.298558855395315
0.45911504682688736
-0.40541145049075755
-0.075625894304811
0.6755244132154187
0.015751318572196724
0.3877451007994713
0.30400905665762334
0.17942623572079355
-0.5477179644940825
0.2793065887598079
-0.29323116755119166
-0.010400623209501279
-0.1648731504736625
0.562574035720291
-0.45020569132033195
0.08115962957776014
-0.03991217298622404
0.4195309840075051
-0.193027881817502
-0.14250278776101682
-0.31543468801492053
0.5309673040117548
0.32568585851399684
0.3215547513303053
-0.5667047172355424
-0.06688961399273476
-0.3326832586024627
-0.04577610090420488
-0.3592133370295618
0.3553468874123036
-0.11273401687002092
-0.7037067549741759
-0.24360581647016602
0.23267238718007466
0.24647098873351544
-0.17541687241262435
-0.7467625983349043
0.271211848741847
-0.5992260347785515
-0.0648565484395748
0.27847140376374563
-0.37227122957297576
-0.1479324750709762
0.6870054279558725
0.04046976329994454
0.11308655617099111
0.0507376295367257
-0.5380189516995977
-0.4786567382074511
0.9054254725091796
-0.21111109948766124
-0.14662434069235583
-0.009476177625050361
0.5519160653368224
0.07910858750813406
-0.26825807811731794
0.09680464594120292
-0.2795842223719668
0.04143290508965512
0.6286073050693556
0.6531824884325224
0.09487380035684903
0.15368200960856845
-0.2569471527210168
0.29205554482358154
0.36493824536674263
0.5519180543091625
-0.6101194255782492
-0.44600998567951894
-0.20262686548553654
-0.2169393195803181
0.2716987260788061
-0.4104590561090837
-0.2800567767487795
-0.22732851228345047
-0.2852569485317451
0.09320130802830896
0.34114013608429883
-0.15094453717745215
-0.43295564941425013
1.2632896474868713
0.1331771811085312
-0.023862523399741674
-0.5271086503088145
0.08137560574661915
0.059752873611520096
-0.05228207457539022
0.39619500425309345
0.12529387752830454
0.43745572634006213
0.31950488243551484
0.15592105082967367
-0.5008183573200589
0.11431984745872562
-0.8475408701142368
-0.028638759477291074
0.5514896493434871
0.6631545419826561
-0.819042138979448
-0.14586895754738763
-0.33293993725358123
0.6074685927729676
-0.6650954582625322
-0.3663508437561572
-0.06092607568129596
-0.06765988170738417
-0.3655254469460488
-0.2490864843321748
-0.06909648873577569
-0.21034070071638827
-0.29689031343508615
-0.367381311960321
-0.2425094611083889
-0.006448560078928561
0.1552666029143142
-0.263470658286036
-0.5431048363470036
0.21820405355036887
0.544525062607527
0.06644661135703692
-0.5185369539149767
-0.3866559031355262
0.09372180198280576
-0.10882784090518999
0.15684870119499525
0.06969803912783834
-0.09629596958369727
-0.14264189769047697
1.3810024621456287
-0.13502332498850758
0.10008956485043533
0.38183342196093734
-0.16335766021371578
0.13899289769685258
-0.32592265663487174
0.30734823326831084
-0.15349394537315514
0.8627432294857642
0.18138253639692886
-0.5581526765432091
-0.043866041246497914
0.5584709098311587
-0.06551190029894896
0.04824811263848596
-0.6125381024915026
-0.2726703077692723
-0.5160243867145159
0.8889644274977876
0.20048943106840192
-0.2225103073424189
-0.3878165144973896
0.20937957783234754
-0.1422495468680204
-0.26233733703631007
0.36317777194528444
0.3197328528410934
-0.4488376999854881
-0.06323292582629525
-0.010953088939465276
-0.10033965634725463
-0.20847428710192914
-0.17540272316856043
-0.3293372744031942
-0.046049657748063605
0.5472409032015569
-0.1689338578977659
-0.12068471824757612
0.3501673805642901
0.013738156568688044
0.2881283491835188
0.5000947279761572
0.19226126427994303
0.20640690365463696
-0.34346525459589994
-0.05425643385043033
0.05099708920370622
-0.43969637791186245
-0.7432981158303633
0.4042508700727813
-0.13278443776736681
-0.5325786864711445
0.5105042021053742
0.030973197819058718
-0.06708020488308034
-0.04425823949353794
0.05922465995955679
-0.5433251022148917
-0.2570596493288834
-0.2569828600132859
-0.2828285749712884
-0.06516558917335238
-0.5613216014394217
0.11155772649782601
0.15882406598901785
0.369767218585465
0.34839225622544595
-0.23888042183133038
-0.20377552150557146
0.015163059965721117
0.3085025917138413
0.005809864361550262
-0.09070713077741367
-0.1486923777306818
-0.359583413909096
-0.27986950415838147
-0.15219403504479603
0.4243844130028797
0.7203760671629607
0.1529389406876228
-0.05293628960397558
-0.05849126532987932
-0.31203488611521174
-0.5540630253280282
0.46551986286145525
-0.17727454215948468
0.07276606475205391
-0.5302786266637881
0.049977137572542955
0.07754933175947505
0.4444935005003788
0.11667817669616092
0.7396147092510506
0.3674170862563997
-0.5268594012827194
-0.5234468252424519
-0.3255494708029374
-0.1720550704180428
0.15176080229335567
-0.4563055725836787
0.15756124925519943
-0.5665221779441548
0.024530344379034067
-0.5898652101209365
0.761156897673309
0.3349221680309559
-0.22524582578122324
0.42964482494211026
-0.18734146681171956
0.06646744391884617
0.036141269826596926
-0.033512838931985096
-0.08120554093561186
-0.8235729057631094
0.03911608212542584
0.2933009129743462
0.42395061742949064
0.6336072036975902
0.37061658847988754
0.610804340969219
-0.7290957421306892
0.03945378278102281
0.2790275401619397
-0.2985234314352159
-0.23839853621334495
0.32494992729050354
-0.14706179289108043
0.03938608524280725
-0.012554527181764856
0.12654694559243884
0.5513179824793022
-0.04292170151849202
0.6323193621134297
-0.29883340417434384
-0.3605446505296458
-0.3951368563328344
-0.6706668278170003
-0.38287884266841454
-0.38263679037797693
0.7639976154364632
0.027760015928283473
0.012924348257953687
-0.05339094933529378
0.35271790803643355
0.18200937459598499
0.0974242327562524
-0.0533264300568657
0.028897539685468834
0.22755448946684817
-1.0246468960411148
-0.7330730486870182
0.5655252336326051
0.30202288710756064
-0.06145528703044018
0.2848177270466006
-0.5552608838795532
0.008618192317366968
-0.7338549795623667
0.28811465167503986
-0.26318101115308595
0.26648053480365913
0.1603075327167686
-0.2109597290268142
-0.2580258211589791
0.6206216811966002
0.40352771644422
-0.25118787817546473
0.49463396176726293
0.5629316203996622
-0.6106234527254072
-0.4916794270639168
0.2600221686573786
-0.14548039681960634
0.11297057851029714
-0.6580757942130323
0.22112712055677775
0.856124631124859
0.3210682062353359
0.40475633900338454
0.0808864292356226
-0.011015706599141487
0.3404586924702948
-0.48280523538270653
0.42242543580848657
-0.35677467506255744
0.18542902575318512
0.3265189861480016
-0.5019384453271216
-0.159922116714397
-0.2161373467287496
-0.2328954711126249
-0.0013663929160766081
0.17196996127587275
0.5054075016397904
0.7523189993494254
0.6521800333268878
0.14407715556316716
-0.2878966885853021
0.03520724550277489
-0.2795141737872306
0.09460420481927825
-0.3937879834559605
0.19280664236023065
0.47034771721333596
-0.06661487616519848
0.006285151830673291
0.3163007078705063
-0.36005863352953743
0.48872668515140766
0.26498789797281136
-0.15746723232800017
-0.5388294503471949
0.2670996261977433
0.1716543198649626
0.09720091706213169
0.13015975157478404
-0.3395661860905005
-0.028956916383912918
0.3263538510226532
-0.2608614065474263
0.47947679909458435
-0.3325844819964231
0.24343575234752626
-0.15289050039077381
-0.4576904554720857
0.6290096448306329
0.892412433320008
0.827739422863741
-0.5515050940719326
-0.40444015367213715
-0.23801903367138688
-0.04702384804884562
0.2461920902427372
0.2024752368709362
-0.08183207476037749
0.0029626283879123486
0.3704908661183851
-0.0719624291873278
0.397171920221869
-0.1006430879333327
-0.25290411456377465
0.4219649374197395
-0.6290248666503679
-0.037687923385938106
0.33282902474228865
-0.06913494141361559
-0.1650544859537101
-0.03625972975210719
0.04975431360286291
-0.628695825375272
-0.21719252356201274
-0.4045194767079293
-0.3672278421214678
0.19098816754461584
-0.08640065793619292
0.04475998623382764
-0.36390060124991186
0.27901236798992324
-0.14741864579455252
0.2105607835175804
0.04085544397400747
-0.59372434796479
0.3911711319953138
-0.15191918502457588
0.08115539429359968
0.4419901026592024
-0.2504505160029162
-0.16368486436626503
-0.22700335500695937
0.3887130467816411
0.09296236582961108
-0.4204602884390969
0.17177171340548758
-0.004125921071346768
