0.13007489515620974
-0.2891674585493285
-0.004786406487532941
-0.08995307396261876
0.9939779218004507
0.10910690322733202
0.11026465684643183
0.5490975162721325
0.3832544524867727
0.43334480499338157
0.08716335097740552
-0.2501801717651326
0.23226071125410985
0.14822962131321832
0.6067110200218107
-0.4743405546856566
-0.04079306658198877
0.1476184771570489
0.2828109969620001
-0.3623121348575132
-0.15753952405555685
0.7008303318195488
0.1557558149130807
0.5692205166486818
0.18859053825675048
0.38951939709568373
-0.4412402460341226
0.2376946110496478
-0.28064339081649325
-0.15884223464347638
-0.5928019006488919
-0.6014058922000756
-0.7013183547414491
0.4027608867031061
0.43250112895675163
-1.0862849396667307
0.06696399160551786
-0.18852051521414565
-0.10563536968804624
-0.18684957650644585
-0.7142109238188071
-0.3411970406433409
-0.5135464926580877
-0.1352717460546098
-0.0815269034577101
-0.4061872158041819
-0.261512822683431
-0.15682984384827048
0.46397653354326834
-0.5659640346453974
0.530977429832858
0.5114384975532111
0.2952866867850918
-0.008338801523174514
-0.4325398372271645
-0.4298858636621216
-0.44386068621481767
0.4243780824321849
0.3427921613473448
-0.36267259355889786
0.2952224152670242
0.7208472400381466
-0.12297320660462843
-0.3232440023126261
-0.09323899685740544
0.7417202903611007
0.4131118457878307
0.3942645315528373
-0.5168565900148313
-0.18973955035573803
0.006938734990015305
-0.15083531888723758
-0.7586695370794185
0.6589445107909347
0.17113592897889476
-0.3694908798077674
-0.1513568279037891
-0.9176769685465667
-0.857434737779938
0.1223531171731039
0.5235943251718609
0.22655726203907967
-0.21072830503294956
-0.24936099066218462
-0.8830112057100232
-0.060953458125671094
-0.2826643663994625
0.25941623386412604
0.3454639221784063
-0.3872278797787756
-0.07137465155009418
-0.12748329066357306
0.026472343805609692
-0.7643956867089523
-0.6843967387460275
0.5709938539168912
-0.5360532358379912
-0.6731124018585946
0.6104328596431244
0.4020498376154487
0.24010065988507706
0.09543046325364332
-0.5167592585444499
0.43391204621243396
0.10940644850054318
-0.25879074580931977
0.6046157029761956
0.09487535845458378
-0.109974961174788
0.15330765895200504
-0.20768937773649368
0.4329080042199218
0.16452713273708025
0.3230634983795936
-0.09702612629285529
0.23947961619259162
0.19982084805981062
0.0167660272667371
-0.09286129309225741
-0.03919888796122777
0.3041946246724968
-0.5679588827644513
0.018757620539462967
0.14739048066941116
0.26811738862515894
0.3856922702986359
-0.37036639019694795
-0.24025400686227205
0.5388731724973148
-0.5487345000473444
-0.1588147990932126
-0.03925509527098367
-0.9109017445328568
0.12277853691805375
-0.12521281186830702
-0.11030552850421974
-0.8128146252363483
0.492988245194897
0.07370897924915389
-0.1772489084949573
-0.9038306687116587
0.47056979352325845
0.18821620376391118
0.5421292084478082
0.22218158627480505
-0.062329197914570894
0.12311077042635715
-0.17454466329589913
-0.2777910339576163
0.1197651498798205
-0.3422025002751074
-0.05150285619676053
-0.13136951562308533
0.6635429042071713
0.3096517671339653
0.26449956900157023
0.33250812528286
0.03996052668078131
0.3171363327790345
-0.6079505731147896
0.027447487028298828
-0.5264529071265447
-0.51255445022488
0.7246653212520326
-0.049447822665790786
0.41617567238696185
0.35302173791623165
-0.6493750507065703
-0.6867713222300368
-0.7503487054917276
0.5790868838224447
-0.23622525778015566
-0.31520758551876976
-0.47599170124564055
0.3928734707912963
0.09809116936741691
-0.0777412062008538
-0.5394791851555845
-0.09990692818479036
0.16427456751735403
0.1903292932235006
0.24929329726924357
0.36240461899061976
-0.21184690651431157
0.21872593493952602
0.045502770166963954
-0.14677305499191837
0.2776078547510523
-0.06827313112927247
0.21375971501317234
0.2443964301372611
-0.2775800792041697
-0.5114693819133543
-0.0070310089109038455
0.40897392539893634
-0.5027752282449421
0.6961672010338344
-0.02760090528865249
0.017365741327366627
-0.6384696839507332
-0.2434496837576928
0.045390063305051215
0.45187894304144094
-0.32105411414053825
-0.4514604030238404
0.4881172732392442
-0.6180705641054594
0.42057697688392814
0.5022618172208532
-0.025802386855438272
0.29387492432008366
0.1015650558374894
0.03879503771687622
0.44925771613076004
-0.24619084538493077
0.21831182388048542
-0.1521326441179818
-0.04051736517343762
0.2906666395560802
0.5069034645204346
0.5557001965245453
0.06631607377727558
-0.22041303342134366
0.5273046699808663
-0.31909810249232545
0.3050280664334207
0.7172209443712917
-0.25086782717081835
0.24418836466023408
-0.041348547103956
0.09427424886083534
0.006064967265921347
0.4186745467784406
-0.15869327184383816
-0.17170477332890685
0.11903978079713798
-0.6610383059298304
0.5637855868557204
0.1736460569428684
0.5130125350581073
-0.12706840518605528
0.06620755453794702
-0.37425239240149655
-0.1652181486177881
0.3113494200119654
0.3951626662376808
-0.09782867713461593
0.5084312132771172
0.7038416241948453
-0.001644766994231885
-0.6638789222796903
0.11296802449994556
-0.04849940693163303
-0.11587033286812981
0.023600953912921586
0.302962394043108
-0.23904654282088847
0.11535320072960095
-0.4320847762005986
0.5939375667079662
-0.004921966409563675
-0.06977745155939802
0.4355355486100355
-0.1261932407903677
-0.07224187492162636
-0.02510103455828061
0.36644990826171914
-0.4184831363942046
-0.26900119583869153
0.5837154056521067
0.3921978437674801
0.012023747924060761
-0.6832399462274944
0.26208496817861393
0.4427671475977124
0.26975528141798893
0.13058763367132595
0.2102058357367941
-0.6269805408895236
-0.9724469062881351
-0.7204481686468162
0.2086225087858571
-0.016010775308730834
-0.15455790910510248
-0.1095267678634528
1.0064730770118304
-0.6209724217015942
0.7069382810927135
-0.3339605961814362
-0.2637038148873259
-0.0805501565570751
-0.45155487252576815
0.518086242926616
0.926249027564525
0.20673431210202126
0.27667022602940716
0.018961004735746613
0.5187352696404842
0.4605396261033072
0.2339711363785838
-0.514468365627894
0.0467212207618161
0.20954611973537196
0.7208651931673512
0.2171784757316024
0.004431201475119636
0.028600000909502737
-0.1556224631524927
-0.06373886290552758
0.1655305388446007
-0.3436022424241738
0.03007866932823047
0.09039121395230121
0.24386852620927896
-0.1965530724089809
-0.6223240990316232
0.4369164701555062
0.4831755829792691
0.6427303911903698
-0.778702417949633
-0.12355699179993189
-0.41755278025132464
-0.15394542047904908
-0.5870093687306478
-0.13962663710239248
-0.03884458440834197
0.15250963462778697
-0.40506206035108205
-0.2667931930254075
0.7564584368085653
-0.03173363646153139
0.4401951300936731
-0.5993665184929481
-0.3914633308746822
0.23846392640054534
0.07061574045776023
0.06917442093794031
0.03243253917791227
-0.3404279466899255
0.4456734017768562
0.20150788684381096
-0.1626452533786731
-0.0478509144791593
-0.11053942827643393
0.5158720063950759
0.038399533064908314
-0.16893633041080666
0.09746099092035387
-0.34030396253370754
0.23933449123006614
0.02199409363463611
-0.6708503979824894
-0.41447575017261806
0.3821480179187011
-0.5774157733054246
0.14388661554541862
-0.25774375231965746
-0.08649430569660208
-0.5364471337605983
-0.20067276101212597
-0.028620205723458393
0.12415555033456248
0.1765278189437615
-0.17922604016441232
-0.3410166481237158
0.20986939770138424
-0.32793965212664894
0.6903131804075359
0.23043867533048312
0.3339830348881056
0.6868257016694306
-0.5050275239953395
0.3529351501894924
0.07169111901367115
-0.4565888858844353
-0.6846601212423814
-0.4059499004806469
-0.1359520658064756
-0.5266977995120616
-0.10320918189106643
-0.6065197565942131
0.01566533052304026
-0.40109520722775155
-0.31331467623261194
0.054849609960325535
0.7328929396693035
0.21168102443901152
0.21086283088917915
0.07435038890399409
-0.1728326978380261
-0.025547934290220894
0.5461037633412199
0.24765364923952618
0.6295754151569664
0.5219082960920868
0.4975409835151554
-0.5330482211178307
-0.22631905511673028
-0.5765345463900124
0.010030655284473758
-0.13155576475644495
0.14027501923343527
-0.10372830378761533
-0.11984426719526109
-0.5063476001502614
-0.42688153511682314
-0.3305560321106247
-0.4908554323176604
-0.852337916536701
0.09052830961719655
-0.020696231976368128
-0.2585996808013295
-0.5206456616756165
-0.2563511684997573
0.5571943710958859
0.4797759572081986
0.02272729796604443
-0.27169114099888303
-0.17909846254749134
0.5331841446148086
-0.5696508847415989
0.6416594516602934
0.13946218024116086
0.40048851153088716
0.4240953851315104
0.17315032402546118
0.41349242406908787
-0.107076094095067
0.07159216020858708
-0.8158090394701896
0.00527505692301692
-0.024417691858084123
0.3963949511580596
-0.7311284848468195
1.0305094387262
0.14543477077807135
0.3975457604498191
-0.5032129305386983
0.2191111391899563
0.08578815918733489
-0.14835961907455392
-0.9749936527600969
-0.3059403762596163
0.64668096643618
0.13569472473898053
-0.2805404542518796
-0.5446985714350041
-0.4640175256343762
0.0734828219496393
0.044026809579166944
-0.15701081616378698
-0.38685630221774847
-0.31329667006768036
-0.056157607593120086
-0.36789320101686984
-0.28553196362925926
0.5925247954218351
-0.1679948412148422
-0.07097936123932722
0.10459242334682471
0.5907104693819817
0.7348714618318315
0.1532628422511185
-0.5927780587022934
-0.3097312198632652
0.028553629569933486
0.2948921725622165
0.20852132965860837
-0.3866271486131022
0.10320091887117104
0.2392499024206078
-0.03091848388988718
-0.2655170466136714
-0.3789522266127601
0.3225126877419626
-0.4363357787231008
-0.799974386808405
0.0466105032957258
-0.08023034501089948
0.4798010783020493
0.529143172380874
-0.45368395520675586
-0.8031741779409756
-0.3110736557004678
-0.5621185933906321
-0.14704043815232784
0.5516377308249426
0.02700183115137942
0.03472145142874457
-0.07117373531183604
-0.5524370720360844
-0.11256608082923746
0.5937621771683762
0.30950970759238094
-0.17283428824982128
0.05378442521409351
0.1448620809171369
-0.3080201201709896
0.4108598878683903
-0.20787552755542912
0.03016063317260097
-0.34400816518655375
-0.020982018276366247
-0.6262893166967459
-0.2967126885079404
0.16744716817829255
0.015143316609181338
-0.22991137218276486
0.6954023025550244
-0.7298348758990229
-0.1621697673262489
0.6646947319467501
-0.1542264324700395
-0.248709133795814
0.12965918638179144
-0.12911263827779662
0.58991494547772
-0.6370589095544605
-0.23861450869274317
-0.35835814368769336
-0.4726151687417598
-0.2172217746594154
0.7902116420188089
0.3494313353778215
-0.09786370506871024
-0.4044006650277181
-0.007253833626507403
-0.4663118683763591
0.1455291739517184
-0.4163812559447764
-0.23534628565238636
0.05517912127256067
0.026711397494488552
0.19513847742016743
0.32561730515736986
0.05523468394402961
0.05647916043219727
0.7332496544809194
0.06482183910291926
0.3830386195736417
-0.13372748771941367
0.7529621413127243
0.033610752558714575
0.3768976658469608
-0.7358328861192283
-0.5126619917404069
0.23107167062601247
-0.4544123365216095
-0.46120252125400696
0.612626424792879
0.37938259278121295
0.1585279416899829
0.06811188258953027
-0.19336920194968452
-0.19637557210166906
-0.2605653586404544
-0.37233465103737934
-0.3550053772666442
-0.06741423162277053
0.2920612782206035
-0.14670946899679133
0.054856217971032656
-0.24691833439807098
-0.34462274313241
0.06716309901610487
0.025192640095878564
-0.13718092090034492
0.6014795409706312
0.045183216089066905
-0.36099853331370296
-0.10737864721736785
0.037486999853580796
0.2779470199319793
0.32472406178392577
-0.12042183249350859
0.5179443338272315
-0.29529978705582377
0.13854742391735395
-0.395731076296066
-0.03265608488698591
0.2725256339897751
0.5962975131519206
0.2955479486828197
-0.3134028139238121
-0.158093379157162
-0.30837959502204554
0.5043772866332824
-0.5754252516187455
0.2848543422761325
-0.3955558430921128
0.09013766591956833
-0.14802329626811825
0.41143291569300505
0.1812869195452215
0.27393145465831165
-0.4430165111340062
-0.18294631492140528
0.5692316797101294
-0.5122807739424561
-0.8464241511050602
0.3679207498163011
0.23447029570681446
0.06893065068733625
-0.2084087639113847
0.573992366229815
0.668756308839819
0.26756065944039586
0.05456976490743956
0.461796618541065
-0.13759402947239244
-0.5028983592891094
-0.020919696419276157
0.14712931493641898
-0.36197947615821385
-0.020914092243074833
-0.05844690808711832
-0.20657054892223858
-0.2002914760029273
0.2861112628019774
-0.27077660573897083
0.5419253739970386
0.09666798258636326
-0.2209925522024164
0.1538343830632748
0.3444601112454291
-0.19777538211062293
-0.6622620599088366
0.09966345788713295
-0.0019490836477135207
0.25209782493993177
-0.37731731576313854
-0.5587806855515728
-0.9729381271347267
-0.051141551186193596
0.12282674867436755
-0.14767420776666312
-0.22312486380126392
-0.20704456340319907
-0.233597683716178
-0.31990575809171035
-0.03131696458090996
-0.11080420617410179
0.1454384000253208
-0.04287314237943882
-0.21698717574728832
0.28297091810352815
0.6885133919938979
0.6045362641197172
-0.057683006281359576
0.09297298175411638
-0.13890599514237628
0.18713203430284275
-0.4739501311147592
-0.2496136759372248
0.576189489343845
0.08331613576004414
-0.5799631892312341
-0.01921304298817478
-1.0187797476518963
-0.30717024927746905
-0.1758076454127585
-1.2780447198115485
-0.6965000626961252
-0.30105707467538867
0.42590819714496997
-0.2915064232822314
0.3744187690526531
0.04622664030791217
0.27570228203812974
0.18335237394392592
-0.3771784680750978
0.45026005262420665
-0.5505135706598492
-0.0436612391624883
-0.35319033788819026
-0.3532717022668306
0.4261952977430251
-0.4954201326541819
0.49429741511110276
0.13378154963244943
0.09303905469018753
0.7810618496103251
-0.33214148456855463
-0.11350386440707452
-0.2674150797539459
0.014580888924155183
0.4346383881589137
0.24044425003646896
-0.47187985858927917
-0.7081680398681172
-0.5072363470619776
0.5768801546871857
0.13051915992927804
-0.14277513004717388
-0.005839486537453193
0.3968830676098762
-0.29274421363357583
-0.07259989324272888
0.45649378232826177
-0.22715103438552428
0.18658854835196323
0.042881134586073184
0.1772911579750929
-0.7630361832127501
0.4599164735876943
0.16775994071119166
0.07345508517455968
0.3595341917574147
-0.3612170049813293
-0.24293139543961548
0.6061364997809265
0.06939479701089461
0.549682150128278
0.1712148194655931
-0.478416940005361
-0.14408527421305337
0.573669533089762
0.16882283533167233
-0.27650679429207203
-0.11047378621674152
0.4191324283873088
0.023637142866014652
-0.5991013431610054
-0.33262908143522474
0.025054171787550778
0.16327268208080145
0.44835231600106823
0.2282432012223068
0.030860458600180034
0.36071285322116897
0.00005374739637018736
0.4312619231452671
0.13909275996526033
-0.09309886352345542
0.5815919961274723
0.7830948918886289
-0.06854045445793527
-0.24317004300931827
0.015922299422714652
-0.2441028889377083
0.27064738369898417
0.09128305456693937
-0.7088650105435217
-0.015433326808037605
-0.21175080289078402
0.32783211149616676
0.12413133557463936
-0.6314713040062617
0.2636976137556766
0.17034181270023235
0.7713564860291544
-0.6534076177087903
0.23511180624543024
0.5905646056392633
0.6717038705187018
0.05485602078847049
-0.13297013061959584
-0.39377918071132756
-0.1088493613667198
-0.5247100859547876
0.3519787176917049
-0.10575833480972474
-0.10498524696484875
0.054877545023582344
-1.0141132501452503
-0.43935584868649213
0.31460081502952564
0.24667842602384563
-0.30067110670058844
-0.0925859708467231
-0.07728776519251111
0.549900158467609
-0.5639768780611196
-0.2734405298340693
0.6253611309192066
0.48299219463042464
-0.020984404495019534
0.5219894237984782
0.4702720687524463
1.1575700864781826
-0.5253596067649714
0.21082110555860872
0.3441135983338648
0.5604141239660109
-0.5104130547274806
-0.01667994863799493
0.3601880277825131
0.08700612626200166
0.2968964954633381
0.03154331835949721
-0.1187449999575737
-0.616588869311026
0.0341117786919857
-0.04626690222605432
0.13069192892229836
-0.7277857619151913
-0.4840646882598918
0.557416534044417
-0.3206808743554632
0.44743934002552127
0.47424505547028695
0.6669921488874742
0.041514080191938446
-0.17064616112805064
0.016195927960393076
-0.11499519938515441
0.2537686977184412
0.14276993738926763
0.313886151419053
-0.6101070529291409
0.25803951272922326
-0.4876081813015886
0.2404128718566578
0.740967086210611
0.027782453592006897
-0.8975412844886952
0.23134258172346486
1.1154525074186155
-0.6080514294429318
0.0995547232070439
0.1785982373519277
-0.757470693005354
-0.30540710735600346
0.028381094793641683
-0.5893417503402361
0.44568578923821967
0.24918937740210442
-0.04192542305765123
0.5117352955555419
0.5974100259029315
-0.05255903745587485
0.31701656984637083
0.08209241093355082
-0.1775989310961117
-0.07288843792683096
0.45703058541778396
0.16961591730978756
0.535310758936439
0.020004956556534344
0.16835014280941596
-0.193973285889257
-0.06294783206570846
0.010377472219274885
-0.3999236152957239
0.08049351641121258
0.3627985069070633
0.10795832600764195
0.1880077891361651
0.3763334104050026
-0.46896852364623215
0.5453926521602466
0.6982406102521456
-0.6065477115054883
0.05819937867706181
-0.4361007643120162
0.5166289628406221
0.11555647278366742
-0.5064754120089696
-0.8123034713578395
0.1184797744637667
0.13687185618996814
-0.013846998310023487
0.18254911228013096
0.15652124933993408
-0.07175320758239513
0.10407069680835924
0.4371288496047725
0.7608389980846624
-0.6418667892657594
0.6765356852222159
0.04452880625994775
-0.10935726962839687
-0.14101301111702227
0.18196526971799237
-0.6124813274260715
0.27830709563722283
-0.08346871499713297
-0.25849102313024075
0.015356669358921732
0.11284928898438544
0.10291102985709687
-0.7316758707261256
0.4477613100654366
-0.10815100116372331
0.1762507908801334
0.6071311985401948
0.29672725826848995
0.4288953916992872
-0.13552445226366197
-0.2116300694091823
0.08549795754722861
0.4400494604115065
-0.2471597413788045
0.399917113099665
0.39900979792811264
0.4644190039352077
0.3457904921846788
-0.9437736868969191
-0.6605147616500746
0.5318865428627606
0.4624674669014572
0.2345257559020149
-0.4209085458285447
-0.12175998638442358
0.00824532486461862
0.054720924259569335
0.043789030447420774
-0.30238442014003636
-0.5926981866129746
-0.6579963666467081
-0.3090879985198578
-0.6648908730767658
0.21974168622717802
-0.11721470676554827
-0.17635786248213786
0.2121107284555937
-0.1501907503786325
0.2153065954320681
-0.7093087906993801
-0.05857491152593779
0.10700650935808584
-0.08839862676288704
0.2740489182486543
-0.10612470016598817
0.08338803203194839
-0.3565922510916391
0.42291356306939965
0.4609219508836125
0.22542906652167982
1.0022240382582988
-0.028141821596855656
-1.059809275432227
0.39337515214431484
0.030343020126953526
-0.46447684613218576
0.2734222420391052
0.07471462592720067
0.261981117356159
-0.39344666685079144
0.006493866579428838
-0.3588329935447368
0.21977431672217113
-0.2804049466343465
-0.015185048553521412
-0.7422434073626507
-0.3192172215510523
0.24452989547437903
0.31572529575635
0.47646900857266783
-0.205623752703822
0.809239941819874
0.5012343797795552
-0.06552208167268513
-0.09395052054577854
-0.7066091674752134
0.33467920564392395
0.2170461946180826
-0.45204783444814783
0.045795249572732406
0.017859032982297306
0.3660697434565028
-0.5098821531456614
-0.14701119432220672
-0.10797363399305066
-0.8115732848512478
0.17592434429445136
0.03292114102735638
-0.05931497604996792
-0.3462063953040805
0.23348317357277965
-0.04218993854510658
-0.0324562011807436
-0.05302396210625651
0.19260136695803806
-0.06844810248550968
-0.40316961952299535
-0.44308706757238164
0.5346104558604636
0.3065533449632677
-0.2591138720676817
0.022512353610818155
0.08409966558464192
0.37875966790376336
-0.5592677304873903
0.06968033634071046
0.4185835583507305
0.4906035442949355
-0.3755834150353086
0.07395670445469535
0.1171838651287514
0.6922580425159317
-0.2925596786798577
0.39195477324089417
0.19455573001096946
0.669183753813724
-0.4442774203951729
-0.26381950739526244
0.5692607105099087
0.1316224510955662
-0.9786201674303212
0.5548612979420882
-0.4245032991883556
0.11795437564615383
-0.13359662313441767
-0.1324109193723537
0.4595236237904027
0.9086053783453452
0.12952724173015137
0.6251819160650689
0.9441581648628339
-0.1735418751063159
-0.16017123169982425
0.07069618326092611
0.23205637459245548
-0.004655817785758128
-0.9905438906976932
0.5233761740680879
0.7487123496030578
-0.15935041125219146
0.2820474292244906
0.4030468801559086
-0.10571824807747364
-0.7355564283692082
-0.39655094562297943
-0.09777523831288225
-0.4334118540499307
-0.021880813837754736
0.5437089458057495
0.034111783056336234
-0.36237802758828447
-0.22277987567719695
0.8514418277783324
-0.09563973693842845
-0.621662988758552
-0.5381894857633639
0.03533860583861134
-0.4445955402093928
0.08385122758946685
1.0871803215760072
0.11596403936158288
0.42378890334656855
0.699759453945611
0.08134644983585647
-0.009123067581811814
-0.17258427785418792
0.06004066809260132
-0.4941437451274671
-0.27468473778040225
0.3529820840508284
0.23732237629589636
-0.3347141172375571
0.03999408350855151
0.29062312446354616
0.2579959777826728
-0.07069380167844709
-0.3836287632171613
0.28548193474568956
-0.0728744225152832
-0.0360206013760147
0.232023325326623
0.14451901220514618
0.11754927551289271
-0.3061308187042134
-0.2235202171758096
0.5836154445408407
0.2979780718010893
0.5147866309787178
-0.4927813075719056
-0.3465468779656115
0.17785728869767628
0.6982926794501538
1.0121474576065383
0.14217843978865932
-0.20556154564915008
-0.31671370664670073
-0.19843628074906547
-0.20113524514176656
-0.49309736743194
-0.623997049729206
-0.04740790953837267
-0.4182391167176115
0.3922736594143899
0.5350368047308105
0.49669443826442927
1.034781013757748
0.04455265669852646
-0.13814488982192513
0.027621554971811936
-0.01487888755473429
-0.09119634134277929
0.2276655193606391
0.1756381719032574
-0.18503914107859906
0.29882714792566767
0.17234350307534438
0.8955729057889689
0.7621354403435373
-0.26366060023771276
-0.738123834871399
0.10513389474124524
0.0865349721962295
0.29030479999606407
-0.08923979984974682
0.172734454998659
0.5586095715882368
0.46102601862147474
-0.10219721271829632
0.20520136560750085
0.47671992421967074
0.06577967359861149
-0.3864120531836464
-0.042397994481808546
0.21213187612677
0.1289682541283732
0.2605847739742057
-0.7351283082513902
-0.1978806766077424
-0.3072264255440308
0.3806346033626675
0.2090902562176392
-0.00361146833703498
0.12006181343794509
0.7161749232827876
-0.25713889015152613
0.06522570241294975
0.06214992581985298
0.6487363324709914
0.6478945693173613
-0.10816163546403565
-0.09779666685196466
0.12476841903669131
0.3462013436018507
0.16192167077363573
-0.11040782700866221
-0.6076775731373467
-0.06587883532690858
0.4423844577416281
0.1084341159059569
0.5505493468895801
0.4929951985017345
0.11328862006318538
0.39277792626508423
-0.08275483318461574
0.08729441185386384
-0.625202315109805
0.9193016268098001
-0.1405959561951955
-0.20974602458338007
-0.33777966476412674
-0.42126058061009913
0.23139408724929725
-0.0711174479810088
0.15469534935968374
-0.24648286661205687
-0.12160304297653113
0.1365209962208473
-0.037559683435423985
-0.30966957964026653
-0.08483021450736865
-0.7473543059640021
-0.11163963482979292
-0.00028191625208715335
-0.7490582084153704
-0.22412994556029495
0.21882455904504658
-0.2201125165413398
-0.2876004065781327
-0.7774002988738715
0.4648681296632642
0.08929141453765026
-0.0825010125884556
0.17333790769593763
-0.31606761254283083
-0.23009657117750135
0.20774363300579082
-0.3155596459492071
0.038603522155689594
-0.23364762284444612
-0.47785518234351326
-0.5919304277246618
0.21013067740339694
-0.3994430668610612
0.7269302170474732
0.11891170101392091
-0.5434541479850616
0.04793782219781829
0.14843791013560959
-0.19024638765582189
0.23179430483632973
0.3402567297091705
0.0678926459110247
-0.030861874671131308
0.24993984615896514
0.3866535515478622
0.12166130868251407
-0.7702412186625972
0.1879856418979188
0.10176132578546256
-0.4984610627788204
-0.019892078077395896
0.42402192760827007
-0.9770125531469095
-0.5679913543280797
0.19420260839646789
0.03380519470705161
-1.3078946623020844
-0.32785000026218475
-0.6618414880913723
-0.2747790631003764
-0.11434999183091024
1.0065034876460863
0.09808812517502905
0.6436576760950415
0.7066861870179907
0.07269703591092715
-0.7100860380339624
-0.28485842848128357
0.4519241194531412
0.2179863585245494
-0.6222475792604916
-0.11950272868412755
-0.10186632549164301
-0.5370218023724839
-0.3480996600014589
0.7952513825225862
0.34750476354227605
0.014965107196718893
1.6342877921356065
0.5542971528113535
0.03637257149513953
0.4942844105682612
0.22244274455640595
-0.28402286623667644
0.10323427940090263
0.14288856261135294
0.16664677855614363
-0.1838679718827163
-0.40429514423793916
0.22136990696339554
0.6576990601284302
-0.22224599073199894
0.461812694615952
0.10021207748187633
0.2246468529199321
0.1268678553537216
0.4021110127281481
0.7220957117638065
0.576597631252739
-0.7632562798814346
0.3283137834108164
-0.08084937687369555
0.1388920118344695
0.515277356385151
-0.9094226398893478
0.6813468290046458
-0.03652328360953534
-0.3576151023710838
0.6480330124183199
-0.21109221546787604
-0.4383521936716018
0.8311370506228466
0.2866262497784205
0.09115849422433527
-0.5766666418385672
-0.26299233864233656
0.06781268812077512
0.4413450080022137
0.05795778628833942
-0.275421070968396
1.1146441847789583
0.06471674929508142
-0.47657505019297725
0.4922842718784207
0.5974504887201421
-0.5441712392761187
-0.04170842994660065
0.011929398750708572
-0.11123709901435769
0.32985111623548213
-0.3215358700462248
-0.022992009971168438
0.3496714570528397
0.4186459910256808
0.05060870583844584
0.584837963461934
-0.1829666498767662
-0.5465631018216636
0.20141564085443847
0.6918949080867216
-0.6673425289247643
0.19490827439157976
0.015024226823892487
-0.08673375610303535
0.6623334179587947
0.2630672690927573
-0.011773710118575843
0.6004565091385725
-0.9530753216991625
-0.49521427468553125
-0.705857203828676
0.15582293019382149
0.05204949203844884
0.132158901959697
-1.10743929976015
-0.7383275040083861
0.1459909868637665
-0.013091732179581586
-0.47139307123753854
-0.2357538655929121
-0.07290795485228486
0.033479439586298176
0.5144845248759347
0.5644219225945668
0.6621965627388549
-0.01902895312648447
0.32808032201436255
0.24754794164635074
0.22747002114875428
-0.2518736157119734
-0.35929814146099104
0.772533448592361
-0.135720082000559
-0.25643612067339466
-0.4664096588582164
-0.084034451982056
-0.45277509967126395
0.5125161166312162
0.10584615988850796
-0.7137487429489647
-0.5063915249283393
-0.4338717477825174
-0.2992466245257823
-0.23193337826315916
0.44776347819944007
0.2196817671006059
0.2717103309894005
0.308963301732787
0.5813775979066115
-0.15315864090458883
-0.06731589132753048
-0.4434627668781278
0.8153673919058189
0.09676429411837048
0.46855956829784967
-0.22024697960431747
0.46424122193022266
-0.36784696150310126
-0.1970373210346543
0.14754125048342287
-0.06192974791060731
-0.48423372071642795
-0.11542682326312019
-0.4806791673125928
-0.4278249237298487
0.5388832335222635
-0.19179898709247636
-0.3696337148940564
0.30096637682902205
-0.4022148810635668
-0.3075396416538516
-0.19108011147433765
0.10343535330069922
0.6754595440170624
-0.35131655366013365
-0.04714217521534632
-0.03891546831218382
0.672215818369055
-0.03560030381752172
-0.2516844938011415
0.10953910958769174
-0.08001412153796014
0.16858296224415556
-1.0392433671540064
-0.4169513113591292
0.12767150556214546
-0.36520684954894755
-1.0314934141996797
-0.1629618349296179
-0.14173248300422162
0.29069061812392477
0.399855055904516
-0.04028697216117474
-0.017412838430840266
-0.12866387387844952
0.1422300316278415
-0.10057597305891003
-0.23541417356709035
0.2753655811119698
-0.06761247734946824
-0.17075617578945385
0.510014610936766
0.5093030684712389
-0.4898976196996271
-0.2124734729716718
-0.2579462675029056
-0.26624430658421666
0.39897350386176506
0.2996481098988796
0.10290705409562714
-0.42901266340268074
-0.07108753294484893
-0.02387501632988143
0.07700181807273736
-0.04311206445086352
0.12185394287574848
-0.4045817364896483
-0.11006684870668122
-0.3392712660479652
-0.11217650866293596
0.12660006190105255
0.7456987771414498
-1.0128496152079958
-0.29652323083083065
0.22146730741508586
0.8089070918505952
0.14869403228020703
-0.7421033102546307
0.014054470811532885
-0.3314672520149621
-0.3132893146310235
-0.22319027216601664
-0.04805437393355445
-0.9929932816987336
-0.8651542996849375
-0.09380897114465268
-0.18060287042124262
-0.37395464631071473
-0.47283841667997467
0.06391557395756937
-0.2075574539023397
0.5432240308738411
-0.012127805530835846
0.45003210866040777
-0.24212064586966278
-0.4105829097393014
-0.32413942998173506
-0.47624372688851874
-0.6529076886920901
-0.12197664432783101
0.07379004373966945
-0.15871869590860985
-0.2988348576600257
-0.3416470893381787
0.4176380617460981
0.10630376243888978
0.049733276448884776
-0.22565284221532508
0.026738331580891714
-0.22744972942991698
-0.19025042003888587
-0.2449921469024522
-0.14718874894890066
-0.5943737300057733
-0.37130418994214504
-0.5208255238688257
0.22716079608084844
-0.504519550934565
-0.4100498032568394
0.11759798977965576
-0.00015809595250289993
-0.017523621295943155
-0.4410511739409865
-0.837855473901522
-0.3047934457330419
-0.4398961119279687
-0.4634426512966806
-0.8112270802384998
0.572620909022985
-0.45557077196793005
-0.12879304464982583
0.257411994330587
0.5142299079690117
-0.021037470740685783
-0.8235079878325229
-0.008052278071742087
-0.2111389576924938
0.041850179713722326
0.04869254548564213
-0.17649483751116202
0.2976173161615851
0.3923917446385615
-0.2734815937582048
-0.07574821808012618
-0.14341540603051464
-0.8630182208465554
-0.13858864708392468
-0.5364634338652217
-0.2316047535833228
-0.12755248601199182
-0.03277816578845729
0.60110087174217
-0.5052906180456368
-0.20029608231329096
0.16987827861222177
-0.288426174745618
-0.3293960342085823
0.18812939320460512
0.05605238144321989
-0.9029179346820462
-0.622061885682724
-0.28276336213419684
0.2883897890004323
0.34768755971815646
-0.1846643968066828
0.660289451825128
-0.317840769334727
0.26209793792045605
-0.039930354906308516
-0.3294437524310754
0.22896773421396488
-0.012345091280326376
-0.011497135583073175
0.0025845748628325503
-0.30193329738855207
-0.15049413000273099
0.328322082993725
0.46279613156133403
-0.1657877089989119
0.43144350037649887
0.040859216007811214
-0.3136940271833212
0.2584501131967149
-0.1636529464539057
0.7882501034633367
-0.3873601164007859
0.24152531683134232
0.16548867018288535
0.5773335532801329
-0.648365356021555
0.17105256222913973
-0.6553359661081334
0.2574676973995181
0.8021084619236997
0.32842194916251716
-0.6873586758715508
0.39580865530220904
-0.5316985138218251
0.29074008879598345
-0.659795809564333
0.6388231444421417
0.026495367231512638
0.10832912892799158
-0.16548924105020127
-0.43606449836329036
0.25184386248880497
-0.6210118235333377
-0.19927761888995285
0.2976801264979599
-0.5879753618583775
-0.2435127620920711
-0.004343735611092098
-0.11497393914857011
0.5763361641163938
0.30341805246775455
-0.24143646728544466
0.8330969624216983
-0.576167698494877
0.20308021357359532
-0.008899418164244374
-0.4947109967447758
0.3149681330063929
0.5170979457369387
0.052529468135591575
0.5545089335351038
0.36906036320725566
-0.029626411209640886
-0.6492362148193094
0.07843617553533601
-0.36141813754255875
-0.27966632263735486
-0.9125453859511463
-0.23120589163812705
0.29586726449606277
-0.4055458922923341
-0.008441620767200887
-0.19262784726183024
-0.20717457391962996
-0.26407095477117226
0.14680838332632581
0.6122372226007916
-0.30790878157438417
0.2577978576243799
0.09586426207051466
-0.4219376185807889
0.17571935317659373
0.1424735261910634
-0.11170801879306098
0.4999406955336633
-0.041985262232744625
-0.81231133711715
0.33528844073907765
0.21424038604084786
0.05379472413759375
-0.4621333021762166
0.13949672423279752
0.46085488343056985
-0.14092384848575415
0.4230435990514694
0.5064868051305899
-0.5949282415111796
-0.041974129459122815
0.6911715927680798
0.2947121082219644
0.19918111616918474
-0.056613132118588205
0.22088850320440287
-0.18734743686223904
0.4674934422916518
-0.13213012849066783
-0.10481687045945622
-0.02636571887538757
0.19644521426068984
-0.5886268322086404
-0.4595636352978507
-0.27077941840867664
-0.2266280551079399
-0.0906505736465801
0.4161304258218703
-0.30667240508668725
0.24965196472270598
-0.18292721134309736
-0.16412734694830527
-0.9499729565945123
0.300045895875212
0.6023720897603665
-0.054759130401136516
0.42924591524227357
-0.17450194061134786
0.33933697605919855
0.7274028218899429
0.3681120905656777
-0.0432727793998446
-0.030412057269109734
0.1204599695722134
-0.14408298561529792
-0.7882306915804702
-0.30831578795805215
-0.29753946957062194
-0.6506581409618106
0.818662319204353
0.5221878259712093
-0.4667775908461099
0.11904581630540258
0.49573253221842606
-0.002154177101529298
-0.10483501865711649
-0.32705514357450327
0.3608902687708039
-0.33817432469203185
0.08993770089200731
-0.33715392429107727
-0.07439700373738525
0.735469120512125
0.2026730282817361
-0.2979515604513974
-0.12668588883815657
0.12907520931580405
0.12128756239157332
-0.0830648017465149
-0.08741660509913733
0.1349823110880724
-0.7303111313129075
0.17870460633215163
-0.14211540367094186
1.1660809215939472
-0.5177089912551915
-0.24381571887284303
-0.3166399729360847
0.3991282551050255
0.5291009545855836
-0.35799827981168286
-0.7926918999148181
-0.12090680791493003
0.039020996065989556
0.416926226770842
0.4852085888289134
-0.21916834182178593
-0.2106712148972133
0.2535707798429526
0.15491533234874205
-0.4187461543882521
0.20633747130638494
0.15939962856705414
-0.4323808863128924
-1.310994813811895
-0.10374156464553254
-0.3034047440882676
0.09334476541714767
0.5165002841091031
0.21714547862417655
0.5847858040656357
-0.11283852715185891
0.2334962989934942
-0.03407179248448716
-0.028260298027988566
-0.33443414623713547
-0.11640663963154955
-0.5499225044663911
0.5767026267517822
-0.5684176811908637
0.4969094405946416
-0.11289604483344642
-0.12698863732414836
0.07218511626403373
0.4845391572198187
0.19108684987331023
0.14018884599304485
-0.11125155072560589
-0.33335616830797304
-0.13560852127222076
0.2121751806075104
-0.6949405113962384
0.10143398976483635
0.6074167646116756
0.43634296037016634
0.5207457720540795
-0.09750103340539203
-0.22586590699607614
0.24828832924008692
-0.19145364454221828
0.2021223055997063
-0.9091342550368922
-0.026448423323395455
0.07828287543819387
-0.17128191839774337
0.4055872817738113
0.29018094591773946
-0.6462693981593368
-0.32028258125606873
-0.29502837131864224
-0.15443440593381927
0.1811113089797973
0.7101497246628986
-0.6585607381890578
0.47423422914574803
-0.1974328473105347
-0.0013478051158475664
0.040459372939010384
-0.025118982675340268
0.10669866724194513
-0.6546110938690994
0.5351257799438364
0.24804488016140072
0.03870798035700401
-0.04253171932856745
0.3086961954130215
-0.7152090164271951
-0.9638594862285058
-0.17334669502017408
0.02974835501382844
1.0162980152021375
-0.5031818571200839
-0.2660027008646938
0.42549335274914324
-0.000026420780342048013
0.019954906054384946
-0.009454404426089075
-0.2681575203633105
0.3671801519407114
-0.05712062806365191
0.31686991025532113
0.06077446577508751
-0.5677917280929535
-0.6440533444473239
0.08033888785335377
0.23274254874464967
0.11311010398834288
0.4221307291379137
-0.18625770026955074
0.0047914596616373305
0.36825454478188746
0.04884090430350946
-0.0174874293102253
-0.306947707418587
0.7009620935822265
-0.09519342484719774
-0.3165682518218095
-0.5095927082876732
-0.2285444478758342
-0.30484549337219946
-0.23044639270083123
-0.5857071657836943
0.01549328329084326
-0.20929913370873235
0.2950950820307863
-0.5955147184393184
0.6349151230443627
0.2909958976829826
0.09525188556440335
-0.8291237282875022
0.526703637588331
0.004235979455015917
-0.08611971391556664
-0.14103560005431615
0.11160319063389669
0.30678291761017873
0.6288647238285182
-0.1768277342364697
0.5483684708859444
-0.5419826161175704
-0.6610277064688235
-0.2805605966202395
-0.4876701836107175
0.20138714131077207
-0.22745724626009062
0.4752081753071585
-0.4204836357128282
0.4869722324000161
0.7137452296607256
-0.23742714659735847
-0.3777165272213385
0.6032301601501543
0.6196041418729452
0.09029368463814474
-0.89037607532742
0.4812275510187973
-0.29512145382477717
-0.7202990285519763
0.741571857485015
0.6854485628302116
-0.20875728775554786
0.18681472672013763
-0.8238556585368629
0.339875626210913
0.350403695576392
-0.9316398838154171
0.12729754249682373
0.0900185533144612
0.2338497688139071
0.08759517852969513
0.03865776968452823
-0.1565942880732207
0.20481374159885163
-0.33276304805135676
-0.4856847969134882
-0.06264612683626467
0.23647860600492857
0.3237642875812688
-0.20541804285024814
-0.4325151826531645
-0.19859087958602567
-0.14292348637842808
0.30821616043366984
-0.4398555406574607
0.6444674227426009
0.12027441385005058
-0.3441106721413856
-0.3799289624536321
-0.3179117833921545
-0.43784889857406906
0.04903123131032805
0.28556232493573597
-0.07141881575190434
0.12086953770810288
-0.8859346861692096
0.24667090216238527
0.07765598023690055
-0.02995125946493135
-0.6090902305289637
-0.9306833872900515
0.4184020161865716
-0.05318871190288561
0.2891281540674976
0.24604174950667423
-0.3392348471064514
-0.09187715457816013
0.5267045037623072
-0.6393699551124843
0.4227036428384645
0.2036899001563422
-0.4830014565489927
0.6564249579127455
-0.1808901819222097
-0.4075277640575251
0.09785647097642497
-0.15417252767431583
-0.49466020138562616
0.13872185495548695
0.05264879505445736
0.662698151811421
-0.3718430105512818
-0.7058168294965854
0.10463095034744176
-0.31649082389588734
-0.09551485030424356
-0.6847562965973062
-0.07780904943354593
0.04562394363447885
0.19451012227749098
-0.3475135135246508
0.5096403339470044
0.10988724484849996
0.09451302221076123
0.4697017927626045
0.4540880339080995
0.1973661650448762
0.7248188062621121
-0.209675988835574
0.6813074157939204
-0.050415778830587274
0.8814808261534702
-0.05131876376780946
-0.06326131014911542
-0.08179333130314477
0.45883953550546247
-0.19891187273996608
0.04230459575182036
0.04164750376905707
-0.001039494539053977
-0.21469730173577053
-0.8116877528591157
0.06682362623947942
0.11429536706673495
-0.19375604916912553
0.4442006911473902
0.8699482754883116
0.3814423469364004
-0.41077218729017934
0.16153528021666375
-0.23089991335700494
-0.17002782489611373
0.4641810250736681
-0.4371237241097741
-0.6728157892009166
0.20707837290062062
0.8264592393247177
-0.4177272700156727
0.5346592852227636
-0.4295548183466644
-0.8269774169701684
-0.43662515828040993
-0.5364437959304256
-0.015201409872087304
0.20010390513970483
0.16975353921110328
0.17418354818589207
-0.07990558347843292
-0.08701872482845596
-0.2676356169075557
-0.6625773772036292
0.14626558048927812
0.2713615230791752
-0.25902761749510594
0.42402726207660385
0.043052351388857366
0.44019785115033705
-0.46348704286362535
0.27148142173573747
1.0465391260156325
-0.13245995925940002
-0.3134558620967749
-0.8479022681674612
-0.5155475946412756
-0.6645570158447479
0.15271140297691682
-0.2779956979969552
0.12461358802207612
0.05615728960579838
-0.21103967072891322
-0.6768166012596997
-0.03555388697259819
-0.24229867670709915
0.08226563202113621
0.42655867006006776
-0.5851563127259446
0.020191392117928357
-0.14862664890775745
-0.09696623294310203
-0.024116877841891142
-0.6398276101450155
0.8374343609228212
-0.1692991518381201
-0.22120144519401255
-0.9122001470624443
-0.23169256620023582
0.28165886815371083
0.5672402467649731
1.1208534607897684
-0.2498313759745434
0.49577351242012363
0.1404562965528725
0.1430893389145596
0.21449891804731863
0.22249733348949183
-0.4592288153695583
-0.3253030525159673
0.22230871732979016
-0.4084755717585093
0.3436913318957593
0.3273955502429418
-0.217835141435126
0.10671709436805407
-0.9146727091555894
-0.3313012433350357
0.5012752363586725
0.13188755690668577
0.42294726437707386
-0.5768455614714538
-0.06829516378159968
0.37440275248977306
0.46699218748362836
0.5427985901321027
-0.38194026613183196
0.012005332580168289
0.4020658130427093
0.5883540193045546
0.16052876314682568
-0.05753595127244031
0.39227003886488604
-0.19845941671689252
0.8392428271234236
0.7425739402706166
0.306725870244943
0.33120991568605906
-0.34546043095243384
-0.3038493937825291
-0.10163166244277587
0.6306244835972372
0.025680155166116117
-0.08771895111782993
0.21929748463679793
0.18513337253736192
-0.4793426712647439
0.07258003509564039
0.62584239512701
-0.2782314531327949
-0.2590360564866947
-0.26184476160667236
-0.12723454630919684
0.34031569727436994
-0.6543767770811015
-0.3509302688589059
0.2068168451809295
-0.016108151387003184
0.1864862491735563
0.12246504627673963
0.10610456687489966
-0.17644021486935235
0.38062215210324946
0.48336024177438164
-0.07685608565007974
-0.21935249732025766
0.20925409582643584
0.3504892241361893
-0.21425781683278436
0.23311228083847585
0.2297032381503469
0.3539005780171296
-0.40421639522945396
0.5067240686543961
0.16363265612195432
-0.4919462844234669
-0.5265419468074919
0.396737161785752
-0.42029547844192916
0.5647329076434221
-0.11420460661466142
0.628673881536792
0.021050149077245978
-0.2277126387545166
-0.228719905022906
0.35241798528658996
-0.7135408931345152
-0.4583134699642409
0.6423787072707141
0.27387916590212136
-0.5227369284857974
0.6401903540880922
0.22004912537188354
0.13596810153081285
0.024505631119967092
-0.07227448322321474
0.38243016085641424
0.1326304391627304
0.4100085758759577
-0.38002930523259526
0.3020099690390902
-0.2386227818228318
0.29155670474450524
0.09337369214591165
-0.4574173586582675
0.26445060128943404
0.17887154785177575
-0.39565660303054834
0.23294672903122662
-0.2834410407425206
0.3332041151805919
0.13129279191391352
0.3806971222711569
0.42381976717719205
0.04732973803819535
0.05514155561858105
-0.30492885148794596
-0.2347949331690683
-0.4183608890509117
-0.15046613092807015
-0.13414958600043764
-0.19147775274480397
0.1782760947316906
0.10909504421974993
-0.5974885007800131
0.09329501560265133
0.3540567185406055
0.09981717499865936
0.02735375437628162
0.9268095664644975
-0.3642886607700326
0.8067413354259326
0.587843664119125
0.3463640915469666
0.1313290298663437
-0.14744679546960776
-0.4924246538704847
-0.4171331013124565
-0.19062270976865875
-0.4220612066948093
0.08603594391989719
-0.05324972840606904
-0.013182533142634244
0.09766241491362117
-0.2936115535771479
-0.16183263596177896
-0.1977062729666315
-0.39233839082585037
0.3301450519311431
-0.20708211720293104
-0.6002658711699562
-0.3325281654521554
-0.15960420813647994
-0.5114769508440172
-0.5574622888403121
-0.1843937025180415
-0.38541650509471576
0.5621307303771268
-0.4559041572286476
0.4791346000826469
-0.2686541518357327
-0.19005331191537786
0.32284436728932164
-0.5311897765750554
-0.46647261323576233
-0.3688551331785283
0.48798912980781617
-0.569847749944337
-0.45785298090430504
0.6821394782688186
0.2094533905439644
-0.1858194081391328
0.030426975083553277
0.7462491812287285
-0.17575685553114662
-0.2919342351589752
-0.7652495687128154
-0.23747776073156346
0.2706319840786162
0.16722419452633958
0.10988833990538248
0.15138302424700492
-0.6154544878708569
-0.14163086651082074
0.2827312569256242
-0.17485633380375587
0.0705878578957249
-0.4236108537794483
0.47003146140874047
-0.34485920783753415
-0.4993901566169606
-0.05224578791651145
0.5386645951338848
-0.28707827753860965
-0.09753622773181125
-0.5065615904044181
0.06697637588929342
0.03417509351542979
-0.5829637856767912
-0.24905421371352549
-0.9285290259524174
0.5307002383926843
-0.05008590950046074
0.42609035329586614
-0.18314829727387727
-0.5916479692314911
0.33139078125801835
0.20771805829085702
-0.7709307043479287
-0.1262716436694007
-0.8929000031009275
-0.7082406343216671
0.8733271891050131
-0.47372601128776587
0.4109647708194491
0.4191182449011034
0.09508006335136018
-0.6215241009846104
-0.46989202698162197
0.24654946521151058
-0.5909275394234638
-0.12189434963599696
-0.6039785053940859
0.17381490244329886
-0.08945953138810268
0.28151084062884996
-0.3088849198105428
-0.7048249880853558
-0.6875106248186722
-0.07344760204864038
0.5290701405512682
-0.512693626916428
-0.23328256579140758
0.38674046121390937
0.28608564073019754
-0.33996892270769874
-0.2694617604135135
-0.06179024058873448
-0.37583341938701786
0.013236378340388795
0.08936620174609486
0.5071417239425363
0.2044869327658783
0.48386548003335217
0.4814703841982537
-0.45858521073496755
-0.3085371425562014
0.6195994344545904
0.3209741434109424
-0.7558414915474038
0.4241891586993542
0.029116314944753318
0.4945839129125666
-0.314332813438507
0.431882454387702
0.5432518281418398
-0.48716757196072535
-0.15038772340327858
0.21942696642046688
0.07340888346943891
-0.010256714642139739
0.4204519390688435
-0.5722407007212489
0.09345225685997176
0.3883316882876099
0.7025567352339692
0.8685460125073147
-0.9049680084731779
-0.8351783078622164
-0.5506010695486497
-0.05189665628703482
-0.11610885546804638
0.7031215562637718
0.27937245976102415
-0.6062630725056279
-0.29038655320695667
-0.26144641028831633
0.2650781511518656
-0.18688182641963766
-0.17088119224813147
-0.2654981065405219
0.07300983591402056
0.3275384459802956
-0.37170304568275914
-0.4022499389556904
-0.34218041685228756
-0.1474398291257935
-0.12330275163021852
0.5099580483815989
0.45669277780904977
0.20102173922164587
0.5981733439541043
0.46143398130741237
-0.12453501397717001
0.6621630974349761
-0.44460807349720277
-0.3947525177777728
0.47802370187063165
0.027669830094923235
-0.029731166326963373
-0.07061915104566198
-0.3391355505635902
0.23716296905853632
0.6723523675058638
0.25384482599788166
-0.25014098127389234
0.06528308913915629
-0.21893670934956333
0.29486379010911923
-0.17559819054874828
-0.3069381180647565
-0.2598866861451307
-0.023178988064922617
-0.3979024794314746
-0.033617810400872514
0.048394284281259456
-0.17329011523467486
0.3882079087075603
0.3646432526016085
-0.1992594408476304
0.06018841077430138
0.08952318930191733
-0.40059449923532564
-0.06348810403910325
0.10414896860177512
-0.1412412635049818
0.4261635815064008
-0.19258177193439144
-0.36189920054551483
-0.40225192819836203
0.09129875701725128
-0.8720312635625893
0.6991072392448042
-0.12085603487585996
0.2795579444074194
0.35483600422838396
0.18626545148902646
0.065995414926392
-0.18625168123573113
0.16200616545245855
-0.4506802016232603
0.45946485268788795
0.11584995546729247
-0.38694064079030344
0.06818371099553469
0.26247792906693584
0.27860574721093834
0.18504417481963809
-0.37001519493510043
0.27808582380988933
0.5007575865187012
0.6975385421112263
0.4541562919781202
0.23241893555471602
0.17109722540643188
-0.5313593879796338
-0.31918983834195125
0.13902001833937794
-0.15769790712249593
-0.294643184063467
-0.4921159539706764
0.0961221316269638
0.7402109417400197
0.6743462702485564
-0.1883118590715633
0.3319003940750942
0.22221972599788384
0.08580161824661225
0.6299688875390956
0.09336411814528298
-0.18679578508355138
-0.37398439118303767
0.5536554408936806
0.290015476755612
0.4235734518148539
0.07711725617360032
0.006896885914095419
0.4818383454203445
1.0749738840655167
0.5297740780208533
-0.0737621349915145
0.36179726432223563
-0.19012786321608122
0.39332388912598903
0.039243460227366835
-0.42728872535160184
0.23643558446607058
0.30638790426289525
0.2567505569877262
-0.3585951493361153
-0.17518334110246436
0.025924514909982512
-0.2374886822071974
0.004747538272088822
-0.235460363295393
0.5272143259094267
-0.43238661339889956
0.35989887512909313
0.2637555834501122
0.4955331488015705
-0.09345919270337265
0.10163319642597117
-0.4549615677509081
0.7407025095226457
-0.6013861886930094
-0.5894709486473382
-0.121028964187463
0.2901087949206494
-0.024743548079831687
-0.1954984407295827
-0.4096488958996925
-0.2355732795753611
-0.06285855750043375
0.3678019024588714
0.10231157140965694
-0.44647892694518615
-0.5825230279148639
0.1470822513243855
0.5806570808283428
-0.11013118898656622
0.8856186928473155
-0.008272736414007347
0.018716441015180878
0.20132684324636085
0.5386497274246833
-0.1632956927103725
-0.0729003208609527
-0.9714250974810432
-0.06819248044702621
-0.8225571591611519
0.6866469465732906
0.5550294122002654
0.5572728303346263
0.02236412259867064
0.29687481105626845
-0.28259090207765486
0.764130688233621
0.663715749270777
0.7654341104717236
0.03142990281597562
0.4914343994216509
0.10000331233947501
-0.10861777207891854
1.0840498844050577
-0.7233318661183564
-0.2641671961198578
-0.06948727616973367
0.242650215920036
0.12605147316925008
0.46016555259639347
0.7334457933793891
0.07915492607733181
-0.1387693055913183
-0.3609237769099205
0.3075214903708264
0.3971136121369347
-0.008475394783161658
-0.20931868806038023
-0.13323648538297198
-0.5339486371747064
-0.03592036775513785
0.6263605161496227
-0.3169281557387187
0.29403112657780966
0.9206082282939442
0.15289931097641174
-0.645949159469333
-0.04979110307810264
-0.4670069815884701
0.03195345468537694
-0.019583336188064626
-0.11026133306941771
0.09446825466989316
0.2659004090640913
0.3462489111247964
0.17721463526731435
-0.6148267685271973
-0.33992822351420693
-0.2526152384896845
-0.3175612643796849
-0.3315712998581485
-0.36045070317123856
0.13266498588438366
0.6273362110017373
-0.12292740374473383
-0.8026569445504934
0.3887573969878753
0.11467687724780362
0.01995236392530944
0.07114745542042367
-0.19906484588398507
0.4843931968549756
-0.39825063580995773
-0.5268641112481164
0.11514094000483725
0.25061379904142134
0.12053121544322933
0.32158321803875856
-0.6775387931121126
-0.19472004259671338
0.5007560474043906
-0.27795875136353526
0.6381760788976332
-0.03519459920332313
0.4492133858194704
-0.37392305910723
0.8602374656795285
-0.20698693823584427
0.14962684594100253
0.2864234206046085
0.10422326899045091
-0.026616025334199177
0.06987352193262324
-0.2658397653718173
-0.3503505294009635
-0.03607815633425374
-0.13756976231802803
-0.05909484554643996
0.42676095591834057
-0.20935099694137485
-0.6781799573099924
0.3701964364392839
-0.2677659973234058
0.2653124749266391
0.4630831616592893
-0.7389847853912128
0.033337974336762104
-0.4139482881033927
-0.11465843176260589
0.5816118571691623
0.3068196123057141
-0.23448976634039898
0.8092790322984306
0.1797015213432208
0.27820091137051634
0.18267813433850025
-0.22868096780096955
-0.011279546843246935
0.3281204565818763
0.12792250156845142
-0.010572548079405287
0.2564512219081107
0.32667351543773426
-0.1969183717651964
-0.03419653027959784
-0.10541280699155064
-0.2253490741466234
-0.5181021684287621
0.6525701536038687
0.1777750097622094
-0.5910353445931159
-0.26460618234942834
-0.42509250748584365
0.8711089926644953
0.40546025549082015
0.6173045278909818
-0.19198262142905498
-0.3696306199982671
-0.6035710531569007
-0.48608608761728017
0.26036167753431716
-0.5527648318303889
0.052275343282399786
0.2873231565280976
-0.7235777588038467
-0.15896976932158097
0.1693695171940426
0.6101225456173485
-0.027470070128470435
-0.2573114703333632
0.9567488250037699
-0.37121322485979463
0.011774075809627924
-0.5259907487496721
0.21721964501526228
0.4758128454455708
-0.02018573519345131
0.04191965640171398
-0.22246907780652134
0.31172687997628956
-0.17051190740658675
0.6948663498602141
-0.44971360317707876
-0.164097246422625
-0.13768842053225058
0.3301404587853921
-0.02535873420290244
-0.00510140946407318
-0.15682549541019117
-0.9258234895436757
-0.17985705576675853
0.2901048304607755
-0.03598368440428701
-0.1498207673696388
0.11259963044486687
0.133396679348041
0.10568985857225656
0.31261026515827367
0.5800593849504243
0.6857245582833771
0.3032704189928665
-0.6464915572088991
-0.06623621742396771
0.13475412596455658
-0.59171174438786
0.10010732235230443
-0.3853941729069419
-0.15133532867083724
0.1447362699779304
0.3400359934111058
-0.5624078090120466
-0.1142403444569918
-0.2648726222990641
-0.7997569887116553
1.1574509074855193
0.05439466530227659
-0.30602781476800117
0.5428868784100709
0.18680809762513725
-0.23829818694802762
-0.08224164027873289
-0.6329015319892104
-0.3438101909410202
-0.483510765850518
0.15337136310337277
-0.39138983689771073
-0.32906628638350305
0.6292221606813408
0.2326939372016363
-0.17036883640396613
0.14690320784591548
-0.1287630789607832
-0.041665729709468975
-0.12319383811422777
-0.43138643350675093
-0.5355484059246899
0.36832912696803366
0.567609087689776
0.0009007000638490638
0.20677057515570166
0.1302006366947583
-0.34543484837333294
0.302111111591592
-0.4865534638726324
-0.5189013987373782
-0.14755473843498268
0.18970829908773043
-0.18169299534903932
-0.5120804731045737
0.4458664577207915
-0.1936791724162683
0.02924209689354863
0.085211074075154
-0.19537142368812296
-0.6410539294261987
0.4949017009348505
0.3293087615519612
-0.1986735507096332
0.19229775395601392
-0.2857451448107885
-0.3278397583666783
-0.549873832957528
-0.26621364660930597
0.02139131417355412
-0.5666801648488633
0.4153308427201418
0.2816320532132774
0.2548126527235108
0.016742087152121936
0.8139385796770137
0.04188757428317848
0.2648264406695224
-0.6116670452514892
-0.653403689632357
-0.21841888982375673
0.89096615599656
0.42190402825794127
-0.22768806018502213
-0.4360547508423475
-0.7491122119650258
0.26047640096858465
0.16299913623723739
-0.6052857683517189
0.26906690973202885
-0.34941481608516484
-0.32630676101224043
-0.5308951950770882
-0.20668172699988033
0.4567696313779317
-0.3339290700235409
-0.17449772384142917
0.33421449205003767
-0.25174502019801986
0.7157002555773825
0.04017570561844438
0.3080085813376379
0.16774415317872837
-0.19665890682616352
0.19114285298696596
-0.011674890795657734
0.1251995164153575
-0.24420534742077596
-0.49274310373236746
0.024694614518288693
-0.3604155702727781
-0.08444031492001366
-0.36381940822938613
0.34183274834140265
-0.0005509869333899085
-0.17571056100505955
-0.06702806397518832
0.43951388793261836
0.4362752901162494
0.09326000428601526
-0.20938381418679322
-0.2512221886493826
-0.38975774235634514
0.3865190997606078
-0.09158567740335463
-0.22497174422151006
0.1313363401011068
0.5667524599629915
-0.5379233212789102
0.6646375023459755
0.20092647820335882
-0.4000576729034981
0.4853518809721124
0.4159054037067698
-0.027359759118655885
-0.14304213746085184
0.7430110643721892
0.27433532191199284
-0.6047513982334134
-0.23102507697530517
-0.19804949068861424
0.6784139541000731
-0.4573214148775795
-0.7958295334312225
0.2439592898767135
0.08784451611385329
-0.7362252873906648
0.12649055273444024
-0.4180010981763438
0.40296491549268326
0.5952939827295831
0.22005711534427908
0.19399895271441325
-0.658019887926666
0.2922838200623945
0.15765039751602253
-0.84042790645042
-0.04503222717589001
-0.26532006574890044
0.2194960918926875
0.01907446438293547
0.2817734431275669
-0.5605556671918077
-0.08639635609238175
-1.1994153443325906
-0.040457838148879426
0.11308653894302273
-0.4411436715818782
0.5016945781984968
-0.5564440595755827
-0.39459649706294675
0.6355982703616136
0.4814578761005684
-0.33264343340171276
-0.11629289535723851
-0.06503144317930226
0.46358869762373245
-0.15086860255709306
0.17599061602203278
0.3233951430303402
-0.0007229126641880358
0.2271064426983695
0.16779495559138183
-0.0608726258685017
0.28210812679694336
-0.6788937247169473
-0.17221923563324984
-0.1740536941387777
-0.12686709526688092
0.030598620735493742
0.6489102298052529
0.09873158994088858
0.49635167759613336
0.30236115983584183
-0.7055649426634658
0.32577474969328185
1.0805405748391919
-0.08948479913670854
-0.10471969462014033
0.23207761301401628
0.9855901772699301
-0.3085308052639287
-0.1237762954399975
-0.4481239311037898
0.4415406184843059
0.2136603213143817
-0.5725029645927407
0.10687611158519565
1.4640098778288997
-0.37979661175927487
0.4327955901747913
-0.7586254541415904
0.6085909183776423
0.2290287548455606
0.11039134487564004
-0.41857340196318726
-0.056494272532069255
-0.08813276932947059
-0.38239764536611287
0.465659901195681
0.2392499413526065
-0.07170080249148997
-0.11775540008316282
0.5717928172802513
0.05850770584478046
0.2961944789915458
0.45730234557249405
0.22767874346973033
-0.35727941948816744
0.08845479408412978
0.7631618343742869
-0.47193969610514963
-0.7163725080952916
-0.6606535925648165
-0.6853598437774155
0.02227408981339194
0.5223612654689099
0.049119474904539696
0.5049349186696221
0.0392203001127063
-0.09077717847237182
0.29707577264879376
0.21566728091971762
-0.649709673793864
-0.34006858616908414
-0.3878626486169663
-0.2987464166603783
0.0024453885253358197
-0.6353275701272341
-0.22535936616837016
-0.17635869366809911
-0.04861077460836595
-0.5976455662849287
0.43492120032977294
-0.45233780233864646
-0.8184382844711202
0.5380003100112825
-0.24329612016825128
0.17653704366328354
0.05500189577599525
0.6903607855875367
0.44643569066839184
-0.48223045364765466
-0.45895669915916243
0.06923729261683338
0.9726705616716123
-0.5552179459088006
0.07570098539239598
0.142037249804643
0.6892883015415463
0.2748236596475677
-0.008276594007483474
-0.022234624056003488
0.012081500789785744
0.2614344243241643
0.08641859572418105
-0.9374191659722334
-0.42321310979699583
0.33357725210968314
0.2812876329578181
-0.5275670270696127
-0.30895915948607783
-0.09228331164050123
-0.8520265023026808
-0.02185951569086772
-0.17137875321992405
0.030441026715155466
-0.3814628073741008
-0.2030758375154274
-0.144465298477282
-0.10995694193894257
-0.15840333709193824
-0.13015540085933844
0.6222104646319557
-0.04194873753120576
0.33452616259198464
-0.11114771546835796
-0.799669412017705
-0.6997014426268466
0.13298953241156372
-0.29541713045247003
-0.3031010036111667
0.806225524978992
-0.3398728062488968
-0.04868091955311757
0.512315904658499
-0.145782400625098
-0.012672752390894411
-0.42587427257264976
0.09210128376298694
-0.006329779561629301
0.21499231862769247
-0.20325874971243338
-0.013702197633393505
-0.3021914314947131
0.47499304582302154
-0.060446463948923175
-0.03803983075007761
0.05881747732822885
-0.4091285572134917
0.20296792484128554
-0.22122973461968684
0.12844160816041272
-0.4026287576255344
-0.24974933665136234
0.44498635764143096
-0.29381055348882534
-0.5567960220170554
0.048292842148176446
-0.04112259914893698
-0.14567439082735664
0.1517267372479864
0.6136702121369424
0.3873177199598026
0.15967169700538403
0.20285334884662795
-0.20779090792412186
-0.16528295375192018
0.5251334235221287
-0.22931915494460767
0.31827230296040104
0.2739675836383267
0.466024263691845
-0.1440921754202118
-0.4864540971272979
-0.00023590955440905433
-0.3458265144135013
0.8695848346300272
-0.12693197140174703
0.5906552292777468
0.12464568976800604
0.15734573600374605
0.15505463843031944
0.25553463183888675
0.2510600113813646
-0.6761466716040162
0.12571111212207486
-0.6401539374520454
-0.022846391848823457
0.25003486975487005
0.671520036765579
-0.27383494527931523
-0.27309922790672714
-0.16823288041875573
0.1298623190127081
-0.22400083219288636
-0.6184693426894398
-0.5348051040101207
-0.0633311357016241
0.26575233496920136
-0.26612155283382966
-0.0725576427742905
0.05005048133277384
-0.35683468855518385
0.3628271670939162
0.056036389644975856
0.45458634314297985
-0.3437971422196
0.22547195376169787
-0.010267742533012117
0.5647214817850856
0.3056541227990919
0.9185940997091829
-0.39618820897269774
-0.47864548493969833
0.3649642563667792
-0.4728507206742684
0.5817394990668613
0.4333580721675147
0.17601766485443335
0.21435621806672414
-0.09121140316484493
0.18358260589316694
0.16358481625742108
-0.35198721989110954
0.48635812291934005
0.037618009036528934
-0.2005675538391066
0.04343360334878188
0.12292970236468309
-0.322314637305573
0.3347705529298829
0.19091284108597875
0.17460819617092468
-0.026782023456483874
-0.13742854018615752
-0.08304441114445169
0.20242636596177233
-0.9129891670725125
0.042520511917076696
0.132919110231674
-0.13921340838070229
-0.04137573905821521
-0.44837707768652457
-0.12929773724052615
-0.23033935278641346
0.030824343873128855
0.1740409384057498
0.40688011778157696
0.2717652778790849
-0.39091305339852206
0.32883837313999603
-0.1358328423422561
0.04571794434682005
-0.0810494840789777
-0.3846008495332686
-0.03643850341174178
0.07546765523191921
0.25462023603092526
-0.09200849910261961
0.05808944001828009
0.30173937147941887
-0.22207505421452625
-0.2723918601488104
-0.35149415184882954
0.5737611063499901
-0.0473850938909702
0.060547783215119805
-0.12301017765785988
-0.31385693830710565
0.52724031349321
0.10465585130162136
-0.2246779588257394
-0.20943666034737965
0.03468961614494001
-0.6335986411398314
-0.2977603361223596
0.49479241642151855
0.23474890931407214
-0.2764341415235783
-0.39362673455790426
0.4663410024977063
-0.5484618595165924
-0.28237247846054175
-0.027573601585495256
0.40087838166342554
0.14938854530210327
-0.6219435212077006
0.15227356334635583
-0.033247266469991425
0.48069795241245716
-0.3323419877446301
0.29393619293587053
0.20573270944563443
0.16167200631750694
0.05653739495036561
0.25700207666274594
0.13952248241046952
-0.7039791160457113
-0.35016647937548273
0.42172601964034323
-0.24610105070169208
0.0188466553882843
0.35810990369288115
-0.1332136951652411
-0.21621878142777176
-0.34655393828135655
0.1734648546078413
0.24658735744671476
0.002098565693451508
-0.2514386745122329
-0.3788838340543974
-0.070818947520679
-0.4923711693968459
0.5647384190065778
0.09706486234042036
0.7306748445459648
0.3767280851333127
-0.2210216595017069
-0.2732553685954844
0.057509746066664064
0.22427658779983792
0.12312652521296157
-0.22161329765752155
0.5279865162803475
0.2800846334006461
0.2968718011381884
0.3041456571024114
-0.35776960370469807
-0.33893638813020055
0.6344017735781523
-0.16603430026084443
-0.2861073239864309
-0.11988352824239228
-0.6181467089246708
0.12263772431346
0.0297200582088335
-0.5980194422262098
0.12537905736051716
-0.3773944406573358
0.23807987221058888
-0.0935005846263569
-0.29731313746335636
0.41567542281975545
-0.1788339280277236
-0.14477809688907456
-0.6841362586433912
0.2858413861225504
-0.0864826019261062
-0.08373499987509278
0.4532697730734048
-0.033658420801382136
-0.1728753212972067
0.4583135217800534
-0.32269888929889406
0.48050692034217335
0.15341918298883264
0.3144003935198255
0.32647769778156766
-0.21599603530696893
-0.28353548552559477
0.06289985604914093
0.6243548918397259
-0.10536052425099543
-0.02882479525085873
-0.4959605032646294
0.4446439222648951
0.023260852583521757
-0.004101206816553904
0.3521423419219059
0.0922969377112674
-0.17340905865500125
-0.3582912577664609
-0.5594403189800369
-0.22367770221272354
-0.40220626133900605
0.30923605620434913
-0.13126083699922933
0.4468769224184104
-0.30528166328423184
-0.30333235201076547
-0.3712108935652227
-0.30673915104259447
-0.40436351649237856
-0.1979994595792407
-0.3882505460868917
0.22694668220933964
0.7903845829201089
0.04758741169844897
0.09476713193069927
-0.30414999891618916
-0.3413811122212849
-0.2038814728608611
0.6068873507219206
0.5937462400010304
-0.10221881385381282
0.6780603114375389
0.49638380157477
0.6255381783630249
0.06242809019320659
0.30831336778339524
-0.4054242774271932
-0.10539455784077224
-0.05811899552243714
-0.7378359259263921
-0.3694048979118809
0.1538794815189042
-0.3625938282709767
-0.0750566779124491
-0.029147964097732737
0.5276117485466836
-0.4100343950908443
0.31388993379929975
0.16039554861278635
-0.11611064971292977
0.10225169039066755
-0.4301373517904336
-0.3271011532713693
-0.4067717343986426
-0.4174968151357232
0.36098184372095876
-0.08914621960090718
-0.40636304978271676
0.07894495698074924
-0.17092333117267
0.04591848591282534
0.08360912513395992
-0.5777434139497055
-0.3451321322114659
0.3562640106662789
-0.043446955589705995
-0.5137690326142613
-0.6729273956929588
0.2130381587221528
-0.2833090575282071
0.2486845622557428
0.12563432044716216
-0.058116973003035595
0.4309229649509606
-0.4643798456181931
1.1597769002269618
0.11775051655357652
0.11388929943172468
0.12329244347102712
0.01865381085948342
0.6302625231046662
0.01881596148353408
-0.6316093869095241
-0.8690980507244797
-0.1306145043458371
-0.49227660338120477
-0.0893123763416033
-0.14966395779146754
-0.6268640646034349
-0.07715273733639597
0.6393203171151087
0.2840074838379021
-0.34619855526760335
-0.9960996466645186
-0.1436578601982748
0.5226473548566225
0.04349821176211377
-0.846853117003055
0.4232265313767441
0.1841828731165335
0.12345772366877672
-0.18207139053312504
0.48622000438563656
-0.3651546621463423
-0.5201177375874433
-0.009519222610975514
-0.5232394879044547
0.3099913461298811
0.3547248609932164
0.183861478001566
0.048042611633299405
-0.48416399869994664
-0.06164216512888804
-0.2791134008939239
-0.6609292431933456
0.1454677929716948
0.538421314639662
0.5185896475401346
0.06187120491672732
-0.039442133504193275
0.4165584709232653
0.2255440238330309
-0.22900757282889433
-0.3495290994503342
-0.13013057467836298
-0.00046380949354406036
-0.0824102005799014
-0.18279928265747106
-0.06616040868826163
0.9379070341276927
-0.017556423340420013
0.2683338872234104
-0.008521956879885266
-0.2787491933249595
0.34982621137209136
0.5097256939817065
-0.020594599752863797
0.24595522723258267
0.5947057915004537
0.675171413111546
-0.1287274212998015
-0.19654064979403016
-0.3322281339433895
-0.10868065533542855
0.04782793766243928
0.573256146673109
-0.393034306472997
-0.20197171670692268
1.0449154852223945
-0.17482746185577794
0.09407329580534064
0.2768650983751878
-0.05456621961314005
0.47582996131103605
0.05856771510911413
-0.04301254722378431
0.5481829182117737
-0.058521061591975704
-0.3989617982942593
-0.7999337290484557
-0.6830015473006023
0.24211992044152442
0.04649959474047499
0.1734777731505765
0.3086380353455358
-0.06251956559759844
-0.4955395167589821
-0.1301872938903031
0.43158784598659383
-0.12788246729559652
0.6172206802903303
0.1354403006326273
0.2019101062691254
1.061884418041883
-0.0260863006843977
-0.07527305113416488
0.4909881228033365
-0.2617059259683892
0.011129659928214474
0.2235318574083387
-0.20715703333309507
-0.6887622524207948
0.4731290633810617
-0.6654602518050603
-0.0658698682323886
0.7397177887947968
0.6298322424302369
-0.32366026648143026
-0.1394736273022095
-0.11693828904137842
-0.2780539127617394
-0.07379744658144777
0.3299575098807219
-0.08993989457436136
-0.1398988984067277
-0.4239687161234149
-0.002003764543843962
0.06980282187142224
-0.6051121544740562
0.23365363941384906
0.21357920889836557
0.19305075802889998
-0.2747685345324166
-0.1394800530991562
-0.00669294710997828
-0.17442000660334417
-0.1929233583635182
-0.8044620306188972
0.028879385448721512
-0.21056006110884018
-0.4867675006056408
-0.025736993033142468
0.01153380814075764
0.020250970928260004
-0.1271485517374763
-0.12146066405025886
0.9755288816988785
0.3876829148136631
-0.3298219179322345
0.035196502857677205
0.25644817686482463
-0.9586075247197673
0.28277377132072334
-0.15537282597408578
-0.6009339014844298
-0.5420798639361919
-1.2027293972421464
-0.32273123722877906
-0.9241182263158527
0.7386461407194063
-0.49409742142465746
0.17621925560661525
-0.40716909092663744
0.3155865526942026
-0.7293540304302464
0.33301002167424815
-0.6720170868474529
0.2717155837623495
-0.08344678884695907
0.07626551624505902
0.05919186367283723
0.061423887126896365
0.27309991845877035
-0.17845483426701247
0.24543723459659855
0.14831404539076842
0.11103774266619769
-1.1671929149900035
-0.2866666462836159
0.28065951811587087
0.5821973063591112
0.030232389207341955
-0.21101251747836614
-0.1864383674988334
-0.48288457461587625
0.31935249039382735
-0.4834227198005772
0.21160688845688855
0.5296758768170314
-0.10922459434044635
-0.3698569590123658
-0.005714843199565367
-0.5577923628256681
0.22607694394701416
0.5524965178637834
0.5917455544805443
-0.12135876632612044
-0.3831047875531207
-0.06935647130344649
-0.5867123295506742
-0.36764711776268194
-0.06586327897936027
0.13002076799907394
-0.3684527805900889
-0.1871483101977459
0.46543725271705694
0.5762684150932484
0.24233762482317464
-0.021754252629378378
-0.581144270311037
-0.06654338245574053
-0.39917860908346975
0.8076902218846183
0.029724838344106223
-0.13055297730963325
-0.1360062493162001
0.018555302663848344
0.26952973669233776
-0.18493480876476687
0.2194082119854636
-0.045274172622108096
0.6909216554176466
0.6598866732687738
0.13853643755205933
-0.7552094595851803
0.245569027517869
0.022159846208819046
0.3360984534897956
0.33612318719347056
-0.2488460647764051
-0.6409990207590915
0.3548933020568932
-0.389658072782999
0.23834745515871483
0.15724143276192154
-0.3387918612747817
0.30034837368444894
0.10964186632042419
0.4693374833846153
0.5295719133120369
-0.5069636084690253
-0.9701868799867012
-0.25452888325805584
0.8156473324873115
0.0406597070707604
-0.12594921992722458
0.1654002703283851
-0.44999830174246047
-0.2073366885236611
0.20596775427664174
-0.4054303146528347
-0.38011428777443584
0.47642759667527573
-0.47546442488289387
-0.7804957094130799
0.5298376384375034
1.1876971092240285
0.6503100956397847
0.20423537202963407
-0.11879817273330898
0.6113501811749996
0.33509896407027423
-0.24956655362939636
0.21389771984913347
0.44921921197653847
0.46499617809099875
0.15623951175230882
0.04075747872384264
-0.07583952610850264
0.34397285637216707
-0.015292373000029807
-0.18853776366928585
-0.20968420026264023
0.5616396095265287
-0.20293443314550733
-0.6084920296712292
-0.13929783213811847
0.5080322852646957
-0.9344695899284994
0.03818982183301127
0.3999939606466044
-0.3421164059707988
0.5972349058625329
-0.1459461636905281
-0.6302114190397567
-0.6170849207544693
-0.19370323475082035
0.07602787319686148
-0.6197985280338596
0.3509976022775171
-0.12212514738772892
-0.45328810367323336
0.4728723888962258
0.6294115563549959
-0.6195468389482411
0.12112662945611669
-0.03035648894644881
-0.09995317980495368
-0.0033865088665774703
0.7038387411043817
-0.22807446271536064
-0.8041245536615189
0.37414552852549077
0.14819411909931215
-0.4142082558472764
-0.3660992214563254
0.051551038306661356
-0.16834802988210218
0.016695218419131796
-0.2535080006831488
0.07561325101223951
-0.8498728989719337
-0.5609518521212502
0.03384602768160852
-0.30677066058065294
0.08366508367996504
-0.3188675566277513
-0.005213690463100473
-0.5153410107866269
0.4819278507132372
0.16182665605462107
-0.3367517899274536
-0.21954732586826092
-0.5827998432731304
-0.1317130895434659
-0.2753232577490541
-0.4201335356434327
-0.1977603358342609
0.32143578628988945
-0.7127947764902677
-0.08074271708647221
-0.5577848859660365
0.10043862701077572
0.6783969228216037
-0.2901607976524004
-0.2797535865150263
-0.28769775813400733
0.21888488904979575
-0.5197252396652344
0.2933328820637715
-0.1845567689123944
0.1354301759208609
0.2894591334304333
-0.08601274784524376
0.030470866346089535
0.5186477367416202
0.2634088166167877
-0.33368861925447296
0.5378924688285154
0.1432597117324759
-0.2953850614599321
0.389847705994036
0.8964353848033705
0.1424271538501666
-0.16354060351487043
0.12726611684922648
0.10177486218031438
-0.12769377771191245
-0.16282125437685746
-0.46877923474523747
0.033453900927804314
0.3162034904149639
0.32492833553716777
0.3074483561466282
0.14387929854007356
0.3092462002586596
-0.1935441700280291
-0.7460631198233363
-0.12387226727769025
0.5078067839084579
0.40804151645026776
0.5321564038612115
-0.0997010336555201
-0.7866151266616254
0.2604314352355529
1.0901825641848804
-0.20409623501230723
0.15306215787627336
-0.8244674859696599
0.5374048783191705
0.012393368631939853
-0.08939922202987283
-0.2043901525644247
0.2303264212700021
0.022044960693429524
-0.8513426101658886
-0.6311714490346898
0.3411506045379197
-0.10514206326858296
0.5290765599730937
-0.032885147396310266
0.6413690425836576
0.6015240473859842
0.2637302734316325
-0.08605334537920109
-0.003083775719341219
-0.22906131081712375
0.04463953266861569
-0.01814019271446033
-1.034841296540017
-0.614711704568423
-0.2502194752746639
-0.28357544700476933
-0.22793000019922655
0.29848583884782204
-0.18827942103193657
-0.2801534288202688
0.3243956112260662
0.43318866775222337
-0.011119758426767715
-0.6396100288876374
-0.26540959251358165
0.56663444447393
0.1762436323206401
0.14294999684657686
-0.021101038421483056
-0.4892922847099684
-0.1288798643123302
-0.32608507521809976
-0.4880521123728793
-0.8131706261417988
-0.24186891730761576
0.1400814149446386
1.1066424527189727
-0.17603087034554854
-0.27217498755236746
0.6312130585111352
0.24639556686593247
-0.5802931699085103
-0.5293495217038395
0.1446088871726443
0.016532670314225742
0.0484830971406509
0.5912996364005042
0.4985859741356729
0.6394600459450821
0.28032947344454673
-0.039393013467910104
0.03926242074019264
-0.011990189875618739
0.14578733246756448
0.4840734267661361
-0.3531144101355979
-0.560595771594066
0.16988288059359719
-0.45021190750903184
0.2270874839564448
0.4632892592818423
-0.40041109625991
-0.3099898508183567
0.9660107153589775
1.0080572495998932
0.6643284180641179
0.18551895195252222
-0.7484607662770031
0.12580675726702664
-0.034840050273997614
0.0685430094749437
-0.21869828204720745
-0.07529717195395934
0.22317956435680483
-0.3940017088091327
-0.7162223407625272
-0.3014798109008726
-0.06920144576248494
0.6064437991937291
-0.42480182627226837
0.4809467304531219
-0.174285723890023
0.11399434569153433
-0.607047933378924
0.4635384036970107
-0.4161222669600797
0.4169284877094194
-0.05464656938130877
0.5197805896963332
-0.3185796372560218
0.28619299420824235
0.3766360524441346
0.20133884118832643
0.5828104859099811
0.1309375729665425
0.28544964726038685
-0.20480724347835474
0.7587702882460458
-0.6109696444320379
0.6770829811809226
0.26403422073578864
0.4820560744891957
-0.297765095231537
-0.6283147272900603
0.36536506947103836
-0.21690527634726522
-0.13290327300417415
0.5630029119915123
-0.6471398939448691
-0.09633121785229218
-0.358484955099492
0.12353583811910525
0.11265451600377392
-0.4059695970952415
-0.2483708510086727
0.4482597943218367
0.05540614802814023
0.21029546066568364
0.09425816916927762
0.07094647851712008
0.028435697837748988
-0.10891941434562559
-0.22599913401155627
-0.921277619769503
0.1429675188200098
0.09183980197218614
-0.06821463298804416
0.1462212210367362
-0.3459459153733559
-0.004946579622158439
0.5966351229180219
-0.2480433224704422
-0.09342795250422745
-0.7939496928038372
-0.2638082839991079
0.42644495933058446
0.34353116595607236
-0.27679541818783904
0.4095187942442967
0.0893550076880451
-1.2487285920120006
-0.09108482548079616
0.10743436231956417
-0.05789370647812093
0.012214914650346423
-0.22234402576994333
0.0639615128032194
-0.2375441529295785
-0.6015043204382352
-0.4869459371069314
-0.5444233459410186
0.350724820745687
0.08694245466917105
0.08222671360346683
0.6281621289449635
-0.28429783723997726
-0.13126744889300454
-0.8187240401201739
0.9631013390915808
-0.05104687902326024
0.030904886801559707
0.11203235700642675
0.06374169719459946
-0.1402354226659929
0.5693575218914811
-0.43404140356326043
-0.4608843333026296
0.2629760946545725
-0.15331919662100285
-0.09739515486096609
0.6624865546403316
-0.0734270269887086
-0.28100700358856384
-0.007856700981695934
0.6720504441039717
-0.1697733074391844
-0.21676969484066608
0.4017413680527124
-0.20820976685026607
-0.09714608734148623
-0.6584775010409758
-0.6724682236251905
0.08987469663795013
0.49883421132996064
0.07321483227858039
0.11125096201095395
-0.8749043396214218
-0.517476788994098
-0.001710344881372821
-0.39280140626618343
0.3233928786603711
1.0364399731401825
-0.4077709302921298
0.1484883578656906
0.6736604777516796
0.6228717436926172
0.21339441218240937
-0.5424778885528886
0.4058790862343841
0.18867984151083222
0.3178209332398507
-0.4427516056019844
1.3696431939840041
0.031324438739528816
-0.20439385519221087
-0.17450909951838278
0.3529088364476239
0.1204580952134464
0.060097070936304196
0.19998479574413439
-0.3927159617090541
0.47625694785769984
-0.3361638780983413
-0.3035509666519612
0.07441565966017741
-0.08976618363396124
0.3816438172873792
0.4959717289245376
0.17037069494193613
0.9292970390044153
-0.2111512695539302
0.5129654964293375
-0.14170560836809698
-0.7675787684825901
0.05076148897057588
-0.2767979336572582
0.17372298223081636
0.11741333918411626
0.017664262017725387
0.6016568496286813
0.36058233027063086
-0.0707028616880308
0.3205439182731122
0.5411134683919185
0.47877469279225016
-0.22359985759556428
-0.17155288386877002
-0.1870591016091024
-0.6159649974131065
0.5541507404892023
-0.6780109721613575
0.40585311166151067
-0.8634942783230285
0.6219128788314607
0.23408490142098065
-0.12476382046886128
-0.2762395806675093
-0.30813160949137686
-0.08462653281827738
-0.42968099038357715
0.13203179360135775
0.20474744243137835
-0.488720434094499
0.053995770668735024
0.012333944686127536
-0.02889121443505044
0.08339361217998259
0.5261653221371263
-0.47247705038766685
-0.8637708882889414
-0.37927133376318173
0.13259253828348216
-0.3730305199701546
-0.2012710132035874
-0.4471052985363894
-0.277849249047222
0.5245040715817791
-0.8582426663416081
-0.048034959707425676
-0.12315830589622737
-0.24097166789020996
0.5438141211434339
0.6423441366669247
0.5033465991818051
0.5321808015730615
-0.28736242996287714
0.13439082211978845
-0.2104218869555045
0.493237011293698
0.13976168204817785
-0.6642120021778074
-0.07178267123553828
0.22763991619312782
0.3522189667942558
0.21264565972565497
0.03640065779504531
-0.25891674306688967
0.25483065057351967
-0.08060478294887986
-0.7009904021571642
-0.19541002666399082
-0.34451113029578284
-0.5225372336767299
-0.19273997621164832
0.5175059623446524
0.11469268800887435
0.15516690174989467
-0.5686441305392146
0.02501887859100875
0.0948973134878764
0.11426487353959126
-0.3694641797821527
0.7702429063357402
0.06251382650822254
-0.0006460456679501243
-0.2596256406643785
0.03390024751467583
0.2901200060229318
0.2704034583070111
0.29830247477054644
0.6123838820996963
-0.2815812629311133
-0.1596420328050721
0.861686964498603
0.14141108568597158
0.340387067731128
-0.2528219144538444
-0.01420917966410842
-0.16582784700046121
0.5705909800513225
-0.04854936505459814
0.13029571188611222
-0.1274532615084889
0.24986806919888788
0.07631009800828807
0.5883121800164559
-0.09224016224778869
0.6539457327642049
-0.3733596404185974
0.40584277551665976
-0.023428210613520482
0.06326787929127839
-0.3186791006713252
0.2877253605009117
-0.3007262476154192
-0.4257471607776158
-0.11566945408532572
0.4818263861421103
-0.33413714256210136
-0.004856549952853999
-0.1742082936511808
-0.36238013840238537
0.20970055160830348
-0.32635220443514296
-0.245869046237822
-0.3501416266191869
0.017555307230856583
0.1726302946279543
0.4847304732421851
-0.3285278222960263
0.2995996182059837
0.39113408962961693
0.2368604322391495
0.3459074006874981
-0.6297176317260064
-0.1391698023887467
-0.009219017356569359
0.14094331131239213
0.9628912783706843
-0.03719386423432809
-0.7670101908971834
0.15320608454901927
0.8274493417275823
0.3599550375648194
0.4034994081442583
0.56044313481317
-0.237458438455803
-0.6938667031240584
0.06853003076322063
-0.6742022801322426
0.5255358569976971
1.046835402856742
0.7717510283909594
0.17152784440328336
0.4285427807842963
0.5147524965350719
0.3403104796321953
-0.40202695563717666
0.289039006271851
0.22065816802130675
-0.2577557312289615
-0.1235921574528453
0.20961237327350132
0.3348412811431934
-0.32333159388955046
-0.17744038902938447
0.39490994592887985
0.02787841626555372
-0.11435616339542891
0.4867712666345668
-0.4034657420508094
-0.2907986868128956
0.10253438945035413
0.4360076254809743
-0.3575146882601549
0.20211107488039243
-0.12581694997049286
0.004781663690621928
0.5107336751759018
-0.22632775432384064
-0.08105389455153458
0.32364994889105125
0.36641679130097815
0.2200658559936326
0.030457799947692717
0.22931857842926626
0.33353685939672406
-0.4643228901554892
-0.4514818522712214
0.4010822585334614
-0.7506407475007633
0.32610654270295614
0.7842178990062033
0.2790619501829183
0.39998336034756077
-0.8798666368933202
0.07950503172596331
-0.14664629248712796
0.8414285649847432
-0.2800968765144277
-0.131271221056209
-0.827368940760196
0.4877800439015527
0.25947276153810844
0.2995474521425021
0.764731158157545
-0.31424455564006215
-0.43186271994813874
-1.1624150460305094
-0.27411577111374624
-0.0321687320699408
0.1485298366013255
-0.24026472261552914
0.20231940042353255
-0.23229677275836455
0.3062036729596349
0.5817125551121984
-0.3051393903688439
0.019235100515339613
-0.1001660743492187
-0.36178633525261544
-0.3727379413280499
-0.33773943883883667
-0.027717496224095566
-0.6711936546635668
-0.39072402410490575
0.6195099597692479
0.10402316838879155
-0.156294677751917
-0.11526607591189617
-0.000509200641179824
-0.2001593636428036
0.217448323072883
-0.39580651898239655
0.48638068594087086
-0.04133806306029254
-0.019696974337459195
0.13714481098624762
0.26739893259309855
-0.42283471486575247
-0.19234770286771574
-0.41741944668468356
0.29909726460380415
-0.0054942446072750485
-0.06436534334528242
-0.21394924725536466
0.5436827003962952
0.08248669988027328
0.20151562324953176
-0.5469944133483454
0.21298089679681223
0.931785805917841
0.18463791299982102
-0.3397020242334708
-0.6997391281867941
-0.4686339345646175
-0.2116307287777714
-0.16509121345289
-0.3659500068666859
0.07125373198624259
0.15317245732146154
-0.37029376956744864
0.09957657029123566
-0.41880928769500037
0.14184667839496717
-0.4096118441892371
0.9934153684610577
-0.3144550806713851
0.185669828495532
-0.069267778482334
0.8634647926098014
-0.056025029292571554
0.03780473858831504
-0.7949272901635318
-0.3843303118146797
-0.35850524932890593
-0.28983416710505283
-0.12237754575775654
0.37794413280834976
0.2833637709168584
-0.11889782142453545
0.22374066011114813
0.5170018350856812
-0.3803493968010752
-0.5630677119558395
0.21501162501287588
0.057346831494985734
-0.17946679653938508
0.7183459532732968
0.16762366992421762
-0.6172630601849075
0.6848693849473225
0.001592561333757278
0.5187100313553449
-0.02852420832948393
-0.352536879180253
-0.13112508506461468
-0.22412940728404396
-0.09983139874182825
-0.704064555254214
0.6342640915421534
0.2368692975102899
0.35475274567415105
0.6341021840430964
0.9951101579224475
0.2178079247073358
0.6435055714306649
0.9089552480125319
-0.6289415115086197
-0.092964171956681
0.21716870729742094
0.18290643095354725
0.26014429807286177
-0.08871440689341978
0.27819743991701323
0.19922948899302495
-0.10911741637427654
0.5160211415954236
-0.7892788433857489
-0.4006049632618318
-0.4507691892429482
0.8620096884564821
0.3749702547801316
0.3511565379833233
-0.5849077393856137
0.016383726218533227
-0.2950473413306383
-0.04329669954891712
0.2574752280809876
-0.1834223377896137
0.2800471815530481
0.1945264899912
0.012917331216269921
-0.1697668821309539
0.6459507986671353
0.7216618579267431
0.05321639801024584
-0.03362929713460728
0.3204116855981269
0.49722725291705033
0.03713975156870928
-0.08804808236798267
0.020848032747351586
-0.25239533900437794
0.002617272923895521
0.14470011204371316
0.035568073305253904
0.004637832749421644
-0.1279142099869262
-0.3686091203649765
0.13441057474232063
0.06360646545868955
1.104854154079752
0.8922032708717581
0.5350740992136326
-0.36567615512862967
-0.2864166376147538
-0.45027697054791166
0.13608409284049786
0.16453265187023902
0.7675491945704209
0.13490970149560771
-0.9446488984600583
-0.6253254175988432
0.10913414578881478
0.06570019073132474
-0.6675682574221834
-0.6013668578338967
-0.1626850626293492
0.10923573195883106
0.15938207662398157
-0.5786565640278513
-0.18498928496634623
0.16210411269513145
-0.20744076782042895
-0.10304087504530675
-0.21948985274359903
-0.10319238396240421
0.041744575451719786
-0.1750957493428244
-0.06883805141080929
-0.3270183705772664
0.5045804954666147
0.16055277865236273
0.10769594088055738
0.13121664733501645
-0.05736163151850101
-0.17177685535609358
-0.034718522179734985
-0.1726979124529037
-0.5110928111796547
-0.4713212034505389
0.34048422104805837
0.1417712353252168
-0.5724312959746666
-0.15745285237328727
-0.010885305071550836
0.20494339956071334
-0.4216193778655945
0.3494113143525703
-0.3253134102670192
-0.6813290067480465
-0.6866203066380839
-0.47762204912084366
-0.49508426110610715
-0.5028991598750726
0.7202920110881993
-0.32150188187777573
-0.5603317196387196
-0.16828267706255262
-0.3360768915411034
-0.2486675263348442
0.16701137471773253
0.6769154371678208
0.2058222068355496
-0.10205939626247383
0.5338934211330106
-0.0003610882032661464
-0.336655344247661
0.4281455023789094
0.3461465771950069
-0.33969738517606024
-0.1657715159504215
-0.7415710434684646
0.16587997194848955
-0.06782904430068237
-0.3840467804889394
-0.44376144727197797
0.1328838323803992
-0.3479730695239473
-0.847235463450048
-0.12818966766980233
-0.3425981428969048
0.2960269711760963
0.249153632050744
0.5113380026968639
0.3186044356731753
0.25310589840962733
-0.6108449565558922
0.016096842515105615
-0.2457233156229799
-0.6605870448959332
0.14656251168972412
0.5357303744677808
-0.4037034082704955
0.1568836431141791
-0.042516801784983724
-0.6122281190972242
0.4976688522404398
0.42643332741573936
-0.18894658276314072
-0.2272213690058197
-0.04686326759602639
0.43332173703563487
0.1860040870350468
-0.6629104342057824
-0.36394562825935667
-0.0968118063521584
-0.955162083670838
0.2805834792607083
-0.4328827071318283
-0.005160436532664352
-0.3529244746953627
0.6151137882688191
0.1934311045268978
-0.1614273854132334
-0.9475233602618113
0.07900202689258579
-0.22585604847494098
-0.5542752038245138
0.8287604977627033
-0.02707478390679181
-0.09620309793488169
-0.47414113395747864
0.3323390329580428
-0.7328425511375078
-0.2218656612776456
0.0436057978202045
0.3101245283298947
-0.12341366954078091
-0.07948248340492978
0.40133552415594925
0.39885987785401195
0.001285844463783849
0.501036435174566
0.20676217881158868
-0.3867363975262686
0.0170425589612199
0.27044395194519066
-0.9305211229616706
-0.3566851855044236
-0.0032520400496140354
0.15871194009373624
0.4216706324984388
-0.3345833395087998
-0.3094446443228671
0.2912463988204307
-0.00775084373813918
-0.6090941030810014
0.26689375366784346
-0.6327384756096033
-0.5962315738349332
0.6836928490213032
0.3558868034797448
0.3650452090626083
-0.3024702632460016
-0.249514987304656
0.10940011030434119
-0.09821090885165129
0.36263761063656114
0.42906241203569395
0.31250709420122524
0.7011140255440417
0.22504375153317346
-0.15593221085560624
-0.11669906855499225
-0.10011000754808891
-0.04094252734744198
0.5530069802182115
0.13377847920281058
0.13454614552914046
-0.1750778826070589
0.3991101730253711
0.3574230704725707
-0.3447983229860756
-0.42884261944038715
-0.5518652522852526
0.6537176392722331
-0.2802983948012204
0.5219474916706309
-0.3850679749644531
-0.8390221906308244
1.1728012188354278
-0.0649095948199023
-0.1617968759366637
0.19214467634250273
0.7469317876807428
0.5678735196938027
-0.5206487627290817
0.3422687430022348
0.2628438534497733
-0.21358657334567482
0.48892209902831196
-0.7954759089622758
-0.4644851578170434
0.2983337372027025
-0.18265052194115192
-0.3761723679865519
0.18370687043907058
-0.1421575903231556
0.3303633055870938
0.4735798365862104
-0.9193115133953759
-0.20415248691574353
0.2717437555030372
0.5152431676139129
-0.5607123423894678
-0.42527516426333856
-0.26924214801369906
0.3990962103064277
-0.6008061469389963
0.5336414110682083
0.02794995749667587
-0.3281531190887737
-0.33472920181219434
-0.8038171626357582
0.06156760313151769
-0.10206354742425094
-0.313172306165039
-0.6109276913215689
-0.7807614458772294
-0.5202528136491077
-0.008169538528053306
0.17369700485737455
-0.05523043491453249
-0.21719038551976794
-0.43213999687226906
0.10731347111302979
0.15544345527228492
0.21825271962434253
-0.3811177137222879
-0.829145753264589
-0.40573485202626103
-0.47430679835500344
-0.5939994294805747
0.0802705814287233
0.44825740738163644
0.09550928781089209
-0.050153634672096895
0.1430359559260419
0.8691056856320061
0.40206152682654417
-0.39059007910070404
-0.4301314494816276
0.1334533029644657
0.05093653162859627
-0.35951721148896776
-0.5010922974427459
0.0754952160625761
0.6428441267760309
-0.09801282967804173
0.1633081267033158
-0.8960825810462735
0.3366191698741116
0.7085619369008357
-0.718513163036655
-0.003340557748549609
-0.8132273065957714
-0.36530691509354296
0.3114933301565131
0.11234890129844344
-0.30126648490255076
-0.24244899491760746
-0.23090827298435523
-0.2674400979151283
0.12143221198538907
0.4100340598872004
0.4209142425897338
-0.2591265048944676
0.5656230100115033
0.1948273623275947
-0.5074684245356237
0.5869979356299666
-0.49955885861866456
-0.03731210337639198
0.36212682901871085
-0.9249527188498784
0.2880860967512487
-0.26232932065876835
0.5473950650121737
0.15166034692840763
0.04645769871054138
-0.3749309074644888
-0.5333010443716684
-0.5066687686467207
-0.10530546143161047
0.20510509463117954
0.2818448387723113
0.5184314146351456
0.36707720404412675
0.3673963993356738
-0.5608233729607611
-0.24355388950326937
0.07668491999913572
0.1280345659569666
0.20486462946913783
0.10376460635945865
-0.04190870734395599
-0.20516650085360244
0.31912819021377103
-0.43450662233868187
0.22287838373311716
-0.14193671573340602
0.5848127789234816
0.02040148802556472
-0.5262622086100626
0.12151249349381764
-0.2988466514820898
0.11333454338662707
-0.6592777050452662
-0.27828878422096576
0.1545480261674432
-0.09889791830270715
-0.16326853725122942
0.32593660475893743
-0.19707064999082097
-0.3234135093854022
0.5944280869427458
-0.051420415341891325
0.4677134067374746
-0.1707742015397457
-0.4629781696860446
0.34714233463605726
0.9533528374607754
-0.4223157990411136
-0.05095082475418192
0.3703289625326706
-0.7076148965748034
0.8291373842218929
-0.0007463754523110463
0.4644455725710978
0.0625387676431543
0.7134105000647691
-0.4484309195261699
0.032391950404716464
0.11987792526019346
0.036457639381599745
0.49120667890272735
-0.5720362339146278
0.28356532593064154
0.055861378614359775
-0.27834951147555376
-0.6357745642268207
0.2412139735328006
0.6076984042999236
-0.24006846871462367
-0.15319291683681316
0.8441867004842136
0.22456360415458268
0.21237318648779205
0.5029909399637159
0.5429578187396412
0.1557277370739177
0.4926679006573827
0.5590621986215331
-0.4055196114711894
-0.41981673532905783
0.1627733660845446
-0.2109339039788737
0.1439099908478722
-0.03628219651671931
0.3461142557058868
0.1856931044256932
0.1938472880283105
0.3024644770722399
0.18113344306692614
-0.011717172485110762
-0.5609614064690389
-0.9068467591028394
-0.09388508044122397
-0.18473331474941865
-0.07416443799753514
0.041657928586271854
0.45587404899820666
-0.7420576645422559
-0.6872769416520494
0.26902880918622024
0.17411765485718173
1.0797279895143888
-0.1181361799748966
0.2200858064337305
-0.25183495934382555
0.348889909410044
0.15312503118624132
-0.8925533017987308
-0.3670608400507027
-0.3423270146966388
0.5323875880864959
0.03954070394386002
0.3375410414748897
-0.11005437114293469
-0.09416001982309807
-0.3149776043203836
1.0576284499732889
0.03814562757275651
0.5335101023507068
0.05488153821510825
-0.5673622554053231
0.20593814502880362
0.424232654101519
-0.21577507300218224
0.08633393714690941
-0.23375661546333867
-0.3769025546125665
-0.4364489520063331
-0.620781680026304
0.4171203440333106
0.30837775294724834
0.017508067979502055
-0.3006561624815338
0.4192915746124566
0.2958768573270094
0.816551184055694
0.28065199750945463
0.6231048633498696
-0.25817172900036023
0.1325726100105965
-0.5475798337370483
0.17553115781410944
-0.13738486603860967
-0.37693473318457194
-0.2721893716222027
-0.45755227455222297
-0.01117540429105316
0.029390526136347423
-0.7814776397555109
0.06217185071337317
-0.36753399109348667
-0.3172028743921606
-0.5076133297174487
0.4219901183540208
0.3397677272541199
0.5713691823716707
-0.18495342163625694
0.4730944123418201
-0.6499784600391887
-0.023187433128519244
-0.2566105225279563
-0.13938717350954427
-0.19776430440508994
0.5592279291566467
0.25710187763126857
0.13184685984670744
-0.36382943810599105
0.18578390994397384
-0.6273654527843607
-0.9041230914150498
0.7621510462055212
-0.2205676643295898
0.33084827162864006
0.5643682369672457
-0.5845181478262902
-0.051119700845780984
0.7802031812617436
0.007311612967161206
0.38613684738446363
0.3136694000946588
0.026043147258459493
-0.48899003399247504
0.27339413094489934
-0.6216057583627275
0.054971824044977836
-0.12488648345126689
0.7434978973467228
-0.5799167070297595
-0.09553328432121813
0.03756537138773167
0.26396305482016635
-0.03190328018298997
-0.04606082877897902
-0.33088185150294713
0.47349454571012484
0.23409668731509833
0.531116492057434
-0.5020547153953888
-0.011819605537415932
-0.41186975640986845
-0.2712517515109083
-0.27412486382315715
0.40386120780639106
0.1804995170384657
-0.7005387127423971
-0.28014741290005585
0.21687866354506788
0.14772902562309428
-0.20039851581769527
-0.8156248009956322
0.22231338831048394
-0.7472783094364368
-0.03311585523202809
0.29265464401165625
-0.3996246906452615
-0.13232005031720623
0.5948083499416423
-0.07837771170050326
-0.009042079789565725
0.2787348280713247
-0.5239189411818943
-0.4367574500870638
0.9875557517908706
-0.1767012434720918
-0.32545889425760427
-0.08443079198618936
0.641388383380643
0.19836766510841047
-0.35880792701380093
0.009484788702458485
-0.32335759612508436
0.12323781918225986
0.6548106056187337
0.5237263852994091
-0.06479590683053847
0.002471598221093413
-0.11454848293072901
0.348917888257761
0.38709124080337504
0.5257588904816884
-0.542635653692714
-0.46613525631313013
-0.016219908062682066
-0.24025273114141812
0.18938707859993786
-0.3940021289777794
-0.31648168217870953
-0.18215399766645113
-0.355200757250529
0.09544726575594575
0.267085964526322
0.03836170353741376
-0.2222928456276136
1.3413579214023412
0.18597028573074234
-0.055078542559448794
-0.4845330583339182
0.04082553645683425
0.19922002049761126
-0.05182751021300837
0.3959463245715363
0.17889638202374578
0.5811469391453153
0.5122627493514063
0.18370951874380703
-0.5173681861806051
0.12639134264754365
-1.1089787405098166
-0.11174489670512178
0.6184675742634311
0.6068320242135196
-0.8320452802597207
-0.3390920977616973
-0.4937409309871928
0.7197912556988588
-0.7566876342089254
-0.4921518670082051
-0.18135184917304137
0.10939302711610562
-0.3204177417418398
-0.19309964380613015
-0.09680247588083604
-0.07650575517480057
-0.3731962514011445
-0.2195283708920817
-0.24779226948851915
-0.044948976874654815
0.1564770017491973
-0.23800969926018722
-0.5998564715826511
0.08990095790940505
0.6996863983528588
-0.013626892967944077
-0.5506922377313034
-0.2966608874989646
0.16029037745839406
-0.09917118971392619
-0.09026424072310882
0.0011774491964531453
-0.12191766392818852
-0.08100117160744486
1.5869867884750901
-0.15379767486836182
0.17037427899211052
0.4772904266114698
0.0046092930129188895
0.24284439643698005
-0.38605064774257164
0.20995296486749465
-0.22980050313060868
0.839708783891484
0.2842880320596395
-0.5801588388640325
-0.06423175073272994
0.536476550739869
-0.2576885334705523
0.0604165952299028
-0.6358257776461103
-0.20230159352027266
-0.47096291142988217
0.7710485760620686
0.16563311695122204
-0.13970258781872094
-0.374101317511417
0.4292540398247805
-0.032775256884052466
-0.3140290618200189
0.5335153847545046
0.34669231386227617
-0.6314238108640795
-0.10968706576772849
-0.018430827831445503
-0.05446495027327189
-0.1884976091387414
-0.2298475256464029
-0.2587522368076158
-0.09193577312117827
0.4862729667807341
-0.2651918759730602
-0.19064355238170766
0.24429186078662324
0.053597571991339736
0.32072256424705486
0.39734972799428786
0.07172197060217494
0.38770667907029727
-0.42220104778488354
-0.0375029718631749
0.23555941875808745
-0.5406978851953477
-0.7656565125621947
0.35642395629562035
0.027726634375875272
-0.5777566334993541
0.5579790860796976
0.10649401785789106
-0.1903157034034723
-0.12524122714947059
0.13773616026734964
-0.46353130811188736
-0.2720132218850688
-0.4424653472250395
-0.10184282592839566
-0.1837147819281459
-0.6195812695558449
0.15581023542755723
0.18348969471358922
0.3633770175968524
0.42622294286958484
-0.09948414493897606
-0.23178988581179083
0.11879432245386375
0.37833696804039346
-0.0009736835241881594
-0.13279264283859318
-0.0712913206532452
-0.28466865513630324
-0.45252582419269827
-0.19038798374210353
0.38432516002584793
0.6820134348554483
0.17357114474467847
-0.014233830520596973
0.01771442007905012
-0.3003446755780533
-0.561462944610106
0.4555579186055914
-0.17009843286218726
-0.042888032125824066
-0.4616977018944402
-0.15371287758081398
0.14952530027244604
0.581915611972961
0.26120997184889505
0.8400201218980871
0.2715425636323265
-0.5510669694570038
-0.3925784667752166
-0.5038655733545812
-0.1943476295258077
0.32667321733933447
-0.6222882044721524
0.13714520884736706
-0.6821794291856522
-0.019672299274281387
-0.4935477283580696
0.73837885543711
0.5856046614131699
-0.33450856531792833
0.44438203914114693
-0.25016322856376194
0.019970252321750658
-0.0010172690325360191
-0.03039577315898677
-0.18259777422079268
-0.7283372933158406
0.032099842639872485
0.3956156380846728
0.20185161315847527
0.5714239758414081
0.4395455950019713
0.6491707059660544
-0.8641893328066576
-0.023797240990394215
0.16653602698441827
-0.43948071162765684
-0.36770556927851444
0.19723366788228167
-0.0317456825935368
0.03913808502688961
0.07103815678151656
0.047212150105748904
0.5689065920628691
-0.081662254640854
0.5679054944127333
-0.28913792830169677
-0.33319536142651934
-0.48080075502355013
-0.9122034528624814
-0.29087589196907127
-0.45992455287921463
0.569564731507847
0.014017096319956861
-0.17533218325140731
-0.005750782454410586
0.2919405653856888
0.23283051756755038
0.12359751300322269
-0.2587996455990386
-0.027996322576720432
0.07044651737466961
-0.9278659136524765
-0.7009699947122738
0.5079727181823044
0.3175491315834079
-0.08050796234725187
0.3524000435441943
-0.4974475909866381
0.05516932285206731
-0.6530999085602304
0.19001176162349606
-0.4016929173102155
0.19579475589005757
0.12522590738249792
-0.13279252325185792
-0.09084619615591963
0.6704070850357025
0.46081624196478294
-0.24184729192171656
0.31913577997448717
0.5572433175790942
-0.4902604329062998
-0.3685375545455719
0.2031451702497251
-0.16707667392140546
-0.054177916338757605
-0.7934621872275773
0.30404052856791
1.1949201461627208
0.22816061527779888
0.3694247616020537
0.07780012973166454
-0.006338347683361344
0.4674215930965091
-0.32140766537845783
0.36677990198446786
-0.5222717207721175
0.11211050687268106
0.28715613463494655
-0.5629782629207318
-0.1596572119253912
-0.3293166394914425
-0.2727665022061072
-0.12793282728808036
0.06574969272211408
0.3797340151503912
0.7924429458840374
0.7651642577062545
0.1742601160467921
-0.3152360383049342
0.008717183484447926
-0.18103528622551637
0.07006878542757622
-0.40044736201194886
0.3097082107229514
0.5268487530669878
0.20792942761665367
-0.07556741845341217
0.25512783186020893
-0.2940095762302962
0.5314655709677797
0.3784383176320495
-0.16597237869165005
-0.3761773622589129
0.24915181895969182
0.1515539692338478
0.08541385344951011
0.14142908238812774
-0.46947708260980514
-0.12473025451750491
0.32619946580050935
-0.167125542241859
0.5778415971907184
-0.271386587226401
0.23209303138530313
-0.1553151756961277
-0.5510763355740034
0.40970427871732445
0.9009409633253744
0.920001872798924
-0.5155752089507358
-0.35849485212954785
-0.23058580424827618
0.03548484004835261
0.2884606932597469
0.3049319119623887
-0.08231753152062934
-0.19628030644506914
0.20913977250545257
-0.1121877027358916
0.2277337064367585
-0.06683796589515825
-0.2890397095263059
0.5120660323305134
-0.5618553278127953
0.008693253093203417
0.2695465253846091
-0.08297118913856014
-0.016750903209542107
-0.20319772324824098
0.01371265833828814
-0.5275167188759291
-0.1200267372386987
-0.5221027521365635
-0.31813273529255964
0.32168798826594824
-0.12453361250264033
0.16616631716357902
-0.33130706643217755
0.3576719163972105
-0.08622091797756173
0.1117714244210799
0.14440257923133076
-0.7110348487151509
0.2113158793513511
-0.030693583872111664
-0.008704004089743273
0.48141301339059756
-0.17470180102956223
-0.3491831660787752
-0.23837282341886967
0.23033325556694886
-0.080808123464776
-0.5325576034550298
0.23105158169421477
-0.19990406466894833
0.23844010447883174
-0.5312897106185209
0.4052347179318556
0.2741219419394687
0.6322074507170576
