0.08648135109930893
-0.45980991357238715
0.052802678032756616
0.02559024832324163
1.0318646316560744
0.16792635538152292
0.22156296505611459
0.507990421802636
0.43796420482334447
0.45256894458093144
0.06888086570636476
-0.3545547483573528
0.06910989268596156
-0.08055041996657165
0.5994305573247724
-0.35720418520610336
-0.09250837935221506
0.13421586377820727
0.2314338098177604
-0.4262784973789527
-0.2352249808420379
0.7410994454394335
0.1873355185407359
0.5661746253566762
0.14588738716389127
0.28540134690610897
-0.22058185373596634
0.16169362849835492
-0.03117567702734937
-0.05232546312166152
-0.8050978643777511
-0.6212681743764316
-0.7393901094833445
0.3214296433471415
0.45471751341514366
-0.9746749807605382
0.1726831389907548
-0.29870904477100824
-0.210953545919654
-0.17205880320809083
-0.7637847312677816
-0.34000884471946063
-0.3744195682322075
-0.1457846829124709
-0.1335603737400221
-0.2599756455234805
-0.23415019542092239
-0.09592828991639923
0.4369573694865714
-0.6245307381637426
0.5654456138436192
0.40142494640466364
0.3363204806340398
0.12434611541388958
-0.33184411319326756
-0.4219852749825562
-0.3614143845213024
0.4247787955149897
0.26891072323930737
-0.36752168741225894
0.24275815674458476
0.6666566461255755
-0.32538630248311773
-0.5001861495203319
-0.007415773633861541
0.8402003766530277
0.2981757883782851
0.540566313947656
-0.6428725963882628
-0.2647524442322745
-0.016789076699398175
-0.041115126740301405
-0.7153830425327709
0.6503008340900008
0.0958714376924424
-0.3885112881225683
-0.0358674872870777
-1.0088381988545667
-0.576738612234436
0.16788726164091344
0.45189451263413744
0.18052405141408492
-0.2933223334054764
-0.34911933775049525
-0.7473064800160006
-0.12538546065890652
-0.2544234547288511
0.17519325516370043
0.306818327495259
-0.32912951733980017
-0.14604460255235907
-0.03711723103772203
0.18732227174409316
-0.8603422648822969
-0.7491736009326853
0.6207544772811888
-0.46182782889905
-0.6871756605768785
0.636954308584017
0.3362546229156953
0.15262508998153365
0.035986998383266564
-0.47148735037050055
0.34073064060905667
0.12298822158686419
-0.30172257239266714
0.7095058954093297
0.04366122412542642
-0.19680069245079126
-0.04383114670979701
-0.17310519334050395
0.3749545205227432
0.05191439347905114
0.269512033505993
-0.0650317600821637
0.39541300262381834
-0.019273773442035846
0.10628215728737206
-0.1465409714717378
-0.10567255705020726
0.24359647613760815
-0.5256993085107531
0.05666769832167834
0.21163891103643676
0.11197438146511961
0.30146729609964
-0.1915908408705336
-0.22058199183524188
0.8002051586260545
-0.6016206663075494
-0.15828958623625308
-0.04809559478299992
-1.029621719335737
0.06884617041510403
-0.17222649416621444
-0.08800614227582497
-0.7628881343750529
0.3972731033462738
0.009040589322277895
-0.05209260039966875
-0.8969751836654273
0.2944609422805184
0.3186248639516343
0.5589254428275691
0.04386325902396494
-0.01130757553564602
0.18163858267381283
-0.14274202648930145
-0.3024368367242843
0.09694963488764158
-0.28091316102986424
-0.16115414517741594
-0.11514304886902138
0.7118239752875876
0.3893808540750815
0.26808100478465047
0.47946592672765986
0.014367650504897161
0.21699760922632916
-0.7356260209418343
0.08190195708040272
-0.6779979441606181
-0.5790231257854118
0.7468653034809355
0.05257892780473977
0.5418864272768124
0.32206342007670097
-0.70885665729598
-0.8406253117196246
-0.7841275758519926
0.4857659950150584
-0.09899346189925343
-0.3883151464202777
-0.39552674266728494
0.4047189807658261
0.0649030278956804
-0.07504051857927703
-0.4711311531431149
0.11299610012927574
0.24155999774876383
0.1698779960814855
0.2349665743272786
0.3236188313638615
-0.19501377994505686
0.19428966871173253
0.023072952471345238
-0.1374948351808054
0.39385404189029316
-0.14844003727084362
0.08540845007722367
0.3069348529373445
-0.22902614456099815
-0.4554965321645663
-0.04025680786038138
0.38765791129784055
-0.4816886547500906
0.6962518655439767
0.01525864211160189
-0.08587706497932937
-0.6813043857659085
-0.24871380190210446
0.03958444864612236
0.41898607674131694
-0.2599332694628377
-0.3871876035575394
0.46011409216009375
-0.6078569074497965
0.2916509774508891
0.4514880988922809
-0.025388420299643565
0.3328783523314384
-0.045468724124680414
0.12679971940449083
0.39387113609605645
-0.21580162511303766
0.31087407944579915
-0.28542548646960225
0.0369570740531538
0.28915553353176926
0.4679127713310299
0.5432979895762533
0.0205491659713821
-0.291149442055982
0.608843791395609
-0.4083570096012687
0.2896600609469558
0.6566806311820133
-0.20064910070120903
0.4010315483263308
0.060770958003244405
0.10342324374357817
-0.10444928448016026
0.23893226531443945
-0.1988178223944682
-0.2832803214731661
0.06550947560180469
-0.5656211540644238
0.49475992530474183
0.18901053698432532
0.4861553152819263
-0.13943943487933802
0.0180706974433316
-0.2984258783886989
-0.15917472995697649
0.19058098132136395
0.40098069598376845
0.025428579072325246
0.6436683181230469
0.7652543409532929
0.06893345647181941
-0.5984698858097913
0.051824818024623694
-0.08022109113209995
-0.09044713259546733
0.11347213750698094
0.27561772969120685
-0.1648477792418593
0.09061302741663228
-0.3501853780854691
0.556169467091242
0.026507017207408876
-0.18882806681545763
0.43271140596544705
-0.010373020194879602
-0.0345620476737832
0.08827465741659396
0.3013375799764782
-0.45336653858047565
-0.37795600076484764
0.585722370949419
0.31559341295670457
0.05350876139837945
-0.5956379045564872
0.34776718854546146
0.3668966101993736
0.0992288481014867
0.054645207921470214
0.2914827728497179
-0.43089616104042483
-0.9039890823787913
-0.6986428901316083
0.10026060818288231
-0.10119628324867826
-0.1095121139306425
-0.2056419766446464
0.9970372119353615
-0.6464669259678879
0.7320534319827084
-0.2843189667431328
-0.2580563333182226
-0.0349192658354383
-0.39333171475917683
0.40340167366525803
0.8424845404481488
0.14275143774344817
0.3317701388596212
0.08996960415362788
0.6483333310266602
0.48526584096388997
0.26916410422017994
-0.5043697009172871
-0.018815148154912
0.1399411047194484
0.701373446210231
0.2106494301074741
-0.023443691240901073
-0.03431153727429754
-0.21931785289318773
-0.114898856449159
0.1684290251692539
-0.4017738362589394
-0.19417195658939962
0.26199700403672427
0.39302059545321466
-0.13519520769522606
-0.5316169245221722
0.4774151226637656
0.5029605622837259
0.4545796618536304
-0.9663775074883005
-0.10318587186513553
-0.31530489062890027
-0.2561844420823827
-0.47824028480515607
-0.009361173392459916
0.06384735624715292
0.20638677404882638
-0.32813278242474414
-0.11653440920841387
0.7075019310847653
-0.08676629044887793
0.5617149139562664
-0.7717116398456234
-0.4764765746012072
0.09990039595232152
-0.017258832712159965
0.04185145957360404
0.07282912220750568
-0.4271405789975475
0.3557187715409516
0.19252146524481695
-0.21406561428143028
-0.20913439294506544
-0.03747536557690418
0.3861191665615893
-0.03421776422678869
-0.08347811273522761
0.032836504919557925
-0.23972094953054135
0.12286667665921941
0.03115854567942836
-0.634737709744599
-0.4165772287247359
0.28296600316968434
-0.5268145325893899
0.11464761057063798
-0.2599592051157422
-0.20865285682092116
-0.6030241699906743
-0.24454462976243294
-0.06092484609954478
0.03349220758740219
0.27094374106879643
-0.1077114617966714
-0.3237955480174459
0.21834097704189132
-0.317318555740986
0.6365732320619885
0.10534387737952634
0.30284722426112576
0.692134951419563
-0.44323881857886044
0.3012678785492642
0.16298085683012123
-0.5008418694487844
-0.6588249982231714
-0.5181885462100431
-0.06608919227799949
-0.41812755315862066
-0.04781701397976716
-0.5110587549577172
-0.10374133787878477
-0.2976502422482517
-0.46293229408804326
-0.01077198050171699
0.6883223219350048
0.23072902407488546
0.09319866420307532
0.099659412204861
-0.22826289162317587
-0.029010270067923317
0.4877072391110385
0.03401117187981813
0.7110423422119745
0.4104187552194265
0.3490316143179311
-0.34553891193978653
-0.19824958212485785
-0.5296230868350347
0.11111051474019243
0.0061149431338583405
0.04502900777727674
-0.09948072516135639
-0.22364233208430648
-0.5337375244242845
-0.4938390856040369
-0.3456809658597505
-0.520881385755291
-0.9034336352450008
0.029137657300814135
-0.07713555920800837
-0.3843218338807283
-0.5138055216720392
-0.23124040373665
0.5476176122598768
0.47111631346593164
-0.008979992680750936
-0.3828070181741532
-0.30415480236727266
0.4650217494712632
-0.5730388556142824
0.7679094000128006
0.019404550406428408
0.36658996280611417
0.23307534326615084
0.11951645632922737
0.479511960520401
-0.022063228644004212
0.025211731691276634
-0.7573038754897251
-0.0793145427377585
-0.05278946439523122
0.37374674154448784
-0.7477178188907664
1.1420590399794903
0.09774555362579593
0.37112130632408175
-0.5087183335811609
0.19275107302674202
0.03761815001082363
-0.1107548909706231
-1.0778383741359752
-0.4024328814451197
0.6939929369824919
0.09652940261537511
-0.41345196682655094
-0.5515360410689103
-0.47086979939223195
0.17388429485217458
0.01885722278008475
-0.17852410342575
-0.30318955004850273
-0.16162977816311314
-0.029664101755881196
-0.3202613055723424
-0.2940009245695733
0.5762774858246784
-0.35980024468730754
-0.12516096667664983
0.10997863704178268
0.4756945776135493
0.7005798657900061
0.32411042800206263
-0.4480417222751662
-0.18496463664965365
0.12254948512987476
0.25135157945785896
0.14418697764543126
-0.5207944187407648
-0.014305575298546598
0.1978599670091112
-0.08732973220489446
-0.287661963904752
-0.2303264691906421
0.28971596068046934
-0.49918841843951406
-0.779312754141586
0.053189244979704293
-0.07559091174145918
0.49660567305077685
0.5248713384490316
-0.47249688172429644
-0.9607816235447297
-0.396809970715948
-0.5893042435789774
-0.32244521366386997
0.5830003584875753
-0.030787867424282574
0.034362608189085195
-0.12336414341096354
-0.5226040797676075
-0.10680832913733102
0.40114893467769547
0.42440244500665575
-0.20216056828565043
0.14375209570122754
0.11179484419048236
-0.20422468134608654
0.5399594043090621
-0.33279734208211154
0.11745971765686872
-0.3779640987965783
0.03211756708356911
-0.6751495610901111
-0.406135409646028
0.3364537922994208
0.03551191646758227
-0.1946800491615067
0.8037760220367267
-0.6956096370609128
-0.14142579682979411
0.5154005545158856
-0.05092055039342726
-0.1484281204235627
0.2799609147926761
-0.009247448946654883
0.6324495972783964
-0.6894654908705294
-0.3726051815360488
-0.34485843227952767
-0.4749816719924819
-0.18405111335010876
0.7861964499742004
0.31447639070467037
-0.11475182433649735
-0.5561063160790927
0.05151794294492044
-0.5657548175318459
0.10667108094969717
-0.39612737961739514
-0.20429400550304885
0.03420820907083724
0.015170046192416629
0.16345159753146324
0.20059582284183228
-0.010505108103254774
0.04786461317288953
0.7385340841993819
0.041503336769792606
0.4471283722683271
-0.2347059116782985
0.6337059014822828
-0.026118367959023885
0.4292550858746844
-0.8936462011802603
-0.6561299885854053
0.24736505986354948
-0.3460515171036871
-0.39271712072873904
0.6229661377237011
0.3570015769435582
0.14505556976225983
0.21729666691470892
-0.21432888468013422
-0.050015162463090825
-0.24602808887881583
-0.47377177106071144
-0.37370702274849704
-0.084521000536958
0.25230024546016044
-0.17024261443037758
0.04417137298024762
-0.22939632679050162
-0.3114704651067897
0.06996618342561275
0.18343802780114282
-0.22915910211086454
0.6116939455864342
-0.0635160282005499
-0.43257620043188605
-0.11820985076601447
-0.06386430454935592
0.16465201525533707
0.3754738051872129
-0.16334515981794848
0.48737227819007095
-0.201191807982722
0.06788580432226615
-0.5745266618550058
-0.02848363464028272
0.26751589029644923
0.6293283923758782
0.24080465671489518
-0.29534979462220634
-0.05588230187617378
-0.4037776893338871
0.47557752619964894
-0.5786137762258471
0.33363644639704026
-0.35554613611572883
0.0412472376651825
-0.25562421032721233
0.3748589554933774
0.08343950136669472
0.10500847730977132
-0.43024116681910796
-0.24994485644231448
0.5587434983580241
-0.4201494223140384
-0.8734588164958107
0.3151527790427166
0.24361635331207604
0.23484065493893333
-0.16161031372291287
0.42557750382248544
0.7016449097839451
0.35304139244443783
-0.050408345967489755
0.3759832971778861
-0.0686411093343233
-0.4467892900473295
0.01681550234718454
0.15116298418438834
-0.23089591204816648
-0.024514299036135247
0.06941112229315927
-0.2203774902892782
-0.2892025112728205
0.32321998054947054
-0.4177741423345345
0.6261162660924674
0.06299671295689666
-0.3807676656448851
0.0923669424440594
0.3863098199233108
-0.3268834438404948
-0.619313017795588
0.14246099636551518
-0.14198542698219943
0.24897239572120805
-0.4290365476886621
-0.5952015889130888
-1.0001051349648322
-0.06755065886431771
0.15993935179044444
-0.20364233175826185
-0.21049983413582102
-0.13560927088747246
-0.2220924474059184
-0.26133204370728363
-0.11284385948615305
-0.28547871618836596
0.21885432893718135
-0.002812565050460124
-0.2791992002646968
0.2569892502701799
0.5810098417152272
0.5324049267435965
-0.06629495987955988
0.07979729878454844
-0.19331184144766253
0.14265096275641595
-0.4217350885497177
-0.3877034767377535
0.605637167485255
0.12689752020842313
-0.6637321937322878
-0.06968003306046418
-1.0726378953687112
-0.273478683448752
-0.19853701431647786
-1.2607935493100646
-0.618815074355037
-0.2618331348224804
0.4053112231180424
-0.14827168123920445
0.2504753158682552
0.01165495844398642
0.24348273538274925
0.15222173083571935
-0.3865865442273839
0.445902570251494
-0.6590008903960958
-0.027524161423331014
-0.33637933411395243
-0.3121768388804356
0.4153446644559069
-0.6081718661516946
0.3455912057307236
0.1226677615946754
0.08129698285728687
0.8021740643099019
-0.32593027557912757
-0.10925647681029015
-0.3981369596447709
-0.01372819726827754
0.38185800230855915
0.26002101392886784
-0.41136407808261877
-0.5603122929949881
-0.48057866333037647
0.5326399600446136
0.07397144943694016
-0.16418653600873276
-0.1616874042238772
0.3675525473452842
-0.35018157321961646
-0.09117171607111621
0.5996236417445235
-0.269847177827391
0.14733667568727835
0.014521751992820547
0.13112869512071895
-0.8675627439689588
0.41229243190937914
0.06948228358384587
0.02917456292759874
0.2475173189725586
-0.40067229158174883
-0.16002819682317163
0.5590569779785463
-0.07532969741283399
0.49878672498454174
0.228466734024446
-0.3780375316043259
-0.08249982321384043
0.5865785902968378
0.07908248165679597
-0.23524812202694473
-0.1248659310826008
0.4440526542823285
-0.06263444797276449
-0.7099752062322167
-0.38015904039362547
-0.12308100833366319
0.1461687592766917
0.460158257998025
0.18254739807039966
-0.007588712782368002
0.38984661253490205
0.08281461760132627
0.4374789119505554
-0.05778768498670839
-0.15039647924285265
0.5775966916402867
0.7806008064228886
-0.03842744029030669
-0.20758639225965614
0.06390570766649949
-0.09564008454057439
0.23274044526728133
0.02386490469710227
-0.6939966714750126
0.037552705154064704
-0.2409321834352871
0.4245209039780707
0.07375350159487377
-0.6953450392588655
0.2049437659747128
0.3206144732265318
0.7217873992152043
-0.701706874264491
0.26615268711543144
0.5217527886265452
0.6482742851472854
0.028317147198333135
-0.08278764378037606
-0.3359373249978718
-0.09652971417894976
-0.4704275833308072
0.34169363991277807
-0.10989022721764923
-0.31749812540170375
0.15292844775344983
-0.9779286042503048
-0.30443181339030484
0.2524958417394153
0.15683296280909675
-0.22296551790351815
-0.2142326044212545
-0.13027693497327672
0.5217077730884335
-0.7632957162205152
-0.3682978389657852
0.6236398932426667
0.3672628286221559
0.08964212127931229
0.37819349065849756
0.2969334839972138
1.110970149770827
-0.5524093521140097
0.06250978468505487
0.20289371714106122
0.5861305585395006
-0.6394545013503089
-0.1869550226503825
0.33765149791771576
0.10729690508642858
0.29408478604738225
0.06572348772583848
-0.20155897198123499
-0.6499653075121034
0.1403660181053934
0.0632923013949695
0.04504182641099565
-0.7473112987524938
-0.568954873365555
0.6156242274931477
-0.3158547192886908
0.47865902407692884
0.365406429418866
0.6240480302672443
-0.0002862254384689324
-0.14558684136082356
0.037130373597560114
-0.010507238218198099
0.1691833164660832
0.07264787812263872
0.3828097793240871
-0.6310445742215944
0.20632695687799413
-0.47262671143073287
0.19257477803289702
0.7135890215969389
-0.048080853825690155
-0.8797477270135585
0.2153325072633137
1.1119233110586189
-0.5749548920660662
0.06617217268591852
0.14971300163931422
-0.8580674842437309
-0.4909097869743652
-0.04285888451758545
-0.6624791638324328
0.46908092370802457
0.37556256890778084
-0.00960148312823344
0.28834984570205136
0.5045068423752932
-0.03270207753237378
0.2539604952902514
0.05759279041000333
-0.24649440373131787
-0.05985863952900894
0.34613167360814295
0.2011381088150111
0.46150990782277834
-0.08137061425780225
0.23108337814397795
-0.1437116404752325
-0.11037163568798097
0.004111554118978452
-0.3923541760449862
0.06073781947971195
0.4671203892893739
0.11362792051670638
0.16421235704184145
0.45433962482313256
-0.40447405943804243
0.48168833377080034
0.7036719592788084
-0.7590517563774674
0.052894399566540864
-0.4530796361573518
0.5528000173152388
0.017183333757807565
-0.4221541234966936
-0.7304081439401438
0.23017112879414922
0.20242641024748612
-0.043595835170208576
0.1323298867968249
0.2444276661388153
0.014207964582219137
0.20482818140274558
0.4350397145015039
0.6579337622010494
-0.5105532209904079
0.5839586262984217
0.05322211960456597
-0.030706262891809978
-0.24918973372832223
0.1374818774757952
-0.6218671922414605
0.3124347697441067
-0.07637616973210519
-0.2772188164301059
-0.10277194382387983
0.07304218347719034
0.12543457599236868
-0.7677322330656994
0.43784863857555856
-0.06194206279631592
0.21057591995564237
0.5675048183273554
0.20612450510009603
0.4674485855537764
-0.06933778451823185
-0.17483566584350155
0.029797206528297968
0.39269685130443693
-0.2635607064328456
0.482328859017424
0.4843635615403497
0.5468688070365391
0.3478342361837833
-1.0241901512017648
-0.7134858751667289
0.5414885985355429
0.4744396048777718
0.0695258302110792
-0.4051670055545942
-0.13745046397494712
-0.008727496332688897
0.07024513992481682
-0.0708246979208425
-0.4076344903044697
-0.6044228938439302
-0.7219231206502403
-0.32528715302743577
-0.6560411456359018
0.20185943319751187
-0.11210177347322209
-0.12703111976181503
0.3523681196114737
-0.26174258722377125
0.1910356135830852
-0.6810443196916273
-0.1360713587877414
0.08854275376044594
-0.15501247236218446
0.24572438852653117
-0.11948679107930116
0.014414734910634297
-0.31188389881502576
0.43915793741276243
0.5085082034470153
0.04848453635604471
1.027663725203129
-0.06471913821276642
-1.0667559651187666
0.4373238581620012
0.028091237296590087
-0.42729567118916867
0.12423133641527571
0.19216628509970243
0.32599788627213133
-0.3069087709867606
0.04844987942648715
-0.38697421283876443
0.05779793821671325
-0.3511032221960776
-0.08292242961666944
-0.5785273291640441
-0.32601402106698374
0.32373116285688314
0.1675895857971967
0.49325363700837266
-0.03828944148420638
0.7625138229171395
0.49636295230517813
-0.07213729314583221
-0.16145920138234632
-0.6801153900139817
0.30713819558089345
0.1994108532525222
-0.4779153847191474
-0.04069143897227686
-0.004180634736588367
0.24365835296340016
-0.43915445090404676
-0.203465459766375
-0.2122518210323694
-0.8489462428869308
0.1605642964561717
-0.019614871073003314
-0.07454966863556707
-0.29195313465260425
0.2371278867936213
-0.005375181200587686
-0.05963758687714806
-0.1349677801605464
0.16515103199867542
-0.11561006961899625
-0.456872287291943
-0.5547027203038071
0.523627380441927
0.26900938954852954
-0.20722946511866233
0.056998668065033654
0.03469916805006568
0.39036118687015164
-0.5301651437585456
0.07412305840753693
0.34771272302741035
0.4691319285244182
-0.24610037749343874
0.11411832269655398
0.008160215823727654
0.6539791554579573
-0.3610160201191339
0.35703020675069347
0.22160043044571215
0.7336727127601075
-0.4355835742546679
-0.2101242666297647
0.5806995394823092
0.20404846625508954
-1.0584141539679528
0.5326632483471185
-0.5608126582986729
0.04819514631199191
-0.17611156569712275
-0.12067462939642656
0.5558952939930484
0.8200874000892838
0.07045241858144455
0.651179333498729
1.0517973210652913
-0.2346112152315413
-0.054068505695494824
0.04084653560322095
0.11012698363063742
0.0026939913707519263
-1.1072278973206975
0.5090803544967281
0.584526914691051
-0.1473034421656587
0.19758873166270363
0.49684622122765565
-0.14459696932092042
-0.7919000058928681
-0.46309516282761926
-0.15742199142048896
-0.48717677026473916
-0.13022545573506702
0.5094562568366673
0.12133966194938087
-0.37576367039982006
-0.13351643000164534
0.9426305765314359
-0.06837058837556245
-0.568741256230362
-0.5156687476553177
-0.05729306187939501
-0.5346478336577868
0.10677907114809793
1.0727280542266608
-0.016579832468582027
0.4039697264519925
0.6362308467690442
-0.027614413033061766
-0.03447187109957648
-0.12967562945822173
0.05596584714141949
-0.5099726354308995
-0.220819548391938
0.3286782948637086
0.3709258091518436
-0.3506615273614525
-0.06445670018623101
0.25928022320326755
0.2474987580616477
-0.1663214632512686
-0.5293651750629754
0.23325108987798993
-0.06939405005288182
0.05092093240140848
0.2100227379284348
0.042600190911078174
0.0328146748200675
-0.20977603542057752
-0.3260651523836413
0.49249138856830765
0.23851633716070234
0.39833116926010553
-0.5161694077775718
-0.3056680322714092
0.24821837409093758
0.8077239178267743
0.9364743683125645
0.07114612568721974
-0.1872498596095286
-0.2587974545913466
-0.18997254320444257
-0.4101541357079093
-0.44549214567557543
-0.6742032435665986
-0.09181014316095859
-0.3744822737994061
0.28325658906782036
0.47859403768749403
0.6237197571655594
1.017031367007819
-0.017078967708137865
-0.06481398160726619
-0.010248054204949324
0.2035383477735914
-0.20577023440106088
0.2123636163920637
0.25572813626410407
-0.22348403740286524
0.17237622930823107
0.4390358182837786
0.9477627263735897
0.774459592934523
-0.18629132792991873
-0.6688120321477999
0.10713355375670654
-0.037429969370536956
0.24855477373345017
-0.16783907395080006
0.20214301995142794
0.5423593746512825
0.4676058618856344
-0.1366810034809171
0.15341481793829037
0.5237401896838617
0.018032248300236368
-0.4280551766675854
-0.15366889077077467
0.19277798130758608
0.16935928328515035
0.3030681040018131
-0.8256839140952258
-0.2833561028569122
-0.21717876128680125
0.41501056273021103
0.23859945775731417
0.06692619383873366
0.20912760283746837
0.7694133842021522
-0.38924521721569827
0.003849177550707052
-0.012157529663646086
0.6312255729247858
0.7047700232886193
-0.03911257890233264
-0.2263904310911386
0.17370895441903458
0.3823121255838162
0.33011693054680097
-0.15021942319599854
-0.6358866774291992
-0.10577289261451918
0.49059656660026163
0.2056546649091693
0.6828095239047672
0.42872853620979007
0.11376215362279635
0.2904251146766064
-0.0749290725589976
0.017386681163276078
-0.4624073375752975
0.9780945564205312
-0.07222217973573221
-0.23788168730114034
-0.447568028103637
-0.4413926293437951
0.23463852946955058
-0.03054297804922139
0.1931465347927972
-0.2927010451365362
-0.07178753045222674
0.17277098972972416
-0.03382040685157809
-0.308922414531886
-0.07118831242282508
-0.7326902724887195
-0.1429023169671276
-0.040884860416194053
-0.7008919144309227
-0.29239655131705444
0.17350407347299335
-0.2150981022585295
-0.32802840118122867
-0.8811936992437915
0.5515972277980153
0.09088274237052658
-0.16970966056685025
0.29290767902763687
-0.258460489040026
-0.3013020369226964
0.19749621627714142
-0.35461558257444903
0.02498262100405795
-0.33175007149483976
-0.2996226569890907
-0.7205226506262871
0.25820993371491835
-0.5515510494777732
0.7243801880719539
0.1705046174147615
-0.46119397072988094
0.011147458237406763
0.18641619422738936
-0.13708123647052461
0.3158551008443709
0.3352032432015088
-0.02353120612001713
-0.1710044973855986
0.4092300178890499
0.39187476917597247
0.26086233834221917
-0.7236392176806227
0.20830913680915972
0.04927456958079586
-0.598202929130195
0.03359702549320319
0.37204924658048605
-0.9943785485978003
-0.47218074194329646
0.1363024319093386
0.10771446982268358
-1.1641201825159726
-0.32306572952578205
-0.7261711927818579
-0.293411670598454
-0.03486929818846712
1.0301199106954457
0.036227549743485056
0.48457723038266914
0.6259784509868594
0.06995710325658978
-0.7954495267086891
-0.2706559253180118
0.3686253555813561
0.23449699133962543
-0.6910500854947833
-0.036113618191816924
-0.11670360821627705
-0.5445993523204528
-0.39923565685804757
0.8053251400304459
0.20224389668375253
0.0022327070027750927
1.7387085879603585
0.6948916743715758
-0.028846756528132397
0.5940790381663451
0.12200586076727116
-0.1753227235130338
0.15969333670191427
0.2927510937797537
0.18311767549991442
-0.21934394637341798
-0.414854387806973
0.2805303874496276
0.7955157985535737
-0.24735118728865313
0.5647949018304753
0.2713391264488556
0.09581323314263258
0.1332930735124615
0.39222463304647176
0.7572109101302616
0.5541751943698081
-0.7924276192336698
0.33586732999360763
-0.19441691222121346
0.11328382658640361
0.4419449614785859
-0.8812712012240331
0.7429675322157736
-0.021763844141119978
-0.454504727339838
0.6206057239605137
-0.15812050342424205
-0.2926776243525258
0.778563233935603
0.20614070947853838
-0.04263360449185345
-0.6970460710771672
-0.24669602086043757
0.06654322956682916
0.31400811600888456
0.008185896390276675
-0.18531390358145822
1.1781610402637885
0.11044980707016805
-0.5431108293857433
0.37400236630276334
0.6181438231127643
-0.5816377105978114
-0.01628025730060484
-0.07145516030538483
-0.13816721445944696
0.4725755476047563
-0.31770948479979505
-0.04480791315653624
0.29674854258652933
0.5488797179994694
0.1278585307951134
0.5460691609410158
-0.23329422086723065
-0.7239227400196162
0.2061074519646129
0.6196574253912758
-0.6496160869857648
0.31347491307357006
-0.025610559346952673
0.10412892026642313
0.6117565721047518
0.1252300034015889
0.17517971757544995
0.6175572201225109
-0.9763769369195517
-0.5778141218668361
-0.6425787851406884
0.12535081432062928
0.1352394373935905
0.20344888743511041
-1.1588407571572699
-0.7238321940061606
0.2739590735593686
-0.02661839996130044
-0.42404966941659855
-0.11000096724497785
-0.007522997616180102
0.04570983391668447
0.4300650306526937
0.3709651843468402
0.6346265948590333
-0.10511479414994307
0.17538884281128636
0.13069369563136482
0.16020573380054903
-0.23410183695402095
-0.3185924545831652
0.8140658362112719
-0.3461229288107965
-0.34263654351477807
-0.4603841276285168
-0.07405954838570875
-0.5296540239872211
0.584874214268743
0.06595595719490331
-0.584273059760132
-0.4806733935369437
-0.42673932902085127
-0.22669677384630482
-0.16273980146181896
0.4435331581531593
0.20250466857694924
0.25046137692005394
0.3112906312485431
0.672328284868407
-0.18005609826089558
-0.03349159868960552
-0.5584367799226096
0.8433500603907735
0.17787122474249809
0.3858351080501329
-0.31986214883835584
0.395757728414694
-0.2853821371001216
-0.2183968869685749
0.013326848149891412
-0.044402745175714235
-0.46499352951245637
-0.027253179988237047
-0.28113597077864033
-0.46177901419308715
0.579986741319428
-0.21983435227629403
-0.409081285192089
0.27929265116817925
-0.40386812157700563
-0.1805586493476341
-0.2307117710800175
0.1359246043203195
0.5322637185054245
-0.344224360633746
-0.06570786868199059
-0.04345130518938014
0.6575261751171375
0.10308992719320083
-0.22953390085144224
0.1471931333867723
-0.00875782734026873
0.0828599575593539
-1.0623323146283867
-0.3216991707504927
0.13620161222699603
-0.4208987199261318
-0.9334428623423445
-0.14137834377798572
-0.10166700453230092
0.23301282191499922
0.4973279475596371
-0.00027581355775325815
-0.048240898450534656
-0.1772541252575905
0.1522229702990564
-0.038986716614289804
-0.2508038582754924
0.18696082373365042
-0.12421272182706167
-0.2531008694384061
0.5720399147487663
0.48795264104655306
-0.2738275768483791
-0.2719551534169122
-0.3552227863314419
-0.189147711236079
0.39645669467612477
0.32014870332376116
0.08280613832501074
-0.34070842945577273
-0.09722877585731436
-0.15688700610830347
0.3082877137149549
0.051928590384971815
-0.009601945377965349
-0.3624492769521904
-0.14129101573917396
-0.3007452336518418
-0.0548658594965642
0.10721805236873384
0.7773003764707239
-1.1870671965815214
-0.4081909506821845
0.22759124343397422
0.7026888222377085
0.11875017050427744
-0.9098157010033309
0.0391897935057626
-0.26949073138249807
-0.29005251583467434
-0.21739483911274746
-0.07608735150617041
-0.8250371817685045
-0.9083258407312546
-0.044313506131899064
-0.27029150979150485
-0.17729551530115528
-0.4989825450492541
0.10384692195761813
-0.3117534741851771
0.4977783794820765
-0.08912571272586484
0.3889381759739721
-0.20801453741866333
-0.4825904219087838
-0.4190942263231176
-0.4451235365723825
-0.7465116979816894
-0.10069649685352176
0.046256356972385254
-0.16724809466392337
-0.3043785920691704
-0.22329711247922052
0.3557431841462225
0.04342347824777512
0.21315641902567978
-0.2718351931121345
0.0601718615802833
-0.2695121797893016
0.006277681236394524
-0.35189511841094323
-0.02018767893123945
-0.5491116388227434
-0.37606731905162943
-0.45334006046216596
0.24214809128781997
-0.6352810268951539
-0.44395049898516
0.17676254293841648
0.20344484153342232
-0.0003298976472995296
-0.5724298469237121
-0.8007141142442592
-0.28241951433398527
-0.5498899223167493
-0.502247210421608
-0.7556851579125313
0.5136638275962223
-0.5157772589027537
-0.1736738030546257
0.348798204998657
0.6914679984439719
-0.02716236899576836
-0.8220601292504486
-0.04771294923694069
-0.22896513740773167
-0.04039078975785674
0.07218841119479892
-0.10031955009182951
0.1887527161293251
0.48004088923701604
-0.2657536272626827
-0.09067861252922492
0.04617598824472326
-0.8815539949857965
-0.2920321115391777
-0.5067612522604262
-0.32332785163508493
-0.12401670228196157
-0.05407185220818568
0.6301038213360846
-0.4347316071832614
-0.16566790578291407
0.17432556544441608
-0.3542478153719263
-0.2968905819380969
0.27962723565726194
0.11948148073330372
-0.9873571561746388
-0.6098499654892588
-0.3064776227944658
0.3295870385591407
0.3170856791102459
-0.1655011928986608
0.7816628534769874
-0.49240039390231144
0.2957030680324499
-0.1239372598254892
-0.3002771209001023
0.2804175022695184
-0.12858498769964052
0.0697580415716943
0.22270492354393515
-0.29287042385936607
-0.13097695104897955
0.28300861456259857
0.42083745772317455
-0.18221635975862635
0.3964590136311372
-0.007020972191495814
-0.24709908489699037
0.35991278995136866
-0.14298509316228825
0.7151297675111059
-0.40751951174158385
0.1609958173756816
0.082975405467984
0.5637808281840979
-0.5033300284669221
0.19243854534666718
-0.6130898331761907
0.18785005146588288
0.7302864414619804
0.3252516263751393
-0.712554002095029
0.35951445818287786
-0.5563543659216387
0.342765465143813
-0.6429324658241081
0.4887825607958932
-0.11655307713373335
0.000837207821555949
-0.23298040959820399
-0.38997776302323145
0.19532497744655364
-0.5948045431085255
-0.20902172664640106
0.3729321315582597
-0.5521556244162702
-0.2475774078519824
-0.04824650717797874
-0.04476481479397653
0.4545094279193317
0.37964051477554916
-0.21546794213120551
0.7461344837440858
-0.5878012788251776
0.19821951019353842
-0.024222415847647966
-0.5020770332114395
0.3018055383526501
0.45740737261619185
0.22777557852657604
0.431685782080174
0.47159415619447365
-0.007562786200623289
-0.6095524909015988
0.017931333206564416
-0.33808710279605075
-0.34497245026344747
-0.8128062792494237
-0.2064235338358183
0.29841697779758003
-0.43887346479393013
0.009172940735734911
-0.20680110317024172
-0.4013310907190436
-0.25852975540052237
0.27961283541133286
0.580020642693579
-0.2811530202398357
0.18562117259889374
0.017423837497280815
-0.4462891277923591
0.14384860886049516
0.17659522968685945
-0.25282125486259693
0.4768622679420369
0.004345896833270114
-0.9726381189850456
0.10681165238976392
0.1718910773190385
-0.1629600788821634
-0.5554839906074044
0.1320520307356482
0.45470789326419425
-0.2702800521894372
0.3585189801453082
0.4576346581883867
-0.5715165406870358
-0.09460288236258192
0.635153062526421
0.25907599323450503
0.2531210308543459
0.013150937356477876
0.1764209192263836
-0.2907940271241761
0.33208551660107727
-0.1358091165616118
0.01521367003893196
-0.0502646193188897
0.09632744720812958
-0.34595729576878353
-0.4603868398100639
-0.35681001153269737
-0.1980658201972814
-0.04996956746624615
0.4283193239802559
-0.38814864232754515
0.20519833187059472
-0.1527997563176501
-0.09935726502634835
-0.9547498524751928
0.3581902888044109
0.5177094053100442
-0.01147119681343001
0.538588094011895
-0.14696078920297803
0.5279420022640231
0.6477856573299815
0.4523347956313413
-0.10969471213430353
-0.17253933298813914
0.15909341527088425
-0.17779269434552458
-0.696414399372057
-0.41686096181354326
-0.3366019375097452
-0.6505885965394533
0.5855445208860219
0.49227097613905346
-0.4562475558103224
-0.024925278934948603
0.4974634277140557
-0.07280886390033393
-0.2241258299337986
-0.30644816545250964
0.31416174782643913
-0.35596656095863793
0.08202537980833827
-0.36737334564370816
-0.09703064250121107
0.7708048907228223
0.29715646486903446
-0.3937172594305681
-0.17693326361390987
0.1984531714875954
-0.029597287358381234
-0.10249228920292605
-0.004168412301363922
0.017694576159489293
-0.8115327100705603
0.3220597502971816
-0.09495696933550529
1.056400771362893
-0.4264172485242253
-0.22202987251604633
-0.43826134645613124
0.38376197100088577
0.43687649659386313
-0.44041035407280116
-0.6791737908022135
-0.21975477341968097
0.05302593303225603
0.4060622811212014
0.5230624229326796
-0.22817158430122184
-0.19306568139180877
0.32070576011947644
0.15575411932333885
-0.42479792683451467
0.11709122895635407
0.10190764423191902
-0.40771045081950025
-1.3106880315800153
-0.06403886400873258
-0.2100669248912548
0.20471846945283817
0.3942134420157495
0.09597103041372387
0.5347746245593807
-0.06030598176507306
0.18813109548387125
-0.013611426263424814
-0.15435067168608954
-0.327355273479739
-0.05578537928536212
-0.5246325629394187
0.49262488220637907
-0.4696309971144917
0.4639742028281939
-0.21615071176396197
-0.13193168583943882
0.13862930426287876
0.5651824055174408
0.11937726222762325
0.1401790547659062
-0.30385959528151557
-0.3334750526303288
-0.09170481573655916
0.22698789723610407
-0.6547565934504653
0.27032019717191325
0.5586023105198088
0.37797469102908055
0.5107193105856813
-0.1454290723705864
-0.31228741911828695
0.2594826155886474
-0.24497393469628487
0.2187405533569863
-0.8686552941210645
0.08033916102111306
0.1173153014187247
-0.03577347047824748
0.37868063503345456
0.3432663839210769
-0.7368443466355272
-0.2553128644914961
-0.34847254770204683
-0.21726326411087749
0.18418738754089348
0.6706078023764451
-0.6554564971133022
0.5018632852591258
-0.3742244716324928
0.022675454838999343
0.13282738641145833
-0.09879523082268905
0.12034914967847171
-0.7148406997125579
0.6306764800520547
0.19096506543485597
-0.10666567867793335
-0.1131348082375989
0.3798991266194798
-0.7609274560232906
-0.9174925235099554
-0.15689661258320511
0.1210637409629637
0.8345973301801549
-0.4397936728714285
-0.20688190085840452
0.4949530087763782
-0.08282563726702717
0.002481640160317135
0.010960902680082174
-0.37264618034326086
0.3939334449444945
0.09017279707199506
0.3645770893460328
0.06310731602682103
-0.6184925393387318
-0.6366204209448223
-0.05728546059476993
0.25977718056292304
0.14474005753530317
0.4956312030034695
-0.32786466937410885
-0.13078450686744753
0.3577542768219589
0.13383900002390153
-0.0042773230574238135
-0.2648523915808334
0.617486758282965
-0.09277845357844419
-0.23598832817288987
-0.5227587708254762
-0.17348666777439198
-0.45508905990100845
-0.146826912441819
-0.5771979498597658
0.007805379274148802
-0.23988005176636198
0.31464844065354536
-0.582295882844014
0.717691049513429
0.19808538741498544
0.10358769509326225
-0.6806777378525113
0.47577528672504193
0.09597013266575609
-0.043960351892173365
-0.247415065238929
-0.11403917016873046
0.3097206750998851
0.6934091617030953
-0.048526380890887545
0.47655995174343707
-0.5224533765484254
-0.704831418495884
-0.25090348940370094
-0.3818791838051593
0.2208439233205885
-0.21383736945987483
0.48410575914719367
-0.40483117939951846
0.5006064612928883
0.6642016877220327
-0.16342141931570334
-0.36357854039327103
0.5434745969164954
0.42698037334166655
0.08887214004500696
-0.9823002782973913
0.555354418448946
-0.33594355441306994
-0.7715966589104644
0.5419654823884181
0.591604076188384
-0.18427997752432493
0.23510532014670313
-0.7601072254123482
0.3684820850415762
0.18552866674407653
-1.0187500075768603
0.28130294482497314
0.16216778403010634
0.35226943009904643
0.008659433972201354
0.08664273271968519
-0.3009087362197823
0.12628481779755626
-0.2986119835226379
-0.6043905443654845
0.06619611779687465
0.24361882544018792
0.2646847935632224
-0.24675819595276755
-0.3759437543827439
-0.20927109974004526
-0.15782879823638965
0.3165708783443758
-0.4427055060811431
0.49790831124791274
0.18865304553862466
-0.3683969827777686
-0.23386341646232095
-0.3883049010622652
-0.49145328673649996
-0.006640880942561431
0.25130756875145077
-0.02212461680179365
0.17944169321122302
-0.9279474732957794
0.17727513555624277
0.16816962762266385
-0.08454798069413158
-0.5318022224060123
-0.8845647173103841
0.43091441274076786
-0.050459190519638854
-0.03635109478908986
0.4134323206205899
-0.3355700188368425
0.08343731759953378
0.517731057901031
-0.5607996215847211
0.26594143317797175
0.1850694593178278
-0.5319325093490409
0.7375656741968073
-0.12279968289107475
-0.5407686986987137
-0.009249207818636605
-0.2497617011656751
-0.15812845865037786
0.22931607456403738
0.014913298715338991
0.6504943786607926
-0.40569859717229834
-0.7040445185821971
0.09752425554141322
-0.29073278457147494
0.03217112594861636
-0.751590708422037
-0.06636460035149763
-0.06051750814409995
0.23726063482985055
-0.060668512826366774
0.4951841109141282
0.08170375619854611
0.23667002629510042
0.33655970441261424
0.27289731776131404
0.2541591079108577
0.6719002354178141
-0.1395742873288773
0.715138458601887
-0.15132931303399136
0.8192591713559417
-0.068296262062308
-0.0715457344322902
-0.09113399428404952
0.37056030637419274
-0.14888511638295063
0.05061742432700281
-0.07593416030533565
-0.06356275146792108
0.0015580485704389442
-0.9345407118198717
0.06591362122825792
-0.05503821420684905
-0.14498021094712246
0.2714046425008362
0.8356387581410606
0.3714036726869646
-0.46524679803014474
0.05448547842247065
-0.16158574424113165
-0.199145682775886
0.4282900420258019
-0.38275698167776995
-0.750988527235706
0.12981499396628757
0.7875750105887313
-0.2199263565043098
0.56460688013721
-0.4727803426009878
-0.8249649989430936
-0.47654588002029563
-0.5763113745854407
-0.16889174595160994
0.15923812340496102
0.20056461734717815
0.23532690805367737
-0.10400683043598902
-0.16277513498312907
-0.3543887481874272
-0.4239697378446874
0.06002475900150386
0.39154326506589066
-0.1441355426821278
0.3216723322985497
-0.09495900047111838
0.49210051388199416
-0.6213053022069425
0.3159795151681235
0.9678917322032519
-0.20064933387623604
-0.21046520812744218
-0.9291481660336441
-0.46285210239140306
-0.6016998381572558
0.1606361304846849
-0.2800139843580711
0.21320778644891053
0.08015502138096241
-0.13756320671032976
-0.675492382382669
-0.016891652682862964
-0.279238645719697
-0.04360393574506011
0.48780024912710057
-0.6434646678381672
0.02138093654187283
-0.10795030017382148
-0.20106537447391998
-0.18390597032055161
-0.7003037752112288
0.8029078459451581
-0.1340490609168656
-0.2357565079868876
-0.8891048475750616
-0.34107010515878555
0.24256108288113265
0.750883327450323
1.2300166919491746
-0.35775951558565044
0.5347926042072806
0.03563734069478922
0.22991163677501544
0.18982769209069633
0.19922895351867748
-0.4217467817548642
-0.3328337557755765
0.13492434884515137
-0.41649520632434944
0.3753651976714609
0.46160231887441516
-0.1921224043317425
0.07491194992914103
-0.8656045830814812
-0.44673868645938564
0.3331823526081755
0.08215393352437939
0.37256497606944855
-0.45820878103457213
0.00013000919583216358
0.3278652388789519
0.3486309028800767
0.49730437686088397
-0.2876630126034321
0.00012213448525182904
0.4795584404508097
0.6448157554991996
0.09890048081326266
-0.010532623842445596
0.40518644674922727
-0.24132971242902826
0.890744322980699
0.7740405373649577
0.28749950059751994
0.4910147650668595
-0.355709998055566
-0.2699781100003073
-0.04612503298227718
0.6339682949870029
-0.10122800249871773
-0.04602279495686671
0.21383975566188743
0.30930821976776657
-0.4894641583593139
0.07984563910699523
0.5204312193499251
-0.22178775596834566
-0.2687761286720164
-0.19849217306574427
-0.17260692131740857
0.24299160101864017
-0.5874024905970806
-0.32289657330834376
0.072377791579154
-0.028160195060056646
0.10693609750849735
0.29154962221684316
0.19866718974243808
-0.11151527611476665
0.2879098594348605
0.5389099507665658
-0.0445775856205681
-0.28310351660654726
0.24571476164726336
0.38816230485675934
-0.19000251019823938
0.06748045443469484
0.24990882439846862
0.4590248015546385
-0.3979148412834192
0.5589367345529092
0.18021167804225693
-0.62858207786318
-0.5046581037398987
0.3459731315144949
-0.3562007339949899
0.58338833839896
-0.05301342194804986
0.5958134782293885
0.0404568901837202
-0.373321535133653
-0.2363598349490543
0.3582552589044246
-0.7829962821712056
-0.5376243160783473
0.7350633490127693
0.23765391226831156
-0.48850480010745156
0.5500293932652651
0.05855404261219211
0.21029113603558103
-0.027182203250173727
0.018163476256370187
0.32022006357837557
0.08089060781865465
0.39059870190341617
-0.4501525379287677
0.415646385570244
-0.3094261893803465
0.2879543171643578
0.12229330693605955
-0.49322790738185385
0.28080793891757433
0.09669151919406575
-0.4930365863762946
0.2616061028435116
-0.17593442816286195
0.3375946059316899
0.15893424722912855
0.4069146287503733
0.4372146025642952
0.04652535134713719
0.04468318255853998
-0.4563127570230079
-0.09229589781245871
-0.37498794566897603
-0.22542412363579628
-0.19345783821801615
-0.16559240041924944
0.15572565791927237
0.1271007539426547
-0.5769979635060284
0.14629376454232212
0.3859645062968526
0.20710145239857766
0.02472084141896885
0.9618138356684132
-0.4386646674770252
0.7693820723098098
0.5994005355727773
0.2539529304636035
0.2543398338099344
-0.2010557270461545
-0.2977134990543917
-0.4885836929407768
-0.22042421367992265
-0.43148757181902625
-0.02170133247947559
-0.08778802609324428
-0.171524549168412
0.03462152781233502
-0.22068576900988293
-0.15280918455383058
-0.16852028086082652
-0.3617855424642372
0.1822333513240273
-0.23983661267149062
-0.5870320098409344
-0.35965939599757796
-0.16481251577351572
-0.5538036134176472
-0.595515662167973
-0.15515432558273587
-0.5220497237612071
0.6777034238614601
-0.4022003908559512
0.5544553451771334
-0.20844765598545462
-0.11930108422427568
0.266632970477735
-0.5374225573244058
-0.5423824882881455
-0.4572128725004551
0.3007502515731588
-0.6111346952547408
-0.4388508938216808
0.6564474232504626
0.19855785452649136
-0.17836751448778518
0.051713404910814074
0.7964065805433488
-0.0919542535334148
-0.2768757935076257
-0.7195958358064152
-0.21177740926615918
0.3374765619033682
0.13135542703074443
0.18468331083977607
0.19439982094317745
-0.615862828467186
-0.2034764867071718
0.3263832912463526
-0.17985299461849966
0.33675842008517465
-0.4642660895512111
0.4404114206067215
-0.38222369684730045
-0.42168111992507284
-0.12305296874342644
0.4951784681012797
-0.31570814155266713
-0.16154412961159986
-0.3594783790253587
0.19901910366956135
0.029702294302190037
-0.6693817117237777
-0.2898196449074632
-0.9210860632387744
0.5543479262120631
-0.07850504596533427
0.3665313644659674
-0.11866990638847777
-0.7016515755710051
0.3519280876186401
0.21818810237880432
-0.7144813068088192
0.0044760841515864265
-0.9936701712907866
-0.7278052730646337
0.754700689674894
-0.56173270208707
0.3925509477401422
0.44458937901546697
0.014406057001578472
-0.6505738945516591
-0.5346271865275481
0.2075246468610096
-0.6037973404585232
-0.08585091880700205
-0.5897799622614958
0.10988129539468379
-0.05316640661034846
0.3182834993098962
-0.2980916008453581
-0.5805713014099404
-0.6803785548153649
0.0008539907190699893
0.41615867215299207
-0.592435244451475
-0.223528020128721
0.39566610316131934
0.30118078173178603
-0.3299737754548078
-0.14342865783786266
-0.026653467666327396
-0.5072516803717675
0.08348892799076099
0.08860805407148033
0.5500323547489471
0.08793774821219484
0.5455903031071739
0.47050498310391775
-0.3118698754861643
-0.2873417475833547
0.6160171869619896
0.2820266376638267
-0.8499552474079167
0.3258605103519982
0.16913324045067207
0.5068242442716367
-0.24282502965759595
0.39792872519557015
0.5627977468699042
-0.5059794513117839
-0.15392124922642067
0.24238794746055825
0.12211320409411892
-0.06840241174574534
0.3827597635121224
-0.6415280633102785
0.06867085622088386
0.3587432339947404
0.6282011198253273
0.6826507660620194
-0.8978003220924374
-0.7367708286408889
-0.6210082257038226
-0.05654233868747611
0.0907760470467638
0.6581028276472681
0.21117473921665433
-0.5287862349130784
-0.35829251283453895
-0.31310960053017745
0.3328600954323481
-0.0782440632602811
-0.09100032342077055
-0.33040991429396094
0.026658638090452477
0.36482812976953033
-0.4454095756020823
-0.5048929160912413
-0.32493451725641764
-0.12631272209300867
-0.19780238478730636
0.5501049624913815
0.4193667463243454
0.18376750258639993
0.4619730237537913
0.4032129865141462
-0.22305058831504676
0.5205067268833908
-0.37835846823215563
-0.3330096181636627
0.4918890757925396
0.09118579920413193
0.001517924340125512
-0.13193289500518549
-0.35654934757943146
0.16180911410679344
0.757822751950431
0.2814419681932295
-0.3600412983066056
0.053705513870962666
-0.2393691040203367
0.2790771041860295
-0.19741130898712209
-0.44198919318690033
-0.2978564828239464
-0.002778335908166756
-0.5676243231155
-0.06868866706548418
-0.014498856239578467
-0.3004617131993848
0.437779489228674
0.3972925625829149
-0.34217152595972644
-0.05596283406814012
0.15887615156577606
-0.38173875356345527
-0.07019368921219918
0.1384590808020304
-0.08461765693911655
0.4514008103250502
-0.19164616837727874
-0.35578490730198387
-0.38190650983964974
0.07999761875588632
-0.7935777423322532
0.7584429339371984
-0.26307095127778174
0.062594152973771
0.2182374548030118
0.0394391871730703
-0.07460924012612044
-0.17951664113891816
0.18319983155663924
-0.4888496737092992
0.32411200378943755
0.14377403666273234
-0.4193583843044273
0.06472038540991526
0.24597390945931796
0.20707855121825908
0.12457289032049769
-0.4150927681513637
0.35947565153020977
0.47359651221162474
0.8131539608146661
0.3699685591492088
0.33438885142481706
0.19336030365647452
-0.484430323481688
-0.38641834004180864
0.2820319202871284
-0.3193682828936196
-0.3589772147565178
-0.5733783399117737
0.19546759178422737
0.6818799218899304
0.7276778332384951
-0.12904471798082107
0.4383984679402839
0.19757303285867941
0.04610809484835735
0.6803353909629763
0.11554590270252903
-0.19979781462346477
-0.41659450099760625
0.5529682139328194
0.26369767738280775
0.5408781575533089
0.06268003206437088
0.10471148170952063
0.3819033985691085
1.0567090737480536
0.5582475911355341
-0.008816467212511817
0.2794705821251016
-0.25262884324593005
0.1031835592657763
-0.04591874973591908
-0.45034942706314735
0.19238948743374915
0.22949193583565256
0.3780987158684105
-0.2780333045267548
-0.20567334249095154
0.031072021250379413
-0.31188845670962506
-0.008597846116329654
-0.23274721600417997
0.5426936289036852
-0.38589805805352767
0.4013543943982909
0.20880054885444474
0.4260277741660906
-0.26681644404157956
0.06439623076168421
-0.7228480514422714
0.4775215034768938
-0.5974925879313407
-0.7238837973996883
-0.09332976397268364
0.37281052116791896
-0.001998412726970873
-0.27999846662710054
-0.4423551643424348
-0.19538581633302818
-0.23355006308448617
0.3425686667724072
0.1634916015462801
-0.40743961156253633
-0.43701434950408546
0.3039179239301822
0.709908701054311
-0.07254479789822163
0.8643064629707667
-0.11327052492138204
0.002397596467916871
0.33464221882562933
0.5396246839273723
-0.17644227705115
0.14192371788724936
-1.0070079702390868
0.012300017607828468
-0.6880738642256228
0.6022430453249964
0.658861850133999
0.42409733053335263
-0.052978767828055745
0.24969559379857392
-0.3192591147685212
0.7626266293269707
0.6920183194270997
0.7589573852037066
0.10119349992375702
0.5322766951596097
0.06655278118316436
-0.005265180431455864
1.1011708355698893
-0.7078690779424934
-0.24798932129721366
-0.03131461926034016
0.3346484729017308
0.07492186728944937
0.519828347600603
0.6696094361445263
0.03842742990190278
-0.2143512961597701
-0.45220886868439214
0.28243134416963206
0.41027402897535975
-0.02951761426846072
-0.09978955761681903
-0.21835989904537245
-0.567323803201969
-0.010073366068772802
0.6685596983434228
-0.38606756572728484
0.1896876219291558
0.8327833151749064
0.21052749599228576
-0.5271580440970001
0.03162315936841448
-0.3718399965390147
-0.004210183822879345
-0.03474444504560629
-0.04731013979105171
0.10622793608974002
0.17227152749440994
0.4200600097843564
0.18265224660201745
-0.5371544690832349
-0.3195003825495131
-0.2907509686653797
-0.19116510040613605
-0.38376139140653986
-0.4127596392726462
0.05557019824491213
0.5001125468521624
-0.28535264044025027
-0.7437295399634815
0.25655485950461004
0.06601732217030937
-0.010349803218723032
0.1167531617983556
-0.1273888686289153
0.5077836623096738
-0.38750780895140086
-0.49923944133613884
0.016310515716185227
0.09472551652941733
0.13666923725358365
0.27243531712508473
-0.8634818148522855
-0.21782543721025163
0.4010278427167637
-0.20974975445152866
0.5489184527126644
-0.020268871263441287
0.40937360145707363
-0.3614023223097668
0.8566574149603517
-0.2222603336806616
0.24412786113924287
0.3802762226797325
0.042932856576404346
-0.1617439529471691
0.1430456941244053
-0.24258815551760787
-0.330860588441182
-0.0022597075026626954
0.08160915366312166
-0.02035756028354494
0.330546493609374
-0.20186699005778191
-0.8165468079944497
0.3913968612048561
-0.14906248154022292
0.25004136422761586
0.5635783009478063
-0.6947466185547194
0.1702332441754274
-0.3951268172773534
-0.11999768722773159
0.6844018070373965
0.15601967114807364
-0.11797220658675861
0.7883641916722194
-0.0063525419293136865
0.13415461313522203
0.1934258711249587
-0.28659511641645624
-0.16397384712447824
0.31833477949707606
0.07268248668789686
0.1121429599735003
0.14151099289317065
0.25065707138061266
-0.21292188340718105
-0.0671366787853437
-0.06839048892325822
-0.11705012429645048
-0.6331385354291889
0.5102257007679866
0.22686993853071388
-0.6014914012042536
-0.2577267865395012
-0.40305169098841304
0.8924907066398388
0.35249222835239374
0.5512653836880009
-0.22141892345239642
-0.35352074593531785
-0.606870187843804
-0.4709288523135427
0.22927297946877295
-0.529541877990589
0.07574975623848869
0.31675122749649937
-0.576391134608996
-0.040386403101881165
0.3779527341178703
0.7088403704283864
0.03318259254074498
-0.2278821729577917
0.9128168127136149
-0.4080301336928748
0.09160076913918706
-0.5370601783365305
0.22438720972388368
0.5021361338418499
-0.029821267314390068
-0.034076156484379914
-0.22676198436054823
0.3441226841423354
-0.24500400020093033
0.6616784607972096
-0.48258602666600453
-0.20180697736922093
-0.1981484727056254
0.39119172611651076
-0.1438573548459415
0.10278445106743572
-0.26097097631101446
-1.0212670616378354
-0.11461755415920007
0.30865694412591643
-0.12397581370758268
-0.11373387932524708
0.07565739393707462
0.1396192377539317
0.03205703487292812
0.2360221331344628
0.5778240060158245
0.6800486727421863
0.275027233595742
-0.6200462349436014
-0.15246027830391723
0.19864814700332853
-0.6574039464623177
0.07478765297706941
-0.31658106551404824
-0.14842591084631482
0.11752534067674779
0.34641273641917336
-0.5028410092283733
-0.06948006014119719
-0.2904958583578286
-0.870515483822346
1.1287284193067852
0.08812225560304847
-0.29736694937417185
0.5887219168324594
0.23035407323935905
-0.0716120316481878
-0.21427063197275456
-0.7307254745432955
-0.3467261181181089
-0.44102722206580924
0.1803504916370929
-0.3728152826048825
-0.37389408478136144
0.6692470083759282
0.24988136369091063
0.011147876926674306
0.13560441376955587
-0.05397985976668178
-0.03476124253143407
-0.24696714899363528
-0.5713317625919823
-0.4256421213775135
0.1681015901173176
0.5293452173841456
-0.00922644702216473
0.33424148108325774
0.15382432535986254
-0.3587720634451809
0.3471636731124234
-0.49453850268187727
-0.5822817042940801
-0.1833510195602423
0.24202929539113618
-0.21846577352127394
-0.43268289451977654
0.4068712493873812
-0.22293135820949006
0.06228694982967068
0.05574181104547449
-0.2139292169195422
-0.6901388485098974
0.5483016647939788
0.3396767290873226
-0.27826655547611606
0.2724863428940965
-0.22065962996328858
-0.24501982349079188
-0.6461981707609153
-0.34268941491521365
0.0011794684907312568
-0.48275258244330665
0.4192854663649469
0.2797219077096557
0.33721614273616746
-0.08712667373786749
0.8995103347566447
0.002622599743884105
0.27578492596008025
-0.5410343416381608
-0.5794613135944038
-0.15801271618576815
0.9506853210651507
0.3824964010101164
-0.24484153533788902
-0.47004397982338875
-0.6629678109607049
0.14154247319718277
0.22504057342104006
-0.7725736498760191
0.20680640119046104
-0.4281588904943229
-0.3939889654124632
-0.6275672503189355
-0.14635411850802799
0.4485191478928459
-0.29187245933808686
-0.2840812176676273
0.24412759586673738
-0.3705756706176098
0.7809778133083394
-0.04311507512163516
0.3763735003872819
0.11403319019473758
-0.1864532161609454
0.1917754442579375
-0.08223336602722743
0.16569983716806483
-0.25097378828434125
-0.46129919812685943
-0.02145600055969999
-0.4552405176542695
0.004613460435965855
-0.3578458742434657
0.5042560664531459
0.043520791657501154
-0.15196326297233265
-0.06274749913041525
0.3962736007522806
0.38518261172978896
-0.02778994030778152
-0.24809948948983118
-0.2536369763715767
-0.3751786444480228
0.3588644767893508
-0.11796351590915273
-0.17160443361702166
0.14354430892251066
0.5669991293380297
-0.47316244594942813
0.7197011960654197
0.2899708138527775
-0.4323995335287371
0.5006978447857202
0.2611011240045941
0.08272553418957475
-0.16312060076705093
0.7424297617930292
0.33241874902984636
-0.6904945095331044
-0.28054247062614024
-0.37689976474014414
0.6021249164946465
-0.6375798532388474
-0.7262737601123418
0.13765117269736005
0.04778276984916631
-0.7535228292589731
0.2086735939619298
-0.4236450996375651
0.3901368278112546
0.5685108314151627
0.16290328593478415
0.07844713496846657
-0.6611346022962395
0.3453523670438672
0.12534564953072094
-0.959720208683675
-0.03137244161806596
-0.23802313808335054
0.25843631785216375
-0.07729292817739405
0.34090045531329755
-0.5638400828084731
0.00880444122887415
-1.132064213725509
-0.055698794935171686
0.11038023705595965
-0.44106670121573444
0.5430701270759398
-0.5211810620249906
-0.3661095849361047
0.6621617039446255
0.5966164658783941
-0.37523712747608784
-0.22270388239767844
-0.06771107712482477
0.47496249331543294
-0.07390708106192237
0.12663472010239957
0.39105816817946065
-0.0274917267128529
0.3004137399714307
0.14942225223844668
-0.02060073885361003
0.3230230621799676
-0.7007138229942086
-0.24470829020783036
-0.2768578685910825
-0.2365145085729526
-0.016443504998349467
0.6764479181454014
0.16390504638275297
0.3196421387080554
0.34306197790002546
-0.6778436524190017
0.3682090487818578
1.1333891205026023
-0.13288694717694802
-0.09413127944844327
0.2775211472068282
0.9454252724566128
-0.27512196337207906
-0.20630809861345445
-0.4742981360294306
0.3865642903953221
0.23448508023113945
-0.4268963644270335
0.11308582410099861
1.5357470092200096
-0.459543581191519
0.3949660280766278
-0.8127439669016593
0.6339657205795316
0.32115824797267395
0.18153258183094112
-0.3900356104433618
0.05036918721545699
-0.032032804274114174
-0.4454732041020832
0.37382661186179383
0.2060038526313051
-0.03014461466431732
-0.120895307794193
0.45937143081506077
0.010606305132887107
0.34944124472854676
0.4730896103859027
0.2547971563759862
-0.24331330725556433
0.1694646786933481
0.8742452224698946
-0.3553077993656203
-0.7274210188702326
-0.6364920180834978
-0.7855599711471208
0.059208042494685344
0.49873824162788744
0.14230655410930512
0.4611355478235787
-0.04574772561222425
-0.2614574283109067
0.3364850499154695
0.21274916552796286
-0.5451558787916129
-0.37392465313939444
-0.34753094561803866
-0.28067125701755846
-0.006119318259995582
-0.5549416262218789
-0.22099909638091433
-0.1000504879273285
-0.0006634885536926699
-0.681714712371649
0.4442480993606999
-0.4560782640117111
-0.8970434761051991
0.5742637773816797
-0.35336826275229716
0.16962003186944752
0.024346387002574965
0.6822645245982686
0.34691254064558363
-0.38407681323537574
-0.4657960512527565
0.04044724364834216
1.043925982968483
-0.569092500838172
0.10865865040099965
-0.010904466426652286
0.671603976681445
0.3992082017414511
0.0038066505562367346
-0.022820916462436672
0.02558833415107117
0.2247447816684455
0.17853716206368994
-0.9300106529765965
-0.39502873851352105
0.3833132238690198
0.34520683376523387
-0.6300690167636487
-0.24724779928608642
-0.06526510835893776
-0.9102878130991994
-0.021186931209461763
-0.18182931759607363
0.002545707423836578
-0.27827247476778205
-0.12140995268876767
-0.07771778631885363
-0.159666020750451
-0.14694845029437492
-0.28079086105502477
0.7417774454881975
-0.10697971475577309
0.4355526047293052
-0.10642539124307482
-0.8051525075911862
-0.7587207181353409
0.2999481950668465
-0.15499230104363712
-0.37443151576453615
0.7205566977595791
-0.3860180076894246
-0.0950934115682261
0.6314144936738624
-0.07971674807228638
-0.03470834313901682
-0.3492922124451802
-0.04516293907939145
-0.005545264097105983
0.16646186131982066
-0.194831740131572
0.0017352981050264634
-0.29988039779387426
0.5698643701640866
-0.1329399568159605
0.10200125565880638
0.05447826911437836
-0.33025689600212643
0.3056973072325025
-0.16681219472720868
0.21241105839143656
-0.3600359800074925
-0.23380235812759165
0.5226206255951796
-0.4024254874247682
-0.5868890559254244
0.11994134449152465
-0.03244288443472098
-0.1638323396007458
0.14995344040953257
0.5371575992400115
0.2825972962901088
0.11974792147492554
0.22434418113132013
-0.3055408197930573
-0.13326765808457366
0.5082617857643791
-0.1664328517668108
0.29360081565331275
0.2353072230158614
0.5080020570937541
-0.09024837198186601
-0.4181681745398669
0.07769930036436334
-0.3801197758437769
0.8290467828274513
-0.14436429567393264
0.5844138885091126
0.15809793507499448
0.12906928438583726
0.0768452371537852
0.16991506302314155
0.20119676765181113
-0.7160132344587521
0.11200224481673089
-0.7017558098184178
0.06749022196328745
0.16556188448425774
0.6422643074619061
-0.3440197105468142
-0.251823951033306
-0.19666797177038386
0.10611334473777727
-0.07265718168997928
-0.6231289043222688
-0.6471458816112732
0.08542919761477141
0.14710874631002904
-0.28239445569510446
-0.08218088705454205
-0.10296098766538973
-0.2774002723001479
0.34932209313728463
-0.011875935417430334
0.4956419265802503
-0.427987836181606
0.3344229234453993
-0.11083814644271683
0.6716073243351022
0.28068755733509015
0.7294332925787502
-0.44585471929678555
-0.5602273888269756
0.3810258790141765
-0.5798772115154301
0.6444734540791087
0.3819089034054382
0.25687306826631523
0.22036851223604917
-0.14431332921930784
0.17820364530933372
0.11629385955647317
-0.4090860951570398
0.5001334543533328
0.11177821103413899
-0.3107486316110233
-0.09252064417462294
0.10704930372116495
-0.24401522316093427
0.3053691067272416
0.0802780501034478
0.25989077556666745
0.04500530951569629
-0.1599047981798979
-0.10386847936141591
0.11741770805076644
-0.8742028672856245
0.02456720786125582
0.14938989622017826
-0.22434853390519874
-0.04217205891554836
-0.4396965218457635
-0.17042364567992258
-0.25603588489443546
0.0913517648575303
0.1589928075196032
0.4720227454828166
0.20625222283645367
-0.37075123042309394
0.3672118677877593
-0.14493712184232324
-0.002183908097989455
0.011475601682759825
-0.3483876505811278
-0.05151709494916451
0.06427973451293624
0.3633113414886764
-0.07545934490162383
0.008688012553589697
0.32982465589964466
-0.204012356331736
-0.36897117896122944
-0.42647855635167514
0.6367087936385569
-0.17833359149665046
0.11593806723402124
-0.08226941321715803
-0.28213611637962893
0.44295051009133335
-0.05370135526508123
-0.0873664660220553
-0.2607255120180403
0.020994469074594273
-0.6260089615586125
-0.23312738614717696
0.46592163469631764
0.19072572565671211
-0.2776860980604837
-0.3321595372950482
0.5478809704364804
-0.5623484641662414
-0.33059740468236615
0.014969517902221258
0.4044227992863381
0.18716777138008192
-0.6416499233918194
0.13844537779863572
0.03678464258565899
0.4675202262341484
-0.33536414407342685
0.417815370384927
0.23280314705408084
0.21988723666799279
0.13037739382366928
0.1759111638495553
0.2266183649858266
-0.5814189306769464
-0.41056698012901993
0.4854824607726529
-0.17751863533453086
0.00347025369703217
0.42830734045257557
-0.018883713967245988
-0.31067156984803135
-0.22684194934221252
0.08899893176809887
0.23167748683761452
0.10217302342262885
-0.07081560953995407
-0.42001884004511697
-0.11367767785431565
-0.5165036675939899
0.5202781392214786
0.048041259630171786
0.6575292366087727
0.31640039807645054
-0.23144522282007507
-0.33395738175440154
-0.05784058990340945
0.1359193283213368
0.22823262343476786
-0.23361011596370204
0.5129961740851999
0.34917630931656246
0.2933999286035544
0.34386521361376204
-0.2725917612203454
-0.19822610511455094
0.6545858148394238
-0.14129723054384005
-0.25626764476798575
-0.1294235418330183
-0.6276647789682787
0.0036849884726655848
-0.02372327118037755
-0.740779649644259
0.3254391404423686
-0.3624280678094331
0.20540178485051602
-0.15373189820656818
-0.15386825484309805
0.4062110694056217
-0.2206277010846407
-0.1790770173373961
-0.5187975469047791
0.20875851435024695
-0.04200730108888107
-0.10731360448339679
0.4484212885706706
-0.07499740526825588
-0.2641556932731674
0.4546341074524234
-0.24804647441302452
0.4503205072324322
0.2626412048090939
0.3100262196216903
0.39646725526967097
-0.14121348807057785
-0.32754586274502095
0.00968367590311904
0.5986381937810147
-0.20967968080679927
-0.06899255231268182
-0.498482328174039
0.32557089687525104
0.07270120293666217
-0.0450911573014444
0.44353919855482277
-0.008584693706400654
-0.22545919840956094
-0.2081397770927697
-0.5204598875088957
-0.24118292297290495
-0.36217473740302725
0.33394973791317983
-0.10662950977835776
0.4339846618470854
-0.2788699994352401
-0.2976542712574967
-0.3786690615258888
-0.3524625963558565
-0.48275779802806007
-0.3197780408818471
-0.36477406225432357
0.35790007988833483
0.7326643396701017
0.054153823138104455
0.2140076682682795
-0.33749098584395876
-0.3462378917823472
-0.27530272832394787
0.6290381183039195
0.3813328707489063
0.0581011149970728
0.7208808975135638
0.636127301541485
0.6295544010611855
0.12651881105938784
0.37283015043285356
-0.48954681000868117
-0.17893115294082254
-0.047302129383515634
-0.8332808941933335
-0.4620071374593702
0.18659128427083302
-0.3743746564197747
-0.1087986796937677
0.07605395843601213
0.5662564906256822
-0.43335896303044885
0.30366284749879563
0.07050973350878433
-0.1721452641476754
0.07216616763309497
-0.42005812198018744
-0.16861919045045265
-0.3822174351762974
-0.30083594171978717
0.231304210453359
-0.14845614887122677
-0.27230960412185967
0.054281641385738065
-0.1616032740749407
0.12345755576827262
0.20552773482284203
-0.5751914461759036
-0.3533019963832649
0.33181884515313453
0.05002903316257828
-0.5378511392714977
-0.6671932564319214
0.08772346841582782
-0.17980834670662263
0.2886961334729909
0.2122355700570034
-0.1783853752552486
0.46513514061087013
-0.4452604916691727
1.0470235377993289
0.13326964814709794
0.16576871388271253
0.12904634632189121
0.023063392814005188
0.6300153653832548
0.13148150462844302
-0.6161716407027401
-0.9594686260416508
-0.21408045381847104
-0.5502655788459679
-0.12015466817062306
-0.20890911613252533
-0.6038711583825098
-0.02769596621427094
0.6864244197528367
0.36431502281457706
-0.4524446956790693
-0.8786699054705107
-0.12903467832642326
0.4788279085054949
-0.04306297456688337
-0.9129397440581916
0.34721794528747785
0.22383996172449408
0.06331202225494192
-0.2669153786479023
0.47892627770734175
-0.3134507802458127
-0.3469348883332691
-0.1137217177620333
-0.5957380189026859
0.33625114097250164
0.36085746756002374
0.09744816723487758
0.13105817321899824
-0.49251929259091204
-0.08391922774928397
-0.32437238393713297
-0.7002801518408045
0.15645513294882862
0.5064763046215914
0.5453816548076228
-0.04473894889577531
-0.06970110730576135
0.4988897275423006
0.3759420790094268
-0.3138194917679636
-0.4894986607758055
-0.12262684017570168
-0.034932201498289205
-0.06499639430769481
-0.22926468603558067
-0.11708584135476652
0.9198329523704358
-0.11984577346397497
0.30434330150152683
-0.10724870268908682
-0.2701574684522447
0.3607732567498507
0.590998634113401
-0.08274436819515607
0.28315091935239184
0.5177090857264637
0.5916801362233748
-0.22408900489300207
-0.17041388082895628
-0.2729223814742075
-0.0647253629342105
0.12213377690327434
0.5772458699219478
-0.47302771130455645
-0.25044520727899944
1.03823762044377
-0.2030056575036841
-0.004575803289857509
0.271075735370735
-0.017173652751378807
0.5420175356127979
0.10185195588512043
0.022021586232157064
0.4219289339888174
-0.04172316307324712
-0.4408244569436665
-0.7947033822087848
-0.6382354596934656
0.26406459940119864
0.16410306518113396
0.2019649048531065
0.3442268827794109
-0.09103572566380969
-0.5033570705450291
-0.18891093332130635
0.3057299174203022
-0.1800464043561636
0.6967984972010662
0.3738951907071584
0.06740929092510115
1.0163798768484182
-0.08760776204548554
-0.20658636776959827
0.4848252878384148
-0.20773241031022427
-0.08348723148215183
0.2097753316886761
-0.19988627088934252
-0.4716300064323542
0.4437189193232122
-0.6614844866683365
0.017979120023966205
0.9034847712307688
0.7939929332410349
-0.35214806069972754
-0.07698693156621056
-0.2245164754861047
-0.260949664433004
-0.12781937803805038
0.2762171849368298
-0.08757441120024738
-0.13314720745415282
-0.37205487958295613
-0.10441040813905343
0.11213426896831671
-0.7120209493985759
0.23638277760611753
0.15752441235881343
0.16188235203169457
-0.2441733604512945
-0.2571585302336087
0.06507866222346266
-0.22846932221696145
-0.25248907984409036
-0.7756090958829476
0.10015163120714327
-0.09469801530898679
-0.4908645917925736
0.036962724489182926
0.03563438683719364
0.23185565502366898
0.006915416852693441
-0.051390440027170387
0.8979189896000624
0.3513545768200582
-0.3551387969554133
0.07854872746289628
0.3576451436967055
-0.8379098978125606
0.2848623402435962
-0.33602053652163916
-0.6592540790053796
-0.7017225540652905
-1.2683292350494322
-0.27453456698697537
-0.9274184353494548
0.6453514956632221
-0.5648358299825433
0.2693282881908631
-0.4209395421795298
0.3755575849725516
-0.6770530724582169
0.3450310902952467
-0.7520328290190125
0.23176861013908104
0.005433503283768728
-0.040515831430961206
0.1255052745774837
0.11766208220341784
0.21894114180570384
-0.19339573867954263
0.3026559280762875
0.17773757967569223
0.04871077309799009
-1.11214304529002
-0.18394465979622893
0.2058374685710111
0.5592802518969583
0.02039198430451864
-0.07953483988350012
-0.214379917370073
-0.42413577565821414
0.2992548797433733
-0.588516682604546
0.1549809947314617
0.5548896504657226
-0.21763594743080195
-0.3412260084000017
0.03157507517819793
-0.4811913357781891
0.2366940701415769
0.5693585288098661
0.5524133979930554
-0.264748872975168
-0.4156902271967599
-0.16633979352692763
-0.5497670719711746
-0.13652635175185002
0.175846035490967
0.06659981180448842
-0.4285303844430952
-0.16656673059933358
0.39189975301496055
0.6176954488934056
0.22513346930765563
-0.19178865963883795
-0.5967123925515502
-0.13534610700539984
-0.1793138618479578
0.8816393217980624
0.13182501047937445
-0.10640008508269973
-0.05984510518446532
0.07402574273836851
0.34873829080803326
-0.0668864629876265
0.0768553673077271
-0.00781653473108034
0.6638891911232792
0.6361294573858065
0.1699324438818416
-0.6409793458749529
0.2659283778000496
-0.09412796717084339
0.4030485872364503
0.43435873467148733
-0.24546731214959772
-0.7120164959853251
0.3534227643979693
-0.44568642458126867
0.4419963407566529
0.10805393911397461
-0.3186417312443548
0.28222755342730116
0.026731502618096523
0.6260703217541866
0.5623995461554201
-0.4477434975241987
-0.9109752831464035
-0.17743355680606174
0.7881348888794086
0.06430117930847593
-0.1266746808604468
0.19641676827026772
-0.45249813227821867
-0.1839519097305925
0.3075041884286118
-0.3361410104975476
-0.25407955460900905
0.4051334271114374
-0.392204600995603
-0.6859182481004595
0.3740524032089848
1.101212418310848
0.5464610363402796
0.3415856039302004
-0.11106615393645958
0.5875124078848044
0.20899977960948826
-0.31402788556630207
0.21875199046333602
0.5298339284310013
0.7042675613944528
0.05171009654059548
0.14443523094311767
-0.05504019638636828
0.2843362395935361
-0.0037975426764576504
-0.32104520164702927
-0.17917118884182848
0.5498627525301674
-0.1768954319259927
-0.6519967757555235
-0.1520466692151989
0.5916164044073643
-0.8611871513793892
0.026841495325109613
0.4916624393248649
-0.37180859038578495
0.570784385896801
-0.13773029488523547
-0.6402465799771648
-0.4962414880329565
-0.2304645890699872
-0.023005375399544635
-0.5892881383874115
0.2584273540810217
-0.0874199893847319
-0.49540880501814016
0.44865074542564665
0.560731553206214
-0.6009376901998813
0.15400190243003745
-0.11068036005322347
-0.0776442170403781
-0.14430871506734347
0.713160552058165
-0.2358723731387055
-0.7500767620159422
0.2893169742462027
0.1316664915613339
-0.48215674390107405
-0.304551256564183
0.06325611212071956
-0.11032948662198032
0.0061277526330184365
-0.23336592560053465
0.15711274702249917
-0.8591053093625205
-0.5569145372867443
0.1334626612479525
-0.2723783708983593
-0.012670766050558219
-0.3298056770452374
0.09047387886342703
-0.5919928258848561
0.26824129571915234
0.1700129058349155
-0.48219275667579914
-0.25300330953403055
-0.5509034665350895
-0.10812687082458602
-0.16473641815510168
-0.39714796567808286
-0.19095795116794403
0.30940954724951913
-0.6161292757453214
-0.09576738779586262
-0.48482928470870384
0.13613159043503134
0.7597294039433935
-0.33136141480895637
-0.2705193253933961
-0.36251755988097806
0.13627046560090236
-0.40481860128791536
0.26341327689340605
-0.21754729076718168
0.1676663559668178
0.39358499971063776
-0.14904414483930578
0.15902953147948243
0.5082066369394673
0.25798139414666826
-0.3660337891583506
0.4022528861500707
0.21482017070157997
-0.17608556838857986
0.4003833050265745
0.7566528110139137
0.06210593576203223
-0.09160774694937886
0.01802564006639102
0.16276151762138938
-0.17911855810525884
-0.18540861349946397
-0.5337454097247804
0.09155977749942508
0.30499606167123
0.3836482441564673
0.3196096149367184
0.12109244222098098
0.3670821657035751
-0.201763898213149
-0.6418046452646902
-0.07552021547432164
0.39846934622012986
0.46063334041258724
0.4344340031124651
-0.14088732279242494
-0.6910810231749893
0.26291681318980875
1.0824442320709828
-0.24982213894805394
0.2441314376230713
-0.8178650341760278
0.5523749752878506
0.0028614457386026975
-0.14628295546699233
-0.2186016259355663
0.29214761823805396
0.06845444762660288
-0.6925617432344544
-0.7905745866498467
0.27832785028136914
-0.039282938714091
0.48181203686547375
-0.008604433374121425
0.6294057836644239
0.5386192344972377
0.2642046236363541
-0.10221305223266622
0.12799374916167863
-0.20931260954995246
0.08742055874407859
-0.1167630696345701
-0.9527572235001626
-0.5838533618058092
-0.4113289797674303
-0.28117485876381026
-0.05336197660091924
0.30394558175537845
-0.2260703712592687
-0.3159319917848374
0.2449678750573926
0.34905356292180884
-0.016582636162147498
-0.7276681009884373
-0.2960547337321632
0.5587562255452893
0.19204437262621324
0.04860441586790827
-0.028511188579650803
-0.55180398727336
-0.12789932634758194
-0.3371209800160764
-0.6586179882831725
-0.8270968445600783
-0.19742457597863214
0.13811143303484005
1.152238533955074
0.041033789998001606
-0.25697791449561164
0.6419073638607724
0.2655332658093235
-0.6908142521757086
-0.5405932395892392
0.16116751595382545
0.04623858272889624
-0.0906062725206662
0.628158570514516
0.35910296978220385
0.7091282439412521
0.2359526006172462
-0.07247059067497405
-0.013786075975018169
-0.10244113769505941
0.12743029193153363
0.4590152489317216
-0.2606201557580197
-0.4586103628284
0.17523757305238566
-0.4471467136299844
0.21918785800514595
0.55988954047259
-0.4299467437818641
-0.29931490591797516
1.001461890436219
0.8932125370199274
0.7591136155407964
0.1336481050409256
-0.6652415977455032
0.0016556950011736894
-0.021850281333150486
-0.017269697742453512
-0.25923524354443667
-0.03948712349162735
0.19955619024894716
-0.43298316878564064
-0.7445976992829716
-0.28208688233856344
-0.2293615739029551
0.6645100483383455
-0.405392986537545
0.42804868556839015
-0.28050164859928717
0.044461814416318246
-0.5379590980860777
0.26814059229208076
-0.27722685775812234
0.43023805717385943
-0.010780540595759606
0.3377572900426121
-0.33120477788367203
0.295770824641928
0.3271298450792977
0.10751369074154456
0.5900988691045427
0.14763135380012019
0.294042395477252
-0.2603586390552339
0.6333984904175555
-0.5015408680904396
0.5995961091285502
0.25738835360447326
0.38779035479243384
-0.28003340858242115
-0.726551912935009
0.5190329792864313
-0.17813298102696737
-0.15346330931084756
0.6093691065700304
-0.59810562794516
0.013909347720297258
-0.3422107520057595
0.179035979190453
0.04432734833213278
-0.4345963923599251
-0.4163829802323436
0.4466801771505643
0.07023138260724775
0.24272090603907093
-0.04773199118212215
0.01315253874213641
-0.052677958240244425
-0.10704763976225179
-0.2558433906458151
-0.9435951898160801
0.14693346055564138
0.055740823874296457
-0.13657506958791504
-0.04264769036232726
-0.2718899605840251
0.054972953473697475
0.5651120858528812
-0.23310229506099994
-0.1396965295860725
-0.6924247591725055
-0.348203273361908
0.4714477477410428
0.40838078415924056
-0.29703538607858293
0.38145950957885355
0.20444365441704918
-1.1861711665558374
0.0007234787589590747
0.03042786208373001
0.01842421118038021
0.10426504552054229
-0.32028498894638596
0.17023098888716556
-0.21028666238596214
-0.4248872934460356
-0.4835377696878789
-0.773608650396025
0.4028177527872152
0.021009860897685223
-0.026737566862663098
0.6849087772956974
-0.29472990287798334
-0.1973072321947982
-0.7186445808710424
0.8718822922899314
-0.09411726892939569
0.003945645251617812
0.12513927294046268
0.24797959524316168
-0.11830245580946522
0.41234938803258214
-0.510582571545638
-0.44331132729490047
0.27399705410097613
-0.2918086536844033
-0.012414158416933685
0.589900900994732
0.039946000385835456
-0.26931438266183116
0.09078129502220432
0.7353158171582086
-0.13565603308338078
-0.18172992452561212
0.1868577249630401
-0.11830620870063327
-0.0860111388197691
-0.6908821344596846
-0.7488066346412176
0.029926871210584193
0.396611204551272
-0.007748434490973676
0.08593471343329763
-0.9381342701111077
-0.5341861081748338
0.09158944143350857
-0.37542938987023927
0.35127509226620396
1.081745010194037
-0.3034918107192158
0.14279586189921317
0.7800382948409138
0.6620589781944737
0.22009568536581253
-0.5146593924509278
0.5368972379287397
0.15347098424359748
0.17140596300966382
-0.5677854463185842
1.3167159484118094
0.04316634004629194
-0.0788430310594437
-0.2656640583757925
0.39382969272635293
0.16224960396281726
0.10318613057699198
0.18120450339292246
-0.30747340225258835
0.42211893557172353
-0.3005791000134202
-0.2789711520364547
-0.044089172714647226
-0.12703236266589918
0.34075797177982775
0.667889706520757
0.13878369212507546
0.9543362497009488
-0.19868747203880482
0.48097006384414565
-0.14528973730842493
-0.7083269840423201
-0.07405671610806086
-0.29737450831642415
0.12261800219103658
-0.08442114526584892
0.11141956529297387
0.569417760124691
0.3053886120981183
-0.026430414341747047
0.19754261339601745
0.5394052972875565
0.4167949922058121
-0.2452449589899681
-0.16026869498577057
-0.17625117121980763
-0.5307278920701862
0.5689295187470855
-0.48132733168658964
0.40211581251627915
-0.8735848868291777
0.6787355491148395
0.2016639021609958
-0.16089810220130313
-0.20434978778783489
-0.3904749304434546
-0.03039634355934436
-0.5138434679633849
0.05738894398104354
0.13403623768732867
-0.5474679071677254
0.09157819477850133
0.08975722432064237
-0.11516004090350183
-0.04471650947484787
0.5754793861105449
-0.5080566001860934
-0.8637596102205229
-0.3611475604367781
0.024562662468973415
-0.37050643862441446
-0.07123846583289244
-0.4946298415497908
-0.357773186667735
0.5186992169037516
-0.9576533968622344
-0.06832440164136731
0.04034733217904838
-0.2712227356235254
0.513052505070249
0.5997957402567486
0.43439119368157536
0.4865146731926849
-0.19777323267693692
0.14161143459687198
-0.31718656670040024
0.5376339518472112
0.1034693296583608
-0.4847543055017317
-0.21041402275881396
0.06272318499922395
0.3874631067827387
0.19554066900962755
0.060630443270731846
-0.2861938518223756
0.275746687861253
-0.12413017130282669
-0.813716052119164
-0.07329276958955605
-0.27927898907248516
-0.6026922479033836
-0.19019313503636984
0.6101507738252141
0.0944284925653693
0.17536184692031925
-0.578776010491165
0.01966132432046846
0.08479872432467025
0.03839269998519747
-0.42804598340884253
0.6383858755270378
0.008491510804053437
-0.017774297063132407
-0.31804389110391
0.058589857793574555
0.34630313060937373
0.26415547299501346
0.4096575695369616
0.6199262286037984
-0.23769259465140774
-0.1312511846930457
0.8401009181450666
-0.0388664418399649
0.3102484565496956
-0.2657661501987549
-0.06045025377389486
-0.21202423234647966
0.5932071992778296
-0.06219194176965177
0.21008476147359947
-0.05625674022358524
0.16773406754853615
0.14811872101659607
0.4617791974046061
-0.03474212945227508
0.604655578549191
-0.2866863941837036
0.3280607502494264
0.08455872526020239
0.07940404216615353
-0.3221077778128071
0.41512984883349685
-0.40186195977642575
-0.4376322147500289
-0.18465124531191301
0.3536012502718879
-0.31871029268360296
0.09184320938570448
-0.13467045596753655
-0.3390140456575517
0.1264556979161555
-0.14789390140237027
-0.38328514597664826
-0.413964491115005
-0.13801679944483902
0.12962769583605868
0.44766900417221184
-0.20394010204728213
0.2815407301458673
0.20960140921789983
0.2693982949777916
0.37032458809176094
-0.6728735798003511
-0.22548001662199627
-0.14009426080735754
0.07030707456409938
0.9937230979760648
-0.06078448993409689
-0.6645750619843837
0.14324528249697782
0.7374802731624607
0.3949047086930146
0.4492009697085387
0.6377939235540038
-0.11921180781345167
-0.7278737034801844
0.06191275083695615
-0.7557935911572531
0.5102915870601002
1.0399627986118272
0.7709484786857701
0.08892853540145144
0.4245890700234943
0.3989162524804689
0.4654899116835882
-0.3644623036213309
0.35851690849116663
0.08451219510533649
-0.28157529569679823
-0.08042236406319626
0.20747188064235808
0.29659662310832446
-0.3383481182870159
-0.27114726657528676
0.3513202172158446
-0.10121569574552537
-0.062043090377910004
0.5021045955996832
-0.42277731978971517
-0.2416775937109161
-0.008545733088816895
0.6967887175276812
-0.4285395375600708
0.2051681276722524
-0.04421193788852828
0.03284448912837199
0.5273008795706953
-0.2913915953026543
-0.1152906459640988
0.21000598019596373
0.24748516029593567
0.09796810277564173
0.057258726551316856
0.09263180266965136
0.34052130696060423
-0.43915990526044363
-0.4507946061047811
0.4935880893636731
-0.754368324139879
0.4460100264743637
0.7836619051754959
0.4141911482820576
0.4044042138550965
-0.8588441717599535
0.0911912016460597
-0.22341048980792405
0.822961098369452
-0.208952557271113
-0.30044896167498414
-0.802405999509468
0.514259800950114
0.25300839689029464
0.3406721053876842
0.6897381667554366
-0.3989987173412649
-0.3477335475737065
-1.1021368049574713
-0.36374302387027563
0.021893178337247438
0.14972697637248406
-0.2150838369119011
0.2636663433696188
-0.1257818616087729
0.25874827792021476
0.5949833584249893
-0.3584760561952289
-0.08134065487913134
-0.0777228116943099
-0.3836271264973071
-0.2786512462149755
-0.3637629855277907
-0.006015227954445804
-0.8800574000339971
-0.5171288205437097
0.6359898429863223
0.05063315970539737
-0.07014411370040602
-0.23072694789452697
0.11138210979585159
-0.21979718906698
0.24591235192680558
-0.30793383436829597
0.512288450040226
-0.14496703718013162
-0.09539085729403242
0.12950156326669135
0.29604397823789314
-0.38119938071808096
-0.225120551029795
-0.46608558970418834
0.3246685010014287
-0.11429673052636968
0.04526812831715601
-0.17081090510890018
0.5650470454891151
0.02205916430075442
0.24378099826318916
-0.6267623645209808
0.16823081481578617
0.9497059627375686
0.18658657928589434
-0.32930867497355554
-0.7393318854871409
-0.47141318622435946
-0.15724387779181312
-0.1292059667567592
-0.4137022362527993
0.1154692584116395
0.2720246174799405
-0.3253907143045797
0.2546264843537688
-0.3804218479956435
0.1385584777481807
-0.3770735092243673
0.9263616440367993
-0.3334494726182423
0.14483176024412547
-0.01492553688722672
0.7703692868064326
0.08605035586386554
-0.059673452476419135
-0.6448322496117184
-0.35410233812361364
-0.35458828329047976
-0.3136624401695068
-0.05077945321894725
0.4948261692706348
0.2053663747271277
-0.14832210723869277
0.24518084132893236
0.5874774189752925
-0.4386604711178621
-0.5043240958114124
0.15134616937387402
0.09692181374471011
-0.22346737322094054
0.6783264839246296
0.16733085121591174
-0.6120128454754609
0.6673549098914262
-0.025861784538069324
0.5720479886050172
-0.03225868173161574
-0.4712131091672907
0.00413561183175701
-0.21367646616513988
-0.12293843513487526
-0.7451050249881453
0.5677034345925178
0.4379157636338293
0.4011798016281339
0.6958722866710655
1.0575501844201642
0.09955583685766749
0.7684868308764788
1.004313164011092
-0.5399503559150131
0.04800604843766528
0.1287505241412227
0.20573722615873855
0.2520046239120318
-0.06566366979856572
0.44451638506608915
0.3183702630097804
-0.054928095391292994
0.3936000890508502
-0.715131829205463
-0.46665469105470503
-0.48956862923550154
0.8257819774460446
0.3045538823020359
0.3474420538755322
-0.5525090876251991
0.05935103640425889
-0.23246848923055152
-0.10211915626031852
0.3104814840199458
-0.2591524191264076
0.4047979163857496
0.25488001691826545
-0.16513201811657577
-0.17358408905474312
0.6579734398019634
0.6058994967211447
0.04947330775715082
0.032395399707441895
0.36025509539495343
0.4920491571142058
0.0854079856907119
-0.06681219913580662
0.021200372174486202
-0.18053923339029382
-0.02470152625433243
0.14669461690240015
0.12107871066398898
-0.0007587841382752059
-0.06379559330375013
-0.2273743556204593
0.12443075233214825
0.010227360613571395
1.0017729062108025
0.9210343348231737
0.5380359348264753
-0.28747092280188363
-0.2949294431835644
-0.3037652359383803
0.08374230891265881
0.1098515581899474
0.7845923464425457
0.16331459392940642
-0.8725840464116574
-0.6175720022097414
0.23021227650709417
0.08001733189253527
-0.7273741636548084
-0.6775191190904115
-0.164842533278676
0.05887029400576721
0.10776442136656321
-0.5743649420033932
-0.19621451180402713
0.049331844318435306
-0.20049360435820118
-0.04335562525865329
-0.25911564290524786
-0.10423673046216408
0.10457865778171012
-0.34812891128126255
0.07286868361636747
-0.34549801615467673
0.568744766663647
0.07177826923981077
0.08795424150628316
-0.03182679948053163
-0.12143157311489856
-0.28405045278455754
-0.1340520058689708
-0.06942157369983946
-0.5574253394053398
-0.45389261427722855
0.3950144317227256
0.15842482386253334
-0.38505604718793446
-0.10860233666326052
0.08966752374244953
0.15686612350188742
-0.5072383507270022
0.2998628739387563
-0.4212108252320777
-0.6557846635747453
-0.6270977622295798
-0.33990332657186084
-0.6110700795976285
-0.5614168937368158
0.8052356235411751
-0.3046542736773704
-0.5199326916396984
-0.16672176142569117
-0.4751092168685018
-0.19035367404798756
0.1618229841262931
0.8252359661577162
0.3736986535682466
-0.05452602316848757
0.41333297647365425
-0.15718957073336123
-0.24956008225737475
0.41693114050376145
0.2882177090827694
-0.40538255997764405
-0.21933859665187413
-0.7863247298703986
0.18721871106767551
-0.04924161071093551
-0.38453142969575244
-0.4038176138844478
0.18515450320090987
-0.43306201180100606
-0.712419812397022
-0.06760160641250232
-0.2961956321735058
0.16658591785102708
0.3337581435667904
0.4513887052993341
0.28064202077001454
0.21774643791070047
-0.5687758495502406
0.0641336058347224
-0.14966830118115224
-0.7004302053117262
0.09969348130366339
0.5083293644092436
-0.2753256050311952
0.06286134086508549
-0.0609568370786364
-0.6408208144536663
0.4229664099587475
0.40407428707704546
-0.28750954484422014
-0.11373028002501726
-0.0014640184616138184
0.38742969032535407
0.10321286298001744
-0.7368834299081791
-0.3475275623265918
0.08628254809064875
-0.8951187206089594
0.40425165550954806
-0.41806102224989905
0.0072714438914921525
-0.3032464601834182
0.7096805989698755
0.25296884781783135
-0.2247728474154688
-0.9841602239582332
0.09362023757810287
-0.20501793883553932
-0.5765097161865297
0.7625373802459783
-0.14236358864899407
-0.0893830257827887
-0.37084688056936643
0.321156964608239
-0.7271661104841066
-0.13758586707029466
-0.007889645920913466
0.2945087460516423
-0.14931902606307104
0.01667815457160551
0.472003982855486
0.47298310769380547
0.0298872339789962
0.5943573329668083
0.02727549442248185
-0.4079662951141849
0.0021332813920094153
0.33804473935600854
-0.9216850963724625
-0.38632563148075805
-0.0690415196186718
0.24528779039144127
0.4338208749761247
-0.16180221460579178
-0.3633731082326433
0.36666396845047994
-0.12404238764469935
-0.6208679359508651
0.13113335585937827
-0.7090363693538179
-0.6072371413704083
0.6846549664911468
0.4367922218660158
0.27185393386879414
-0.40588899356363495
-0.16030042071354886
0.20038442200535125
-0.1304122058772352
0.3843539385896371
0.3656328433918425
0.33761655330696677
0.7713661961512545
0.3178332365761317
-0.06966683593586097
0.007596230245595897
-0.11279396897768476
-0.051233476110698783
0.4846000598648977
0.12989272546867087
0.11453546835377025
-0.3556828066501968
0.5047492594504709
0.29870292742803867
-0.3845089242898271
-0.4041556448551216
-0.44290214696661123
0.657710894133895
-0.30635234678312745
0.3781461562844528
-0.3821106390675423
-0.756858941570308
1.1760059679899375
-0.16600117071215204
-0.07374364656891944
0.14123944983220338
0.7125720134364597
0.5403993609826305
-0.5297006490605685
0.39615692678898795
0.20185163278562415
-0.18445947651172054
0.4395496297249246
-0.8044478712861225
-0.4179044210073983
0.3884769845411271
-0.2535365926380294
-0.3569085842635436
0.18570112567836453
-0.1492476019534752
0.29964694651929547
0.5390345423045592
-0.9183154083078188
-0.1547966085711231
0.2357829957559722
0.5181716953729252
-0.5902080770578078
-0.256383891021603
-0.2845502958042694
0.3244244233320038
-0.7234183993273174
0.5251872943828751
0.04047084991182289
-0.19050079290888525
-0.27783880285386386
-0.6633481505236815
0.12461318842776332
-0.1077784979740054
-0.32615818299680865
-0.7001413829578826
-0.7284166885311871
-0.5489450941943521
-0.05030437904232072
0.2183859488422446
-0.19171274431263713
-0.2337093013642712
-0.3232268414203371
0.03522760095734029
0.20837087577692318
0.08265857535481377
-0.3994936270712825
-0.6846789414867742
-0.44428207589821533
-0.5159877783485033
-0.5574809196710704
-0.10252871990409745
0.5097842402515582
0.17325740336476586
0.0016112539845571908
0.24795100745316062
0.8631141837112308
0.39588414581314063
-0.3564967040970207
-0.3065269719203594
0.3832553038483463
0.015856808943623738
-0.4967329939733663
-0.5213650406107151
0.14191870888841468
0.5503776502937915
0.01578737729637408
0.09910399095270511
-0.6955504880303698
0.34173213027404636
0.7101702801540436
-0.7727796753200205
0.030552254436345506
-0.6514701711832802
-0.2661522952416885
0.23463520156423817
0.1791589687297134
-0.3511501465297774
-0.3080923383781816
-0.12718599476892722
-0.3524237809120297
0.2385526799947445
0.32703223957500127
0.3560579731469018
-0.28601408547732476
0.6050111059441665
0.2236667678841425
-0.5091830204068212
0.5299004275293604
-0.2963330670106294
-0.10239130469181776
0.2653589226754146
-0.9649389370162397
0.178386220665478
-0.22628219371191266
0.4326665761906557
-0.03413949761377414
0.12093168046312754
-0.2978531619297006
-0.6587454718938908
-0.37031647884552443
-0.20954179830478506
0.2638313156352635
0.40807138731322123
0.6379496298036339
0.1815694657377092
0.2932560688001914
-0.5752104238174538
-0.24791169326327334
0.12459661216201726
0.24410447311401137
0.13492562239534545
0.03939053528407578
0.0472158196585513
-0.1668190121594122
0.21484069103068404
-0.37725920225186194
0.3208065453851574
-0.20117528557961273
0.6438318448401363
0.04430208398337313
-0.6072811230600242
0.05537354048793902
0.028165301417743357
0.16713561277537706
-0.6182195105374428
-0.25044659188357987
0.11998707819099046
-0.05864731730062401
0.06622953920236671
0.30162791604292366
-0.29945635413060984
-0.3015217410891175
0.5859350964362613
-0.036545635749578635
0.4093483633023103
-0.16381071871778433
-0.44113591288785503
0.311517534092388
0.9757778145151597
-0.5453843945858092
-0.021313369066188158
0.31629427796908494
-0.7293004798355804
0.8288811034085963
-0.07344705011296129
0.1301601854243512
0.25603806778731686
0.7919443077538235
-0.5436867720196835
0.0316189548564484
0.08250337402157458
0.04023241799843033
0.5054026760159162
-0.5426081226470476
0.17201228927530637
-0.01916232246950512
-0.24205863776844536
-0.6198467099860839
0.20933261003092524
0.642492686690994
-0.19473713223576175
-0.19460426161045824
0.9116515181162839
0.27175723929278
0.27237453464588146
0.5583502866680433
0.6177680766831003
0.12363813275525097
0.4304540691859877
0.6399392436566135
-0.45762785275907253
-0.4293037077603437
0.38645729808700796
-0.07097324611872903
0.08663381998300398
0.006840553520013088
0.18136079722160983
0.17303915164612657
0.3971961378628646
0.22198501664368173
0.3324478786002849
-0.07969256395269018
-0.540665226041713
-0.833263877170057
-0.05623101436973369
-0.22789385361411363
-0.15152822764894497
0.007909694300339784
0.5579070333474245
-0.7807424272746972
-0.6451960524055597
0.3973380667091892
0.0903881605355604
1.0945899586956813
-0.23021207472863664
-0.09099988864329701
-0.10227422931070111
0.2754518321188229
0.1525055111984167
-0.8170561662124615
-0.3631370929132698
-0.4187217747067155
0.5354921400199848
0.037014599325886174
0.11880453774635681
-0.15022572416413393
-0.01753549858980677
-0.29734919059366827
1.0588918557763634
0.0009724424911009364
0.4872221330252557
-0.09968301861034704
-0.6486920707930073
0.20906147457511678
0.37175696138302117
-0.06502054958958449
0.17905171560302113
-0.11899580620676312
-0.41851755934394863
-0.46987197398763003
-0.7570162524227139
0.37882814533420955
0.46906302879198686
-0.021224485331003067
-0.3678903818264303
0.6497035029953371
0.2590230521824466
0.7455344129794579
0.4921379544235894
0.5034172714758743
-0.22337915255962645
0.15128278121586944
-0.6031646913340863
0.04311547386479262
-0.14559112742262112
-0.296250231723482
-0.0992557716958597
-0.543627183942472
-0.050217491537002897
-0.03675299384420629
-0.7752075809753812
0.1168509156020594
-0.44444853213090235
-0.32805520579367164
-0.600817301014094
0.12194245093053956
0.40823476194060815
0.5782871890471503
-0.26383089130732984
0.45707990202197984
-0.5977975385523457
0.029862192317840677
-0.26109550094104583
-0.13127326258596994
-0.44751715985307333
0.6082206335707395
0.2947962337096426
0.10616231997705362
-0.423864943972441
0.29437345248138175
-0.5305940032465265
-1.0892113820826814
0.727773626717531
-0.20644121757008935
0.3029555799061927
0.6611118755295933
-0.5754177074973549
-0.019502779939958297
0.719283310097514
-0.005315778940759368
0.3274533805580958
0.2431710849586818
0.2118842819750478
-0.45310975278292037
0.2909373466452565
-0.39180952450529255
-0.030407641983780757
-0.2531856604507902
0.86589505553079
-0.7109421897114128
-0.09864175380576241
0.10234235618293115
0.2768622150238841
0.037090014198536386
-0.09150545976999491
-0.26578028331935044
0.4533216744397076
0.21465925510474274
0.5617003955982577
-0.6763359223558428
0.030954235954882198
-0.3883353903329933
-0.13047034853760128
-0.20131184461595675
0.24903849628161864
0.09491702078765545
-0.6384370724021933
-0.28895800508497105
0.22291948295444536
0.2274695529125213
-0.25973373831980323
-0.7746480756443823
0.17165306187367887
-0.6950626029945627
-0.32095810316779977
0.32066989409284136
-0.4237404239866088
-0.11883596866709573
0.5361034243132623
-0.038255175179309694
0.033920856667841476
0.0549011634936774
-0.5325816867836002
-0.4778309708596017
1.0344956746593175
-0.10997512950426995
-0.3290382143119815
-0.005617972533420164
0.6631541347824277
0.20188643192662215
-0.3728207926128466
-0.0696286805959364
-0.18635397504558374
0.022112210139243783
0.6344317799313977
0.6319438351278805
-0.30509199242975793
-0.040177586846395955
0.02262943035185129
0.17797814233166423
0.4704202940744284
0.6919004696414486
-0.6068953394763541
-0.3193618184153915
0.07383189430914897
-0.27746379560920237
0.21412071287776618
-0.4854818988142304
-0.27398746719466116
-0.2437416589828071
-0.2791952727284919
0.06819801963590533
0.31173889390532866
0.1626315680376753
-0.22810805759486313
1.4110783184896554
0.10603239214989202
-0.017672429001415975
-0.5784153112526286
-0.05933704827903298
0.24565605974421056
-0.04388891818303351
0.34478151172020105
0.16784411611555372
0.48881709506332316
0.5020198624158033
0.19403503120166246
-0.6268963182870725
-0.0010856841838182327
-1.1627078209923176
-0.19287981174696736
0.4925330956355068
0.6135487617140988
-0.805346542615862
-0.33779476623519533
-0.44976538108247444
0.9034845785794783
-0.5977583353909842
-0.5641001176435226
-0.19672075423949123
0.2588444741172884
-0.3924521364428194
-0.17833276612605733
-0.09145615189463417
-0.061826104446889615
-0.30526659159772096
-0.25057880015292505
-0.0845324747033332
-0.06214454663265307
0.04723886161056387
-0.19121639108494404
-0.5465949280337814
0.2919414670112595
0.8121674325718917
-0.16987015942566333
-0.6252862667561723
-0.2400559458035445
0.1750636905077763
-0.15077716746616862
-0.11316368244680815
0.02786749820572571
-0.095008317754436
-0.1368907540136173
1.606607817076021
-0.18677511296555008
0.46868057961863935
0.29908290997440695
0.15082246702013596
0.26712412893624876
-0.386621241287744
0.3014950271553494
-0.10935043065467148
0.8384329476487657
0.21970715970333538
-0.5526849491449698
-0.14538942077653003
0.5838611961877097
-0.3122411749530305
-0.00039468253956126897
-0.8236998078850639
-0.1485160132748017
-0.3701152999331386
0.7505340966613665
0.2868808546278025
-0.161392331100271
-0.34106543093656966
0.34603537556669683
0.05475930748958888
-0.43521714086552704
0.5112043752784138
0.3935938528523872
-0.6787401792690192
-0.3535349563042779
-0.04437176010935285
-0.10606672190091228
-0.25772583130442034
-0.2874814332548844
-0.25334956572846085
0.0027610980694046834
0.3190771066239145
-0.287355333183331
-0.15928012251960935
0.3224413487428902
0.08653967417010244
0.252720005074032
0.24820362557612405
0.1777162434551779
0.35375255468322514
-0.425980174228673
-0.07318264342808443
0.24444535121039415
-0.5158921672159961
-0.9252862408652517
0.41838453585885554
0.06178961633357594
-0.16530105828724434
0.28613280804821334
0.1334086505238087
-0.21876335768552202
-0.17006445987060473
0.17975050902476483
-0.4318664155695384
-0.34018760170627643
-0.24623265371071829
-0.03974544232031778
-0.17650444650983382
-0.5245889429556112
0.09107647892494407
0.1604148804306045
0.07354025601405255
0.6403258405648103
0.15785436917030476
-0.2280589973035411
0.03717239343704337
0.4248885222156141
0.0691348014828306
-0.28111510674174434
0.047194317783115884
-0.27690197747168677
-0.5347286106013546
-0.21246499652476203
0.4106362822824328
0.2999311297491696
0.22766252325698053
0.028543514060648086
-0.18754360563192382
-0.35304148367294563
-0.40813333107013744
0.3009316079846874
-0.18917565747396126
-0.21948320425067688
-0.29231306382648137
0.021533340075241564
0.20816728064231174
0.4195224647821281
-0.003439774085663965
0.9401818432325619
0.39106179025904714
-0.5061428345813889
-0.503363706097242
-0.40694340102972276
-0.2677972383057655
0.13902580976378118
-0.5561203819847261
0.23126969450967097
-0.1717168137760702
-0.30774953226979673
-0.37668612960336595
0.8687453766085769
0.6497249403392362
-0.4008787527002919
0.5911292467160804
-0.3483497809537707
0.04342949497598014
0.2415877711289779
0.01926070969485204
-0.12851505319099568
-0.8216803841004566
0.03565056660717671
0.048586140277558025
0.44426473095907054
0.9812021097288419
0.41533614794995244
0.7706887384290354
-0.7968082788197303
0.07380174276276705
0.28433264866566393
-0.42884114016474956
-0.49178478270979376
0.17245382507452875
0.007172947457275959
0.13775222575409107
-0.40475767996693596
0.10000172085741779
0.5556761272698713
-0.43534517355716873
0.6046746965643598
-0.06481959220873292
-0.397282748359996
-0.4525421016904056
-1.0067160124850252
-0.1807477838212078
-0.4895979590934953
0.7406005674690774
-0.007122853172275449
-0.3123523706182806
0.08885742017194667
0.3113425145173082
0.13452038517815007
0.09076139123796255
-0.23663801379993948
-0.005183698257506597
-0.08887427574141125
-0.9533429636244778
-0.6637670397251743
0.7641835197432445
0.09453682381579467
-0.02381252209340123
0.36931170843629746
-0.407314297388231
0.0049587521942152865
-0.5450019930642619
0.22842239361418956
-0.4659672235847533
0.4970919190096211
0.15465924020000504
-0.20547050343590678
-0.07901591553788796
0.7179907020049812
0.21696403846833262
-0.013727362585250246
0.7210502190414062
0.6031323836805446
-0.4541309589338165
-0.3294080955590355
0.30376474756633504
-0.2590010515521629
0.04365748005585566
-0.8624558425365471
0.19018847318214963
1.2868414882794732
0.2909624141003448
-0.10241343398201712
0.09905410077882137
-0.06289228198511602
0.12538238324913523
-0.25500618779747697
0.5579181624084546
-0.565991133787505
0.10794488932715496
0.2450898261779144
-0.4851291907507618
-0.1319013607937067
-0.28279056982930634
-0.36546483944966446
-0.14838949339380314
0.06661982926390476
0.38907293974907065
0.8967479837768957
0.644547970313471
0.21637256258611126
-0.21187185000348185
-0.0041657159908966455
-0.13786375944010165
0.09595581320590953
-0.4936204790695113
0.23326705937662084
0.68906129148483
0.26017006357217287
-0.12919294475912851
0.2119155406517363
-0.16869854765475956
0.4445366498162374
0.520776726114912
-0.05532151524478165
-0.10468462000525007
0.22654491245866948
0.11002590171969331
0.07340059255536617
0.12261834217289465
-0.24251368804871384
0.00860864493963634
0.3457405018160644
-0.2067496403402577
0.6661069978918315
-0.1224236995578939
0.19165517137146432
-0.15073539594411062
-0.5548284456624538
0.4687533774439192
0.9100972340521107
0.8812980410439434
-0.6493534991068829
-0.3941114895589587
-0.34473326552345235
-0.0029674126125407334
0.31340211813325225
0.2508995058099079
-0.2875636914975548
-0.11380996157818354
0.22832685043903858
0.1217797942233856
0.3444120611314252
-0.023964980523411537
-0.15147094035406952
0.6303808775087598
-0.6155357889670924
-0.11270298282572969
0.5775933113517484
-0.1881330840603019
0.07541517609297561
-0.2889536791182853
0.24089184190150945
-0.5038928731132932
-0.1243717628852884
-1.5680895044102687
-0.08021140267221794
0.3390892974138205
-0.15305699411650242
-0.01309186568665666
-0.4173521910982667
0.46022045789517974
-0.017973471850280365
0.03382357029725614
-0.16887061346260127
-0.6725729870539937
0.18186390535173994
-0.012770467022102
-0.07388099192732936
1.1194740038293647
0.00422614594839257
-0.6357433455020245
-0.20519694760339544
0.29882505130936926
-0.0729790457827189
-0.40882043732617224
0.27241497080426713
-0.12325643047684821
0.0743241996357804
