0.14848121021028746
-0.3302879686238982
0.04237394546697457
-0.05827053065124408
1.0159605771488769
0.09789794401825312
0.17940321967040446
0.5305218783522063
0.405722072316104
0.5034701059887858
0.11834201190345729
-0.3087925267325575
0.2041312764871325
0.07111455681600275
0.5970070069982497
-0.4194826909916489
-0.08228482908274623
0.17552389761566747
0.22486317528647537
-0.46725197717808264
-0.09449774903431388
0.7301782354089386
0.19087665202756363
0.5550188113088609
0.12833902753191007
0.34583189535015607
-0.3423808163912252
0.2070358632416016
-0.1745824521925257
-0.13053013985045653
-0.6720614842865803
-0.5982061009537318
-0.7146553475325023
0.411652112012599
0.4802341423266696
-1.0622634550484724
0.13131879708831715
-0.2491215616296237
-0.1254055343304446
-0.14746324171675937
-0.7294072509778533
-0.3392949192280384
-0.46661623304054356
-0.13684718960363043
-0.19100787800930788
-0.37372870147870424
-0.13767370331671036
-0.14184172255086733
0.4243787340582608
-0.6297986165587639
0.5448147028333296
0.46782196175360197
0.24616793006268636
0.043841631533104476
-0.35415004548051027
-0.4162278279155004
-0.43087620916603153
0.3958325006674976
0.27798824721221627
-0.32587620116141053
0.2846895047909819
0.7000467483868634
-0.21516994935429629
-0.3986574422873313
-0.0767261675214034
0.7286242740154647
0.3211553360424513
0.462679124979406
-0.6080512595399071
-0.2720592283839939
0.05420820886924583
-0.1089617826364058
-0.7418218309486586
0.6418225181568895
0.185833883791621
-0.4020655309753481
-0.15689783459991252
-0.9224152220553599
-0.8080967306076761
0.10730274721782865
0.5125759132243458
0.21899722195754906
-0.27738171990384264
-0.3139141922552914
-0.775590973538386
-0.08040613167071024
-0.28327047402376115
0.2718014233148598
0.3242617469277883
-0.29214296183831484
-0.08827327364486529
-0.10887044995256007
0.043525838242010395
-0.8300442746625183
-0.7114350112439931
0.628264821814719
-0.4173594423841663
-0.6356032372520704
0.6743337649796943
0.3923070585708482
0.24075683394093228
0.10646479300974884
-0.4618864761505968
0.39301393272820895
0.07479991925099745
-0.20359607343454295
0.6861923292276434
0.08961153095820135
-0.15697044208350358
0.10437127561249121
-0.20596450689127896
0.38005111532917346
0.11569359875025556
0.3713448601976075
-0.08261979270412813
0.3460253173369537
0.09236429784259692
0.007178134080059412
-0.11826510306231457
-0.08887517223908824
0.2703878607091334
-0.5577595048288397
0.03738573231073808
0.17418181399048518
0.18730296166496818
0.3529952113120456
-0.25064194187611744
-0.22512041963473894
0.629627397420159
-0.5682175070503066
-0.18692252272066828
-0.05071563921521709
-0.936460838063021
0.09871660606533075
-0.1664642328066158
-0.09028538351568706
-0.7820034025276451
0.4345732390474332
0.13726277469238368
-0.11013541013128157
-0.8663887993422013
0.41334701464299894
0.20741802152307479
0.5605908890017314
0.0858273854677526
-0.04293872599384108
0.2608122313525261
-0.14835618471888803
-0.22053558372036405
0.08272184209280077
-0.29004797490665135
-0.04536073902966022
-0.17651968906369886
0.6742975497237035
0.32884991575414196
0.2650144085542237
0.35923324332060963
-0.016106923923930448
0.26461856360446595
-0.5877488741588851
0.067116895670165
-0.6162651865676007
-0.5557032904652807
0.7478809154598148
-0.04142036958579112
0.4657639298638905
0.3758607154317839
-0.7105451687180705
-0.7611430509012064
-0.7802453456698456
0.515918931753159
-0.16954287840163373
-0.37962663001542213
-0.46367563466305806
0.41594239649929454
0.10344272565153492
-0.06046678819645635
-0.5166803191877034
-0.017787859054325197
0.26154802516209963
0.1830416666552256
0.19139369581344845
0.38840296336984964
-0.20836849691513465
0.220488917128885
0.08860876293902055
-0.13340959661878454
0.2576118604659736
-0.07388722426453699
0.14342985888777446
0.2424073009784048
-0.28937086206850304
-0.49482620550537765
-0.02658723371620963
0.42142307498703097
-0.4896265831365899
0.7621709063961676
0.05968772057130738
-0.004704410728575607
-0.6789048016287355
-0.24968710285623882
0.028224106054069983
0.42013110037520257
-0.2805315413005314
-0.4773585947355779
0.5284791023229714
-0.6408275517466044
0.3547424727113088
0.49720880768481285
0.009214109443966442
0.2998873933849344
0.06575402894642303
0.15407021911438593
0.44278155051992124
-0.29593958127191494
0.2585968726712451
-0.2159590184224979
0.01313079034640546
0.35052669336710396
0.47366334677439853
0.49298766102494834
0.03225042058278293
-0.20230616592781597
0.560157213035887
-0.3681074536176452
0.32335770633730704
0.667061891716219
-0.2057219677868647
0.2775814339140648
-0.05189294074698874
0.06382787066687905
-0.03304812419727454
0.3934196999882361
-0.17268570968680666
-0.27725374032986444
0.12199290968033819
-0.6061790633066539
0.516447705404028
0.22002209567556213
0.5130763574795763
-0.1377181023432629
0.02786906966120937
-0.3014878797294513
-0.12396755225361752
0.3001524818415654
0.44949150935119087
-0.010823818785992072
0.5842687312192835
0.7306210116565457
0.05914908268529442
-0.6237626647259972
0.07385951472487483
-0.06669011102841738
-0.08523627914879324
0.002189392599325769
0.2877099213359382
-0.21191157866661864
0.11961235017687567
-0.40412579709527313
0.5941112428724987
0.04497728438136869
-0.1885697947669495
0.44175310522634026
-0.03307674484548101
-0.06285668525452447
0.02612932598335973
0.36318922516455243
-0.42865052171452744
-0.33370502766288246
0.6171844293325593
0.37178281215396697
-0.007056601142780133
-0.6588854208699436
0.2937929660901589
0.3824199824631641
0.1775928541051924
0.15244987967894968
0.2219409217749694
-0.49380339653185845
-0.9511325458381618
-0.7205388898699235
0.14976854792901478
-0.05239503697068738
-0.12858654635077635
-0.16237551410080436
0.9858968645500472
-0.5748984055851744
0.6880163632486243
-0.2516027592254947
-0.2437397428176366
-0.027101695767717062
-0.4167716570780029
0.5167179943203126
0.8662012441804997
0.23022452591557804
0.2719499976301581
0.17324485768072828
0.584528794937244
0.4799494612027268
0.22656958994940818
-0.5069351363392348
0.047133559341328374
0.1806696678462979
0.7205812611304228
0.23380781302733916
0.019376138906406094
0.01594078524590081
-0.13832940960772835
-0.05744211325371547
0.1688295820620747
-0.36422772224052113
-0.04305874345754205
0.23807255255322227
0.3543218138787901
-0.1584128079528069
-0.5648072050825347
0.4436201539967362
0.5140075491047637
0.5552719670815058
-0.841668792653116
-0.14392101926829676
-0.3877404842235916
-0.20399415096067744
-0.5201854725342786
-0.09904572227165823
-0.025287596908259533
0.1554082251779221
-0.38863542982185006
-0.18802423347134056
0.7482692379363677
-0.0756832699748248
0.5510318044705922
-0.6986473918556926
-0.4250729477904284
0.1681430272678299
0.06935474870117271
0.06290920003134454
0.04167450040610208
-0.3350449034888806
0.4352019944263877
0.20250827907184105
-0.13177570056553162
-0.1000429333707305
-0.06820787708531137
0.4659451681948532
0.019532102148887627
-0.06665838910575805
0.10698994640354849
-0.30277294773415336
0.20642042907777577
0.027692934674883454
-0.6307613239288954
-0.45646352108464705
0.3625316688573793
-0.5891996029025304
0.15069770844588495
-0.24123246810302806
-0.18587165551017554
-0.5720302419888381
-0.1894735861592553
0.01187278250134326
0.04970449130202797
0.25950240320570517
-0.10880841480579342
-0.3266403994170164
0.18540142950471228
-0.3222554974498253
0.6913674833747655
0.17271421286272712
0.3615998257321057
0.6526100896255377
-0.4883447522342609
0.34691342737931047
0.09505027398067713
-0.45096111002330674
-0.6545429058068807
-0.39323220596684405
-0.1512733051124825
-0.47660046281368623
-0.07352077614508121
-0.5957849057641358
-0.06841825024036262
-0.3648465495105998
-0.377949441264047
-0.008161791311522856
0.7081571525342392
0.22581559855147607
0.1227225920689672
0.09314298432309931
-0.19327165996909493
-0.05529352277845051
0.5723156465043351
0.21636799968683496
0.6510821879569841
0.45317929245147204
0.4091498875562493
-0.43188648715895495
-0.2218289458784537
-0.5681363914457288
0.10933252554547163
-0.08035673228283041
0.06763703137529622
-0.12398239516426705
-0.14175826329655708
-0.5316506795622805
-0.4274325853054942
-0.38998738189779714
-0.5018600979350827
-0.8200446976406388
0.10193367258843046
-0.02180186436108652
-0.33220672885841424
-0.5212414336500448
-0.23723432615883724
0.5953061728325909
0.5141354701441514
0.033260130203806894
-0.3228995477453994
-0.22801532982135936
0.5162621474725648
-0.5666930913408815
0.7245554560207544
0.1582253324317042
0.32901240405385596
0.3635856061989915
0.1617691694963057
0.5074588669442874
-0.05032149095863988
0.08357371752851687
-0.7624278251140038
-0.06665024877888909
-0.01676521463483013
0.4044271771283588
-0.7420322255456444
1.0770648429089218
0.13378340848097162
0.37671411577235586
-0.5292690820142099
0.2184602330915753
0.07463339568035567
-0.15688274110726605
-1.0497615040040054
-0.29225321726998804
0.6357519444954286
0.13184212228286116
-0.2850690697923978
-0.541494584475342
-0.49602580125393825
0.06370180483771348
0.04463622671959906
-0.17379084269662298
-0.4075215836626943
-0.235108795188887
-0.04745124598298099
-0.3688716368964131
-0.30748894878345184
0.6008381869241428
-0.32018796133894384
-0.056029831987835454
0.09036701866617829
0.5928131330328562
0.7114147065485562
0.23355208263843416
-0.5647795657478598
-0.23989175750627642
0.029549450300926594
0.3007949374346222
0.19397933808910836
-0.4389387489261528
0.014560245062134018
0.2643971691054101
-0.10788799694444569
-0.2991822766850812
-0.32816347999994383
0.30206199178054194
-0.4591630545373213
-0.7895433239197699
0.051556391176257405
-0.07163896759656571
0.5305786177681385
0.5582801199276092
-0.4779812692611182
-0.8590508809030774
-0.3513210321782768
-0.5866315454278108
-0.22533637151751318
0.6151581827389045
0.02940119608176121
0.05576520530578179
-0.15811423571552383
-0.5077190050177954
-0.12020708131119918
0.5237845983884708
0.33352332154384806
-0.18739668059097966
0.09714712598404739
0.1703230731278478
-0.27068688959702847
0.46234800269617005
-0.3095267849628168
0.07613637817786323
-0.3492213497283387
0.014111952358603547
-0.6708694033458562
-0.3816350971973049
0.18983838361286154
0.08154539082653169
-0.17895535931824097
0.7830315106432754
-0.7485914264234598
-0.1546551579792099
0.614873390097478
-0.11346034339613674
-0.12447282152450898
0.18954676581637112
-0.07900816850331116
0.6309933498090218
-0.6298947780232365
-0.3218551312827167
-0.345459855078243
-0.49948039450819387
-0.2288607254292785
0.7143452206413041
0.3547377068145552
-0.09623859089276737
-0.4678118255712357
0.042695875292282484
-0.552605689400929
0.14130660860280927
-0.42031783165311454
-0.2653030291961441
0.01876653103518812
0.04342279636277703
0.22111015648735613
0.22185944456069556
0.04775948788180491
0.044352550728161654
0.7574886980273647
0.033089115093789576
0.37855408073404995
-0.1281387397245727
0.7425328371468354
0.09624328415583894
0.386281954733881
-0.7627682564838376
-0.5789498972651503
0.29281972659698907
-0.3360762352748243
-0.4384462226331741
0.6042436278995321
0.3151398408115005
0.13318693854319005
0.17846322783337087
-0.21505297780510516
-0.07502937057710711
-0.26580797781407356
-0.4683352234860264
-0.35961648972665294
-0.011942909985366963
0.2244559797786758
-0.13110903555732045
0.03215585658314103
-0.22218161987779975
-0.28111194594188443
0.1487733575653614
0.07229878263173509
-0.1896913563480791
0.6031321367256944
-0.02176058223556166
-0.3636690047394496
-0.1434370339962686
-0.022835843130361612
0.24499691646392485
0.3294481840115021
-0.11437974831433818
0.528487089095964
-0.3124012270343856
0.14521144619614643
-0.4590103889731846
-0.02468693330671714
0.26368130540427076
0.6286689470369932
0.2861177025075892
-0.35064355366769334
-0.13097264949835305
-0.3474339994425338
0.5179651863458398
-0.5941449973596202
0.4043017244120424
-0.3464727822656788
0.07950629649331356
-0.20352858942428123
0.3779327227332383
0.1146436680784131
0.21474783153662824
-0.44905073772299026
-0.2611467052169446
0.5316875978768141
-0.47504407612323774
-0.8264583326426644
0.3226290342480529
0.2277623566040708
0.13714166856748147
-0.1824110625592031
0.5393280790418448
0.653627128451275
0.2732118572677961
-0.08488999517942919
0.4172325262216857
-0.14911229092570355
-0.41428743486998526
0.07913792417386661
0.14693977292019306
-0.2652855808624276
-0.0036849263634306747
0.021323678172287155
-0.18397815794490963
-0.20028286478050425
0.23018037916802123
-0.3186890071707359
0.5960851744907988
0.11996390070574202
-0.24299172602445282
0.1274579909659352
0.39228480622935397
-0.24006860398841293
-0.6568348091544236
0.07899586777262059
-0.07651638877433407
0.21542929159410432
-0.3570830276641037
-0.570159768525212
-1.0135723886901726
-0.08110729295183206
0.11929211381543799
-0.15753182620435632
-0.16445860821215963
-0.20656039889206476
-0.24599527418673578
-0.30987506322844705
-0.04021838170924535
-0.2174067514623367
0.1699636407847762
-0.05949299257232885
-0.18128227011063228
0.23226335031078593
0.6714714039277214
0.5810068022412881
-0.04343696601614656
0.11163363582100519
-0.17686051439688333
0.1275085294121574
-0.43626358191637293
-0.2413685807627723
0.5786303684164139
0.03265581026639726
-0.6241286737485264
0.006056970563629897
-1.0157941785708762
-0.3357065866306152
-0.16980591028767547
-1.235010324443306
-0.7141236177120187
-0.26113570578739936
0.41629165423451964
-0.2572301610481126
0.3260547278286228
0.028443800273764
0.26006524201074527
0.16562758091682325
-0.3600871754057703
0.43590549838871934
-0.6166186548815317
-0.06404167607587245
-0.3601610100807835
-0.3190841215069952
0.4217912147539719
-0.5518445306138652
0.4260284847820358
0.14844978571336076
0.05149676539686552
0.847840211647513
-0.31884906962798354
-0.16023581503253612
-0.33151623607072006
0.0005345578248358756
0.3984468218452318
0.26726869050634705
-0.46057428868564004
-0.5826243143222097
-0.5101949220963417
0.549472989415789
0.15145443846797219
-0.20635344089710075
0.013235932045029491
0.42729843056952294
-0.33937120576846747
-0.11957779031139214
0.5282188545245944
-0.2163189138764488
0.15630446925624703
0.02275317098090836
0.19189506478926927
-0.7851305919186696
0.4959308402048459
0.0946838113257481
0.07541928275218747
0.2698981404308683
-0.38793457038404006
-0.16321397414920527
0.5911449399260112
-0.0327592725245354
0.5120035166395079
0.19516805945997762
-0.3899024436082353
-0.1613751857345723
0.6172790742198717
0.11431589045166365
-0.26931788409026036
-0.024490895193512503
0.4241342577565062
-0.019660218467493135
-0.6139228512690467
-0.3474287497485599
-0.12987868210472064
0.20072875883575284
0.4293497576052735
0.2896998612427249
-0.03773129316974239
0.3930263280980586
0.003091989489101849
0.450289824395673
0.08548618885601604
-0.10244700201248315
0.584792526341897
0.7934254350193116
-0.04585401110308774
-0.24223811186231717
0.03406152516797929
-0.2060610176116028
0.31749271811051216
0.0184663945165376
-0.7019846572295384
-0.008154671021730531
-0.15226403042705838
0.32003447541529184
0.1296302730461726
-0.648173624839176
0.22236597150535653
0.21848263124071257
0.6860051463214016
-0.6781677231548158
0.2950399197059148
0.6448327154600465
0.6636004109156819
0.030782076221105983
-0.1002231756833014
-0.39284533348012773
-0.07613293607957133
-0.460125816487172
0.30172004799893726
-0.14552241421225331
-0.1663694742967104
0.05796410639050451
-0.9540360499472422
-0.38916533417527377
0.30432738125467834
0.238041108932022
-0.2899983742064639
-0.15037701533092077
-0.07236626905708424
0.513248446801929
-0.6553834917425131
-0.3465211511526815
0.6190375333803492
0.43886705769292694
-0.007874424256822304
0.4425459088333158
0.3797541160832608
1.155249752425631
-0.5725835136428149
0.1687366749784152
0.2868031725743161
0.5986261994585256
-0.5857762451753297
-0.06039564021236226
0.35151376206316515
0.06643470580136188
0.3014601521214303
0.04590270511639749
-0.10881438945568239
-0.64790247433642
0.1289242729205588
-0.012818859257006923
0.1085692219359081
-0.7576783500122032
-0.5272421957818813
0.5623005042512549
-0.33691851718810606
0.5004896232232798
0.41638466274698416
0.6353952015719694
0.07092070934373712
-0.14499813776171
0.04802543367777904
-0.0800518670549945
0.25024605211013384
0.12274577980459422
0.38900116250394906
-0.6352443191671453
0.25717236366387486
-0.4388035402561387
0.20406518304976082
0.6665922745553211
0.01844285342371157
-0.8357690976957767
0.17252723312572232
1.1447859460744472
-0.5843535872619358
0.07287440182732151
0.12937636698513486
-0.8324992489316843
-0.40638079882166117
-0.026494392614033625
-0.6013468609540044
0.48640781880983774
0.27139942894825825
-0.022595407658928313
0.4634908426335032
0.6288417634968272
-0.0696596280516864
0.2625602972338811
0.024205459031195416
-0.2206889819008673
-0.009696812625407043
0.4058305907119833
0.2041627664783588
0.47148171165731195
-0.0023029233503793533
0.2334950887165539
-0.19225028572658281
-0.015289958267693814
-0.07095335537099373
-0.4312428057884022
0.05161929705933497
0.40428431754547905
0.12737593310222806
0.15593793800695233
0.39696985133435875
-0.4311152566543568
0.5632243627249515
0.6866902553212545
-0.625540412716713
0.06185462542518243
-0.4064302959161734
0.5429315837746863
0.07884373137228133
-0.43488551933257835
-0.8091775192405999
0.14656826210534346
0.21460535824560345
0.008883308268136941
0.1846670417048048
0.16940733675951639
-0.061584293260656085
0.16892557774839476
0.5147760073300266
0.7510489607980155
-0.5206872253606422
0.6379112452982361
0.044404656919464165
-0.09764497921485792
-0.1618684489028665
0.16981766843379364
-0.6145734640244107
0.3576656535232779
-0.09205537369652798
-0.24454846213094994
-0.03018052638218307
0.08730617793363618
0.16332113433058967
-0.7967368482021825
0.38334161632692054
-0.14973276642306205
0.162927167034865
0.6224254871982019
0.3131971387731511
0.43520107705748984
-0.06855365521310111
-0.23935174080909344
0.09643863848053665
0.466830669859528
-0.2346527462049114
0.4114383695944245
0.42092686148098674
0.4988632907337747
0.3222627389880043
-1.0316529324224737
-0.7419323434553508
0.5946788129174926
0.468150363476253
0.10963452587659502
-0.3697069148544125
-0.08826941479404608
-0.010318303925935827
0.04605034733745411
0.021179442360927773
-0.3579657412767692
-0.6016027437495831
-0.6707794590590619
-0.2832895848195822
-0.6434568385194742
0.2737947698740788
-0.08175778658178699
-0.22886073068060545
0.2712667179029865
-0.1969032472935276
0.19640421651599468
-0.686494490828883
-0.08156260088042407
0.11157035087111701
-0.13317889947996012
0.271900255490773
-0.0887733289593594
0.04255191132178781
-0.3251633504953645
0.3875404313540102
0.5335669609559757
0.16054112680922505
1.034841415850305
-0.0036411658774622054
-0.9994692882617996
0.4184803282165802
0.04596928076458539
-0.4557986954001496
0.23857486069377015
0.08000390212086571
0.234378996295853
-0.3431646397460947
-0.033936990063342436
-0.3481099356956305
0.1280503555404748
-0.3247587293374948
-0.034831171756312715
-0.6746334099431897
-0.3285735444626977
0.3108514735576676
0.24148284278887314
0.410609945828501
-0.1464258723297731
0.8054730185847296
0.5307087885764887
-0.037497155688432524
-0.13279454855663178
-0.6774384392330434
0.3112727618154806
0.2541890208922694
-0.46543017166014844
-0.012430551982970625
-0.003530511138222973
0.3646959196072502
-0.45965448487666954
-0.16427629665347093
-0.2032268609944618
-0.8138291012728953
0.18691218054776024
-0.023253741543299226
-0.04826234743853507
-0.32622563482924527
0.25381835819718096
0.016622876180672302
-0.11986615331080254
-0.10178210878550606
0.1884919299890955
-0.10519610963822214
-0.38983976352988964
-0.4453325598548247
0.5360405636371282
0.2143081009224509
-0.17487845852013803
0.01463411693639734
0.0877142394709883
0.4121672793115133
-0.5540513147282448
0.06776457459116035
0.37798147755792805
0.4512958355760396
-0.34512234686200005
0.04410375362940979
0.0879364020868501
0.7676804160662449
-0.2874636090251991
0.3687214141777241
0.17635321652161684
0.6504394612318207
-0.4250129733080809
-0.292030085892138
0.5818114611604693
0.1500497644947674
-1.016593411705767
0.5238149662137527
-0.5023300338689918
0.08100404559077186
-0.10393928816512797
-0.14990425121890405
0.5257965391183962
0.9314554492559259
0.09929343911770955
0.6445342403053984
0.9812948871608004
-0.20652456396051916
-0.14978789775319448
0.05957461569270757
0.23429749829833357
0.02670933464227738
-1.0780335613362297
0.4599981764729497
0.6805335646097647
-0.11308535371305348
0.28850126295028045
0.41459419199265507
-0.14968119598067717
-0.7322010141074055
-0.4126823768863473
-0.11771847950732021
-0.4511958974309722
-0.015419891046762953
0.5877930666405322
0.10501847433216653
-0.39817510281694574
-0.21241619801651995
0.9032643680707501
-0.05798439859809411
-0.6285819931072074
-0.5381009381880922
0.01367396280023335
-0.4606086529896991
0.13966897327610328
1.12408777821639
0.07004832428555428
0.4132632787388149
0.6537778841279679
0.07845730892983341
-0.04891114635464523
-0.20436907661459003
0.06942545472125995
-0.5183664856984935
-0.19754086639785187
0.3126886393282614
0.3323919815398488
-0.3088093911522765
0.04884356677330699
0.27234657987309135
0.24303397986256087
-0.11279815210940969
-0.4096510334279691
0.2571174192940866
-0.0533504614951402
0.0011981721290354455
0.20751975162517006
0.12376304659799006
0.08975984297464124
-0.3242185414864969
-0.24631680791929234
0.554386542058866
0.2899417136423191
0.4064705445336612
-0.5195530494303986
-0.3688406988318252
0.19856751260383837
0.7000628343278671
0.9363079239226423
0.10565612140051442
-0.1656263949750375
-0.29359274834272053
-0.1661640819333499
-0.3076992891833742
-0.48506620412845364
-0.7050831011531276
-0.024721322567216847
-0.38809371466991993
0.3447657235663532
0.572844358799822
0.53770188836244
1.0064735117211572
0.06042981079257208
-0.061126208588235184
0.010476229811805881
0.06362379059686012
-0.18563862471269868
0.1911952563305063
0.20136536010115855
-0.19502045579450508
0.24319207965625983
0.24201737869117698
0.9109667277866197
0.743433267853757
-0.24429082581862063
-0.7193685275886484
0.09218859002745866
0.051297645222013806
0.2970366616851431
-0.05724353691001901
0.16070149818847185
0.5564405929639771
0.48480917279773483
-0.09785113740218092
0.17836642664347827
0.5031922545300505
0.09637619381093947
-0.40998299522257825
-0.07077225995812972
0.1504452693668159
0.17326294497028163
0.31729449713513586
-0.7839329700196112
-0.21086327931924026
-0.31282624673563125
0.40952039531264384
0.21883793366681967
-0.007989321104858955
0.15928554661219732
0.7451140078945355
-0.252856809869385
0.038818758177718876
0.06419795766555637
0.6618281993663392
0.7020233439521665
-0.08674870487713839
-0.1561077754849115
0.13985202368719393
0.4035465689892883
0.24649831248884468
-0.15314910420462127
-0.6327082986083556
-0.033289197646107445
0.4916061534208028
0.17516953050836495
0.6240534173211624
0.4076424105183143
0.0917099414574167
0.3455716330432666
-0.031151018022521206
0.02474176073195586
-0.6054025449280004
0.9682973414534927
-0.17086964386853504
-0.21509853614912197
-0.3735751022949428
-0.4071806120400906
0.26365513175752026
-0.02847024280664461
0.12263208087523528
-0.2526049083095605
-0.09143102631055151
0.16248286575375523
-0.03193384027730306
-0.26173422773167365
-0.0721744127584161
-0.7092935834431878
-0.08317723066675735
-0.014602924545805416
-0.7538170689928452
-0.28080633410545747
0.24326652038040222
-0.2712084462633788
-0.25401416537656857
-0.8712211073745053
0.46518269086799696
0.11989875494787888
-0.1531256459961677
0.25623221270955365
-0.3033879594166763
-0.2171166418981953
0.11926533363769327
-0.32071783538289056
-0.013156319514256748
-0.2622298087626333
-0.43103126116593304
-0.6199334602844624
0.21898660282708132
-0.4256343261067018
0.6928379403840912
0.17509480029006314
-0.4653767626264627
0.032819838938622656
0.19762336007451892
-0.22487521573940825
0.31825456777866823
0.353507893356961
0.0008828017447732965
-0.07484196345905018
0.3118542773806144
0.3847160794275055
0.15202509437132491
-0.7143850140978031
0.17191584854267852
0.05047185877239009
-0.5609870559596412
0.05797626930428033
0.4490712189391294
-0.9666950818391233
-0.5289911549396134
0.0873605947571539
0.09338399765224231
-1.2132801105470672
-0.27309836194893494
-0.6737057094537849
-0.2902041574073675
-0.1021261990168277
1.0410336292598428
0.12126342791761022
0.5792237238704174
0.6259522578516173
0.09568338279305806
-0.7036657484917767
-0.2542916139996194
0.4390462880262116
0.1925449876186436
-0.6799513975928867
-0.13289590633275186
-0.08742039756393644
-0.5201405697252498
-0.3308190841377737
0.8023445602206998
0.23170492127666065
-0.010238284821727261
1.7455651729476063
0.6119370392011845
0.00793097659564677
0.43378750595444815
0.22474890843287687
-0.2127352764627692
0.07706280516829121
0.2226707987698684
0.11591751706385388
-0.20231830394890168
-0.43090751550218964
0.30760526002382454
0.7248719028778212
-0.19807469675582062
0.4848388451474202
0.16590120816683843
0.15287167632909016
0.11615904075921486
0.48050088809638436
0.722193112794897
0.553578847229179
-0.7797011047884429
0.28531982139490936
-0.0638397962470532
0.12193877618053912
0.449712644393382
-0.8854471206819183
0.7405638390400787
-0.05748007640151936
-0.4284253964865754
0.6120960800039836
-0.18461181959252695
-0.3220795172298493
0.8091224495125019
0.3059450158194554
0.10812314251933211
-0.5813249717914978
-0.21963938342722655
0.060108992632612976
0.38225552442585703
0.04920654657427728
-0.2811363383761878
1.1615359271614893
0.0746125842842968
-0.4586551571956545
0.4321224869767391
0.7005462099493216
-0.5375995833182142
-0.04293391499759645
-0.09037065789372166
-0.07383641740953648
0.44738060566130783
-0.3320272244148313
-0.07701768793815618
0.29351696002073024
0.5040566062040179
0.09336974907322153
0.5529944928324463
-0.13172888796034016
-0.6352901684570196
0.20646255590600038
0.6846284295251625
-0.6736403736521132
0.2652893678051621
-0.04005511437383676
-0.09407576446814347
0.5935961452402201
0.15945136006934793
0.06723823726753367
0.6030814289980418
-0.9374676808413642
-0.5104113769192791
-0.711280686585216
0.09901084229130544
0.08652522935937484
0.12082291175377699
-1.1100153787620737
-0.7679724177561764
0.18491106038770475
-0.005002800586610158
-0.46349056592547044
-0.2068612805714993
-0.005289298514502598
0.05636552169259094
0.5134828947600666
0.5005510369191396
0.6424161264241882
-0.006305556818766777
0.2310733610811576
0.2210655370338322
0.17061988682741275
-0.277632880477026
-0.3495184970451971
0.8051539703131082
-0.26548630439396204
-0.3009314314103005
-0.4521278385058343
-0.03992116265092945
-0.49965667549820736
0.496306871538994
0.11248648161496366
-0.6767147696283522
-0.43997099988469857
-0.4979244317871776
-0.23805112114007387
-0.15457983155199598
0.45235668410902174
0.21983619707796997
0.20599864238138377
0.2833847051688583
0.6613033392571613
-0.199817543906473
-0.09631609304067307
-0.4305964417142694
0.7403155492007187
0.05398040005296765
0.4339271154191585
-0.2080212085239076
0.46603740671206706
-0.31706556674994024
-0.25476176914485404
0.053581998825216845
-0.03766064320360611
-0.4800846030017072
-0.057779615290308194
-0.37752486000415825
-0.42669603805024975
0.5765538080354233
-0.21278393096981887
-0.3555965652204201
0.30145201436357405
-0.3857401845646573
-0.23250102688289428
-0.13762448597011007
0.113810898758049
0.6422481674733512
-0.3609589993064299
-0.05160579318090557
-0.022924512730869616
0.6377403637426602
0.055312507661891476
-0.203306451059963
0.12832702518244624
-0.06583437757329139
0.14888430320004561
-1.0606293568603369
-0.35250699601343133
0.16235237186546955
-0.4677016416987247
-1.0210574623191655
-0.13282341574744275
-0.1603102191074466
0.28468873316578147
0.4303745090552671
-0.009799121942307166
-0.010294495553666351
-0.11544178870718462
0.15638915686771904
-0.15024510689415352
-0.17682492729489133
0.25918772912224075
-0.07938466865316536
-0.23797097187214333
0.5136649704234213
0.515863700484788
-0.44951280529241255
-0.2545293470769235
-0.29550894030060537
-0.1947731997832831
0.4547309733360832
0.3355291202716676
0.10988358967557336
-0.3382617517434237
-0.08676732247859338
-0.1031976925620131
0.15276804839195407
0.035945846440550336
0.08650810254972163
-0.4053342235898297
-0.12368975841936984
-0.39054384211651155
-0.10862052054867337
0.14601151077495483
0.7313436237216367
-1.0744483918967247
-0.36391665182285676
0.1607493016599357
0.7422585111863671
0.12283598479639378
-0.8409164503368277
-0.035590935647199284
-0.27138985003350713
-0.2553813016340452
-0.21568349973880227
-0.04874658781301536
-0.9170370403609154
-0.8208242299181211
-0.027224998076202142
-0.25116752968849315
-0.2902127783190568
-0.45828201687288794
0.10218836411947936
-0.2864918440672866
0.4648137986689757
-0.01008328236630221
0.4242390368064088
-0.24022064260734324
-0.4222308655788942
-0.37394301585602224
-0.3687211717574217
-0.6714173489238129
-0.11205596271786801
0.0456605419925198
-0.16300273057019085
-0.32416769567233994
-0.32348555312085187
0.4059480912475091
0.06820209124283735
0.12266706323295076
-0.24445406753500454
0.04949944091647418
-0.31968769493758725
-0.10337568528721791
-0.3054728122921849
-0.06375532702895768
-0.6464666244285655
-0.4075939699091322
-0.515714262347864
0.24418195669752515
-0.5754497819548355
-0.4052333369525521
0.10817725620093262
0.1286915999297686
0.018409825957789193
-0.4596996856874775
-0.8015369416689209
-0.30992910129617995
-0.5235548136457732
-0.4304019521817156
-0.787919368620771
0.4973149324297444
-0.4422626579201028
-0.09196206369991952
0.28014954664271713
0.5914666430347553
-0.011875471764581062
-0.778677807893025
-0.012187492975366985
-0.20747963161218852
0.011779232696739094
0.13686437289563852
-0.2156868877466727
0.24162277100055307
0.47229055335370784
-0.27002920619822146
-0.06547242952069306
-0.08773289271114221
-0.8663833865018004
-0.19698473717829082
-0.46569976898136006
-0.24175596069831803
-0.06713973851625357
-0.011864167996650889
0.6139455931127986
-0.4445543323788128
-0.1940172769408756
0.19793429664064538
-0.22263084459862628
-0.26132019182628613
0.3144405008747407
0.10313187538803117
-0.9425495874262114
-0.6667357864458284
-0.23236977641691242
0.3002480771285959
0.25259134089614144
-0.15093851107983786
0.7040206104671274
-0.41147824440892167
0.2500685144312042
-0.12083744871509139
-0.2894761370000559
0.2908377919315455
-0.07024095331295738
0.11591730152531927
0.06253944307513
-0.3591345530332748
-0.095915007337412
0.3389729312888553
0.4632482912325441
-0.20341200127761827
0.3949009096565842
0.0032248989954367004
-0.33611055337001433
0.336478354363084
-0.14037374940402012
0.736640873150459
-0.36140094327246963
0.1954172594390705
0.07032125788318193
0.5811181921827091
-0.635656011085525
0.18663281486838995
-0.5876206540823788
0.23784531524011365
0.8131099516283125
0.2821145432887921
-0.6220113798824896
0.31807867028950587
-0.567354391956246
0.2794969963310841
-0.6499610125643178
0.61135880030705
-0.05224114034714564
0.1273252948313054
-0.2707646627294215
-0.42819495031212995
0.20637325615710012
-0.6569702350802301
-0.11815935858052906
0.32763627656203415
-0.5555919612196941
-0.22225527020211547
-0.0074441884096100195
-0.10906785178088518
0.5025197487366955
0.29300505403999083
-0.25797826452427225
0.8316830333874021
-0.6003711442586783
0.20596807806597103
0.039019066958690604
-0.41369987966357985
0.3259205914836974
0.5413100120212466
0.10499103017465485
0.5123473240023823
0.42005077979103567
-0.07089513482584507
-0.6137408553313988
0.07608101844603038
-0.3759915571104206
-0.34101993762745214
-0.9074792526838101
-0.2317220077245913
0.2669929071120139
-0.3809780546776388
-0.0008996462859881553
-0.25978553889731565
-0.2904412203306365
-0.2627024551284796
0.13668076831056336
0.5931534743097928
-0.3101088483180548
0.1889085735378066
0.08180415060918746
-0.37416867769531104
0.14344324659650748
0.14544890832360532
-0.15106586091218932
0.566811606573683
-0.039906631185651555
-0.8376318697838931
0.24554265865146063
0.19022186365608584
-0.021162556076571776
-0.4935499979917026
0.14785627056284628
0.4769161804242338
-0.19762920411614154
0.4081193441896001
0.46610183114413367
-0.5776524788758276
-0.031716899443017935
0.6480837303450693
0.32912114080046695
0.20785586163694114
-0.005262775316426781
0.2100554283731259
-0.21436485958165527
0.37448807743096196
-0.20078934611254068
-0.017134754052223807
0.015430444738808915
0.10417691867274288
-0.5589253116154296
-0.45356737045165346
-0.26954783023529
-0.22158209216007985
-0.08560039716075614
0.4574333037335515
-0.3480707148711675
0.1939843113907192
-0.0894512643003651
-0.08815191714184913
-1.0005237341833992
0.27629208980122116
0.5907054146211832
-0.003568842122709183
0.4575679191961172
-0.08322020303485403
0.3568419561766425
0.711568915839485
0.3960963846390122
-0.11401192652211763
0.0010142932150872077
0.14065390395491792
-0.1979593310845084
-0.7131376936893049
-0.38779866913803873
-0.3418759800156108
-0.6495690581857453
0.8193785371761434
0.5170421634727878
-0.4372650430419993
0.09265325975822378
0.45948647429599726
-0.05192541015740724
-0.11050481378867051
-0.34017486861654433
0.361758491274833
-0.3723899766254265
0.09332774564183037
-0.362376860831
-0.06720338163358787
0.7373438435374371
0.3216587311402192
-0.40045186949293327
-0.13128548675368704
0.15080400347787987
0.057743391656740424
-0.10124908103493585
-0.007738293209874011
0.00516815410712882
-0.7260183691712877
0.24743454019382052
-0.17607321084138067
1.0947328351478374
-0.40377358249703427
-0.222225690177231
-0.3670572841204374
0.39848335534112816
0.49489495809509604
-0.4411669123479325
-0.7464131106238305
-0.12614545025376642
0.004024766429643932
0.4310027650661787
0.4554875389481449
-0.18345499155143935
-0.2565200092788761
0.2966807919258812
0.18919375240337574
-0.3569958462470705
0.24934495704370419
0.13322140593386628
-0.3844232572630045
-1.3352166848755598
-0.11419966369060172
-0.20771790639965723
0.16361083942545873
0.4453383622917344
0.19919560238076306
0.5765803668429553
-0.06704988582600349
0.2949716726358666
-0.0562680074784262
-0.09827984402015946
-0.27807382408233045
-0.0014041092820080727
-0.5126526987682124
0.5107830126436698
-0.5386805541727586
0.43623517445392795
-0.15252391009050745
-0.13117240196716143
0.1258665597727242
0.5098725534566713
0.13534939495389953
0.12660637450857296
-0.19940063329894955
-0.3155747830943399
-0.08970743115197498
0.2078262318662773
-0.6577583895601811
0.17454224322955322
0.5435888886070663
0.3629374295700813
0.49268610441734834
-0.11302677150022698
-0.25904258478275516
0.33000793422909463
-0.23120578619531623
0.22990741641500562
-0.8886646299506039
-0.012466142754401895
0.0867755858185044
-0.10096378748009338
0.3683654155868992
0.3383861674257521
-0.6642270676551606
-0.29554717171086536
-0.3143801551456553
-0.19712914710312365
0.134450189828436
0.648932787577694
-0.7016704083829375
0.4896352519475161
-0.3111976462611596
-0.003599212784823478
0.09036654088306648
-0.05467267467076897
0.13826975427137042
-0.6623290260989134
0.535779885640162
0.2374578729080499
-0.06058048859915068
-0.022010320147564228
0.34844470869190314
-0.7080873886449491
-0.9220313727450257
-0.20174205065313353
0.060458880819497435
0.9717445140589103
-0.45772208137970466
-0.2553858918048413
0.45556485137483815
-0.042177222312297064
0.02363268289327349
0.004404237772570032
-0.26102498664371304
0.3722701068593902
0.07369702186009365
0.31327210388686577
0.1051971405039419
-0.5379242139043321
-0.6605496653643592
0.022913443029510285
0.2451771611074593
0.1642267102433301
0.45909966326713286
-0.21067757235135348
-0.00031844017235928377
0.35835100115939017
0.12343501792294446
-0.04702234861831252
-0.32829226727099964
0.6702598580787352
-0.1293571023423137
-0.25644360929579957
-0.4578693435334045
-0.19724777298499607
-0.3265960695058681
-0.23700393681076448
-0.580646243997698
0.0633043472051234
-0.22139626414268276
0.3173350228816081
-0.5914255985968138
0.6952677017758699
0.27774023765576517
0.16705880877229146
-0.6939452146539186
0.48666047399470364
0.008216122928669396
-0.06874815258438233
-0.17968336890996478
0.09342765844562266
0.29266858703425247
0.6759211824905795
-0.09591780306395163
0.535038510754149
-0.5075413511599887
-0.7084757783530063
-0.22973789938677874
-0.4267840693530061
0.17411367873548875
-0.2531407706831318
0.46812312174394854
-0.4320980596347167
0.5031277369807915
0.6567751926806811
-0.18673737252908063
-0.31224465491538594
0.6335411315044824
0.5286115104291503
0.06578478944313514
-0.8819990641346619
0.49052736693107046
-0.28706952702375543
-0.7255192683631307
0.66375009839947
0.6491138354458122
-0.19758454714341347
0.20213211855325167
-0.7520700198170429
0.3737121699217777
0.3122394083084963
-0.9587168128807716
0.20852212583052523
0.15528724897486942
0.2975581070939517
0.06967071160032079
0.04816034118886664
-0.19878183693717538
0.1521070276499559
-0.31923319868856054
-0.5203335700746201
-0.006711122121238937
0.2259461873119604
0.30401595514724855
-0.22598924371462142
-0.5066199488904172
-0.21874120218413257
-0.17380528354589792
0.3504490980548039
-0.38701364581898745
0.6382315317132164
0.11254208773818078
-0.3346224545796305
-0.284150384528437
-0.36217747223717306
-0.47826365471455334
-0.03773802958054537
0.27365581718515347
-0.07570409878708055
0.19599064512517686
-0.9236528205064082
0.23335763004985352
0.07729271474064475
-0.07504525936521958
-0.5800232519504339
-0.9024995446923052
0.44877144169041283
-0.017359285911219723
0.24088918014915778
0.29237551285963614
-0.35991174437577167
-0.04197834021668328
0.5237396646904496
-0.6107784618815977
0.3868111720451778
0.24988194676064837
-0.5238842699873246
0.6403062088187123
-0.1376034672773346
-0.49359791029224453
0.06338238618569146
-0.21116975788269948
-0.34262452568238055
0.20953964723964025
0.04999803687968407
0.6823748686987862
-0.3940769037301955
-0.6528364139625061
0.13523617102769908
-0.2576365370176973
0.0009635000301589394
-0.7326344499943661
-0.05877660279161381
0.03919962803851514
0.21254855116635468
-0.22642081188438004
0.5198211577428523
0.10087050633482274
0.20839806320069687
0.38833006186140256
0.4454480187489026
0.25746382749185465
0.7217342164962091
-0.23515656872805055
0.7002544130476397
-0.12067322403399587
0.9031161113496735
0.010339029317657117
-0.1099485751665884
-0.09841163705139781
0.40561001422445914
-0.08419221599852325
0.06217894898913752
-0.00945619263015132
-0.10258506551963309
-0.18364612165203686
-0.8706767356416265
0.06872207718540428
0.06404235701321734
-0.13572539556906904
0.343368072052397
0.9175472256930954
0.3204474366513493
-0.40461133969617474
0.15401324779563566
-0.1464409656384209
-0.20194454519968352
0.49194556115976323
-0.36392596442580627
-0.6834428301479742
0.18095555998064572
0.7707013551107843
-0.3305058059530408
0.6134868527706366
-0.44777868034541923
-0.8836568169038754
-0.4558454655159454
-0.5562965373367622
-0.04158955347751217
0.2026589883793813
0.1118596822206077
0.17334522922167658
-0.08923576568116175
-0.07004284096519402
-0.31193893947710016
-0.5609993826769073
0.1139108262774469
0.2774558244755685
-0.25203391025700567
0.39203322134331187
0.04379949894912961
0.4108938149966401
-0.5048923795759215
0.25943544604424135
1.0358854663323274
-0.18318818601548256
-0.20456321243024925
-0.846555618938793
-0.4375129470665737
-0.687912604178726
0.11736090354474507
-0.27832880902684376
0.14843068825352115
0.058541623611361525
-0.1933585048094041
-0.6749696373036511
-0.026002671212014973
-0.24182722587803596
0.11969171880228179
0.5183734556986216
-0.6947689851594147
-0.003313315111298429
-0.1078829508561512
-0.10534504197910585
-0.08714303867429171
-0.6841321710630389
0.8330186798834444
-0.19436745611211892
-0.20495438736651325
-0.9150988174121475
-0.27796466757994176
0.3152693326635602
0.6169210803272294
1.1671984572824088
-0.3089799528980833
0.46487102540638825
0.06540012968427607
0.14301421808966552
0.26034382699520403
0.3171450433122015
-0.4398299796564365
-0.36641432525284773
0.16304224882300963
-0.39520006752993875
0.4124622335470716
0.45640797427246443
-0.18411084472926753
0.06852062943711436
-0.8292225347952781
-0.3390844563809593
0.39155377973588823
0.08594782787389658
0.41197929078459355
-0.4845509421159
-0.045221758094677225
0.41661691371492054
0.4341569171553297
0.4971830574727934
-0.27528528855030027
0.011027691912042366
0.4331271109232915
0.5983459888123565
0.16226091506945703
0.006573088169615298
0.4206307067810191
-0.2640882372609949
0.7891873328070741
0.8080070913541205
0.3142145778131655
0.4452415976033729
-0.33737958108462685
-0.26085130548788527
-0.09440384964365393
0.647054596123861
0.042880064623562544
-0.050923399898209716
0.19042135321999007
0.2529621597178685
-0.5087713400938425
0.06124677492467769
0.6025797162065061
-0.26649394943681526
-0.2899701950918324
-0.2557983639338273
-0.16365538384394
0.3010292667025908
-0.5747649879192545
-0.3843419033117248
0.15714651906861515
-0.05242372124938591
0.13838299110562502
0.1752084348014689
0.13111125469099003
-0.09570336790880535
0.3159392733398902
0.4934928966203672
-0.028034550362057542
-0.28341941799124715
0.2325864257823265
0.3675657914168321
-0.19732759120363666
0.15318528390769676
0.2585342337335752
0.4180205097510015
-0.42974660849960844
0.568316581272378
0.21797525242018728
-0.5198504664544913
-0.5138022031318988
0.3787481816729438
-0.35750941184216767
0.5763500398118268
-0.09925575317367778
0.575582367183811
0.011794605911283982
-0.3128490122880984
-0.1485770988105563
0.35609848672737215
-0.7461635232801677
-0.4373259653597263
0.6862429902167737
0.22787851530761633
-0.5370863692006206
0.5776543323574281
0.12211140013650221
0.14580002211409387
0.03399597482291595
-0.10830080657111246
0.3116962387548864
0.1194647478909459
0.46931942783536257
-0.4340528608396463
0.32500040566844546
-0.2819252178628989
0.32485434110882483
0.12723182962109653
-0.420873977767893
0.2499122429914819
0.12987866903383302
-0.4362766102171253
0.18613409111393353
-0.22189687675263617
0.34763583360632755
0.10209346746528264
0.38171089701741384
0.4650262532981975
0.08642479843616042
0.056697242107873566
-0.32135285902893995
-0.15584116290406178
-0.41753197263826114
-0.23055151421134115
-0.18477779417473578
-0.1921466357518365
0.13958588453990192
0.1332037851154391
-0.5940668501206906
0.12124419540086116
0.37205245345495785
0.140628437001415
-0.007515030759952375
0.9618124829232256
-0.3744156954000444
0.8317516081332273
0.5644566120117881
0.32701559322294244
0.18520987329462368
-0.17966035551551437
-0.40574145805560746
-0.43179407628359845
-0.1776665694270051
-0.46529541086031023
0.07228285623353264
-0.01782735725092788
-0.1112873398216965
0.12999613923343661
-0.2507787944396238
-0.132666852162724
-0.20405449386721713
-0.3874027076084838
0.2828994491906709
-0.1908805124600155
-0.5497025505012273
-0.35096893513813815
-0.15946209780276246
-0.5456053332817126
-0.5898269355323746
-0.21500101400255825
-0.4410313970628256
0.6127526681492793
-0.3802080004152162
0.527355352220137
-0.2701313578011272
-0.19850376901719222
0.2763831115497055
-0.5138160702744553
-0.5304276506657117
-0.4159071669090623
0.41386249118367907
-0.5640318299534036
-0.42421600772481
0.6443537326653855
0.1873197723603045
-0.20516981284165534
-0.002032550869735094
0.7881160111921143
-0.1373189462825911
-0.28525239598592855
-0.7303745635839192
-0.27180485562567275
0.2604243048378426
0.13365555924701839
0.15611771106882805
0.20974928613991595
-0.6600217055117906
-0.11685279130837654
0.292200187916532
-0.1358868854049046
0.126900546984792
-0.42173482476376295
0.4917708422589371
-0.34589971238730033
-0.4360775560367437
-0.03247861793891598
0.48038614333671914
-0.3215714927868254
-0.10998208152663423
-0.5076895418891102
0.09193405403161643
0.042695602835452505
-0.5459309314659575
-0.2623762176012378
-0.9538517736598908
0.5761003546197008
-0.09872999979726685
0.4162329595355686
-0.1595909039601505
-0.6729313822037979
0.34340442174186087
0.16804072874799697
-0.7978466901947762
-0.05869801895238349
-0.890825325990475
-0.6978104961280328
0.8757176720478974
-0.5306052683142344
0.432416665139845
0.43188436861500573
0.11702654087491719
-0.5691655590386737
-0.5234174829665379
0.18715476847359536
-0.5895819915502765
-0.07249019869662762
-0.5940033514672058
0.09634649621162543
-0.09014859042805039
0.27945968408379673
-0.30181237065848954
-0.6053853741611603
-0.717962730473657
-0.07369758264637577
0.4735645477232307
-0.5103067653829512
-0.24162175047208592
0.38909224132150055
0.29042994877694844
-0.3457375864890515
-0.2293738339794099
-0.02867274624651628
-0.40816052540846853
0.046669579899236105
0.04380360796276619
0.5176460188403084
0.18964293864894094
0.5691811113758803
0.4572033530817784
-0.3669245162522744
-0.35732091027577734
0.5762988242235036
0.2573453691530962
-0.8288702328774127
0.3771425038854875
0.06794042127185669
0.46194015366765706
-0.28444918770497557
0.41300254528879826
0.4853298719279316
-0.4875765477582364
-0.1628497516800261
0.2234537674453873
0.0747084299325469
0.053854078187122484
0.508922803926112
-0.5865912277827331
0.03481099305397929
0.42672083511709463
0.6520218878006097
0.7731189689575682
-0.9008600676708399
-0.7607483990324971
-0.6629622834933979
-0.06684598440500164
0.015806369535776934
0.6706983325973151
0.24400643660422888
-0.5659882781533347
-0.2444773153758321
-0.2608825431898473
0.3293441471562447
-0.14308498708605696
-0.14224503437177138
-0.2832214475273024
0.11248746566570224
0.28926277752837354
-0.4617233001460347
-0.40380468535381814
-0.2711277643550432
-0.14495556206282467
-0.12482394584842052
0.5025975368294422
0.44957741002495477
0.18962489541717553
0.5415890501641522
0.4703700844323397
-0.15889259148934567
0.5992187123474402
-0.3788895431517334
-0.4088547631097998
0.48321052455618224
0.06314526986308895
0.0074898071427579775
-0.16818257333591355
-0.374497012953668
0.22938897756404547
0.7541948510765148
0.27734866849359563
-0.3286258932787352
0.030795285111071675
-0.1941676123034555
0.2400593260647867
-0.15397483160246947
-0.33301110927401095
-0.32998034515536634
0.03502556921992459
-0.4234031319608897
-0.045744213545742735
0.031777087598958816
-0.22428208239518277
0.41881538739796514
0.3857018963919353
-0.2619148678243211
0.00010457412090098152
0.125761297408262
-0.32735276168744754
-0.0277207638226089
0.14318786559675634
-0.11058656510333109
0.4790719558205806
-0.180623106558644
-0.43280733731441473
-0.41048428239052503
0.13409495292908413
-0.8911219099240606
0.6847054776180582
-0.1989763768168411
0.18309742549283572
0.3564228312012097
0.12282420209026697
-0.04983337345478763
-0.18008661375351845
0.10548291849443356
-0.46758134430511306
0.3775672143398456
0.12208013530263076
-0.4041605850593199
0.05730567191008856
0.2828852519000646
0.23858046306880418
0.1744583474059389
-0.36357110101230417
0.33480081185496813
0.5103639890505007
0.7248774893964721
0.45064275345500143
0.24513634915808744
0.17377223171360345
-0.5031328573754402
-0.348855187845334
0.20847021399967822
-0.2078896449804593
-0.3365303835505087
-0.5533073588676494
0.16054351480694465
0.7643634349457832
0.7099120191791757
-0.15909864062989798
0.4428409717796937
0.23558526873849325
0.12214213762580399
0.6196115824725589
0.10013197781052643
-0.23669664307589527
-0.3984843789922999
0.5438476838939164
0.2783759101518648
0.49536551291230374
0.08692387449747381
0.07596487536955143
0.39293435355161643
1.1194736214505632
0.5357312056801806
-0.050243148057975126
0.33449033431572295
-0.18400925681846778
0.29678142707069016
-0.025007996423094005
-0.40150308303276677
0.25220297160295874
0.23901034824125278
0.29607664311178367
-0.2838348992915387
-0.21564731497325626
0.05295555910998501
-0.3320438631944701
-0.01755512253970093
-0.2411106962567352
0.5313315475186108
-0.40371066358286095
0.3256243579867043
0.24441107907979667
0.4943323991838148
-0.22317776841997472
0.07404463643943815
-0.5640934462112864
0.6124213009088196
-0.6419131030896763
-0.6800768610018078
-0.09705141361650561
0.31113606302989494
-0.06104677080393176
-0.18978872231957278
-0.44623766702076567
-0.24971743839550042
-0.13000927908945054
0.320568146095322
0.1349379022630031
-0.479345382737069
-0.5373721667914964
0.27948684711933736
0.6553931524809335
-0.086391294291302
0.9147554894831452
-0.10446878492921781
0.050354090566849675
0.2879638683036452
0.5660551337894608
-0.14705865246891475
0.0365473181439592
-1.0040638985688903
-0.05980771678561721
-0.7590255553764202
0.6856674475670498
0.6195292839211252
0.5195593930555221
-0.007776233015977904
0.2571609023722103
-0.26434754509975933
0.7997756859183702
0.6460918413404892
0.7052903782348101
0.07577246649889795
0.4871442176316376
0.03847937051330184
-0.05328290354053738
1.1155301841479932
-0.7116286972862279
-0.27966448889968276
-0.13479084982021783
0.3059946442026994
0.14094937131030036
0.5005914292149711
0.635803271169507
0.06995459224456028
-0.12489614981623566
-0.43319592261855827
0.318814906630309
0.4260539307543737
-0.0034985479489327235
-0.13748816942061468
-0.20144022866338068
-0.5188750558787002
0.010035527742380547
0.6275793059799601
-0.3520296781932707
0.21936483632036896
0.8781464375963843
0.16374422026158042
-0.6191856233726553
0.024999410709219034
-0.4787051442819254
0.03672231929370702
-0.02826327412242027
-0.1263183990559311
0.14259511401779262
0.23486267641766284
0.3878816389110116
0.1823076020893955
-0.5774849998696948
-0.2912099307455889
-0.30872370649124936
-0.2971953566204284
-0.337318360441206
-0.41535319396294074
0.058873734806133775
0.5838305291660462
-0.22841447361081688
-0.7548521833575332
0.3246604320902474
0.08411873121496664
-0.027674290106970846
0.041157619323940776
-0.17838991097631846
0.5003400073905782
-0.455106624193123
-0.48884477901431567
0.08238926718572104
0.21194885669079605
0.09407960043256176
0.28984341701652433
-0.7327238860051682
-0.1986014616216149
0.5381240921801796
-0.23025915388700713
0.6420994557696639
0.03378935171378248
0.3939161288051212
-0.3762524890332084
0.8426316307442024
-0.17324656690465456
0.2088964200227497
0.38003036925813927
0.08959825557330003
-0.07030835891524188
0.08596617646339527
-0.27606127062030456
-0.40641714723868333
-0.026353056176332795
-0.06674942149644235
0.0016273785386337549
0.4123448497842939
-0.24698942013998718
-0.7469446939599398
0.39332459311080087
-0.17507844102286885
0.20995009028211395
0.5942481116200212
-0.6987462414245073
0.08688590612289172
-0.4482001728273889
-0.11278274418032597
0.6333007011094594
0.26103632590093634
-0.20335773279508804
0.8494571500606577
0.062402189558995506
0.23509715968983425
0.2021250584876839
-0.25181379990410174
-0.09917768346367206
0.2833861839052933
0.07539304249358098
-0.008924021723244633
0.2041898075456905
0.25876476534636034
-0.2714645509727536
-0.04247694431853915
-0.06529226332946583
-0.17041918143005186
-0.5577152271844728
0.6175292909789457
0.21645391693791963
-0.5990803312539247
-0.25863073261794645
-0.38190862323379826
0.88263092720179
0.3747194893262265
0.6073090828982176
-0.19613222314508985
-0.3642281059421492
-0.6060798466222792
-0.4979176397033182
0.2525474286187865
-0.5816052138648355
0.09937712463780844
0.3017015916470758
-0.6616646337444665
-0.062113247537126874
0.2653816039657902
0.62908274234634
-0.035906143711147906
-0.24819588980542542
0.9089035205328614
-0.3983963480954563
0.06330228662379328
-0.5357167100139226
0.20660101887825902
0.4864327856125034
0.02219212347462531
0.05188260559639763
-0.22743318550685399
0.3248445425583179
-0.23185040602340973
0.6618801608417432
-0.4294779592787357
-0.18359860543069287
-0.10956623938472394
0.3872804343765161
-0.1430427560017859
0.1005822639334569
-0.22094463707294207
-1.004516398281431
-0.1429219536329428
0.3633488707825125
-0.07851271017280746
-0.15182582609911924
0.043964903936073434
0.11040717145241377
0.06537461627122051
0.28041344590095707
0.5644788134929942
0.6384482486830506
0.3166206453899869
-0.6670700449367133
-0.14485214992123105
0.1706295668395092
-0.6483555622636151
0.08672184177883654
-0.36511204834484307
-0.16082994920093083
0.07428558753441265
0.32871952722436165
-0.5364664001148357
-0.1297806364395076
-0.2943169452566623
-0.7926033645178284
1.1441943498177791
0.06454914371123892
-0.2735601319167175
0.5789656555600134
0.26216720280419015
-0.1566063984585106
-0.1459288940797874
-0.6615669779288565
-0.26421714215036185
-0.4899130012202436
0.13563061282431893
-0.41235473302343806
-0.37803709885428005
0.6653174049208063
0.21858896674221745
-0.03470250708650558
0.13173850577855056
-0.12432941899177678
-0.021328508505427744
-0.21940265955621305
-0.5051147594324342
-0.4694664784204171
0.2595562072858378
0.5217614675211493
-0.0634926255066242
0.21746353899664014
0.14290710584154562
-0.36756841822053254
0.32231342250563233
-0.47340020213187944
-0.4977832616054182
-0.13979741173497084
0.2372572636194559
-0.20824196335608472
-0.3763682812363299
0.4152310375333745
-0.16372959162452078
0.007022064517358511
0.11322524441055604
-0.19473058928710565
-0.7194317979332887
0.4799962675631222
0.3390760938945612
-0.2896887200910297
0.16973796873663402
-0.2624524112398269
-0.31768364327366505
-0.5787742119270846
-0.280715620032527
0.015220184233937065
-0.4890570112647033
0.42877054023716016
0.296199466438737
0.2902768938359606
0.030892562222398428
0.9053931340244783
-0.021121230659854343
0.23875575479667546
-0.5193095575824953
-0.6160558981472563
-0.16518928803573146
0.9511614009024913
0.4243929471636774
-0.2505358078811387
-0.45488000954492436
-0.7031007447966429
0.1923979712110737
0.16439959152606637
-0.6099461747126598
0.2143721683975545
-0.3634140564970643
-0.3240902026152354
-0.6111030632230235
-0.18039340188839764
0.4244030973519298
-0.3639482841923531
-0.18776245167963482
0.3237946238090903
-0.2620122223132882
0.7531794474775033
-0.02870392163118525
0.30080734341140153
0.10285695770926152
-0.19779573001273654
0.21348071549873462
-0.06034484434899515
0.10779848997201924
-0.2623275708829581
-0.4978907849575849
-0.013791852896235988
-0.42386059377182256
-0.010719885684508114
-0.32496787459759946
0.44889493659143387
-0.06892349056923287
-0.13314871954989757
-0.11634437985087559
0.363339923727804
0.34409357374092203
0.07389238873640028
-0.27759036423942457
-0.21976002170309183
-0.4117966735541087
0.39193574574657597
-0.16797569865190942
-0.21001805954233077
0.15458563509432852
0.5611023850219479
-0.519679901386826
0.6892660460114379
0.23254225454105978
-0.49302660732651515
0.48804139532960483
0.3163959262198719
-0.03909147549511105
-0.12042900895271466
0.7774371515615645
0.26478543757844814
-0.6508626435091596
-0.2425104198460068
-0.32531825362154865
0.6779915393820656
-0.4805803379143925
-0.7360879759766229
0.1367687964724565
0.05599259653059156
-0.75577961244933
0.18601173570718696
-0.37254671524137095
0.41909342637287644
0.6251417271130617
0.18599213155442837
0.10701279355973925
-0.6909765007076104
0.30276154122933985
0.1524754978365889
-0.9183226442146184
-0.052157535159264704
-0.2932211029814758
0.22239899467641924
-0.049243006508160304
0.3609599839281554
-0.5421712255140294
-0.044014125376568805
-1.1333852892137288
0.01455071769418807
0.15457111012323518
-0.45307530400992463
0.48989567445136734
-0.5083894807155988
-0.3942921680431601
0.6665729826547939
0.4829325548389191
-0.34930904627831527
-0.13676972491884828
-0.08119602783903147
0.5265765688987304
-0.1577110107631168
0.10817677517851768
0.3499589514617808
0.002439700422317747
0.28275027414200715
0.18151065447193696
-0.04809915441359867
0.31805313070847135
-0.69314477408841
-0.1701507981699444
-0.23633351752878357
-0.11823201471077356
0.019353852056129935
0.6548142253359661
0.17226668648669377
0.43801847796578464
0.2741165371592665
-0.6845963551214305
0.28947820635865756
1.1264245135491888
-0.05010077694462311
-0.13304830490584962
0.2210227584424026
0.9556330753244269
-0.30334741167021895
-0.10255059871427662
-0.4717350899104449
0.4288885136733485
0.22574630367362233
-0.5392965510635065
0.1283434251169832
1.4707231217275059
-0.40211863171986506
0.5003266933138149
-0.8095908925390751
0.6328853625194899
0.2820786154077554
0.1145931509093859
-0.4134361453174202
-0.09086441538757124
-0.06089369071960782
-0.41815620343763704
0.4426109033505495
0.27989939678367043
-0.07829161043904835
-0.10613318826092658
0.5153707971647968
-0.02016880460261059
0.3190150576735161
0.47970196288417083
0.21901465925493957
-0.30192820902072204
0.07099098818924397
0.8071944471984119
-0.40716424680294916
-0.7115482311299315
-0.65159929048047
-0.6915614475651636
0.0850067081704723
0.5457652101117175
0.12238135540749967
0.5354935543458316
0.08735580080070712
-0.17603930248070254
0.34554139462095895
0.2746489097070366
-0.613589013435119
-0.41804836430478404
-0.37861854333954037
-0.3003619758397556
0.014649697705515023
-0.5922872563662299
-0.20781733350342427
-0.1281436640201613
-0.04191063523388889
-0.6905700471750197
0.3528012762409153
-0.4160497279624041
-0.8782089074309403
0.47826436498974084
-0.27518456007117653
0.14774885939496904
0.049264136635324966
0.7338558752969315
0.37361313858705736
-0.4440956626182015
-0.4394286400900518
0.06620530357796396
1.0249272652317045
-0.5582692181312824
0.05713219719500744
0.07547808907903092
0.6237141612542244
0.3448267896813839
-0.026157872921066416
-0.034733046250832574
0.03333219652908075
0.24853216634119954
0.144948607294471
-0.933866547662901
-0.4210529802109805
0.38847974452946116
0.31049364620422004
-0.6040496354984198
-0.26828756190729225
-0.050007473899913044
-0.9043326104701551
-0.06444574190074567
-0.18996636632350533
0.03930451609087435
-0.2804217785058124
-0.11996220115998336
-0.11784966278847354
-0.09687793583915441
-0.11865570191129124
-0.21608835550419472
0.6471973647539921
-0.09960411464549158
0.3654121093038324
-0.15164910247902494
-0.7861732980659656
-0.7505726792140573
0.2020450522974522
-0.21852858652477922
-0.32920593688073957
0.7795911393316237
-0.34705495637659955
-0.07855902297047183
0.5709718645724517
-0.12382755381127622
-0.02683523411927192
-0.40200557844734036
0.022753022279931364
0.026466955149208382
0.24057530105637193
-0.18909708307558495
-0.03956050296547311
-0.31794419309642225
0.4977212524816523
-0.10285313351788493
0.025044444322050257
0.09693491304175413
-0.3555316444535256
0.22930859375372656
-0.16254347371814534
0.1316044170084153
-0.31669338012408443
-0.2478742097454091
0.5129976876119873
-0.3332390035640991
-0.5493174254918608
0.09343968829651628
-0.07580961220291793
-0.1328597206274778
0.13679609947311816
0.5732268616045231
0.335591784147219
0.1436971286849888
0.24822395678626263
-0.2455451317445355
-0.14882857960355253
0.5291251947980699
-0.20768853275874308
0.3469388646981249
0.31750919271416794
0.4874149502737419
-0.11286136398047354
-0.4933937099936889
0.01820786606479182
-0.37791489525358696
0.8722425158764292
-0.08809021010081691
0.5982920815244029
0.12937253651780264
0.10336482634668916
0.0928364482329962
0.21593064695406786
0.2592515981577746
-0.7203846227511662
0.05928091757841738
-0.6807454024191577
-0.03904350110703425
0.20572905861940036
0.7158273432461012
-0.3262919957126633
-0.2650204621054802
-0.17369226276304042
0.1127295824768043
-0.14362946711576294
-0.6409638351430711
-0.601880501851424
-0.031466907268785885
0.22536351598531076
-0.2791011984839292
-0.0701114472671741
0.0030502444451967095
-0.33932265443390136
0.3741863920417145
0.047967265460400116
0.5285212464132603
-0.3626955233526602
0.2712733044682604
-0.06646903425319398
0.5972480144137835
0.27663196572241366
0.8562328756429373
-0.41158385414692317
-0.5072756279688366
0.3708867249301778
-0.5254353259013642
0.6066776409937903
0.4051403628947334
0.18020122503610275
0.23945221253961288
-0.153695369217365
0.18323772415934578
0.11457895456809804
-0.3974140607477419
0.47276692326598135
0.053584324104864876
-0.27167064713026784
0.0367119369037158
0.11585069457891227
-0.2880148086369325
0.33354241084145564
0.13506361857400856
0.23023221996130822
-0.03353381762379432
-0.1742226523224426
-0.07101616628176612
0.171442173374865
-0.9440989964398047
0.03509991142430896
0.1277566459259131
-0.15297797852323064
-0.08272673497771488
-0.43501515885808195
-0.16242680032362164
-0.3395515249092384
0.007140762744120965
0.18733264866224508
0.39492321690064186
0.18603313373164193
-0.4076009736253539
0.36071561586837886
-0.16544733359895558
0.013839429244737297
-0.03730983176621982
-0.3493720951883277
-0.030384230103265485
0.15646488929202887
0.27382580828098446
-0.04550483237879149
0.03840484440686453
0.28197786041444706
-0.20828060643341895
-0.2907225847830945
-0.359144083901999
0.5924597467849838
-0.06223788734236397
0.11573254399485784
-0.0874973590341812
-0.29139902979495635
0.5220841856245211
0.06612388677131223
-0.1868140500048985
-0.16712512094634996
0.042703679503629126
-0.6372552370074936
-0.2399869556107656
0.4885119190206439
0.19854788356346748
-0.2976040936662069
-0.3626331803060572
0.4341434512991288
-0.5720053281382189
-0.30242611214195914
-0.020099048127064065
0.41418796925559853
0.1882905082942969
-0.6447787835378702
0.12293270940508887
0.010775226444506299
0.5218395902775655
-0.2824864977722966
0.3546458107993855
0.23447913001007772
0.14850527768106941
0.13071425699825537
0.193781738721799
0.13475795553964795
-0.6255412620456223
-0.3881125861073622
0.42362776765560395
-0.22487410866386906
-0.05386671107917218
0.4541620907513988
-0.06436441252987418
-0.24609820101501434
-0.29424217356241666
0.14832378997767492
0.2750314620283504
0.011877114234135105
-0.15652592880698404
-0.38594335016257125
-0.08367492265855184
-0.5143420729771692
0.5059525935775248
0.0888802583070908
0.7622278170836234
0.382046837797073
-0.20527002475644188
-0.2669683941040481
0.03741230131078251
0.1531187551526854
0.2394521307198254
-0.19565213109146612
0.5168358884514429
0.26881963880522625
0.26014047630442566
0.33965156461646706
-0.32130124350794675
-0.2588826868073272
0.6162218520853433
-0.16232575455936055
-0.25943207455748485
-0.18394626366671996
-0.5616325651228017
0.05357475037912958
0.0074637197452451665
-0.6107092300512208
0.21150436736918513
-0.35813342208443216
0.2838034763150122
-0.0689085981740283
-0.18032643284378494
0.39322521934308335
-0.1915190597514015
-0.10390901366899088
-0.6256562874948448
0.24954977097687517
-0.11124611941084901
-0.08491757391984076
0.4641700439438072
-0.03832969235947301
-0.19543740341520152
0.4304026488541881
-0.30912241363588544
0.489870147846835
0.17420175599116458
0.27748912221898986
0.3966747186121715
-0.19861495731457893
-0.2743476889368677
0.06603357403398243
0.6310799707497369
-0.16748861689603553
-0.07249183780863866
-0.5085042029750607
0.36614402613505936
0.03623534376588035
0.03173684616267011
0.37043345178063514
0.11965085003245746
-0.1690280099827013
-0.3251622572500894
-0.4753314598777719
-0.1830542410587575
-0.4176094670818305
0.32009880974710786
-0.09550416918193741
0.42709620168115947
-0.31160521531390184
-0.3102156506526561
-0.41124899784193364
-0.3416084294949674
-0.4432348854322593
-0.2432917128377042
-0.34552505911753095
0.21991944146976342
0.7779146987493306
0.008865235839962881
0.14633566712785037
-0.2781755922572253
-0.42820302051169024
-0.20855523180683264
0.5860331305228051
0.4637816359849041
-0.034452328596489924
0.6700191040261221
0.523759670454015
0.6949675539665173
0.09898344984677035
0.29012220956757845
-0.4179901960259957
-0.12508204924853333
-0.03846282723278976
-0.7710679386019411
-0.3971224432342461
0.18386870779386952
-0.40814165361337784
-0.1313953143402284
0.010453268216350627
0.5541530850382674
-0.43825090389351623
0.2520349400984699
0.11735843351371775
-0.07836502115686271
0.09065559868192427
-0.42889269134240926
-0.17564818919001926
-0.41637429541796617
-0.3503636594341024
0.2686139830267644
-0.11490911394830841
-0.33349818350789895
0.07898224508335244
-0.19874968243628954
0.09735584772156801
0.10900961552191259
-0.589324827349444
-0.35662990991017063
0.2765179700690124
-0.003214849601110463
-0.5169442743715694
-0.6141768675306482
0.18316839527371692
-0.23648342273394724
0.2853667324912546
0.16353211179882238
-0.07043287282950758
0.3813716556775616
-0.4530159894196528
1.0436890831023204
0.1361872494694778
0.13030880713049003
0.13394061011940578
0.02523962484404976
0.6074991309318083
0.0344423889796589
-0.6540352488328979
-0.9092752646727467
-0.179061019634634
-0.5644169463008188
-0.05525971853907528
-0.14285430037127092
-0.6108883777237409
-0.028185704445774264
0.6740786311000625
0.2915777911380938
-0.45442068349918324
-0.9593265811035963
-0.17608583824943785
0.5023254051998708
0.0006142984803796896
-0.8654921466803462
0.3585388082639743
0.2435895607555999
0.055413047467944315
-0.2546300334739501
0.4783842968818419
-0.35830975182816277
-0.4941024897406683
-0.08324872470887475
-0.5772333492627324
0.3340246997583231
0.32651972848145316
0.1519214740591761
0.07573872855845915
-0.48590922929625235
-0.07550187556307468
-0.28068129940623215
-0.7188241938497109
0.11071071821032206
0.5277300878570647
0.5710549214913346
0.024431785615054918
-0.047217618521222846
0.420381737102344
0.30780683057267116
-0.253384071582932
-0.39193693248461076
-0.12700646209942895
0.026940956507843162
-0.06826880161851678
-0.22574649219472903
-0.09055618073432986
0.9022537616629066
-0.045843869814301524
0.28907199662905236
-0.04361189685847442
-0.29119445359199486
0.3464955913024567
0.5503058636449634
-0.07465506222605234
0.26460606873840875
0.5274021314384423
0.672452746216461
-0.11710529840733039
-0.17259114851765922
-0.29885635424044055
-0.05945417667937288
0.030761488226690416
0.6142391037306493
-0.45966097403197415
-0.27817851357952167
1.007581756719653
-0.15433427851581558
0.06153699420236514
0.31507450606263177
-0.008983438820982246
0.42634945147995434
0.10167690726486145
-0.039496147080142076
0.4840434619992152
-0.004542496901446461
-0.4109549956826054
-0.7507592756260326
-0.679761980794149
0.23526902335158864
0.1219518243991135
0.1763617900731543
0.35556480435426885
-0.08208654175201938
-0.510240284393878
-0.1425766580502535
0.34601524734340244
-0.15004610974151014
0.6655102195471598
0.25224223624176745
0.16330733216145266
1.0437649164902967
-0.06139808207400019
-0.10797100513463738
0.4740237007474876
-0.2162324812916423
0.003907078837220924
0.1995543874893908
-0.16398431546142092
-0.60909982966374
0.43675149004971214
-0.6692260747817954
-0.03546112611636551
0.8120420842007714
0.7254802969490162
-0.34460293327180697
-0.1490473496694083
-0.15664023791145573
-0.33077301607446047
-0.026230403082062998
0.2562387600068737
-0.09347982930151698
-0.16936832897610574
-0.4376803153519573
-0.061266588831087335
0.08705209320006949
-0.6692275916537476
0.2925229544931564
0.1657781341133609
0.17631135334547884
-0.2725624692062901
-0.20791104861760998
0.03238524111300331
-0.23487815596492728
-0.26068492474864774
-0.880087932146819
0.07334195934099405
-0.16221484964819347
-0.5424670617505907
-0.0513640238596718
-0.012096553926430706
0.17831699533513737
-0.15511005341016582
-0.07030056397696127
0.995793001030659
0.33629431174524593
-0.35051729907107554
0.08339845326322473
0.26919967356301633
-0.9362138756277768
0.2955358915580163
-0.2358720702321435
-0.6146793480557248
-0.5660808697359687
-1.2380244179255369
-0.2911957402858165
-0.9198629981340305
0.6765794086896135
-0.4592977941393336
0.2736778852233185
-0.48281931817517726
0.3374258874762606
-0.7418193697004748
0.33349206254770425
-0.6795026937275862
0.24450211178822123
-0.12226111768316311
0.051760652193631344
0.09221076600858563
0.10881830982913009
0.25478669192499026
-0.21085862282860496
0.25155560369268787
0.12813768772369177
0.12073847674003861
-1.1789920781740526
-0.2778573548246742
0.3084807886092871
0.6212509918755966
-0.00740115251740918
-0.13863242872484915
-0.1866174862167695
-0.46213927891670165
0.31044934173666705
-0.5773731871274504
0.14425045223382385
0.5637234636567774
-0.1348986107139143
-0.33023200442091377
-0.007368503143381861
-0.556120599284846
0.2839297300155101
0.5249230660552714
0.5830626668823885
-0.13169452427264924
-0.3716588864010351
-0.14980322082665018
-0.6027066942740581
-0.24697772731546971
0.0206003792662228
0.1164632868463784
-0.3960332001271697
-0.15726856082522847
0.4538747242933332
0.629844614477271
0.2144246400112984
-0.07777578442160583
-0.586326832003142
-0.11789168244323875
-0.2730095837646178
0.8129796375079397
0.10147655116757068
-0.17513672123514348
-0.056714235515230756
0.006559288098720671
0.27689271372406166
-0.14162891966973135
0.1541315314466987
0.025060407862579393
0.717585592332968
0.5984801448025542
0.11575919674561679
-0.7029403069683041
0.2413825784562597
-0.023939421371729018
0.32579238171618063
0.37346741069364264
-0.18777847515910223
-0.6460198171568333
0.35410460087411955
-0.4079436206323798
0.31929781581230876
0.07855803851225007
-0.32791862898553
0.26449902820485394
0.11158538882251304
0.6103038112462558
0.5676556660334251
-0.4315395309792008
-0.9660757986657957
-0.22366499156410108
0.8422412302156694
0.004452521463325943
-0.15049562751750153
0.20896892028080172
-0.4175983895250352
-0.20075159956354546
0.24971534774694126
-0.3363661108408868
-0.41297402504011077
0.4316034512104785
-0.46581474972680165
-0.7653158589169965
0.4848543809454722
1.1723572362099093
0.5733487686546211
0.2606579592064701
-0.16806914520736543
0.5988400198536422
0.24357080165765962
-0.2831449280440892
0.2004977950798467
0.43115560367808947
0.5452899255815016
0.16043347225075102
0.11053774649687677
-0.05273299226743609
0.3123826092420196
-0.03774893663367653
-0.24131349539138988
-0.15731037793531352
0.5859654218180084
-0.22693779657585186
-0.6427443678455547
-0.12877722377471962
0.5084935092451847
-0.9234678800059825
0.08988734781654342
0.47168850120407496
-0.3668128875697851
0.5580375805484811
-0.1304398998704498
-0.6303332951708007
-0.5739814931425158
-0.20574772066087435
0.056928955694996744
-0.5402266087398963
0.3634974877029283
-0.09182464941395307
-0.4962516711095883
0.4985684074631954
0.6074588291671351
-0.6266478010778974
0.1273397218870436
-0.0742617484182768
-0.06021079570756408
-0.08624215627650596
0.6721860246964569
-0.21294319100869502
-0.7695066460708816
0.3172177692155807
0.08596487361264656
-0.46154882811439657
-0.3937154153322828
0.027843464746260108
-0.13125721606483604
0.02886177439349892
-0.23918976219097202
0.15189278918201018
-0.8711841879730875
-0.5043220152309327
0.022739779788494438
-0.25725049647192605
0.06078568044152676
-0.3391802748553865
0.06322081911606346
-0.5591873244641867
0.47127297996887335
0.2153131605880279
-0.3221037634277085
-0.28198825551690754
-0.611289004591335
-0.16288526711459855
-0.19809923401049737
-0.4113762355672221
-0.21889288380271907
0.3398327266788504
-0.6718792338479814
-0.07426358668497204
-0.5677729441355113
0.058278688108315324
0.7146746948707451
-0.31153521855763716
-0.29456649585034683
-0.3084691909336429
0.13153538885697627
-0.4674034209916556
0.2878945066703544
-0.18437943290813788
0.11159936499201574
0.31999029499364623
-0.01082640707920941
0.10991605780628581
0.49271744992367944
0.28835917719334636
-0.36272565170997034
0.4319244346798908
0.17208675491749684
-0.21111838033922883
0.4172266126576039
0.8174328566381298
0.0555413687435807
-0.06654585364150867
0.09141180343512136
0.12833592101976088
-0.1751464263721871
-0.11324856007716372
-0.44368391386036227
0.06964627952758874
0.2578215570056227
0.36343923248990534
0.3347648985472058
0.11051513692786116
0.2521494638643181
-0.18711460874704425
-0.646778760347489
-0.10472475896295909
0.530877519702526
0.4346165092988687
0.48394204423335146
-0.16464107118452126
-0.6964186641269232
0.27377243212750246
1.0989573320218882
-0.20781373859071842
0.190256648269403
-0.8363947665435688
0.5638442703964013
-0.02711083237973901
-0.09978536307273803
-0.1917482175855511
0.21341852774180023
0.04484612214299198
-0.8231237050558999
-0.7105278497223287
0.289691954471042
-0.04324806900851219
0.4932233638154618
-0.02102694897055599
0.7068615612363206
0.5818746585017498
0.2368715832425805
-0.04529310672277296
0.056989742427019666
-0.2008264641856341
0.06350061568816649
-0.0183622671660419
-1.0119623154214374
-0.5979149103531656
-0.32558379213371874
-0.2807458866237813
-0.15887773503327676
0.2905719850563695
-0.19203541752000994
-0.3237272070090475
0.2697776366901538
0.40140542161148296
-0.048735196546383745
-0.6520521229826688
-0.2502211487377976
0.5394873792409871
0.13032338919077735
0.1492988744606706
-0.04068982502644445
-0.5925228911992161
-0.11296418590459593
-0.3021019643402843
-0.46215298262873095
-0.8315927894154251
-0.1774227478510535
0.16770920958638613
1.1221683536507259
-0.06530953105715312
-0.24866878369670026
0.6596525299623991
0.2539731689186902
-0.6953786351084401
-0.5304137706038538
0.15746465062444717
0.040151515443038126
0.01354570478713258
0.5840990541698723
0.4814302904158529
0.692991777421672
0.30838599891903196
-0.04568043475642863
0.052591462228964776
0.004292285800441
0.13452484798859757
0.4737537862336385
-0.31226746669308797
-0.5077631584925488
0.1789460548791921
-0.47331851360469895
0.24027560716075488
0.570646520721459
-0.4518988501388927
-0.30217415217978366
1.0085853919277075
0.928986652784361
0.7071938348110602
0.19254049991260036
-0.7302545836953631
0.058110124611505685
0.007052699473887083
0.033176691627646436
-0.24107184019632438
-0.050826442457519355
0.3064997555047874
-0.3787794108104677
-0.7427042425382331
-0.2827311266323277
-0.1580606591343923
0.6146879098128631
-0.38439503609264636
0.45597859881312264
-0.28254169681266295
0.09299251221895712
-0.5378875417868177
0.33935501794432993
-0.3157434431622149
0.42293386368636554
-0.06833971052988126
0.46040924516638115
-0.34332802913062155
0.25229556359431066
0.3151147142594286
0.2204491267071704
0.6222253494194376
0.12985666286585554
0.2578916182221281
-0.23431576306345658
0.7425941384526389
-0.6014102267966416
0.6334385466811346
0.2925464500614648
0.37181480781736026
-0.2714612391624987
-0.6083749936912535
0.4228756371143248
-0.18971509776292478
-0.14174805998617665
0.5129313650915263
-0.6739979181109907
-0.06080058186497832
-0.33569189586045733
0.15521387010028392
0.06450607935709288
-0.4041414726785381
-0.28364697467355326
0.3601499662577323
0.007589470046389581
0.19513200210394585
0.05769993904534619
0.03926683590303232
-0.020813740874380093
-0.12452410821524364
-0.2550758517432289
-0.9207114346988919
0.16650107657489557
0.07913064857608497
-0.0757511574596764
0.09125840413966718
-0.32908690293916576
-0.015564027765050843
0.5442642240132981
-0.28939587470199907
-0.08971869644541376
-0.7501833812325499
-0.26279088500246656
0.3761614958248971
0.3311090615326793
-0.33128828517642095
0.41357082944403256
0.11030385622129212
-1.1907735108729534
-0.043787980838132255
0.07546415855072734
-0.04723560409367379
0.03784339621651544
-0.24331958695741257
0.09383866979953658
-0.24740520418777087
-0.5323848749782168
-0.5006275425042161
-0.6066380235413094
0.38634154759520684
0.06291635332138724
0.04503920415353277
0.6640779026392108
-0.3650244425775233
-0.1238365486696378
-0.78970785185937
0.9596015626902717
-0.09521436290029328
0.06292354973419355
0.11765854536045282
0.21998055742259676
-0.14951770918763554
0.5746836213012801
-0.4866998203232501
-0.4513401304908298
0.22012699401462554
-0.18699453684026984
-0.031466824707427565
0.6627248011005398
-0.047045060672169646
-0.23905108970170355
0.11332238718725765
0.6527995204853339
-0.1098380010588297
-0.18756988454925136
0.3265210392279777
-0.1654882945782498
-0.11088356784011554
-0.7004279482366339
-0.734792574744485
0.059627552870094185
0.44464600317851877
0.06550813332907196
0.029179263883121996
-0.8890319329203276
-0.5405958865423556
0.07377580326963047
-0.4517002688835622
0.32148312297492543
1.0417731438627211
-0.3586449808805528
0.09576536597106082
0.698687089771184
0.6630614301354872
0.19063578917082336
-0.5308473360735211
0.465367952728368
0.1755987599585366
0.25197892581176073
-0.5304975227605081
1.3344026803660745
0.03700261922064801
-0.1864744620146189
-0.229254929613862
0.4218200604849202
0.13319126135600187
0.07631850974181317
0.25360011815881167
-0.3662653165261231
0.440911233796781
-0.29287352342848905
-0.2566718450664096
0.06392042796392727
-0.09440838192380095
0.326933886830849
0.6048954126973698
0.20921553640498336
0.9215911549021194
-0.19239547872643312
0.48939519023140193
-0.13248239328943445
-0.7160469357643701
0.023670972049284866
-0.22972305438244636
0.12892018904393396
0.015246748382418721
0.11737043443155556
0.5835983304540557
0.29178106676531523
-0.08225894150257831
0.26604467624985184
0.5425173666020409
0.4772927260214145
-0.23407519022235507
-0.19678677709975323
-0.17657720588242118
-0.528956302901075
0.5486153487793246
-0.5880086763858382
0.4404220525127739
-0.8260562235292531
0.6282740117110158
0.16546086278527516
-0.11731680735670047
-0.22686656822138057
-0.39059606695647797
-0.0454886341970249
-0.4872237911792221
0.13717351388537027
0.1410493833150579
-0.498973976093556
0.033895671579979025
0.04132484999110899
-0.10215138838827896
0.04116634327484432
0.5684207896165488
-0.48567914333576545
-0.850538077119712
-0.36464383310552867
0.11473033111837638
-0.3671043878395821
-0.15302314368579112
-0.46145826733861894
-0.3112037416706832
0.5048209333045732
-0.9002627693009945
-0.10429257842366912
-0.09373380060500089
-0.24345785215705448
0.5494847628216399
0.6227884552820189
0.49871691531372303
0.4786449524206461
-0.2802654121203357
0.1253115198137073
-0.251245355779495
0.5021602566022794
0.16383657633163287
-0.5640094967474308
-0.10596266471891513
0.13527948542434073
0.3469216568215365
0.23903334398066792
0.03738635351978151
-0.28687185446617436
0.22687312340519783
-0.12059581346697221
-0.7422046237690467
-0.17644386294083736
-0.29700182986282925
-0.583265145475014
-0.1778504101093799
0.5729956825325674
0.06079719573524748
0.12121275856757911
-0.5489222555151045
0.04690064532164017
0.1396412385244262
0.10628686446984235
-0.40250370673156227
0.7086972593507979
0.01591257479683958
-0.006102089686717033
-0.3453537857625546
0.05980715825907052
0.29754981729394653
0.2457632358231322
0.4085843774490383
0.6460474130461984
-0.3130863638768677
-0.1876514246617397
0.860410048737289
0.005194413900206094
0.34010860986020336
-0.28438932658668725
-0.029820159857525067
-0.1493094904203053
0.5557592719757374
-0.05292259086205396
0.16053564637899587
-0.10969569084518055
0.2428182168162907
0.10812394343709172
0.5560771030599293
-0.024831410738860686
0.6398185505665157
-0.3311346545210532
0.3874481499493649
0.010112699058677677
0.07671611648393989
-0.3359329102392652
0.2494028588611301
-0.25850322534844206
-0.5171111629875283
-0.14624003515471268
0.3690052568950026
-0.2960971552248625
-0.010730549639904559
-0.17392774613926312
-0.33060014233647095
0.16970507495746284
-0.3082266802171085
-0.27719586241640387
-0.3676769669671193
-0.06164937109958672
0.16795567292919186
0.5607042759764617
-0.3103735126098751
0.3200458903112606
0.22529398512193993
0.20869652646190234
0.39366629026604755
-0.6068406005600894
-0.2086997752774481
-0.04131608047350146
0.13814352761862198
0.9653919137454803
-0.08617630235359434
-0.7188347492702334
0.18110504260382532
0.849329858643835
0.3631307672950416
0.3900380606402783
0.591031412583402
-0.1586542331122637
-0.7162920124332466
0.04491806076349338
-0.6834351460765001
0.5245579680962323
1.035907048982421
0.748844098338686
0.13682357901538625
0.43751823985457505
0.4441648759157218
0.38542108819761284
-0.34090909295275945
0.3309725681550814
0.13064190606666995
-0.3312358474158644
-0.09472989076060219
0.2100613084587151
0.29196392147177275
-0.30248176974436153
-0.19679778480490254
0.36055949491100847
-0.06884613284230379
-0.10608319056043874
0.5104279846490151
-0.45914560364973267
-0.25606608111404927
0.031165667109748812
0.499000804787066
-0.4148611185986327
0.23145618352258834
-0.11732444975096284
0.04481387862379976
0.5021572677410612
-0.21434513597000196
-0.04387153736603792
0.25070056867219354
0.28099945192755416
0.16680863356244602
0.05700109330327595
0.1352256221364912
0.33499577025652194
-0.4616651104102533
-0.4341900272901933
0.5110780998003988
-0.7442198786116854
0.321593543371215
0.8153728716082514
0.33103319286979604
0.3480621012631407
-0.8801865983670347
0.0688343626204472
-0.17559059642180455
0.8079130636271354
-0.15343754317825622
-0.19593561937074994
-0.8433837468797539
0.45942716729748245
0.31245577938047076
0.3664865348670352
0.7175483860998153
-0.3643751302543369
-0.38998427402846575
-1.1203207498144614
-0.3157790151261552
-0.021402805622710977
0.16362185627117928
-0.22729237091797982
0.23439829632716194
-0.13651414691158306
0.3294433185612024
0.5868899049163921
-0.3746138672378954
-0.004643981686711118
-0.10634717918794281
-0.35926807185638515
-0.29792003995174277
-0.38450663385608963
-0.05344289013838883
-0.7240176426112163
-0.4427757578644708
0.6352757322303858
0.07936440356930896
-0.11839204410315425
-0.15953946719826945
0.11018796233320496
-0.18930981832880123
0.24295257760701047
-0.33522598334798376
0.4725351254363415
-0.10816377183764458
-0.06136183632363199
0.16317030354670067
0.2639605638545103
-0.4048173599388407
-0.21937644319001245
-0.4277574061044453
0.2978811837237552
-0.09272124639062798
-0.052759504857590456
-0.23257345025910672
0.6396863450108322
0.07394879517314805
0.22743417598235888
-0.5793190736120507
0.14090605763045064
0.9422872494686384
0.22103068074948484
-0.3479455578579249
-0.6816072782963347
-0.41757708735294297
-0.11147625782821345
-0.14156758436560116
-0.42251705047610744
0.08163106015980348
0.17300447994978074
-0.3420951374357727
0.13484069409567678
-0.4319482078569757
0.1393496547893184
-0.40121583979623127
0.9831025805797656
-0.3646687553982068
0.20936111224873405
-0.033600412831916955
0.898625093714055
-0.016579075330955026
-0.02443247936505282
-0.7435336631816396
-0.3135710090335738
-0.3549770368070857
-0.33271495733665707
-0.03569919207923623
0.4369668841919672
0.22926993191443548
-0.11133502371500838
0.22658087848532593
0.5369019332271089
-0.38959827773501954
-0.539026552819358
0.13915054721473294
0.10679041918074812
-0.1995538605853963
0.6672295273458382
0.16716116637030615
-0.5889164687472215
0.6785419864483286
0.02335125215207887
0.5567027904919949
-0.06018277635185907
-0.4180072110502601
-0.03624446696352591
-0.20088143620606994
-0.05087637161566306
-0.6868460912792504
0.6222180239185172
0.3181445555009395
0.41361970818100324
0.6495764952521367
1.0565617140810104
0.1858038117309856
0.7134492354552925
1.0166599758494788
-0.6436807948106993
-0.037888895356280206
0.1759800422982273
0.25131509587664513
0.2907039234566221
-0.0779624526797855
0.36717937613951096
0.2628658189006533
-0.11790499724213012
0.4692456652087363
-0.7302403913186815
-0.4204680425987739
-0.49525944030783736
0.8487239102455478
0.340274998911635
0.3327484032668965
-0.6077499137297424
0.04567995983992136
-0.3326258306808696
-0.054191243415787155
0.2892113164227383
-0.2355519292238917
0.31580815332978357
0.2789959420890091
-0.07665508968774175
-0.15592328240423542
0.652514441560486
0.6359711190869441
0.0961295451667124
-0.03742166271032027
0.3148153269050492
0.5245224316827105
0.04299232169563123
-0.07113823359134054
0.022419105113694035
-0.17257878183736236
-0.04799435406872516
0.1582861852619747
0.10963778012284603
-0.0029489813170967736
-0.10420665899031308
-0.29045920782021806
0.0915159889697598
0.06911867079649893
1.0409426203724157
0.9181271473668536
0.5670749579787628
-0.362372582568504
-0.3357538267342794
-0.32149682085525927
0.11974684675017276
0.08959919920379072
0.7715309784427271
0.1316147168821607
-0.9447793671884991
-0.6414657849467373
0.10200111451910983
0.0928427368059113
-0.6453126086449495
-0.6794984871830795
-0.17593439442358358
0.12220205871923658
0.20762875706841552
-0.5558524054638359
-0.14161599791187554
0.1604257021106181
-0.21506896745201787
-0.06948061384360804
-0.22830665556134588
-0.10707534375259474
0.030084257051725495
-0.3180782456972763
-0.06923548831787044
-0.3514264350153775
0.5133319413869255
0.07477478274866262
0.10021598092702722
0.008093558043130052
-0.11244798432634771
-0.2102851030517275
-0.05842211824862548
-0.13452593404864527
-0.5141006947813513
-0.49406011672926237
0.4395787451395996
0.13618790286584886
-0.4582493940259672
-0.13576220380866313
0.06229102748308053
0.17272446675316916
-0.49725327796337687
0.30946269648285435
-0.4005777621444717
-0.6512609142084034
-0.6685423934307471
-0.44112050147771636
-0.5349822883270962
-0.5448939840019608
0.751098446644931
-0.26698485415915424
-0.5359051262084454
-0.16231177765453902
-0.404306204314757
-0.3118312132326513
0.1473929588475713
0.7512673264560997
0.29335398362734544
-0.0918413585918389
0.48152998999352375
-0.10571480746339426
-0.32716078489141226
0.4717045669986846
0.3946681018602668
-0.3850417023864946
-0.21275395875971753
-0.7139098610395441
0.17781802178964223
-0.025297523744010453
-0.44360350847776425
-0.3873842693830757
0.13629902333915594
-0.4208477136366383
-0.8853536865688076
-0.0471323192146865
-0.33786886510531955
0.2570644084196606
0.29597871337967147
0.4984223726406216
0.2792423427289654
0.23032202772571722
-0.6088357937359851
-0.0012123425007195018
-0.21410693926244556
-0.6739408570025917
0.10941659960218224
0.5608991277449532
-0.3607955754576762
0.15204971250148855
-0.05217271287307865
-0.6482590854180417
0.4353388369564931
0.4621649279105477
-0.2531015765040343
-0.2318783336927704
0.01828442860684137
0.4029297528312567
0.16858154803853856
-0.7193931341545202
-0.2994601080474768
0.021681193594268434
-0.9349342677873367
0.34908314578964794
-0.4070724682803748
-0.02961765000248882
-0.3061814513328215
0.6515422186862738
0.13063236530790992
-0.21412889936167942
-0.9461062310600654
0.061249216090220715
-0.23866275067438922
-0.5731252305121204
0.8816645905645596
-0.08779523961173571
-0.14241401511860277
-0.43247740996160206
0.31611011417014734
-0.7280492439935207
-0.2040931865356152
0.03522653681539505
0.25988900424890693
-0.1892536364415555
-0.1431094616223194
0.4157867832406531
0.3927938225474527
0.07447073624159165
0.5948218973592212
0.14324366682545261
-0.38374028156480056
0.04174325804200405
0.29149981099977557
-1.0137931583370483
-0.3947619825541777
-0.023174765082107515
0.2592222693535393
0.4575205666951511
-0.32888320885847067
-0.3671761956524268
0.30701546468351865
-0.043622630483266214
-0.6265925898857045
0.2267056460598243
-0.6136130661647841
-0.5556570688178165
0.6862998360818637
0.35917297889109157
0.23236195563792247
-0.35850227947316865
-0.17973561234451937
0.18058093283705373
-0.12002341716370714
0.3752785731776777
0.42752643659061307
0.37654336805127264
0.7066927680520635
0.2772067317148818
-0.16206095624870287
-0.17057306758772625
-0.11644540396955252
-0.0459983827790673
0.5543763479897127
0.1154500964100448
0.16504262330823888
-0.24087338887841997
0.4259401064071545
0.35024077176292046
-0.39895009653879326
-0.4567613651760644
-0.5685535854681237
0.6893863861140748
-0.31038803416871336
0.4200708708994515
-0.43998100956919156
-0.8241481148806543
1.1549362937814613
-0.08840865930121035
-0.1186658438271185
0.148128271118579
0.7529166394198874
0.5434581286254873
-0.5488440444818357
0.3126520797169683
0.21037977624682877
-0.14449696159859568
0.47698146713817574
-0.8050118682251087
-0.3649474328854269
0.32149570922666965
-0.20871287993815607
-0.37708554036163966
0.1958063261305983
-0.1638113354599607
0.3328552608248441
0.489766642499807
-0.9032670199262914
-0.23883731597800176
0.32586653603861054
0.5087991024496707
-0.5482909216873233
-0.3418933870163679
-0.21438395359170578
0.37259587770878105
-0.6001616100482102
0.5444748484997309
0.007758538013883488
-0.23057163790445828
-0.3672590393712467
-0.7363833751268145
0.10583942416672458
-0.13778091508874787
-0.259262602687623
-0.5929380595013672
-0.7498353090127252
-0.5028693588301517
-0.051427102179542744
0.1930975212522355
-0.09869387326339375
-0.2271288891522615
-0.37783485387448895
0.13259440239076856
0.18786440629926268
0.1034379294695084
-0.4124248542162091
-0.7436981642435386
-0.45197275762107464
-0.553263777480125
-0.5544282916435315
-0.03324932190014469
0.45515477945249466
0.1776913526369764
0.01588983538490093
0.11409923340940802
0.8885017669443392
0.3901378525899739
-0.36551642169105586
-0.4139848778365165
0.24672840447821712
0.02479555837772201
-0.44526487105825197
-0.47548000739129836
0.033618918259952155
0.5676895757670507
-0.05403342079937204
0.1623581553938791
-0.8431235573820023
0.25873506185922235
0.7451324873494564
-0.7888288848480098
0.024174409065449366
-0.7226189508099545
-0.27210949753684355
0.29188665597869873
0.22324741186590993
-0.3101367850926909
-0.28481889121422393
-0.23679385352090523
-0.408606355546134
0.14288124208189845
0.3811346599613399
0.39105815643652064
-0.27571492092746663
0.6166728259397084
0.19288927940109832
-0.45884710216830055
0.599480794050721
-0.3515591907273376
-0.12966520861650827
0.28252011903976537
-1.020643134393578
0.24773206942829767
-0.23840024050892686
0.5045771855954413
0.07058237023895822
0.08100521529192334
-0.3428655721841524
-0.6247851049003417
-0.4242184022923905
-0.14336216337303648
0.20547549823683992
0.40669951694954287
0.5403200279458191
0.26440092105382235
0.3181287667329469
-0.5226436627653436
-0.2217819283196795
0.0540951979155194
0.19794673429332935
0.1580824319704378
0.10812698813281114
-0.012495906838806019
-0.22177374754725493
0.22692793804980327
-0.35245988321508687
0.28399000602474533
-0.1517923164247379
0.6289457894950118
0.021217935166857674
-0.5759987209670882
0.07224890870005528
-0.18432824254693944
0.1547990496489983
-0.6659619994428451
-0.2078770570173735
0.1934021198821594
-0.0755663081852027
-0.012524041573920371
0.24600210182836518
-0.31910833226721214
-0.3399798753977577
0.645338243468148
-0.06729940976017432
0.4792966199276455
-0.21792247385158278
-0.47344931673855445
0.30270315486647775
0.9622703234180474
-0.4368050750441932
0.0084213372424769
0.35379211524709236
-0.7261174056541112
0.8445938977059871
-0.029773507381126937
0.31163341342872464
0.09341892177566796
0.7857559738418435
-0.5211816567073578
0.08709644437505613
0.07539942309577458
0.022799720914984098
0.4755303152842822
-0.5601391153458143
0.2242305470958197
0.07752093334262086
-0.24302717119986442
-0.6421144825915046
0.2245781770998444
0.7268032668135328
-0.18719075931282503
-0.1381740404238961
0.8219692586738863
0.25244290887366827
0.2644879381557263
0.49977423510119706
0.5836628967966804
0.2050049470787619
0.43486084487187016
0.5814529920981604
-0.383772862931059
-0.4356183677367185
0.25940885200852665
-0.20459356249342878
0.1246600075694771
0.062432351333691065
0.2799034044737506
0.1978242204557554
0.2652472307578681
0.2952614510638117
0.2348665990922538
-0.029627527799574113
-0.5251320148784777
-0.8819256623522586
-0.03826367611387503
-0.24518246256706494
-0.07095140261929125
0.09404045242915712
0.507211089889112
-0.7755661863456288
-0.6132955737291502
0.28512049455895755
0.1891550012417271
1.079023148364369
-0.17710689954682818
0.17021361930128037
-0.1586773367017158
0.3408292213783247
0.1217034360470055
-0.8823816243061298
-0.32837872046361577
-0.3616600164317138
0.5759495823897691
0.025514474083462198
0.25067824011272855
-0.05715717359754306
-0.04712742937704356
-0.2781673270815954
1.0907071176698753
-0.037392120771286626
0.4997900272296222
0.111134383457407
-0.6019360804995608
0.26231650305916626
0.41243118817520624
-0.16949957726525433
0.1667701570717555
-0.19573102095006054
-0.38738123455510165
-0.4862173295283427
-0.7321336482657538
0.5099576752060528
0.36720445624308673
0.03085521953740488
-0.3044494140465409
0.4852918708253031
0.3572525347300156
0.757714007141317
0.3723342630628957
0.5717419955847153
-0.32557346622140565
0.15972671103739103
-0.5156380807603416
0.1268389805361522
-0.1859554929292307
-0.35473235203276965
-0.1629603230364721
-0.46270192077619726
0.03870814011846265
-0.018998284099970647
-0.7841856852287136
0.02960207486904925
-0.42354913251863063
-0.3207185481217164
-0.5200922891160379
0.38825620807019673
0.35954901609839435
0.5435563769475369
-0.23150048742716334
0.5123728141301355
-0.7135226320431063
-0.01215363566300201
-0.34857958409046697
-0.07820971363416505
-0.3095411905905731
0.6273358702152895
0.24171895505402338
0.18065380797706376
-0.4137886455093913
0.19466660006183129
-0.5897855517268229
-0.9169772737253502
0.7616072682589787
-0.23980957967513178
0.3340367244341957
0.5182356770911754
-0.5834275930514913
-0.03387682915153837
0.7162186291991756
0.012197511590112443
0.32943802864731836
0.25287531956039094
0.06263857820659523
-0.4879547993963105
0.27559009349659136
-0.5796922800598
0.01996465285365164
-0.11069285397626598
0.7719627090405202
-0.6152499024397657
-0.11857542688531895
0.0926570912418022
0.27879778308743447
-0.024938238652292277
-0.08823803465566711
-0.31564847013613
0.47688468401853895
0.26562224580510535
0.5413708654397708
-0.5494902581602383
0.005232878292938344
-0.4541266146252163
-0.2811107861232438
-0.19660805471663179
0.3345781288190182
0.22666281470447536
-0.7226615392679895
-0.2394025152025311
0.13696950942584538
0.21807161616833065
-0.2413502162052217
-0.8334609412444595
0.21101881115947707
-0.6620766026138578
-0.14608407551346497
0.3106183948136401
-0.4450886552056145
-0.14416078497642293
0.5818192616689203
-0.16138065212238434
-0.06039816167330267
0.2516057144788538
-0.5881845622115214
-0.44069657500896214
0.9382227490866275
-0.2006450785417242
-0.36101430234989157
-0.026913834824834858
0.6242673890206832
0.22368216824268886
-0.3641306741500588
0.02203974447377359
-0.3443309275468077
0.08924876474081751
0.6219753232998435
0.4846544575221395
-0.13311031997583778
0.02470636509013302
-0.11573313185243324
0.32551863721655083
0.3980061651571163
0.6391479815700645
-0.5553650252264534
-0.3519650404647168
0.03662193487734397
-0.3127248736056759
0.1831482475467639
-0.4647044324559854
-0.3050198031848147
-0.18263769805992078
-0.3175777789894936
0.12292787708933937
0.2594060619689237
0.16304167463127003
-0.21897452986411958
1.3892329216687294
0.15716371324589726
-0.006171568132636022
-0.5976423760408202
0.0028181703043781313
0.16023014515173695
-0.07109043014733898
0.41147179188131083
0.12701120683189698
0.5891362041955406
0.5124072685508648
0.25295597573877554
-0.5793288584329981
0.041970204706558614
-1.192554716816032
-0.15296809259187266
0.6719255232617699
0.6060003965636499
-0.7746245396696779
-0.3486840310746722
-0.5166089553268486
0.8063077902467358
-0.6819892357026467
-0.5182570421816748
-0.12307226330242485
0.16994960376630405
-0.3296908479572248
-0.19467209225584206
-0.10938301746777958
-0.04442866023266177
-0.44224126009117365
-0.1578157317500931
-0.16908634559617547
-0.08016921326334209
0.14082506190741578
-0.18294002083856484
-0.5610930479926416
0.22147177686817798
0.7575522847915003
-0.12200638558718607
-0.5959341667934381
-0.2919077920016844
0.16630954855449434
-0.09915759212138711
-0.10568247640896031
-0.030508433475882526
-0.0843491136036288
-0.11787949005300778
1.6007110219600595
-0.16017713683346674
0.34260588664304537
0.3760784124820169
0.07561993185321791
0.24547613106093114
-0.39549764540699467
0.20782632537404302
-0.2053981734033951
0.8111546600105172
0.2787835797661534
-0.5727031298237244
-0.05827377696618441
0.5339822818695459
-0.25936920611057845
0.04595624074006475
-0.7436489964215949
-0.24542471575347294
-0.47412455300193174
0.7703399262895492
0.2714491443600883
-0.1644738802654802
-0.3744513874712212
0.3248205999754469
0.0024576164929747176
-0.3801247837588933
0.5449411412058471
0.36769955101723834
-0.6504808721580827
-0.2629085709371803
-0.04323242661481618
-0.11827715825328565
-0.3172710355053445
-0.22695027578306753
-0.23056759035685384
-0.06339147244774816
0.4911161566002145
-0.2816897981998749
-0.14791455171823473
0.22576064141745608
-0.012470598498366941
0.3384751755654387
0.32418695780322665
0.1009820276435531
0.3821953368531871
-0.438461587925301
-0.048337306401578316
0.19792177749959008
-0.4948629676208383
-0.7997156900266829
0.42165829134499994
0.07951047970550734
-0.46663263018579304
0.4700405119649071
0.14406841020568528
-0.204879852288445
-0.13516980344531918
0.15443293514630202
-0.4376215508183364
-0.3092063085136403
-0.35218971262120924
-0.10339062086804306
-0.14985473386817494
-0.5549014385367849
0.12529612680778004
0.14626711356271813
0.22927166186512177
0.43988207021276565
-0.03987819253115561
-0.22252383732713202
0.09096353342405572
0.3532746402508653
-0.03321357944992545
-0.23159604208459694
-0.040318393485902194
-0.34612498791093543
-0.467534436024727
-0.15705034916339028
0.4095338176562768
0.5991583271254894
0.14505698051706076
0.009562773214860027
-0.14028352095140595
-0.27219553735626323
-0.5387309497574788
0.4302539995867344
-0.16386334917676948
-0.10045090059320873
-0.3536309751140814
-0.11424138453970348
0.16135105991619697
0.4692666116486571
0.150336284395499
0.885571323168886
0.2725462059643982
-0.5192008870130324
-0.43273144323133067
-0.4960976929088754
-0.18491079797859664
0.16160704797870906
-0.5784387901704037
0.17095110511927666
-0.5040798111543746
-0.06477993457781855
-0.4089183243992624
0.7874876451757961
0.5671927940592459
-0.4121854209657155
0.44184338293120917
-0.3074026144328448
0.004253055139956982
0.07848712417749121
-0.012993155156116822
-0.13641739099022562
-0.7336667926889409
0.028642859910750954
0.2672715899363284
0.21544028152450925
0.5856798622078148
0.43232135254281945
0.7098462318835257
-0.8719856634893361
0.028427029064357255
0.2768699233337519
-0.5053194595197464
-0.398970039807359
0.2226914794748742
-0.03838139922285669
0.09475979697325884
0.004565386332538425
0.03644253258275945
0.5610535003593461
-0.22197426251015334
0.5589415438771819
-0.2989280219709574
-0.31662488009103223
-0.45240173405482675
-0.9853993097541894
-0.26237043740940186
-0.469309318205234
0.6033393177498835
0.038983789793946226
-0.21874885507871245
0.021826838371283776
0.3103838109429157
0.16143913607266225
0.1179341557196163
-0.21297292280061642
-0.05236904629428223
-0.014586166993035615
-0.9388253543883154
-0.6868519239208757
0.502671432311081
0.3325052172968119
-0.030466344006102614
0.2931704097483724
-0.4066051736596176
0.03313958619462098
-0.6446245723220397
0.18454590058682616
-0.43980345132217147
0.27268423727039703
0.1429711351616202
-0.12265307621141282
-0.0787332736637845
0.6810056479501322
0.370640918082243
-0.1625280991147608
0.344432392850221
0.608191988405318
-0.5373615988601871
-0.37077329008512044
0.26065021474845246
-0.16518711292885227
-0.05127153915256352
-0.8025694639471431
0.30982791353374756
1.264189099974398
0.24376607630127914
0.3122550781370181
0.10009427322977632
-0.04824674280743289
0.39705671895674743
-0.23591076793290658
0.38282341776714607
-0.5298551696609465
0.05355203414032786
0.21505957211971558
-0.5728145377611698
-0.13480011100835673
-0.3091621516601603
-0.3100219711358538
-0.05700956638668667
0.030846026015272265
0.38613480626187996
0.8142779294574246
0.7550668235586838
0.18569364575418992
-0.17566835026631572
-0.040270369287645436
-0.22453919462570954
0.06156364596841557
-0.47895967756103125
0.311091151215143
0.6176805970522219
0.16339579645524718
-0.09616932416885977
0.28080298776468704
-0.2628094030599916
0.43512402277574996
0.4596352219377609
-0.16347744631425098
-0.20155415599981671
0.23275693308312215
0.10645849591297359
0.09511306106835023
0.10906325531822218
-0.3908602298082436
-0.183511017589069
0.2580928184440031
-0.1367091272683062
0.664916416908207
-0.16432451319367694
0.17339420866084754
-0.16064188778957816
-0.5082663688086052
0.4236904844863703
0.904690733035202
0.885610562489534
-0.4999481799788458
-0.3985995550373114
-0.3244289539581222
0.0560584149887661
0.2734731230452888
0.24932272058922245
-0.09390888599597873
-0.14791810063108696
0.17906965315872414
0.020978058552174612
0.2887882572392417
-0.08805792451071728
-0.22573700587589035
0.5571358037055881
-0.5918549831006141
-0.027707277023930596
0.2957145230550332
-0.11442295739579748
0.037624971048324636
-0.20621205967425746
0.018325212016230406
-0.5279546759030909
-0.19071988564769624
-0.7914098365546424
-0.22963558272764406
0.34955606147129564
-0.16881366159660185
0.13887858439440243
-0.38594717236909987
0.3784745054817819
-0.07132515112926073
0.10774473259896371
0.07770748184321857
-0.7091351264113732
0.3014955036630337
-0.06640412896401342
0.012646836028258914
0.6849915819299017
-0.17525060135202844
-0.3936232883803336
-0.23207511149618934
0.2797617394771088
-0.1257593691880625
-0.506357989731909
0.25782702177017974
-0.15158125457183666
0.23233843809359395
-0.5358487010349039
0.38157194608327194
