0.07089226761890272
-0.44179679668671773
0.06425227267540773
-0.008911385815079886
1.0610572057962688
0.16795561746826168
0.21442727982089968
0.4738179435624574
0.4307158083343554
0.4929031916218558
0.0708207951121584
-0.3600710576995968
0.05067454072442735
-0.06277095155785956
0.6061307971159786
-0.37502726695552674
-0.07911984795581534
0.14725353265339733
0.2349082649226721
-0.42361698484286925
-0.23807689122014378
0.7608088653773797
0.14936395142547765
0.6177112828063093
0.17334611895006086
0.2807368157506962
-0.22536155955791096
0.14001517641606387
-0.037473035828878044
-0.05120469341257589
-0.8118903289125614
-0.6362784378604704
-0.7521775117149115
0.34647486016326084
0.4684471423993157
-0.9883789230027481
0.15338358986302128
-0.2788966290258195
-0.21506992930378466
-0.18160568256704263
-0.80392288296042
-0.33791770947535876
-0.37968129300528103
-0.1629096752295074
-0.1254641097003661
-0.2958997719328077
-0.22583258303766454
-0.14116313544748343
0.4320206156446924
-0.6314328395863604
0.5378746843629998
0.4000784875803071
0.2731420029686328
0.0776260961606208
-0.30703911691336117
-0.4149463269789837
-0.3767417950635347
0.3726485869443157
0.26300899342169876
-0.3446880228673142
0.28006785516511185
0.653494108966076
-0.34367972172526534
-0.48691342280776734
0.015281540981446386
0.8227063145454138
0.31259701558523695
0.519429103386771
-0.6553234667882691
-0.27796657867645586
-0.0036729006378378747
-0.03981558783527324
-0.6811892502078642
0.6816205783961701
0.12160285252538006
-0.3811383010076177
-0.03781424688381947
-0.9854034659116356
-0.6034026712740103
0.1206884322695026
0.4431240750703425
0.17843420369409124
-0.27996435860134405
-0.34665870513038244
-0.7589319700343262
-0.10936640878289568
-0.25129557170713074
0.18257581185168056
0.2981894481692645
-0.28128867441894273
-0.10405177518025147
-0.04462060988013903
0.23524424270463745
-0.8226048526427616
-0.7223474800991401
0.6337712094825548
-0.4496702750977187
-0.6910893419642736
0.6468000645932466
0.36870538657482965
0.17345379555634655
0.01837208720332009
-0.45546898115072565
0.3537413541077179
0.08923284284681159
-0.2767000094339713
0.7125087686168639
0.052093671573499006
-0.1815943528159
-0.01088695608063787
-0.14825611189712284
0.3876794358138366
0.05155010269491245
0.2891841930013299
-0.08256518444632475
0.37677336406283896
-0.02573664007689435
0.10454829132998442
-0.14092588875223663
-0.07801455034875573
0.23225221312557787
-0.5141938039902081
0.011377857272801658
0.20653377685818922
0.09919637765771146
0.3185963050627793
-0.22444731876819396
-0.23212204686130689
0.8269649088642599
-0.5823669708284998
-0.16686625337111993
-0.06470523674535407
-1.0354714325032963
0.06575124992424533
-0.19893916785963708
-0.10567873380278994
-0.7500291108093686
0.4505846242662556
0.03205027529813316
-0.08121986802285946
-0.8622020517714603
0.29461331809471464
0.3168190498221733
0.5726039965691779
0.0004831589105111888
0.002567335296587897
0.20252585387071242
-0.09201918284654562
-0.3153180281118738
0.1122281588379191
-0.2760598596587024
-0.15716121676517028
-0.13798476100282195
0.7290270197931493
0.38099544623804527
0.2742973468967906
0.4436662180228985
0.025424637965043677
0.23046291890936765
-0.7162606196556222
0.09458624656813523
-0.6717734647687159
-0.5827240811892508
0.7601897410847879
0.04291144519598077
0.5197644969769819
0.3229994404243247
-0.6946961448147354
-0.841621071633018
-0.7927078888379171
0.4775814349730938
-0.12207627723640155
-0.38272821821327296
-0.4036427580002064
0.41898764782465553
0.06837751372428082
-0.07105562291109775
-0.5021676093592384
0.11647588105223493
0.2684928850596357
0.1801753149250432
0.2310900668239114
0.32222097217261114
-0.20888596715422375
0.19760456634756438
0.05327205634492857
-0.16224726736759393
0.34982474231993504
-0.17175951180393365
0.13061252380875915
0.28665947529176733
-0.2183000951650604
-0.4793178239652352
-0.08455235475280805
0.399981934206183
-0.4884729717261282
0.7360693417189582
0.06468682018706788
-0.06454028618157845
-0.6683345721194255
-0.21608386086798367
0.04080256338768426
0.4437155006491633
-0.23112924742783894
-0.4049885453080913
0.4936555665321866
-0.5802610976424799
0.2969482429271578
0.44171798102414495
-0.04855129672371187
0.2797068306715495
-0.013315320920232954
0.146112763040403
0.4022607824303383
-0.1998101339896323
0.3020703654819943
-0.2615371479656785
0.008677653315925765
0.26958516157633833
0.49139340306330787
0.5190603764803899
0.042912914298302636
-0.24515222789828392
0.5779096472771229
-0.4146127560946801
0.2919939982643128
0.6600557643751427
-0.20451863820841773
0.40972581582517986
0.05575865958352452
0.06501723758399856
-0.07261511137081932
0.28896537273925443
-0.21987982279300972
-0.28671966578584834
0.09043877504314364
-0.6062767909374001
0.49590159627690117
0.19764548368618484
0.47059185164865985
-0.13632232684022497
0.029514824912763794
-0.26798211505560016
-0.1670113420784585
0.2220449681797871
0.40971555962973627
0.05064441532984332
0.643123063137738
0.7658335345677515
0.08299348194654052
-0.6122833976580543
0.02571905360191504
-0.05234169646441084
-0.07994768056556403
0.06106147641769049
0.272683812289003
-0.14574081662523863
0.11043671189791826
-0.40054367651864636
0.5451116121339807
0.04759793465510129
-0.16596195658533602
0.4321120180212335
0.011586384417735305
-0.015722600855293405
0.07365793203914855
0.30654575160097147
-0.46852526200944455
-0.3784266337681439
0.6040436899919666
0.31651877478868545
0.04882662100804359
-0.5931462267946072
0.3617110155797346
0.38720798253252386
0.10466546377599627
0.043510473819816535
0.2711163191432716
-0.4011532026306211
-0.8777232599093302
-0.6734546617747017
0.0982792810189409
-0.1003218936547934
-0.12449316307716246
-0.20125107818267163
0.9613655435728365
-0.6509898809582954
0.6962882488456745
-0.28039093798727177
-0.27627164582884645
-0.022795800770082
-0.4090576213722081
0.4483372906032848
0.8502675788218936
0.12453944431064722
0.2839774492634218
0.09275353500892243
0.5772289300504003
0.48433639628846814
0.2507247192938707
-0.5133541273859679
-0.013123709590256327
0.17325864339769415
0.6911498312364714
0.23837125381015453
-0.040777071878041644
0.03311590485633101
-0.1710706600410456
-0.14567279729940621
0.1414211746909854
-0.3882056949354514
-0.13613321339365367
0.28474464751535167
0.38673058139002753
-0.13245070296577952
-0.499737784152042
0.4629542295987947
0.47446965913006
0.5032577419216614
-0.9136297015187723
-0.10416639510377766
-0.3164258783919831
-0.2217867297710417
-0.49598338334537156
-0.01903417612231179
0.04952117720026031
0.21080944311130567
-0.335687559131972
-0.13600896628846856
0.7322969958866467
-0.09632846727979795
0.5273262262628525
-0.7359854569441192
-0.45192604719333207
0.0872201204945371
-0.003133834384917441
0.029497608987157593
0.03910886109708144
-0.3956044962547848
0.39722831171374307
0.23944923771660223
-0.2037559954273991
-0.23258817204693844
-0.053581424134543115
0.3579263292989941
-0.011140110462864422
-0.0953349131920382
0.06343905144193235
-0.2424419655150884
0.14554790943411167
0.04273099195742216
-0.6236037333373283
-0.42842749963420074
0.32974263354009514
-0.5288332283779967
0.07154051908648237
-0.22661043866975059
-0.16467473428219465
-0.6148445547841409
-0.20014565693149824
-0.035244797388250516
0.04291504330929676
0.2479360521781906
-0.11351386654424292
-0.33935950205314436
0.21285207436700426
-0.3165659077107733
0.6537203309458662
0.0693673754602528
0.32526690012705994
0.7113522812165956
-0.44253338115076535
0.32827804211645395
0.1521126664549401
-0.5048059922115882
-0.6533533198595028
-0.5069083372795753
-0.10088407976401012
-0.39695007439016716
-0.060984678083057985
-0.5050583831788171
-0.11143089994516063
-0.33405580292006737
-0.4336208428603941
-0.0021216799645021947
0.691795895949092
0.21678726007127952
0.08783271938462331
0.0691312257050736
-0.23675860396239526
-0.049914391399722494
0.5076285237614072
0.0629520707097228
0.6792978716903203
0.390500332069384
0.35704295581046097
-0.3200634726955865
-0.21907013087631838
-0.5141970632923673
0.13719066067375585
-0.04598622489197121
0.0658345634747439
-0.10483133814842721
-0.18125188788671698
-0.5499134372135408
-0.48406510085063476
-0.344005416656416
-0.5068790736234535
-0.8869801271615426
0.043909598332740774
-0.09578179193420304
-0.35100714476569966
-0.4909914185258288
-0.21183840305722287
0.5661530418653894
0.48106331953320247
-0.025512482778860274
-0.3849397443357557
-0.2673323424978786
0.4703097625587491
-0.5507863088412457
0.7613620045158831
0.0610172860213039
0.34262338190086516
0.23115876110766434
0.09981662952898136
0.5218121070564193
-0.034735683834227794
0.07411560097918363
-0.7671771345498618
-0.09297020453917133
-0.056043504839247915
0.40189602420320586
-0.7433956959887421
1.134419626676103
0.09848096336952497
0.35872849507068405
-0.5120362457554113
0.183904249098202
0.06327848223292612
-0.13130366554371506
-1.0936260541716598
-0.38078288785690373
0.6979927658432091
0.06743894566598392
-0.36218138778378695
-0.570385176064969
-0.487186611745766
0.17520530604972753
0.05058922688599554
-0.20179454652097897
-0.33036340555944815
-0.16485963031510958
-0.009967729785162764
-0.33331593138561527
-0.27519658444585454
0.577678401699508
-0.3568987181101278
-0.1362082910746348
0.1280426801434119
0.48406901754055326
0.6935104855063338
0.30803770904308503
-0.45340660383667697
-0.18180880442899053
0.07746708655625803
0.2029791538605159
0.13862368021145438
-0.5003524390560585
-0.009227889791383814
0.19726710719186816
-0.11119190888446127
-0.2693236584258209
-0.227125176911291
0.27943124575351735
-0.5213130675977147
-0.7763817713905148
0.02426960260251627
-0.07839653017026085
0.49582126627607365
0.5142665094002501
-0.5033483246635487
-0.967392098332528
-0.3802892612066678
-0.6270851274434704
-0.27552432886745115
0.5721958872217155
0.02301706440518877
0.05796792919180317
-0.10759867172467318
-0.5323878307549849
-0.09921923653590557
0.4187944020542744
0.42838979378156056
-0.21530071961323327
0.1619841908784034
0.1109642691983808
-0.21101377895637063
0.49883362184502517
-0.3135898434462893
0.12885332016399512
-0.37679001633695086
0.026796457165360475
-0.685768631997267
-0.40488305712539685
0.2936562849893998
0.06128762064910968
-0.16274092620419814
0.795843989717467
-0.7077256629839209
-0.15987259113295244
0.502009804780131
-0.016048162553255783
-0.14536909488019115
0.25211167825819486
-0.02371391269147006
0.6533439745581926
-0.7087371096567127
-0.3618432058146807
-0.31874230190633035
-0.4811949220765201
-0.15665122084863495
0.7583042714974937
0.346596201361581
-0.12388951317255364
-0.5096194338090738
0.08348816845486236
-0.554280248380123
0.10706273741546601
-0.40501806993847117
-0.227021779640392
0.05744851676862276
-0.01932253395751438
0.17603842639209435
0.16723151918586898
-0.0006893797497860507
0.055948331472266195
0.7548232362126962
0.03326222563096977
0.4132212161901287
-0.22060203933577996
0.6881610397169354
-0.021783970050016296
0.42506352448262136
-0.8629035027567921
-0.676986406828156
0.23549441595852053
-0.3539060361730948
-0.3806994969450873
0.6145565878736122
0.33348337290067687
0.12504756635371517
0.20677705730255652
-0.2067027804143279
-0.046209671500092364
-0.2546206377188033
-0.47212678962886484
-0.37792283785009173
-0.06274155258411944
0.2859481948959265
-0.11252125188210747
0.033664313043540936
-0.23548043514700964
-0.2872097526275998
0.08013281397124997
0.16490862104078402
-0.19302228414142558
0.57603048939759
-0.03862886719182303
-0.4310892175832331
-0.13694496346370952
-0.0353574198681307
0.14518824540949177
0.364106815258527
-0.15749005164304009
0.4984103465708475
-0.22275012639003944
0.06458861660033295
-0.5720661401485441
-0.04326310296679807
0.2937653665559875
0.6228806133777716
0.2241241307434957
-0.3119057130291888
-0.038599017461919995
-0.40769650388688927
0.47563237108258294
-0.6013733310077888
0.405928111667615
-0.34797355809407426
0.024932107141526005
-0.2660699216241552
0.3779666985496465
0.10672144453318744
0.13240832840793054
-0.4332841434423832
-0.26802265595677055
0.6107195948627206
-0.39698459686499765
-0.8392843732858413
0.32493386360635124
0.2780200416430915
0.23047534496720737
-0.14249404713245925
0.4271851100808036
0.6891399229150966
0.3128805506441967
-0.06161594936718954
0.3877346669728668
-0.09229582030260226
-0.45606063848532785
0.01652643172249152
0.16940283276016216
-0.23324344798420882
-0.047856525388411224
0.05076197372829676
-0.20989630981172155
-0.23889144151563999
0.2677797517167665
-0.404766331498092
0.6244026104396739
0.09171458413401712
-0.3625868232852133
0.09667142411775705
0.38995591586557843
-0.2870757694572477
-0.6302629596742862
0.14153261173853443
-0.1684317229913777
0.23864879774703993
-0.37984112096436584
-0.5901297263886911
-1.029095359413604
-0.05118953290143199
0.14009175084474007
-0.17110286362866137
-0.17543122647362272
-0.13164081068099132
-0.2332727265269403
-0.278042505122651
-0.1085613263837675
-0.259094298847034
0.23518808282734377
-0.03531084918597794
-0.26119704782825637
0.27251742634580717
0.5964635135334307
0.5348743364642439
-0.02203702992392787
0.06530308715678772
-0.2117244324399159
0.1583694855997026
-0.4045944224219152
-0.368902387812267
0.6238370855103327
0.12242944705165244
-0.6612022835246254
-0.05722245956671824
-1.0384949615671744
-0.24787061362950125
-0.20878411975115074
-1.255951767361442
-0.6193805156413583
-0.2666213130464775
0.4036317047162407
-0.14839261222202674
0.24644466027178383
-0.018799262536235692
0.24648301237368794
0.11126856077081755
-0.4264786759939553
0.461816684049825
-0.6818216653970678
-0.06299564134099223
-0.32163187521817377
-0.32715716043192095
0.37656784239957986
-0.5993398463183481
0.3501488195724189
0.15424320558815607
0.08150977557088944
0.7709851585655796
-0.31093900289020926
-0.12868418028972176
-0.3775105692882209
0.008711304300163113
0.39370368589149213
0.25440638457711423
-0.4082159898871795
-0.5539239395136965
-0.47852191437900155
0.5435040775352695
0.12857632102712968
-0.1628271987479089
-0.13618802037082775
0.4067020020630286
-0.35567340803145725
-0.0881519468542682
0.5839458696540326
-0.23502071097251329
0.16320294215856238
0.012334298990229241
0.14241648610231106
-0.8266242886194732
0.43218272313588546
0.06771385956181201
0.046242627283503535
0.24409529915211017
-0.379235279704013
-0.14697637879171485
0.5600480938617218
-0.07979572166581561
0.4954422824061992
0.22207859393770096
-0.36878400419683616
-0.0993023245130376
0.5961987618662143
0.05449275983508731
-0.24192158532899607
-0.1546095074281244
0.47516249073974365
-0.08396312269684073
-0.6824259388198184
-0.36368569612613294
-0.1451665796756505
0.16400466569481595
0.4488393192279499
0.22850128500119984
-0.03978013254760937
0.40040058885538127
0.0842477694674278
0.4167995775376963
-0.029421256499596246
-0.12749639014437694
0.5954774770834463
0.7793640964095909
-0.0219596446070803
-0.23795461037751206
0.055918907906461146
-0.10663385482094091
0.22973443040123578
0.02217908280094995
-0.6820442859901602
0.021945408211349385
-0.24692502791477874
0.38562422033135835
0.0988862340825494
-0.6774264826003477
0.20420634130313625
0.28424092483536284
0.6951817837408598
-0.7251635368381779
0.28972548274359444
0.5291489068306938
0.6145336830611776
0.052024295012108625
-0.10680485118546286
-0.32793970472317163
-0.04693429751801083
-0.44191799301359647
0.34830154820965803
-0.13613400310542234
-0.2830045764181897
0.10494756787585187
-0.960211551261527
-0.3349677234235239
0.27512520868768947
0.21349443417374384
-0.2280314728215926
-0.1705642226116247
-0.12365293938236427
0.49535474547049496
-0.7390860125293428
-0.35354715743734566
0.6051671574563452
0.3883818375659251
0.03328267772617862
0.3893781385006021
0.2818902233433239
1.1339713844270445
-0.5862687681813544
0.07672666976093834
0.1701728517430147
0.5807805000628432
-0.6365333577653958
-0.16473174388452053
0.3428252855303631
0.1104660770525945
0.29833309228059474
0.08155299448849135
-0.20081312828217135
-0.6544329746697349
0.1409932821761649
0.05586309850326209
0.09602078403040551
-0.7471824961067677
-0.575352865738679
0.5669493312515992
-0.2824533862405897
0.5059896424811277
0.3755095401073341
0.596651047847913
0.011837264994364398
-0.17039723525328443
0.03373007980421037
-0.024112075349760894
0.1958136032268067
0.09034493468727173
0.36600898378668745
-0.6085946677198935
0.21544532149647844
-0.5313485761205304
0.16446239984172945
0.726659571032213
-0.021672771441689154
-0.8656118648481644
0.18527122935344517
1.1036400142883198
-0.5812672237542209
0.05577791382174235
0.14865118431470023
-0.848659752321335
-0.4814563085627467
-0.058986496649696414
-0.6285286178256377
0.4749430727028752
0.3544798611996329
-0.03659546280782025
0.2828582761106534
0.5247963911543106
-0.009393674910206935
0.24992442427548667
0.024764275494913106
-0.26308642022172374
-0.09119753279948932
0.3394831010921596
0.1762817906274606
0.447788911146785
-0.031142861734083444
0.23597091784530214
-0.1515903152402133
-0.04292860444820504
-0.016990375146472603
-0.4007291104795471
0.036528594528511385
0.4779425608812685
0.09915391293633037
0.1916429142343591
0.4285206354700186
-0.37290516853187927
0.49208541203346456
0.6750353306550945
-0.7194919478962365
0.04432995654344322
-0.47913780146803553
0.5327623778147905
0.03061238373569935
-0.46163229380930854
-0.7519385475849463
0.2280349165553545
0.2145152923981527
-0.01153330450455009
0.14456426691857302
0.21832769087433165
0.013174663748355733
0.20601615874454443
0.44464279441889887
0.6808038334624601
-0.49558222706636723
0.6022501730741978
0.09618948243414556
-0.026695185492239835
-0.22897780468648274
0.16392108871682906
-0.63256844310673
0.3367982205665725
-0.06771331435957767
-0.264920732492208
-0.1112769222049448
0.06740765387875931
0.13026606129046014
-0.7583676094340811
0.42829654161844155
-0.05527321987366938
0.17641225975524
0.570032041808502
0.25385456112425453
0.4839789347011248
-0.03119875485801837
-0.1796573477223205
0.024564445043663608
0.3990253007788661
-0.2733359702740637
0.4693843179269422
0.4644928904666429
0.49967482914194605
0.3368209341842652
-1.0172087031470889
-0.696886219679455
0.5314612543189394
0.43981912819589025
0.08690244101090003
-0.40453734456480595
-0.14253632343196396
-0.013354087591357687
0.03313888272813313
-0.06870385310470625
-0.39552611342415467
-0.6020201208916164
-0.7281117894667689
-0.3196053607910835
-0.6542344095879171
0.2049513848049314
-0.10930185188012069
-0.12047666728795071
0.32582381856025766
-0.24049532009502322
0.18391387255273162
-0.6777056148660521
-0.10652319483001124
0.10980193381776895
-0.12316078438742689
0.2429615626392214
-0.11503595084198119
0.016850133625349397
-0.3164237414820021
0.44686218434300534
0.5213800544473792
0.070401063346653
1.0217510732735333
-0.03999451526609863
-1.0081455114478426
0.4508055733164266
0.03534188986836195
-0.4656125522964907
0.16094979478758045
0.18226872984332496
0.3117535708477498
-0.2984839093807624
0.03890500287582746
-0.36235845940036177
0.06096148928986031
-0.3406781382292767
-0.08191259737084332
-0.6026296112339158
-0.3680337892130197
0.3039896430812224
0.18154453903267878
0.49764585891776514
-0.06124479604254693
0.7370344922135351
0.4258632015221271
-0.08988541460510835
-0.16002643871672445
-0.6729096691872778
0.280914421155396
0.19935855779644046
-0.4615701828771131
-0.06346284693902855
0.014842779483505309
0.26902708112346263
-0.42964053905190325
-0.18391126586281928
-0.26966287390576166
-0.8369231612498479
0.16412792989147312
-0.027871638493713036
-0.06937981866613017
-0.29340251588553545
0.24805909594168332
-0.0024702861263090643
-0.0671279218263223
-0.10840148827353635
0.15230332450011785
-0.1192831801800094
-0.4390788465572799
-0.5241340829460338
0.5553345958193482
0.2606513304718101
-0.1946880636668595
0.06894497635039655
0.05508725828531486
0.4009586705637144
-0.5192061182111865
0.08231345996841648
0.3452524443997763
0.4645524017281625
-0.27703413721061265
0.11838971760009812
0.01410793283908543
0.6799612970354924
-0.34240907128948583
0.34857689105158124
0.21052966270517579
0.7284202234305106
-0.41649493932322684
-0.23381604800906702
0.5726672950879499
0.17464515927216712
-1.0460515282055818
0.4952168178948358
-0.5654045873328569
0.04330753200310579
-0.15741736300070552
-0.15292387337410027
0.5296974616342456
0.8235184416360009
0.06772087802370877
0.6166335712319728
1.0673192441187789
-0.29696363894342415
-0.10078354018621875
0.045856722605579686
0.09951777914739812
0.0030304179322333115
-1.0817110347691214
0.5083145244272109
0.6145286479501373
-0.1584672271430801
0.2215746656914099
0.47120542047035646
-0.14624492195097927
-0.7983615962955009
-0.48107155202253343
-0.11777033849521752
-0.4902136068355759
-0.11925796738299813
0.5072969196147206
0.09983191593085039
-0.39900796611919437
-0.1682052341640408
0.9172324760099708
-0.06605943905775205
-0.5697865259895877
-0.5060724084130035
-0.03155787187442908
-0.5002626492828282
0.12050229047258706
1.1228559218284926
0.0037121591262233326
0.3892975705332814
0.6190159538750928
-0.00205279186197514
-0.03517441919543221
-0.1258904009996546
0.08464595342822667
-0.5137335814121478
-0.20699934563349412
0.35480929090962826
0.3389010574754409
-0.35362361139760806
-0.05046193997385316
0.23476639137984967
0.2568426650484742
-0.17167002351813632
-0.5302309647826152
0.2099499733315161
-0.06166493210207946
0.07117009198043472
0.17151531976615939
0.02508855332377509
0.05429337125705597
-0.2298010515039086
-0.31436704041968316
0.4976354591979741
0.24681159173322134
0.38800617441786067
-0.5514512966434519
-0.28397127110479076
0.21720137705584364
0.8001709881849991
0.9405929398596247
0.06516794702803703
-0.1904599859839417
-0.2597955113724715
-0.14038089082444116
-0.39515511518892865
-0.4918161406528172
-0.6680765193177264
-0.10996401654222138
-0.3819941351837407
0.31037615361690846
0.49985150116950505
0.6157442892691125
0.9954877255578061
-0.018482437035142525
-0.07848231444902166
-0.006492674699500353
0.17950312978817065
-0.19916582713592815
0.21859532502202375
0.2062880341680978
-0.2536892698339223
0.18378852232541648
0.39130355237274617
0.9061102017703395
0.7590750077506444
-0.2098477985830002
-0.679284509187625
0.10769619431824268
-0.028691718832475573
0.2455206155881069
-0.15224528978663257
0.1858390453301562
0.5572641693382925
0.43538198876692075
-0.13734935307207516
0.16316871860287405
0.5376163415924785
0.013209649994599983
-0.41716141182554994
-0.13727716884463767
0.18995402256252927
0.12496334594637865
0.31844933095068206
-0.8205738544772581
-0.303095499189524
-0.25311025724486724
0.4451183679329137
0.2446876481888031
0.06715172742764362
0.18911395071280523
0.7624229737912035
-0.37131670425182167
0.023717820060056346
0.0025917891736710677
0.6231566257753067
0.6665715132030313
-0.03602487281949371
-0.20642048584839884
0.18651545428608354
0.3898233641422133
0.2918502092481421
-0.11048440238519401
-0.6072925504497425
-0.11350865778618775
0.46535918408797944
0.19146648829879584
0.6485510702319184
0.4202013082926548
0.09184587733934377
0.303098108644857
-0.04302326001209559
0.04135438119650293
-0.49840985247131103
0.939722103318108
-0.1333707875524012
-0.2184866266855619
-0.43287513369212616
-0.42982502975112663
0.21821242753722017
-0.022580513048977204
0.19150541629753556
-0.3352345315556972
-0.06873857633754517
0.17074624017248768
-0.03215699216725816
-0.2747319855222602
-0.05191833556072939
-0.7418555376317673
-0.1517017843866326
-0.038909841693433034
-0.6878636522596142
-0.28484737874341
0.18570251001110777
-0.22392363264847207
-0.2720027284465136
-0.873912566333089
0.5443818001979676
0.08198000851590748
-0.1735337279759784
0.28264764286815963
-0.27905149824709624
-0.28750771614394144
0.19353716628499162
-0.34777527837377353
-0.024439054626566266
-0.30161167012350404
-0.3202520802583611
-0.6930319427664312
0.24514039039753086
-0.5284650812206084
0.7414718668891629
0.1776509021793823
-0.4613326071460613
0.00179290903516069
0.1969952792111979
-0.15507573070414993
0.32074466416068076
0.3438789122777286
-0.02899965684698349
-0.15742345216461637
0.3967761283528085
0.37234779601983237
0.22740504880251183
-0.7243148762789211
0.17223501615683526
0.0710755284244668
-0.6259402251291203
0.027325850477891482
0.3953887998418257
-0.9716248111725422
-0.47894265576680234
0.11228739262683922
0.09416574557120942
-1.1375515170856727
-0.30027039030485164
-0.6860831823620427
-0.30024986621928657
-0.05949981443348991
0.9994696787783187
0.06323763176414121
0.453731608429827
0.5985014715250127
0.040078130139759346
-0.800105512865257
-0.2994320544760078
0.3747363518913596
0.20823139702839755
-0.6656191221257866
-0.07014086619240541
-0.14205676802438233
-0.5002766130415738
-0.38446724694263745
0.8044521144923275
0.20080959771761944
-0.005154001874295255
1.7575068528904259
0.7126568515923106
-0.013706328669557526
0.5157791032370822
0.12724859517958803
-0.18649591541704838
0.1561843088191046
0.3107001603825729
0.15664057433331796
-0.20260686620751134
-0.3891233431432725
0.3259407721171479
0.8214540940571955
-0.2546092321634009
0.5240562331129933
0.2639600028021844
0.12014741457481758
0.13761546633322796
0.4584872794024897
0.7443610815754113
0.5454836385008348
-0.844032077236012
0.3475713762763818
-0.19516309367241774
0.13792229799515351
0.41440350119347735
-0.9050321024544159
0.7509036323730046
-0.0035515610538430797
-0.48963252737844815
0.6636292266661518
-0.164986100992652
-0.287122080662325
0.7696745885386422
0.19581983630642932
-0.029457520737659726
-0.6736831794361517
-0.20326980631288205
0.04849713464366145
0.3462644080215082
0.019452986680431092
-0.20072011815287122
1.1284169754727411
0.09612117365066675
-0.5560998179199131
0.3880839015636553
0.6246236927082883
-0.5778362417259564
-0.022160209994855885
-0.057092075177321476
-0.14614244051978678
0.4883281905186476
-0.31273226232653584
-0.03619682590307696
0.285072644857206
0.5193654576821076
0.13723279543039912
0.5424102014040735
-0.2192036900860051
-0.6786746367790375
0.20433054618681137
0.640240074767892
-0.6209804255766666
0.3049662353397517
-0.08701138710603404
0.07383975991805272
0.6081694499654207
0.11710692391616616
0.1220543546396425
0.6236075370232408
-0.9607187515803324
-0.5432617055104533
-0.700653196319111
0.09964431375030186
0.10901395481344671
0.22487981587264141
-1.1759594948028136
-0.7464989480799008
0.28864514078706033
-0.002329448734561134
-0.4184976459335969
-0.13794782088279195
0.0195958442415396
0.01632171409970254
0.4334708534662743
0.36327240967951313
0.6235695063222209
-0.06986864462130801
0.1910601079317635
0.14920978520341527
0.16745610179482154
-0.24473452873120252
-0.31040146680965897
0.8341238924130013
-0.3472786472426999
-0.35019985065009
-0.4720853691631718
-0.0800836453233992
-0.539087927989195
0.5845375334416494
0.07754058744299189
-0.5765547596432788
-0.45814404860954633
-0.4201811736421978
-0.24345067838250084
-0.1536632807054445
0.41896746739028023
0.25464116311658097
0.2452089007364687
0.3166156817020668
0.6872569206115346
-0.22430492974491206
-0.04868225484828923
-0.512539056794091
0.7970106693484663
0.17089517519573832
0.40431285292967756
-0.30360663424996925
0.3821212675965712
-0.3190975971964693
-0.23041382545284053
-0.000498507373079645
-0.03816703432774037
-0.4711635091632836
-0.009099026577859598
-0.28127628136241667
-0.3901277378019493
0.5952483761011488
-0.23095667895827027
-0.4065701560510714
0.27861698068737095
-0.4044367213869139
-0.1515104924454969
-0.21109252196518724
0.07352723273159242
0.5034921609791063
-0.33705147842865874
-0.06510838222589732
-0.0696951594154121
0.6412284050292654
0.0853402224899029
-0.22887714356296188
0.14831594488255098
0.02065495223316076
0.06631673811070266
-1.0511824633344404
-0.3323054495329142
0.17475287027613656
-0.46497299368712264
-0.9062142859453459
-0.15897829808762762
-0.1205145253002867
0.22590767696491953
0.47563353629716926
0.008989965718418267
-0.016521240294363495
-0.15543518321114907
0.16874431765602185
-0.06796629372580676
-0.22048208650258533
0.1852503560837901
-0.12537892387208927
-0.23423779658572488
0.5812792093284416
0.5108610163537106
-0.28994361333464025
-0.2896603400252868
-0.3442612913006868
-0.19847719272312098
0.417884685042955
0.3466192614850346
0.09468856266896565
-0.3183247532014146
-0.10159706403299269
-0.15013915422465415
0.2799942936685682
0.022376565288194126
-0.03120618658573624
-0.38972447654587883
-0.13616988863256724
-0.3334343402747429
-0.04034847573397978
0.11727221126785621
0.7507681292066932
-1.1592339444355053
-0.43089854596360344
0.18259271439056113
0.7042533282209172
0.12904869252435144
-0.8761105782358517
0.02665393864795198
-0.24887531324921247
-0.27563732308759764
-0.20903163575469783
-0.044035988970140036
-0.8514799718266939
-0.8861368357917966
-0.024951128154424282
-0.2521717834741919
-0.20084454351909867
-0.4824848916592778
0.1599086608373796
-0.3061951634667309
0.4929612225456495
-0.09184591942277655
0.4310987229507582
-0.22903868503759622
-0.46550519388688033
-0.4254968942673668
-0.458077668435773
-0.7199495207500191
-0.11392310541358382
0.08204447692222593
-0.17408709701196384
-0.29510215552564695
-0.26869417251132
0.38582194257944447
0.057265258193092354
0.18466519391547834
-0.2771550719882905
0.02713559316591454
-0.2747007767368344
-0.008871972735228268
-0.3485187103682826
-0.04009306415075406
-0.5223391258689831
-0.35069751222870577
-0.45376343467934094
0.23629256515737482
-0.5876654226468334
-0.4229219816463262
0.14476641121745995
0.17723111156714244
0.007228691869605825
-0.5598262951635516
-0.8186847538338448
-0.2507518736309557
-0.5511937971378084
-0.5142701646447446
-0.8033814284467129
0.5126036447871941
-0.49861393352426675
-0.19916801753540933
0.3528895430621884
0.6965598434720496
-0.03799539375730894
-0.8110476163513324
-0.03022266562735417
-0.22007530712857293
0.0018978570339785548
0.09192576002737579
-0.08104205126014423
0.17091234497019256
0.49704866367389106
-0.2258220347396202
-0.10367655701110094
-0.014874624692358368
-0.9245083809711028
-0.29129479219100135
-0.47224235298322836
-0.30880224836824266
-0.09757996364968873
-0.0663445531027101
0.6291805740532675
-0.44623981925634265
-0.175450388674523
0.1972018567095178
-0.31641883374005153
-0.3040594803495825
0.2941926038069949
0.13049247879327708
-0.9682987295437719
-0.5976000522512267
-0.3039882368122577
0.3382782811537336
0.29887752153383645
-0.1298810195632385
0.7445400984622351
-0.48436997092359474
0.30979499781529113
-0.1416944675599326
-0.29656038204542323
0.2990956641907811
-0.1041105281071623
0.09238536075540331
0.1867996382667992
-0.34012854586318886
-0.1419845948370286
0.31062286168455394
0.4009740138500215
-0.19279444284889624
0.39996109364766314
0.004839139357925791
-0.2791676389451083
0.331712381695326
-0.11363462138446662
0.7111624063485419
-0.3728756514444933
0.14470603405179489
0.0693644205608252
0.575200768491637
-0.5055894824097693
0.19613422411936282
-0.600105324544014
0.16377005917534193
0.7058702873272364
0.3504186056284881
-0.6655197757510609
0.3699424478700087
-0.5457996861924941
0.31867016141365523
-0.6544287377918887
0.49362099997217485
-0.10572526770489311
0.04630230592968103
-0.24394135937781222
-0.42207699926299896
0.21334936435464094
-0.6009506684270475
-0.2138170258794297
0.38240288893269003
-0.5610502233799036
-0.2607946251029722
-0.06741628911481413
-0.03126778160495954
0.4540464314260604
0.3634950117441058
-0.19739119440889646
0.7461303525156828
-0.5965040626537566
0.18170198346173344
0.011603101759670845
-0.4722948975820539
0.31936054078315745
0.4821589416839553
0.23183595656614692
0.4525456613797315
0.48312363451556367
-0.018331500422854887
-0.6484746701187378
0.01545728659110457
-0.3605399273129492
-0.35828509694121535
-0.8256030213641885
-0.22598077175571735
0.3026019256579909
-0.41521561603589785
0.014788230333262894
-0.22937835229668774
-0.40047783442615653
-0.28518584942393743
0.27819751974355295
0.5883777168673544
-0.29561358412155686
0.1758300560592907
0.02347917368523026
-0.4411518294790539
0.1563172964655636
0.18888691848038405
-0.25922617282629723
0.4949957784726648
-0.03473874948659472
-0.9510988900612415
0.12457443136677393
0.15934833546152372
-0.13709922789377432
-0.5456920885392056
0.18324016920119807
0.4917004262629836
-0.2515929190006334
0.3577679674643565
0.4609690085691082
-0.5720892405273061
-0.0425027342749586
0.6300202307859178
0.2701110236126647
0.25670962968331307
-0.011786528622217952
0.16457545302723253
-0.26726581407083505
0.3325114363545247
-0.13172735401364008
0.04001916537712279
-0.04046723152540326
0.04841342964779184
-0.3780825224568126
-0.4495103898711803
-0.35521690293345265
-0.1796462913647821
-0.07873767982158053
0.4742233514764001
-0.38311372793422427
0.18904442798238044
-0.16007728412653283
-0.08605009603771112
-0.9614520763045334
0.36539280729759843
0.5154968099568271
0.028441344765786566
0.5089647042507373
-0.15455282021121333
0.5314095019329271
0.674826642458813
0.4632737330315266
-0.13682050070228036
-0.14796919972140782
0.13461548782004856
-0.1874206142297495
-0.7127203817194122
-0.4262863146075089
-0.3120115010196524
-0.6788437975885974
0.6226175779866365
0.505607515952706
-0.47387694994684315
-0.043417903465295296
0.448693418247894
-0.05353595508302609
-0.20366330152886164
-0.3014417377050357
0.3139925569668548
-0.34811896239834766
0.07287122609430889
-0.3612631794797126
-0.12622865710050377
0.7180797678443049
0.27153857223128897
-0.3815038410982956
-0.17818470548067158
0.18549800413981274
-0.021043522498099064
-0.10382894934536244
0.018892269705534405
-0.00901707520914147
-0.7898750927836198
0.34163633317684877
-0.10342412194756417
1.0553541687127492
-0.42458345955077326
-0.21925134168443053
-0.44256786657078984
0.36561104022204577
0.4230425159770169
-0.40996246505355677
-0.6853784657951926
-0.19618412070021485
0.0432734651085032
0.3783599057660932
0.5025655886382848
-0.21409049386230158
-0.22453500255954162
0.3422800298013666
0.1583016295346823
-0.4014577682257674
0.15848752128063187
0.11711126385019201
-0.3958571005928896
-1.3538838373860624
-0.05228840999043407
-0.18006451073422483
0.17720074473220424
0.41692914912763146
0.09879120134295354
0.5661754604501458
-0.06679681481168874
0.2033806598464561
0.001106528927737411
-0.15518717563850987
-0.3180108010129159
-0.040511251560467545
-0.5394452767542665
0.48943456414791026
-0.46861390795355246
0.4621002484741505
-0.2013419455565075
-0.13656033367787165
0.15426888280815643
0.575963967399037
0.11817344778843886
0.16419774081615884
-0.305439708422839
-0.33180517260333997
-0.0501435866534715
0.23530045255033635
-0.6397959395138596
0.2394069867937879
0.5500539024436116
0.3307767691485835
0.49683945479364305
-0.1343123065535373
-0.3113899838209968
0.24007354522246016
-0.19955871510026146
0.218716267803934
-0.8656018906315962
0.09103155817055229
0.07589873411703328
-0.04317819835225716
0.3700804110535241
0.33838287004795115
-0.7367423708714276
-0.281891341765599
-0.3457487367401846
-0.2125624744054908
0.2122545875785736
0.6399230210827628
-0.6713248862596586
0.5285914191891962
-0.33691744906711246
0.0052034582715907605
0.11372197551371468
-0.07589109969159018
0.11430221612423472
-0.7300012181036816
0.6303087584695802
0.1876827024221317
-0.09524983029634018
-0.12077918663690779
0.39554800512116717
-0.7189231727866318
-0.9200294604127297
-0.17133732340071517
0.11800892451939986
0.8954273106258034
-0.43782281916974486
-0.18566020631653787
0.4662083094436817
-0.0689983017514952
0.006456512385133654
0.009009024114424507
-0.34466757567196776
0.4006371727229657
0.07875310926145994
0.3651020085487856
0.08669698998916565
-0.6241950918499944
-0.6216164312632084
-0.08183602512937296
0.2682959229526936
0.14595409174914717
0.47741555785335466
-0.3183785219877466
-0.0890285006963392
0.3706805451037394
0.14391441608871353
0.028071337862181238
-0.26148591436144486
0.6074058257313958
-0.08201358757589164
-0.24751285547032334
-0.4764836850095936
-0.13267901796615392
-0.4423503083470358
-0.18020703860135354
-0.6008838127124755
-0.017879308591992334
-0.22838428995637222
0.26423822998090535
-0.5799977482347387
0.693473769949985
0.2208900387542315
0.14046931997989603
-0.6472678689065533
0.47734914701595166
0.10513849537714536
-0.01802224298912245
-0.21244506534280633
-0.08456569045993881
0.32206798155123084
0.6833614425501663
-0.03437833731096532
0.4821073980911748
-0.5316025853854363
-0.7034972527693001
-0.23198129083794738
-0.39062040190962466
0.1669273647135243
-0.1826684972266744
0.4544282389292579
-0.38552536815009514
0.5092031364164447
0.621287185085019
-0.1285802931696269
-0.34987512531446396
0.5832197912431875
0.4177691664958735
0.11704232786584609
-0.932374916937377
0.5683962721788318
-0.36822889241320667
-0.775010326146449
0.5774237118852091
0.6137528570669206
-0.15987290178765415
0.23251359747814618
-0.7405441818831302
0.35963393004123395
0.23192441936733016
-0.9887441598264518
0.3083008386948238
0.1782352476825941
0.34563605896841637
0.018468184086351074
0.06478013248240432
-0.2920739124699364
0.10781251622861673
-0.3127054942230014
-0.5702947127835802
0.022543063183046566
0.25367520898946405
0.25987969653195325
-0.2024375813824168
-0.3697746642380271
-0.1867932044644026
-0.15164475517928278
0.3783591795230878
-0.4184839174095477
0.5095526084412896
0.17040218798360887
-0.38449031131240824
-0.21892062277987576
-0.3964302999468834
-0.4599025503279166
-0.03235697868955863
0.27775799815984514
-0.0470197369308888
0.18715142891522113
-0.9072809043861908
0.17335932772246967
0.17821463040579127
-0.11019117415134325
-0.53196913148029
-0.8799891595874411
0.43054254989056157
-0.048396755198376856
0.027285991522104446
0.3824055921688026
-0.33906390274654846
0.030122935093061316
0.4901864723835551
-0.5934766653983817
0.2695299381433942
0.21156381951641431
-0.5418611006625774
0.7051412516213503
-0.1278636391609645
-0.5720219123035106
-0.015457648092668553
-0.24686564396960803
-0.19509129192916
0.25851977296767276
-0.023834763433653074
0.6470539228281901
-0.3796548020815815
-0.7185859939557809
0.11626376279677758
-0.274749871310206
0.0035635325244843686
-0.7370715501690095
-0.0435465320444153
-0.04520338116671234
0.2180205123868722
-0.09701896234369253
0.5116118479241984
0.08694913569092924
0.22197548516169394
0.33244657119922266
0.29877692241874115
0.23837466221461795
0.6680472444918696
-0.1426483548946451
0.712255205932152
-0.1370908084391205
0.8118352436810244
-0.03453203601513063
-0.043213986916192514
-0.10186415066867764
0.35987149005501945
-0.11322049776357926
0.08031915620315966
-0.07252822011673418
-0.045515280588188496
-0.0015444622646198975
-0.9258913433690044
0.03911337461966207
-0.07507458441899806
-0.11280972684195527
0.29579740492158574
0.8753283416367172
0.37526513514548704
-0.47579183967602345
0.05466760704125247
-0.1343398133955629
-0.19939313735098058
0.44381769313075775
-0.39593314860104006
-0.7314774662448862
0.15855706338466974
0.7937195421539665
-0.2377556958862685
0.5953525177216952
-0.5156699381427842
-0.8334808815222339
-0.49083010577910235
-0.5229128690871825
-0.13720287812427776
0.17922530563623287
0.1687833291204084
0.19044938922778684
-0.09598959191083285
-0.17194427266804524
-0.37115195159823133
-0.48013735320270245
0.08239068500848257
0.3347064356209415
-0.1678331967337804
0.337225562915372
-0.10534666653927507
0.506503375001465
-0.5935425776565593
0.3036546218405924
0.9814411224250491
-0.19926441338138023
-0.17825555811538213
-0.9321839064290977
-0.4493814965553001
-0.6268638705492294
0.17208091116902707
-0.2562899078284492
0.1496686562300492
0.06406504094255026
-0.15690512695070258
-0.6608780482740754
-0.06788327008083186
-0.2691715536236238
0.0056813062970856795
0.48201015805302955
-0.6690823443447401
0.033438157080290326
-0.13053899523204535
-0.1516332527081775
-0.22169663569574766
-0.7023041773695108
0.8095161153210875
-0.11333949090016736
-0.2171379221153674
-0.9022671925302187
-0.33274709997807983
0.24061153151423628
0.7446864850386362
1.2413779823777102
-0.3531063564393311
0.4781854166280445
0.03540574225203987
0.19856885212636247
0.17600547559555138
0.21814443632435096
-0.3855196419149335
-0.32682598212122843
0.13843226230735906
-0.40840513852947535
0.3710966015219647
0.48427062970062673
-0.23055753973286405
0.10177155180742263
-0.8540814199006018
-0.4224135490587975
0.3397130459156915
0.08888848288874274
0.38577825521138437
-0.4340337118205059
0.0005911418177929051
0.3781956452969715
0.38248744536426005
0.4935098721107492
-0.2636121105798019
0.03908708238856353
0.48867441401761713
0.6527521477697366
0.09494794977416353
-0.03738600133497271
0.4288960100657382
-0.23360264535298253
0.8874841119265229
0.7646631062713435
0.31186809695800943
0.5018994545187184
-0.35730038690158733
-0.26652368082915284
-0.06072568297479296
0.6317569780445217
-0.09939318876583074
-0.08305365094708209
0.20275931810029119
0.32573204355457097
-0.47863304388029565
0.06583718975305072
0.504611422224865
-0.23060616157356734
-0.2630006911669781
-0.19321795912768316
-0.15427752610870288
0.25942599993942217
-0.6060341239329802
-0.33278023864840717
0.10422044809055943
-0.04583325937915453
0.0977741393635874
0.28033546583035407
0.20866693571275333
-0.09792795953351717
0.26109801743773636
0.5445015720231976
-0.042258127183951076
-0.30563589139589953
0.23016948700370254
0.3989832402774759
-0.17642945675699406
0.09748226168254452
0.2589965509840748
0.44134002600809963
-0.4076123271325031
0.5735917154444616
0.21696363902255256
-0.602210224097038
-0.5418517309840347
0.3668283402942652
-0.3330237155033195
0.5734149892499304
-0.04688185618833302
0.5894668030526294
0.03747794099030577
-0.36856719681273725
-0.22743411027092914
0.34908781594395616
-0.7831118309213536
-0.49318093055565443
0.7136154140034915
0.2615700437754969
-0.4800499435480784
0.540051245416061
0.056341463222523556
0.1425015594724718
0.0031723483890455165
0.010967158728465041
0.338267291686326
0.04308077757533546
0.414857234306917
-0.4296987479245422
0.4227268539630605
-0.28293626302766817
0.275280969323522
0.1274245140675362
-0.4856046878776544
0.2682302600368688
0.08647258763730363
-0.48211085562613715
0.22609452586910567
-0.18542007115902584
0.3499353610857339
0.1433109498155578
0.41204531283183626
0.4603990696926172
0.07109969960422147
0.0020531816937331302
-0.4238305128352314
-0.05601334591799339
-0.4201142468850347
-0.21320355893807919
-0.1923309860356304
-0.1514669842046198
0.15734702103379986
0.1368166650755056
-0.5703952029285851
0.13909057762306304
0.4104685841286037
0.20109055571432716
0.009727818669039911
0.9535770595088767
-0.4577755180905197
0.8112045958647544
0.579668598129266
0.27588870849941494
0.22965456815503207
-0.2095172636418982
-0.2812072214044452
-0.5003611985842622
-0.2128513074242954
-0.43752026334232397
0.015346597058594806
-0.04678344955389476
-0.18293895604298469
0.05366940148358637
-0.18955688526267395
-0.14551590355566354
-0.19402720974195842
-0.4106948838571259
0.22030259347088443
-0.24174342817181918
-0.5710484148304384
-0.35505075674861986
-0.16719018619434595
-0.5681668150995082
-0.6299625216885653
-0.22007894219111218
-0.5432650232766453
0.6426147506641118
-0.35420488162501323
0.5655731705862286
-0.20494488944170575
-0.12779706761152101
0.27490766790295096
-0.5537784620378864
-0.5391818326551102
-0.4538225018333003
0.30594482446422055
-0.6192594592804216
-0.4084093542080291
0.660529426198461
0.18490561087985677
-0.1796983030423207
0.032397220931514335
0.7970700600856653
-0.06029010311240169
-0.2787271766080309
-0.7113460639013763
-0.1979038984230734
0.3332107015215295
0.11634954180106064
0.16665085137613453
0.2180079468037937
-0.6220901103276221
-0.16611074288974756
0.3360577917282777
-0.17974257418524053
0.3274621173915779
-0.48185998342004466
0.4238330797869101
-0.3797930386163213
-0.38122915599560786
-0.10920889539030317
0.5034057285108918
-0.2795731574194888
-0.14028516850315906
-0.36521930822944093
0.21073245366183851
0.03045280883755144
-0.6562101701182377
-0.25510040086166197
-0.9192776282771248
0.5359446713584657
-0.08984690931758031
0.3998771221163495
-0.13750391675327234
-0.6845975116610113
0.3737578264288702
0.20242151348060158
-0.7253067651648517
-0.014561862181210462
-0.9953961214406959
-0.7102518075361006
0.795846196461291
-0.5660011971543136
0.4016369939133677
0.4426106408012407
0.017667159494620558
-0.6015102852466441
-0.5189080235016352
0.17654939171426182
-0.6185828187763672
-0.0914164986832015
-0.5629798651882696
0.10661329000299685
-0.046537827765112914
0.275036145990187
-0.3212212137074014
-0.5916652810196968
-0.7010561537136427
-0.004430704926204872
0.4202820093533659
-0.5813525205160728
-0.18701760880415105
0.38311962486349954
0.313031730997528
-0.32055282835705823
-0.19416874287984745
-0.056768554016191394
-0.5103271962482011
0.10811731286325502
0.0954440264533012
0.5240143664647542
0.09971347900775933
0.5312774578113463
0.47089353224825997
-0.31361095444479187
-0.28036878049136865
0.596259684887668
0.2827226738867117
-0.8769527288092146
0.31076863304936536
0.17874152923965794
0.5257512420166317
-0.27183076500177616
0.37583099236775325
0.5157351516890563
-0.49660280811345914
-0.11380422762954767
0.24995821946920646
0.10992300113116635
-0.06175133658198351
0.4305364866546705
-0.6483458472318371
0.05824439054592695
0.40906567294543233
0.656861667847408
0.7033823188810657
-0.8902956274506294
-0.7676144006433872
-0.6184969424241545
0.002998570105389064
0.07601698275522376
0.6696799985701434
0.22823887580792862
-0.5455008194989982
-0.3829088337846241
-0.33767093649367247
0.3383663332198984
-0.09769019321579285
-0.07968225724584228
-0.360555802953822
0.057231217241269804
0.3668108452088562
-0.4512298101879745
-0.5118986691405181
-0.3009578918124152
-0.10524677284181494
-0.17990094433095424
0.5421295851031978
0.41141608679149216
0.20827060606621375
0.48593643266325953
0.3905937342484929
-0.19155780129486755
0.5106302265313241
-0.3911757224383105
-0.34670509127964305
0.45160650375517825
0.07303279477844098
0.012762978256106259
-0.12852736670978018
-0.35284979362264524
0.16839935793972885
0.7406760551280229
0.2548985526317731
-0.3579576699110735
0.05188751577851959
-0.22383081011167077
0.2603773956255447
-0.21331411982966156
-0.456357262778835
-0.3038924964684031
-0.029030554036887007
-0.5680385772666273
-0.07467040585201352
0.0015818870984579839
-0.254940612056721
0.4408423018561187
0.37889031066787343
-0.3373223257001287
-0.0668502998090924
0.1630916194509586
-0.3067543382489034
-0.08835638058073118
0.1248979917534871
-0.1256513194661926
0.453160832825234
-0.19302795229293365
-0.31505586854666884
-0.3313973382315193
0.10434755820894123
-0.7941573533299202
0.7458778126034094
-0.22469763181367808
0.10469046511728296
0.2564870199233666
0.04536257022405681
-0.07454962733658158
-0.21698033446671577
0.19005138877584737
-0.4646202038750206
0.32533174680813925
0.09814687992893924
-0.4272409541648008
0.05204830509272273
0.28636052195937745
0.21077890711042477
0.1118581412907828
-0.42083571902764205
0.3439196970804821
0.49181591076901454
0.7919989950427744
0.3650769943386966
0.317971876044781
0.16445019133742428
-0.4573006755427023
-0.37547598289116524
0.29404660924171727
-0.3035572632240629
-0.34753492011050363
-0.5874505518954145
0.18320975874751255
0.713683656786704
0.7321268488408772
-0.13107664546745657
0.41147540062037785
0.21976273317645678
0.06033563202209872
0.6500751894594505
0.09818249292695387
-0.2024976185220576
-0.40132101738287257
0.5732871176792221
0.27096576831692376
0.5623109357128779
0.06585816791958632
0.118151837469048
0.3738547191760567
1.0646481433497514
0.5705439480458009
0.005008967559586631
0.2924615634367937
-0.23168468409286186
0.15801046297220656
-0.026562055288350744
-0.45179076307488303
0.1904909947152663
0.21830042757284046
0.33382213929481097
-0.253510698531012
-0.18316163680662462
0.028917454998127787
-0.3211891198101262
-0.017399206056257926
-0.26117125759187804
0.5130937021542515
-0.36157419341554226
0.4087551595164246
0.2464545265000241
0.4875975238423695
-0.28043788238398276
0.060791180119809926
-0.6876786173359618
0.5005600993868922
-0.5777916248075426
-0.7080430906849099
-0.0806312827548835
0.37039547871792183
-0.017197560521848315
-0.249786453846137
-0.4455133895876516
-0.19841029646948732
-0.20779860802779446
0.3534613756990916
0.15343105272444113
-0.4143325479245026
-0.4685516715632062
0.29018770455524473
0.6826502943432333
-0.08699625795588678
0.8704151061827816
-0.09267821860810323
0.0171496575335352
0.31871619553326713
0.5263789197287585
-0.14364204139460876
0.13445150034953363
-1.0074192344740935
-0.02082599734188855
-0.715015032869695
0.5826539822378827
0.693808339306427
0.4105028029016781
-0.07428199814512682
0.23224949651150703
-0.30889570052360327
0.7720095347920635
0.6579646168930076
0.7326172656172235
0.1012282855619803
0.5372744761468556
0.07867226583130832
0.0185279170910788
1.1293498785833804
-0.7359707945594154
-0.21693931171938968
-0.059797169347306695
0.3066356791656225
0.11731107809026708
0.5321669177139075
0.6535952825512608
0.015795805392183244
-0.20571745565103652
-0.44268017589484115
0.2983728256908567
0.43848633822613936
-0.06845131227613144
-0.12903626916861374
-0.21754376727526983
-0.5686661713009173
-0.006584375216929192
0.6710044186688019
-0.3788532793556289
0.19192695160277293
0.836534130675949
0.19620374576132996
-0.5010289810780046
0.034903026309684324
-0.3897278742383675
-0.012922123395528565
-0.0489903096846851
-0.04810044287041631
0.10912761623615945
0.1954637505657455
0.40079116037460516
0.16622348635625844
-0.5362744299581196
-0.33454666442799996
-0.31055103448709725
-0.2190217440132029
-0.3929947935872505
-0.420354394375062
0.09065580819086407
0.5115939117653142
-0.2712890957764201
-0.762062199419442
0.24740652273163974
0.08796213389406292
-0.022246744910636614
0.07864348950426103
-0.1273224768594059
0.5073333542497864
-0.3703982836744459
-0.5289161352366621
0.01748927948570472
0.12947822482612215
0.10359777214844389
0.2786709705534715
-0.8382825532658474
-0.24196783567991464
0.45081929945150945
-0.22782712064142788
0.5698943930805169
0.0025716505207585977
0.42737083753023547
-0.3793680209809238
0.8542555149794965
-0.21512077158761783
0.2429899561197804
0.3819090968049079
0.06910348142013797
-0.15346069023520806
0.1345539854873835
-0.20891880591637296
-0.32637926991039873
-0.025907825463524197
0.0653319073286114
-0.015368021139260604
0.35626778241638457
-0.22006610007511213
-0.8572937179934588
0.39619171197818276
-0.1333197164664922
0.23899291432235792
0.5775633290736484
-0.6839334910272743
0.19260560738268387
-0.415789598031924
-0.13846498598103416
0.6968927657137223
0.20939719139402366
-0.12387593481242755
0.7929239198593246
0.022899443671602696
0.1618815675423754
0.18380524900241538
-0.2946985641458588
-0.13619517652198715
0.28124291675867563
0.09716462017546396
0.1284147734234287
0.16194394075988489
0.25814155358777435
-0.23170947092466154
-0.0819159679137949
-0.10087884491799798
-0.13312799237731418
-0.6077290807166691
0.5488177629171487
0.21997899414829608
-0.6226744697799924
-0.2730742887085989
-0.3865002919746934
0.919390901853537
0.3456277422060425
0.5507122401998035
-0.23109304104548903
-0.3692843075960984
-0.5884368626057402
-0.4753753427708191
0.24713271966366993
-0.5217895940418835
0.07361725900101904
0.3149010778133027
-0.6054274105031887
-0.08095190704122071
0.38166482625764064
0.6882768418531883
0.029902373571586826
-0.22042785130814244
0.8909776973928912
-0.39081422612035477
0.06486700619955052
-0.5220211512369766
0.23638432407204987
0.4732816379865429
-0.037531033183528406
-0.06474558332671161
-0.20934792510025327
0.3431259682759469
-0.27758558457218296
0.7042340951117816
-0.49080546972625316
-0.2038607415705387
-0.18741249882812178
0.3459762873968835
-0.1461346226110765
0.07466592182962194
-0.23793490124544792
-1.0267823221726171
-0.0951434916592911
0.30315533127176764
-0.10940810535816739
-0.12275342818118064
0.050169668452820684
0.13859945724892908
0.06475820738042536
0.2498448915833052
0.5740820290371798
0.6984646913246759
0.2694237847406316
-0.6488708643842014
-0.17459388642307866
0.20933499797503077
-0.6496713004057003
0.06624962795331787
-0.3282002610181488
-0.14888793253239557
0.10819463210952628
0.3079270457626372
-0.5054400668003654
-0.0606356593449229
-0.2889746981348188
-0.850554426393836
1.159236626744718
0.06913603180613245
-0.2818608257287068
0.574467898044229
0.22115522269204935
-0.0992883302786957
-0.17742984693354566
-0.7340617329740943
-0.31827557213256424
-0.4390901785425178
0.16492037486758446
-0.3587674537423602
-0.3681013409242015
0.644636611811327
0.2244741755511139
0.03956022099612542
0.1408866675863666
-0.03607981011559391
-0.04950833536105698
-0.2733329063707701
-0.5690099605571044
-0.40613765235718896
0.19169786314326864
0.524340277268504
-0.038468713018311666
0.29417711883242736
0.1691885499114408
-0.3767809682669261
0.3287231221208646
-0.48765639603279826
-0.5650794127294962
-0.1693457281026089
0.24336566364761072
-0.21326118614591494
-0.446141990591154
0.37955651979933985
-0.2049727264495349
0.07069830757686593
0.0653969806395252
-0.2490391336642701
-0.7106146026088166
0.526951017234605
0.35098311346919137
-0.28476321789954295
0.24098885048101854
-0.2695337048365135
-0.24863425517048923
-0.6255194498810751
-0.28687487306292975
0.04176195032092544
-0.5058660918060094
0.4155226194057583
0.3009363108489184
0.32577705580965655
-0.09038374129311161
0.8689970742710812
-0.010238090260189769
0.28232599803201847
-0.5600658013412062
-0.6025469672920768
-0.13200437657991235
0.9289448208580231
0.4143136385887149
-0.2598843561586967
-0.4624806103510702
-0.6480721010994434
0.1797925054941709
0.2142507475505005
-0.7685044778704493
0.1803867659517137
-0.41908438055611313
-0.37458177301827617
-0.6437328478083537
-0.16893493561956957
0.4664375641859476
-0.3104357108317716
-0.2533175174757457
0.24719737391358373
-0.33351234601245483
0.7868793587702464
-0.021324275554341608
0.35473410590387844
0.09390879171724265
-0.1638961042471798
0.21231350947949
-0.08585694439431532
0.1479767467503576
-0.2687238393321957
-0.4704990087774675
-0.008741550498439603
-0.4861666942880126
-0.0120143278291213
-0.3645981959647646
0.4697155961960479
0.021590423138481078
-0.13594793201758365
-0.061700484921885713
0.4039588239797843
0.36415344674026434
-0.04487047378632374
-0.2835897536806246
-0.23258530688003629
-0.38660995542647275
0.3524462252673412
-0.12951562446100845
-0.15374551326328675
0.13238802989983733
0.6058550120692207
-0.49422985170647143
0.7064983060513198
0.27176173090902067
-0.4007489966778633
0.4845299333164126
0.2713856456517434
0.03763691254451441
-0.15819826233453127
0.7233652502068474
0.27979992221959793
-0.6948710411715069
-0.30547539162712495
-0.37081900362014936
0.6377470722808647
-0.6073373914769489
-0.7211848962593632
0.17120037226279483
0.035517781242257206
-0.7297705196617724
0.20010342540203005
-0.4007945576999651
0.4052573013405839
0.5924549382618752
0.16702688487969314
0.08277105350190768
-0.6485998776438243
0.31887805592258356
0.11011575772814203
-0.9227787404783517
-0.017117450984729693
-0.2564206444953781
0.24005189891189097
-0.06274697341008352
0.31447742799057427
-0.5326998897751672
0.02830008738198146
-1.1284206231483331
-0.027765802212535474
0.11913722010131929
-0.4657615946003657
0.5483843777850748
-0.5213819441712507
-0.3687777278474406
0.6993621454340541
0.5806363089434682
-0.37199970478831407
-0.20923275766106947
-0.08056841416027506
0.47739881547474444
-0.07506754999006209
0.14734266434197743
0.34370675680049356
0.0037433236832665083
0.29834906537725814
0.14265416451137652
-0.03370038667812621
0.2719990344299567
-0.6797479512077903
-0.23133710553475595
-0.27313912587728084
-0.1994793647723662
0.017766406623995364
0.6634606968788934
0.17612403011004654
0.29749023500400856
0.29514130933582183
-0.7195167189065956
0.35582623203530256
1.1372624864350704
-0.12381243690037994
-0.10954036491850999
0.23887013938779822
0.9579467826870817
-0.2683534982931781
-0.19903169722072286
-0.47680018566067983
0.40241619200085027
0.24535796902047557
-0.45052794450707245
0.11629177463176239
1.5424193635228947
-0.47968908157474105
0.40352031840755004
-0.8016395076973566
0.6327554296790261
0.28710089017406615
0.1520304723975467
-0.39412013753416447
0.04864687592197696
-0.021885854356880265
-0.4499395557748343
0.3686534466675025
0.22135272141181173
-0.0351623053157759
-0.10481802545935275
0.4697831395954641
0.026283387406847148
0.33156128910874616
0.46731741183984676
0.26834621205951165
-0.27587561611585587
0.15113253538871335
0.8812766663614533
-0.35442735505701417
-0.7027320321162329
-0.6574726223351403
-0.7595466195045345
0.060263433227912694
0.515402057601943
0.16290432986888637
0.47132791651472383
-0.0195725177818022
-0.2625253749518371
0.3398611534823771
0.19071168433263314
-0.5725478623016963
-0.4230580784086608
-0.3595791168603758
-0.3007744710582051
-0.002671336328266643
-0.546174824293991
-0.23470934489466258
-0.10598976472636693
-0.002363373360462924
-0.6736239218521601
0.41445335536065536
-0.4313155471391236
-0.9048157148515791
0.5660331506680933
-0.3592827056575574
0.17777667784305679
0.018106379035753933
0.6890291851470312
0.37142765065417827
-0.39302081760827184
-0.4772420193747723
0.05223923176596395
1.0502598654528397
-0.5738488489227414
0.10168986996559005
0.016778733169684975
0.6441936421904517
0.42174766536694613
0.005756658034660744
-0.026151710009247934
0.05167230563539246
0.2070464746779896
0.18872424722802716
-0.9949800778549982
-0.41672277063923097
0.3883701188400856
0.3390211317739701
-0.6071313727227965
-0.24115644953587348
-0.05974754849675206
-0.8677386832164222
-0.021882184184969764
-0.1696149303329375
-0.01079693420098779
-0.25243506285528755
-0.10134139620213665
-0.04271679533695227
-0.14469839259626618
-0.15669736120164607
-0.2641070044740546
0.7201092949741146
-0.11155219862725786
0.4415250935417056
-0.13380934355237922
-0.8481327556709035
-0.7484423307418265
0.31849178410295087
-0.17960223074659468
-0.36083722154531095
0.7123242414669088
-0.36114017778703317
-0.08613534043162586
0.6420432013383814
-0.1164983465769871
-0.004085471920029333
-0.34943976610531235
-0.02880320600635875
-0.0194290465877316
0.1841955441020281
-0.1904951872607219
0.024645912605459615
-0.31929339503898707
0.554028643185417
-0.12820836478675435
0.06224299585032836
0.04514269574906313
-0.33514397476781904
0.284349348285313
-0.20164061051923404
0.19068857599160616
-0.35739890361487425
-0.2482784834164877
0.5025173226953648
-0.4031674374932089
-0.5895742096908446
0.12388083621118312
-0.01189861734471125
-0.14948176656646434
0.157721544563035
0.5196944277356983
0.293410216358166
0.13817668864022234
0.2213793851795373
-0.30821261018395785
-0.1491766416805233
0.5033981425929794
-0.18307580317876726
0.28091838706983735
0.28124895040106734
0.4872858137980869
-0.09012566240423293
-0.4561632554963587
0.07872249559492743
-0.36437586508304576
0.8329602002122477
-0.13409420592684318
0.5923258193162986
0.1259452847137261
0.11105807918387212
0.09497830906710525
0.17622235162876823
0.21269420950355566
-0.6808229142935929
0.1142561699964515
-0.686477400756278
0.05310102557975783
0.17860893647484785
0.650585646727484
-0.35851342181233387
-0.2599936313592569
-0.2302552140547842
0.09425473377144768
-0.059102607057790246
-0.6526893953098221
-0.641474541124765
0.055221863382053545
0.1806934825247572
-0.2990771353050013
-0.08471419935407129
-0.09879864820860766
-0.3209933951089486
0.3293125296467758
0.012972323401991493
0.5023992544691501
-0.4023996977180769
0.342846035154225
-0.11140322920904393
0.6913089849799834
0.2500443910934785
0.7672718383565996
-0.444774626344654
-0.5498513511751891
0.4238609912131769
-0.6103282924853702
0.6166425163283359
0.3946884706497685
0.2283772274582431
0.23768853875418725
-0.14622040282625515
0.18500355104907346
0.12923803176771337
-0.4263357237773562
0.49912033353183866
0.08753617214549383
-0.32335291190214166
-0.05602659418135194
0.09512680029365993
-0.2784640143755234
0.32886314976014913
0.08785182898464851
0.2582706413190348
0.019326056580194272
-0.14995575248165552
-0.07674835868998371
0.15019220800990765
-0.8830026406737487
0.04402631444550849
0.10687248934305721
-0.22598456505570375
-0.03811292017245715
-0.3986438656271383
-0.15623707038300652
-0.27851511132172047
0.08193910787595209
0.17885546264199725
0.46207903933023753
0.20485170813933617
-0.37083307306486885
0.37020863401417614
-0.1729638961630965
-0.013254401354283468
-0.004619669414509022
-0.35820264141631025
-0.03155119474540604
0.06481177576261984
0.3363165798786727
-0.08563028767122291
-0.019042759131955248
0.34487047248585
-0.21106813569174857
-0.36856871990175694
-0.4244754999035786
0.6144467923149552
-0.1180158087444623
0.133529347261317
-0.07740080808707799
-0.26092260022820446
0.44771715411362234
0.012766307443650551
-0.10619685462527913
-0.22648789494372712
-0.013618449036989817
-0.648727433332738
-0.2256741865399677
0.4848516806421176
0.18130264256223086
-0.27675276735537113
-0.3372148988696182
0.5139016017953022
-0.5886812701420893
-0.3172733297902324
0.014271104043162099
0.39602993541289355
0.19207751679764293
-0.6432380873715159
0.15932536047437187
0.01627298756364122
0.49307800598844154
-0.3245615471442452
0.40585408521948835
0.21712797915177756
0.19541381310648245
0.14894418705286389
0.1885813130371921
0.19490517996834067
-0.595284393993288
-0.42192405504056757
0.4820066361321391
-0.22664314706332564
0.00542512517539437
0.4173149359523612
-0.05176524578898954
-0.31914481484459717
-0.2468592513832449
0.1003967874414668
0.2333960872468113
0.09718979953979366
-0.06874637256907963
-0.40275531610201853
-0.11774796049075348
-0.5198049207921153
0.5046988450250578
0.04234959007638749
0.6492880202056457
0.3482888211463181
-0.21591646062872544
-0.2779811357492354
-0.0724789062681646
0.1577399681202808
0.22943341392635166
-0.22972715103191904
0.5117496356488426
0.32616241384660083
0.2694043791504126
0.3544052200334604
-0.29853259303596413
-0.23503353550630432
0.6312912959948931
-0.1354967008001537
-0.2584811417981107
-0.15175573223106215
-0.6164465499363955
0.020900843125793815
-0.004169451792041347
-0.74850179217321
0.31090286528711353
-0.37933503684610903
0.21405476618894392
-0.151561360276073
-0.18551074482626925
0.4264299368426805
-0.21765162074017952
-0.19911193016472342
-0.5633429044204578
0.20375637017641324
-0.057345574343745556
-0.12842867385741563
0.4583931032155448
-0.07742900716291967
-0.287145767105984
0.42868181837464314
-0.25401282032607636
0.44628544287137517
0.25094014703979173
0.32638349183648363
0.3976332487193148
-0.1478954072515105
-0.32393509033449397
0.011425393820759806
0.5935393339551537
-0.17304338508477723
-0.06956897109564886
-0.49583609252533345
0.33488337135128976
0.060634302618990985
-0.042920694731449174
0.46010480846675206
0.041691128295053594
-0.2212036823177371
-0.21966460814979896
-0.5161474508931817
-0.23997273190619073
-0.3671912836165235
0.3368061246676468
-0.11082361994129054
0.44170686687383276
-0.28226197915652645
-0.3252059907049775
-0.3834726723487211
-0.3499121274642592
-0.47222966412919815
-0.29936556316300067
-0.35635123636771826
0.28950595722713535
0.7332141558166174
0.033141861572834413
0.18760106089068773
-0.29543197564783014
-0.3915532616618159
-0.2470129727005015
0.6073538095573567
0.36211100733122437
0.01029045063343131
0.7315939816545424
0.610999730730814
0.6471075474990458
0.148947323812492
0.3404595377145673
-0.45936229133428674
-0.19652288063090567
-0.03708610802702621
-0.7999250411323554
-0.4456450224438127
0.2033314643367648
-0.39682443673031303
-0.12466544573236545
0.07232859186431627
0.5883792125447072
-0.4561768560447666
0.32736010897110857
0.061555228341282305
-0.19085131422578228
0.09095474450527206
-0.4222230504466438
-0.197818988421746
-0.37510197498741427
-0.28507787716355903
0.2586093258800416
-0.13650558870964224
-0.26651585975226505
0.0391220061944678
-0.19186971175532214
0.14679056724347928
0.17956167921181043
-0.5664955139791257
-0.3769614667606304
0.3426603962676258
0.0515046597780102
-0.5703970851383097
-0.6721949568881063
0.11085065625334417
-0.17324663334163334
0.30318934711172335
0.1932191717644567
-0.15433050654938585
0.44610133624280907
-0.4100499161687257
1.0223908147786247
0.1132295989687976
0.1754241632241446
0.13422583843805314
0.008333769618582723
0.6267878523812405
0.13164629582087314
-0.6365870199651625
-0.9738851918682029
-0.18713887790599035
-0.5173381307622363
-0.10505830692864933
-0.14226812480786605
-0.6043684636404447
-0.010251655045568077
0.6728558612276386
0.30754346509921293
-0.4957295021699695
-0.8929108384166634
-0.12162952606257117
0.49604450349134016
-0.023399028806258836
-0.9077555015129083
0.35789151853656054
0.21228968484103225
0.059227032491218724
-0.26955140767120667
0.4706909461723515
-0.32831857327109965
-0.3758169949209953
-0.07478994271578787
-0.5895590624852629
0.3228424528466665
0.3375318179567308
0.07011625032891652
0.13360473142462906
-0.45751599713485036
-0.10671263897282912
-0.28524932955941135
-0.7389210499582786
0.16766127709191259
0.5064696532911683
0.5614847652224754
-0.016291081742940403
-0.06380509559543072
0.4878938455505973
0.38512945593540954
-0.31426077597481317
-0.44422405180858493
-0.1095916385051485
-0.027072329448584207
-0.06025837264028655
-0.2251738464301834
-0.11154748518434378
0.9323864802355432
-0.08614781244573695
0.3049835120156481
-0.09705340776247112
-0.27367864760335986
0.4116337530798526
0.567896718688366
-0.0665524304533803
0.24725121708430664
0.497556025894164
0.6348654337030306
-0.2235045960589054
-0.12635376310230803
-0.29270373582352105
-0.0408777163584981
0.12871841134402717
0.5895634534629018
-0.46445856800792873
-0.23299968103084234
1.036719601578761
-0.18743135083692905
-0.024234910208207984
0.2869045565002225
0.03010895576776921
0.5177998892964262
0.14958624106862742
-0.004947327678185938
0.4355425078973946
-0.0340868531648777
-0.4616342681240775
-0.7884832353468384
-0.693442047179678
0.27677612358615467
0.12266048145878204
0.19711990788182632
0.33308897454612163
-0.08507397846192405
-0.49246719297006514
-0.19483153927552538
0.33197452714827036
-0.1415436723338483
0.7048739287319463
0.3626611644742906
0.07257526404249781
1.0249144111187285
-0.08832385453334664
-0.1358719406433522
0.4536522717797527
-0.2151302229574165
-0.11954710710452403
0.17411812679806418
-0.1972823538903021
-0.48601524944166646
0.4166416814376068
-0.623566947327591
0.008156462513313648
0.8835559647303429
0.78021720792944
-0.35549087124264167
-0.09950012259307905
-0.25128455323959464
-0.26602990655609815
-0.1252496937781753
0.2979846787982147
-0.10286573839424852
-0.1507828990096939
-0.41369957624797404
-0.12033710933648917
0.11459288833195769
-0.7417267011853964
0.2755632878188618
0.15598405747115063
0.16392788227722224
-0.2655769408129248
-0.2596292948209662
0.019476155765905747
-0.2418671277469394
-0.28180096587374953
-0.8300155868412387
0.11375959724319618
-0.08354984256114821
-0.502443172790702
0.029111650809363787
0.00818318762481749
0.19077651830423617
-0.001491723456385909
-0.07758725982940187
0.9048037955655651
0.37327642989079335
-0.36198947612215054
0.05136152546907755
0.37202855302336474
-0.8684093326877277
0.29513723488846905
-0.3541062373371017
-0.6443287768586209
-0.6601918835633335
-1.261459036405482
-0.31118096293881703
-0.9458847407547195
0.6393600378793165
-0.5482143162112391
0.2625374168520337
-0.40026758276386465
0.3669210031718369
-0.6536911336920647
0.3190555567435467
-0.7204855713689164
0.23287105090001392
-0.05276644140541692
-0.028388850370853105
0.10349854735699182
0.11061596813659913
0.23879699082637035
-0.19431767068627395
0.2947421819749055
0.19889621852959263
0.061643236764730214
-1.1195686648910588
-0.18216961716304775
0.21053211587676895
0.5848004761490921
0.027660607784247164
-0.09492344344361066
-0.18166525826610444
-0.46338108557930385
0.2604275447358414
-0.5710891421215895
0.17059273230929123
0.5806187988752501
-0.22706235196794436
-0.32657421571286954
0.027287670287869367
-0.5155926983688232
0.2543431076546446
0.5799604399646524
0.5806170023826595
-0.2584235321367433
-0.40670616177160673
-0.14915782055040702
-0.568049877843184
-0.1742408372859101
0.19800303113518009
0.06710112125590166
-0.430237497584834
-0.17200134062684924
0.40161759940915787
0.6148211253085689
0.22069603244512997
-0.16379790571362432
-0.5833179910697749
-0.1316793343716068
-0.2052075919717326
0.8539598844839956
0.1231129632301839
-0.0837724648697123
-0.04814549630036229
0.07495428271434351
0.342761568065295
-0.058276068113256
0.0704723194901037
-0.024661484721730142
0.6360925248191637
0.6390177694260009
0.20018235875415355
-0.648801028300118
0.27531968452680555
-0.045550234637705744
0.35685525700915716
0.41048339459834265
-0.2248487063124606
-0.7170520345388837
0.37103944525703253
-0.4525298916994471
0.3934551501335478
0.10954770262681066
-0.2919591678158395
0.2831179064485447
0.02475887677049333
0.5957273426465889
0.5679911862568544
-0.43335511834031226
-0.9032922330584139
-0.2030112929406265
0.7654645540743614
0.07091405208412177
-0.11909299654819494
0.21815820538982242
-0.4553180128744259
-0.21669700462214633
0.2889103570171371
-0.3353148703235986
-0.3136652483657401
0.40689336716132724
-0.39922725417868404
-0.6678903157749488
0.3599612580958274
1.1160525419414074
0.5812000208914934
0.32440791077045333
-0.11097588067344208
0.616569465644352
0.20279659099402536
-0.2827583474279938
0.23246328069550795
0.5377742807409501
0.6979024111287381
0.06359740727377293
0.13425617921409505
-0.05583240630489127
0.2987611376361902
-0.014245098035686202
-0.3278794173459721
-0.17631030838047454
0.5661754085714413
-0.16368302595128073
-0.6506984961013053
-0.15411379894872101
0.6095702610141198
-0.8504639190477161
0.03380927134161537
0.47986869874601074
-0.36099806109554833
0.5854378560944792
-0.15518142985663191
-0.621613989244902
-0.5216084255849541
-0.23702449326359334
-0.0027816066222585123
-0.5969583283870302
0.2879822068086397
-0.0944060696292713
-0.5047795645366214
0.4476732002637726
0.5470645722976458
-0.6272193946596645
0.1587263602513653
-0.11499286632799206
-0.08170767057837204
-0.12725503996748797
0.7072543542206838
-0.2397739833581376
-0.7188617406865077
0.31638604028419515
0.10934876966884119
-0.47993944055703713
-0.3244022761360314
0.06356293396870566
-0.1708344909595536
0.01052454471662838
-0.22385161126897601
0.16401745016752625
-0.8739633519465446
-0.5728991371427978
0.11941958900040406
-0.2894009957015872
0.00563417376654901
-0.32776422752645823
0.07641272900883059
-0.6137317241890125
0.32346460165907903
0.19476183226960542
-0.4515331319244716
-0.2284815284390632
-0.5452039339063421
-0.1156265514430493
-0.19137984617356263
-0.3868845158110242
-0.16858439716164395
0.3016892780307459
-0.6401752228709279
-0.10345197348011038
-0.5177963467436467
0.16126223438737922
0.7241646622191527
-0.32826007614467073
-0.28712840365670067
-0.37063461749752263
0.1430685414760422
-0.43068613787009674
0.24554211787704278
-0.2259646936419933
0.2015935747812728
0.37472459951446946
-0.14981620204795826
0.14169120375814948
0.4997418938819382
0.28075205828436717
-0.3406588486330263
0.424316292585844
0.22425146314773592
-0.1762393924597077
0.38869715757778006
0.7718676267311303
0.09118632028609429
-0.09731933555311614
-0.02216810878389007
0.1429133557728193
-0.20459661851142394
-0.13556941948194023
-0.49301696073918216
0.07208174432605963
0.2845350801805481
0.3794797778768098
0.328962169498005
0.12970871065308584
0.35981192556197505
-0.21069890973132702
-0.6385016275832923
-0.10018504170274975
0.40300079285986196
0.46204999018557946
0.43162392704380376
-0.14412523764598148
-0.6935238569158639
0.3061515158499046
1.0869046177003128
-0.2339985554942107
0.21220827751949062
-0.8249456682164051
0.5631254808682388
0.02211207364235996
-0.14627467309657627
-0.20543027424038793
0.24029497008508496
0.0570166959775044
-0.7072321937415884
-0.7604322894777333
0.307844474865286
-0.04752104804276492
0.49657628442776747
0.01010779896063858
0.6577018772384565
0.5443735097596009
0.23908843149159767
-0.11481480140841092
0.10638361228622058
-0.22082039871595804
0.09277444377027541
-0.12477803856160247
-0.9850429837924145
-0.6123473028766436
-0.37189790518219634
-0.2999010762524716
-0.09744040817707565
0.2743137203920194
-0.24182511941170753
-0.3127519292439454
0.24134729082494336
0.3420685830465423
-0.04497954114522353
-0.7291336289443121
-0.2869310127529395
0.5664040630936173
0.1618662651063468
0.07697699334953378
-0.04256827415171066
-0.5460662710056762
-0.13832061359167316
-0.34417435504103133
-0.6293443813838476
-0.8418163446255825
-0.2005328357854354
0.1164543854744657
1.1432419222488601
0.00746778599106858
-0.25501258126161447
0.6672476937941306
0.2712025563790717
-0.7146566941221415
-0.5617462444864586
0.13341685767710376
0.051839847030384655
-0.10244699326462783
0.6083096748748895
0.3814215469579223
0.729832030758407
0.2303679900490458
-0.09102438142157089
0.0011786359992868856
-0.046128772343719135
0.13659596149358386
0.44930429097044494
-0.29889290980971145
-0.4542319184244446
0.194574188681343
-0.4921131869269219
0.19430219127093062
0.5687291262134568
-0.442023924096492
-0.3037332505788966
1.0222606234491658
0.8712703254200764
0.7535762079646674
0.1577650440840661
-0.6567396380015184
0.022353538546886327
-0.03758807020752363
0.008217295026340459
-0.28266796201070216
-0.017279311293538952
0.2276002464383312
-0.44516912195629343
-0.7584983004353884
-0.2225266965942116
-0.23376345806028598
0.653733541600301
-0.41566544965497243
0.45355775730744263
-0.2932799984547001
0.03167142766454535
-0.5360869428795
0.2616480214728333
-0.2654145857628541
0.41821211791104224
-0.04170115126520477
0.3939718634753959
-0.3318542513537711
0.31775793126768664
0.32963756994064963
0.10552455473744204
0.6200563008057904
0.154875091294733
0.3031036509934149
-0.2875016035769783
0.6638051537439581
-0.5093159161787231
0.5999775649836759
0.2867911442458781
0.41302912731940583
-0.27823059334155537
-0.6595932212736986
0.5078590268365165
-0.1338335444920712
-0.1543972325616048
0.6178689252581379
-0.5988375615200191
-0.06499421040049028
-0.29459033446602373
0.17261796191287768
0.021723675792271788
-0.4476117533230585
-0.4286565120497622
0.42293050619812395
0.08192415047937908
0.21334086743283842
-0.050349569348644596
0.003895292695426909
-0.03725493087145603
-0.1150886440757633
-0.24047568363472532
-0.9503748625744254
0.15571180765926315
0.08188916466045124
-0.1371734856068134
-0.008096052194047116
-0.27671028166366735
0.08955564958460165
0.5771161736177031
-0.2616761041729008
-0.17888866786020083
-0.7072883407562894
-0.32293053643440994
0.45089445001141965
0.40508666970944385
-0.33227434879591
0.3619360415815767
0.14983125076877982
-1.1868361852621008
0.0053351691473249125
0.015449636476741066
0.02245463087183296
0.1363952403270152
-0.2687374491979225
0.17161902867321327
-0.22278865861237485
-0.4402588231742333
-0.5016061640241838
-0.8035529545719503
0.370214246131497
0.018951919646228083
-0.017877656729252563
0.6699740871571638
-0.3210255478683952
-0.1960115287091672
-0.7089270007556804
0.8994215424123386
-0.10282112604155208
0.042003429920622275
0.10869852243974064
0.26332220871830764
-0.1436640482634749
0.4286447866847867
-0.5147307630578628
-0.4529923497547191
0.2499570633666884
-0.2866177655951933
-0.0009220844479263489
0.6128569642050167
0.020016203260896846
-0.24230796394885326
0.09574783210846247
0.7151727241248477
-0.11090741840842025
-0.18002813945398105
0.1741291806290696
-0.15485724048324337
-0.10533343510566319
-0.6986994066145783
-0.7305094848721163
-0.0037684390338546788
0.45018778747223076
-0.02613629581358802
0.10003223593904312
-0.9326177745937185
-0.5316545582063931
0.06989395439965762
-0.39170058662568585
0.3503613001625345
1.0617405188872437
-0.28446143908282945
0.13331156087309032
0.7691164485080004
0.6729215300168183
0.19356701202313878
-0.5067759532261071
0.5594425645410845
0.15269914255982636
0.16542779432912738
-0.5363628424100644
1.33620860034829
0.04426505461396868
-0.10925923964764186
-0.2656846115394053
0.44549600190835664
0.1448214974430096
0.08174062972089138
0.18172370257333725
-0.3440954876659957
0.42203142107899844
-0.32646210297737943
-0.2871110703528922
-0.03948332076282274
-0.10340735062086963
0.32411712119829794
0.6812158593446946
0.14402802526613065
0.9478650570036918
-0.221198364398149
0.4738511113877009
-0.1508975594102032
-0.7450295274589169
-0.06411591590596448
-0.2920745810355326
0.1298285572088391
-0.07267115049831409
0.12301443655982862
0.5386638845959343
0.28630102874917346
-0.05566019196265842
0.2297887557968608
0.5619401310261265
0.4075589110913972
-0.2684634814247843
-0.167330479865072
-0.17730687157392677
-0.5224690647928046
0.5624738457784489
-0.5147339477096088
0.4366603151663881
-0.8417455834785786
0.7055024901288921
0.18240355558318477
-0.15277236116962503
-0.22477315541997409
-0.39759915584020605
-0.01115949142545492
-0.48615809972223173
0.07464937798064883
0.16971893724788117
-0.5590435455323504
0.06723649820020929
0.09267954915412432
-0.10694818708821893
0.003647341960396492
0.569927383727389
-0.4822911188175382
-0.8701597178566702
-0.34950995771671234
0.04190058154445227
-0.36803964480224277
-0.10442488573754356
-0.5086737664969866
-0.36533724551355096
0.526607216222841
-0.9745497660018172
-0.1106253854693929
0.012457686528912366
-0.2704983314752487
0.5074939440394892
0.630828498629459
0.4408977934791832
0.47505717249418977
-0.2077287291153642
0.15106223598958582
-0.3469253783281428
0.5205364118896526
0.11338358784666756
-0.5015508273133061
-0.20033725425343976
0.059476493807262894
0.39807076833456195
0.20835455122145402
0.06054541241645074
-0.2733425459150002
0.24186433419494277
-0.14686742864752006
-0.8307944237036794
-0.10614426359912284
-0.27168646528533713
-0.5962377986542695
-0.1776370950479348
0.5935240161434105
0.10572054066690353
0.15226714462036717
-0.5595227189035141
0.05349019449180178
0.11836693945276565
0.039199849849450935
-0.40355295997429463
0.6570344923445693
0.011794569263677624
-0.01974102527612879
-0.332992885107224
0.058340884152582255
0.3371018122336165
0.2618706971490368
0.4095002184787047
0.6476814564980313
-0.28987634826756625
-0.16281870139184468
0.8542329151893043
-0.021318575525908046
0.33565505938629703
-0.2973014701341828
-0.06725681102420179
-0.19936623722904698
0.5458052768787164
-0.007518361321235904
0.19041602497866528
-0.08094886442324989
0.21143071542178005
0.1614727214060042
0.44630660322934584
-0.034411082325665046
0.6165611000297961
-0.33242357457807353
0.32580937280717864
0.0661180495673188
0.08870306439790093
-0.32479293188640584
0.4009072938426841
-0.39570273438043563
-0.46671090079043104
-0.16671143038472055
0.3608866504257744
-0.33638039821359644
0.04518887454949309
-0.1078235556119458
-0.3511393681262115
0.14377255099772884
-0.1523251520127555
-0.33150082706677064
-0.42007284040233017
-0.12007414777974908
0.13615284918530798
0.4717973212264415
-0.23730995362669607
0.26005941949798095
0.1718105496850668
0.24842645899746385
0.38627140266180693
-0.6643262140300698
-0.22377159812460207
-0.155746870423252
0.10993692251983808
0.9847872861324871
-0.051037831417812075
-0.6794835559877818
0.1416515528730259
0.730902703220466
0.38280864153531935
0.4389717410047508
0.617685854719782
-0.10064886356568202
-0.750246450562797
0.03949081775068373
-0.7348141807689256
0.5152041842469585
1.0560878128172808
0.7655361510194437
0.10704296197001086
0.3816993445461335
0.4332037094277678
0.4466528704539059
-0.38551011681372493
0.3591025623882558
0.062434206959179485
-0.3022064073457204
-0.09797395527179495
0.1878195495057239
0.29137788606339216
-0.3284445516834343
-0.2584312540566414
0.3647237338681096
-0.1259826919520275
-0.09169681838449598
0.5224600648423914
-0.42258468103881575
-0.22887812191285478
-0.017878363538568757
0.6555501017527342
-0.42547165682966204
0.179703991398319
-0.06961163225642877
0.02635838554343023
0.5613222226945933
-0.27900523953705536
-0.14825647620329813
0.19765096138716323
0.25468302918260105
0.1013367672396492
0.06870203966742397
0.12002658444379942
0.301186038684608
-0.40985856927788716
-0.45918475931601194
0.5255021020446022
-0.7405592850714726
0.43006989127326767
0.7836417579497081
0.383375854508246
0.39903568701161246
-0.8651598558780587
0.08551523819266611
-0.21926115823256281
0.8353933504967622
-0.1847962731725809
-0.28091368033234493
-0.8082634593123352
0.5141456662824945
0.25118383941260325
0.3406573621044678
0.7139268289822028
-0.3606301114779733
-0.34157535617046325
-1.0829023939533229
-0.3606704800546918
0.008054787826334835
0.17749545133515632
-0.22977151850718935
0.25164557017606903
-0.13845097035314524
0.24349190014220867
0.6212886649525784
-0.34564460887715637
-0.06298275227033666
-0.1215093250250252
-0.3914697401196655
-0.30179531807092674
-0.34286313201047197
-0.024898011691287976
-0.8599870002940188
-0.4877377720685681
0.6390043092672998
0.07573110226967504
-0.0672368346825559
-0.2304958933283256
0.10953035980482605
-0.2103930233711221
0.2624086285165755
-0.31396389608798886
0.49919079425149104
-0.1365711112368451
-0.08410038934915279
0.15934098828687895
0.28783263816952964
-0.39796234863193736
-0.2087837097935666
-0.4548797106999549
0.31574176876776316
-0.09330606385104437
0.03134045170783457
-0.1831802514322208
0.5450647293790142
0.016490120581796226
0.24905825307967697
-0.6169583347743058
0.1412710788024813
0.964664366862254
0.15454707150250407
-0.3615365229831987
-0.7382928154690148
-0.4729255170240372
-0.17708290123208412
-0.14073745576252775
-0.3493380021335322
0.12260469244068141
0.24718730383031587
-0.3190228024444033
0.21492720088362918
-0.38236216881155577
0.15591206728740956
-0.38097721186786276
0.9275511351720687
-0.33733799798646524
0.1509043220906447
-0.04067464180162963
0.7697165511907554
0.04745003408160028
-0.05251339582620905
-0.67770588141788
-0.3263291437935969
-0.37433182141696675
-0.33677933792134657
-0.05303298422169883
0.47716471669688804
0.20121579107870532
-0.12149419355042618
0.2586506599566799
0.5755104168865485
-0.4403995651127862
-0.4964365548009044
0.15498608514031034
0.10590544570748117
-0.23682965812706855
0.6846287545303678
0.17678109226818758
-0.5980029626535975
0.6940577829917877
-0.029397128409036785
0.6040525698261728
-0.055382636268158834
-0.45733587074246357
0.008879791601609148
-0.21616325515714932
-0.11849938863273131
-0.728277854626016
0.5803982035366271
0.43272563242475987
0.4103790996339092
0.7081180748941347
1.0724700403828882
0.1246237396676072
0.7594785129775825
1.0185449318992477
-0.5797606392338848
0.03667237078224744
0.15678971067125527
0.18556696729526262
0.27067698770261084
-0.04142962811171369
0.4089762869369002
0.3215966885257278
-0.06988576721411886
0.422829012517073
-0.7392014742019931
-0.41888710654394057
-0.47171461492914424
0.8307505419146104
0.29869561513155174
0.34135067420838405
-0.5800878315423181
0.02606637922470255
-0.22658557294184817
-0.08004436152626579
0.2768446683320131
-0.25056558018357994
0.3962422145396157
0.2489790475061905
-0.13578204001128602
-0.126866530703881
0.6672733903172321
0.6005459740892364
0.049697950454860244
0.0196834813099103
0.34022694910491175
0.4802603249976909
0.07931153458030528
-0.058631632922910945
0.013125035741805005
-0.1869007692198486
-0.017745106753227446
0.16035371414885538
0.1342922239402097
-0.0017823945728346095
-0.052281306727399425
-0.227511845858486
0.12260731234882127
0.044558915232371606
0.9715477343741457
0.9227654695652616
0.5669678182042965
-0.32351613109545346
-0.3151766050573179
-0.3224876506700824
0.0728794653778208
0.12336695671184679
0.7956773521307531
0.10094685187597591
-0.8734908099258747
-0.6029856641078195
0.19338192691791753
0.0845215294289101
-0.7120453156289648
-0.6555438237368435
-0.18367458207370654
0.06419980321189768
0.13218704744376286
-0.6001099876237995
-0.18378870461995264
0.08919330819751504
-0.1917609110242142
-0.03781183450234869
-0.2316654021988735
-0.1118172447030334
0.11460754361620402
-0.3385286979282348
0.07715142881083174
-0.36650361048313657
0.5694307801359996
0.06378725624870334
0.11124893884852004
-0.05869790778844184
-0.13950203159140176
-0.25514000332842424
-0.13966553139027452
-0.08261523447911964
-0.5529225288564052
-0.47798895858005697
0.41589595244056027
0.15112281274338496
-0.3943562648827318
-0.12321633168095926
0.06347109928954292
0.17171978038187385
-0.5027702138701479
0.3066401900660264
-0.39496816738325646
-0.6409070584819809
-0.5867560368398191
-0.35471101202194866
-0.6083849361937019
-0.5552871090887704
0.8153136688211534
-0.30652475019156245
-0.49882071764746383
-0.18641613684434713
-0.4418986533874866
-0.22104386928944364
0.13789483144245449
0.82266774789902
0.3626691038008157
-0.05569563735362632
0.3937432229101947
-0.15402458736843538
-0.25160983191781955
0.45388131033947726
0.30581045797048245
-0.36379169870692385
-0.20658270382380078
-0.7549853382469632
0.20196070505727626
-0.07088159411761881
-0.4127929768704377
-0.38970574908224376
0.1739832502389386
-0.45316872685070797
-0.7539187053549891
-0.06002752626465547
-0.3258234283952724
0.21721648077021138
0.31293235937017577
0.4448986089475629
0.2864096353706816
0.20586670085799905
-0.5500799094744707
0.06975417256029486
-0.16935032102592154
-0.7268223546409321
0.11414027683539939
0.5233636505307376
-0.2892085344322526
0.047771584106092856
-0.027929278808278585
-0.6025429772959462
0.41859675331480645
0.44051201131348316
-0.28389433509534584
-0.10496470755533432
-0.02555085396132077
0.3915173323857896
0.10840163233880715
-0.7080262728835311
-0.326108012271821
0.06403238964637878
-0.8699673293112286
0.39192501299947313
-0.39360767629854815
0.027934006517440685
-0.25473661648105456
0.6784176982235061
0.23709925071883875
-0.21301802718216786
-0.9851293505325218
0.06805689197545278
-0.24026786991439308
-0.6022572252879658
0.7874389608318387
-0.11763558237324295
-0.11048035653164669
-0.37987549971740486
0.36690759716371424
-0.7275966338683763
-0.10988957105580369
-0.019980105780657197
0.3131496124374144
-0.17394983268172323
0.005348494981269442
0.47211994773735455
0.4981916583239359
0.019732629034392758
0.5953282901449587
0.009641039059104416
-0.405184624028715
0.002921233760806682
0.3365796791247797
-0.9260635829176194
-0.40179555698436903
-0.049848819517748916
0.22845145544995413
0.46904845904817516
-0.15830370293179613
-0.3746576843185145
0.35796915513303607
-0.0878287861032046
-0.6336272665773234
0.1888922422510985
-0.7054685422901996
-0.5772164782196391
0.7024933572731306
0.4019014809881842
0.30582106082937893
-0.44401091892756983
-0.1639925449764712
0.20765578058767203
-0.07787296645032472
0.40894983631619647
0.37148643032352313
0.3452613233229332
0.8011053418013103
0.32684225354089985
-0.07157401391289787
-0.021212433384658547
-0.12427387521935228
-0.0529139883158585
0.48589200333717575
0.11738690202239442
0.1177336206092268
-0.319522216026281
0.4912556547497165
0.2902261110637124
-0.41021789533018954
-0.4073613621394107
-0.45461710941144085
0.6493830544179107
-0.28993192006775603
0.3823195128203918
-0.37637848368804205
-0.7560533562609254
1.1644602736159346
-0.1312153655429796
-0.08204662139815916
0.13510940455892173
0.7260633574239147
0.5522451538314717
-0.5100009813275683
0.41806941930449304
0.2140907822193711
-0.15510984097148175
0.4757929801148742
-0.8021513239994601
-0.39187133966758386
0.38400495677632424
-0.23285851126010929
-0.35391806159204164
0.2128873657631381
-0.19801780504100772
0.3064412936332729
0.5496492899466016
-0.913107120637383
-0.1545796185726069
0.23456542077017545
0.4980419696041794
-0.5840739249079578
-0.24212973861401524
-0.2613394430176097
0.3193293462952876
-0.7389881873111566
0.525006699124291
0.05642950771837193
-0.19938604482813516
-0.306540015324332
-0.6686109320940866
0.11850718637470527
-0.13125223624448273
-0.336361112633368
-0.667970800334442
-0.7367346526962373
-0.5650470376899013
-0.05896216722836513
0.18527180336230348
-0.15078425760819358
-0.17600507296882478
-0.34491037148508125
0.071304059072176
0.21118380933519573
0.08350970249646228
-0.39907121014446617
-0.6676286695119086
-0.4876237468032469
-0.5449631435532637
-0.5608505422666598
-0.1074826606657741
0.506998890073703
0.16961836462267313
0.0354160404426063
0.2649213475043733
0.8342819442954476
0.40261142244043374
-0.3414974515144654
-0.348133132089356
0.35745108804219256
-0.00765146266350375
-0.4982522611959512
-0.5112300206804077
0.13057253330584295
0.5586248646314278
0.010118619511751527
0.11381267755866219
-0.7079543744826851
0.3174548034600741
0.7124409339483107
-0.7714656507741685
-0.01026069763501032
-0.6373514551820587
-0.2988016092479406
0.23630545231935865
0.20631855485009354
-0.35068482414419133
-0.34832432176400757
-0.1358101587794379
-0.33535946482246276
0.24857239390515046
0.3618725386819398
0.377820804806277
-0.25104658667904395
0.6241980194668105
0.21209640881849098
-0.47910075459741286
0.5337898183417709
-0.2989468209617814
-0.09358219938384488
0.261181437916435
-0.9865788952757956
0.20416064532461334
-0.20845897939851527
0.4632472577456962
-0.018756198831205495
0.11554733425865892
-0.3068740576749168
-0.6540448813509738
-0.3574202616335365
-0.18329452196924897
0.2565173109392719
0.39929799100988905
0.5654893804868439
0.1923602884119713
0.2942581157058578
-0.5722866409481766
-0.2946125320207921
0.10421422588548998
0.25476626757979015
0.14905258503345775
0.08339724625432601
0.00978641988643646
-0.1967986609790894
0.19759219302451483
-0.37757251172698875
0.33041325291044044
-0.21465802058642175
0.6348672964401407
0.036721065825734596
-0.610844019828523
0.06334927460374672
0.021167747341081147
0.16668157842761863
-0.615524555000719
-0.25468339613930935
0.121743945331311
-0.053612955419279566
0.039536813270057605
0.305607514740867
-0.2813447331715352
-0.31762767845225376
0.5908211441298865
-0.053436533407239466
0.43072978265910444
-0.17265979814938967
-0.4593924369535228
0.2916568926084927
0.9909456524280472
-0.5606523810697829
-0.03704476048400619
0.321558967073642
-0.7401565524760948
0.8468325281371063
-0.07820918351999072
0.14578432686982568
0.24300631668363115
0.7760762128003799
-0.5486862744494747
0.053015729507317914
0.0871150580770024
0.022082009692508862
0.518163500432804
-0.5239752193238215
0.20195097653693328
-0.023465132361298293
-0.21062324464966756
-0.5737935000236647
0.2032869635715403
0.6952468521616484
-0.19748665076695968
-0.20842681353777828
0.8857063441925882
0.26042216524647366
0.2780001583512781
0.5507478464600356
0.6333577843892229
0.13220660668041784
0.4230225217537317
0.6837784855895395
-0.4072850625249097
-0.40709789475480684
0.40957667105785434
-0.10344740748338463
0.0723343904291011
0.05672276958298895
0.19720529071285195
0.20542230789073362
0.3851162030900922
0.2205097100423507
0.2996824571450849
-0.08365384716471376
-0.5284316141019496
-0.8502823387700312
-0.06172921238032963
-0.22241367602989853
-0.14248861264508528
0.01926669819643024
0.5527181220504049
-0.7750547279689395
-0.6084365460170055
0.3437328932460785
0.10028181554395404
1.1188831694655532
-0.20289429328031794
-0.06489418674935876
-0.10013075219181079
0.30000819068634266
0.13996761578788475
-0.825559389054811
-0.34206732663692335
-0.40541311396488633
0.5477323034530481
0.031242140154389014
0.13562122225956086
-0.12424431521513979
-0.01678278093799945
-0.29062691657900347
1.0506719860800748
0.044460612237895124
0.47603742051652714
-0.06485686215661282
-0.6045755356921764
0.1999675776164247
0.38224489781105153
-0.10339450919167564
0.16048711783348124
-0.12484547399177583
-0.41228361663408714
-0.4623206394524833
-0.730316792961664
0.4093871275617559
0.4811559753568972
-0.024883655407993418
-0.36791807148092065
0.6078084921025184
0.25806037384253755
0.727673714012182
0.4986907029011651
0.49179601805329715
-0.2527501378561076
0.12912442307575753
-0.541464305173087
0.08264651004757426
-0.1470239709942863
-0.30042787413979394
-0.13655033497507368
-0.5573450579564745
-0.01805412370850276
-0.020842967266670336
-0.7817962965710015
0.08619976675793316
-0.4060969125005511
-0.3607727290135813
-0.5657998557361641
0.13343801584402212
0.4413564827988662
0.5526802127532902
-0.2491819252879206
0.4783004319004614
-0.6090924240926577
0.0010717880651148685
-0.3129463755244013
-0.1348805982618505
-0.4547818916163224
0.6195206574405844
0.28854355651507857
0.12814823160829514
-0.3908620276289637
0.28658843155216884
-0.5082412933024001
-1.0799885414251933
0.7080662244243173
-0.20035356591521183
0.34781805495057644
0.6464030919251754
-0.5498560089923765
0.009299917693346581
0.7479448678947489
0.009752977047634715
0.3319305589689786
0.22168964893566567
0.18098827391419547
-0.46007515864007037
0.2830681013815692
-0.42002319929612186
-0.025056667518205022
-0.23681284317346996
0.8587235138071636
-0.7175519182781764
-0.09538283016604747
0.10067188568418686
0.26728287761034336
0.032360889174826005
-0.09115655101588716
-0.3044779299102198
0.44205492359111453
0.22640866995587344
0.5764872823802659
-0.6308321562862946
0.0042161703127209064
-0.3984887366818599
-0.15833633315932225
-0.20275005395977497
0.24103436963154173
0.10475895458901491
-0.6662998829102587
-0.24630931459342037
0.18933481922605858
0.22791392253931886
-0.2621427680693959
-0.7724546428592576
0.17500740804292927
-0.6786828135846399
-0.37150474738052974
0.3108931572346417
-0.44770140292812455
-0.12038429813942238
0.5630465784113073
-0.04251605464774614
0.04275819116130039
0.041619407982749615
-0.537802652084687
-0.4850542972085678
1.0299166767302195
-0.1304173468828536
-0.37439353999218405
-0.014945350538579389
0.7082568675404457
0.19741497355099935
-0.3656267212390909
-0.05003388871293004
-0.230105008832019
0.028668947176360298
0.6171989522900951
0.6490868312452357
-0.27624549615963423
0.008434577418708731
0.005667475089148221
0.2079506300056908
0.4871867137021188
0.6965422590850087
-0.5933728101377249
-0.3095085997945366
0.07247256419170649
-0.2647130982047539
0.1998390024285339
-0.506741775343691
-0.2569001298090815
-0.21851311348382002
-0.3054103404031061
0.11097574366874173
0.3081931180808151
0.18363938598701332
-0.23503088544498033
1.420725833214321
0.09793564083318071
0.008728818291731331
-0.5968501062215611
-0.07418879679764441
0.198936762080527
-0.012603750245379897
0.34159262957588693
0.15607439216376673
0.5213780018372053
0.48709508400286633
0.23458351891175294
-0.6519078285797257
0.03480801363456519
-1.1633363493066753
-0.1558116992848603
0.5016279091911948
0.6066204701349341
-0.7733572349136896
-0.3639204138822357
-0.465173797713098
0.863423545498424
-0.6051888573566945
-0.5387641362582234
-0.17098804015165872
0.23853008371389553
-0.3594202423323389
-0.17127320336217788
-0.08568833887239237
-0.0505608024606251
-0.32670666962233225
-0.2477954291467187
-0.11903112334559587
-0.028655401185494613
0.06672749077153962
-0.1806144044757263
-0.5306008485103423
0.2652536767510699
0.79948655104341
-0.17168904812371036
-0.5984504369456809
-0.22954457394582184
0.15392979227431822
-0.1355423112513238
-0.11370161977727035
0.050144384640582566
-0.1195357129518253
-0.1452846526800452
1.612702195471335
-0.18732387817662582
0.4788670680862852
0.3095040574057784
0.1653739967378597
0.24981856361046836
-0.3468545287965817
0.2854637544375019
-0.15066214387569632
0.816352452909583
0.24240994810735503
-0.5808047956051322
-0.1572159198851084
0.552867764419005
-0.30781135125445513
0.05078922189337641
-0.8424618222866658
-0.15518179392928538
-0.3538299552391144
0.7693009018754587
0.28835332565569055
-0.1457719790941392
-0.32515059204825786
0.3627133032904839
0.052473499855691594
-0.3988570221833496
0.5217094008384856
0.4250666079760541
-0.6742434618756683
-0.365281192726685
-0.036243691510473505
-0.11609401495153032
-0.2781575820912584
-0.2722222621213543
-0.256051848021574
-0.023225922497155858
0.3467837568987284
-0.2806034860017598
-0.16621926516371555
0.2976732775982015
0.0798057498386625
0.25777521574518186
0.25560773765386713
0.124443573702306
0.38683298587350445
-0.4509931598623714
-0.057638352617791724
0.2368660639127454
-0.5046866429048211
-0.9003586100086133
0.4115872530700818
0.07754304733985938
-0.1779414579436442
0.28097759208158235
0.15201818212542303
-0.20319506088834777
-0.16656886822686565
0.17924748339349794
-0.45236407926445876
-0.3661059514109771
-0.2867899936927198
-0.04073231045179446
-0.13886736335576932
-0.5486739187573234
0.13062905984801138
0.16653185602653253
0.06381151736174166
0.6122246275487639
0.14002205239050092
-0.21047581639155566
0.050616864279034085
0.44409044398678116
0.049671563375286054
-0.24577427105791239
0.04787988560091891
-0.3295261256274362
-0.4992006591478527
-0.21685195250190806
0.42755043472939863
0.31169420751139587
0.22488783519284306
0.01654815799602033
-0.23284167357255775
-0.3263514427699005
-0.41609589265492053
0.32943061650723243
-0.2001253430469596
-0.19646826315778027
-0.25202629377277275
0.03247366060533277
0.21298815837921223
0.3902426189170466
0.02039190499286643
0.9464936714381378
0.33458478306004963
-0.5095793818448799
-0.49347156993342056
-0.45209887153250733
-0.2742585662243011
0.10750831869579816
-0.5788575049849259
0.23683654754561095
-0.1779316951277923
-0.25609594170835576
-0.3840784753917701
0.8405768828827158
0.6687512112739656
-0.4196378749052501
0.5478610322619759
-0.41052100049425644
0.04949794755606368
0.21645599335845137
0.0037204762671964866
-0.11535919363843977
-0.7808939818928182
0.012431473487460343
0.020655772375219976
0.43944910593339803
0.9211436553655241
0.4095854801714583
0.7487039766156175
-0.8014701327983071
0.07356671192776217
0.2857133342272558
-0.4234356609769872
-0.4931056196248648
0.20884156191254935
0.01889308752674552
0.15862131042641167
-0.3687521038554009
0.05671678546945445
0.5656276447576489
-0.4904331881644077
0.554155823179731
-0.07276317158904791
-0.42140079714179535
-0.45037195271551567
-1.0495315740701046
-0.16091260054231213
-0.46104942670679483
0.7379741361097311
-0.01327605983100889
-0.2984249667841176
0.08176553821389825
0.33550257851468585
0.12151848936277947
0.0511276640076817
-0.20139067379946582
-0.04767805648153279
-0.07689051672784548
-0.9245883665085032
-0.6370865637805634
0.7287255344338928
0.12761080643837125
-0.03324795316109538
0.3494786050092433
-0.3827826713600374
0.03636845913056834
-0.5411956562125764
0.2519193983839141
-0.4407967771701217
0.467748032890018
0.15264775743539905
-0.15221478256243945
-0.12112633939855452
0.7054389636223362
0.22430972738693108
0.030748766654250904
0.6782228300494205
0.6247592569142459
-0.4488105670544565
-0.32140584438151276
0.30223026990840957
-0.26165143395261037
0.049912042353995954
-0.8263535536966785
0.22359431889384118
1.2632148208801461
0.25887251892886187
-0.05512367143897418
0.13211705539235613
-0.08349260121409939
0.1417702137801214
-0.2383990189952155
0.5435635971059727
-0.5960838816786354
0.09283907748496976
0.24172644611889466
-0.48095372865948216
-0.09977005700894719
-0.2270885823215357
-0.35624907272408385
-0.10658902365212415
0.06326620300098018
0.37764626180805677
0.8972965874955896
0.6759134063813645
0.22082377932650424
-0.18852985022300756
-0.030106116854401174
-0.18922088004660204
0.11492197605794006
-0.5269754296397839
0.2727308122351358
0.6586770517583368
0.25099718310040037
-0.11660257538255274
0.26236430854866816
-0.1903789050146359
0.4650547313019939
0.503947829394922
-0.060043746829448304
-0.12469895727387449
0.24438845061718428
0.10406915432215491
0.13257953098997943
0.08737539826884526
-0.2569293954224439
-0.00402455234228827
0.32672375213421545
-0.16733984103080993
0.6584532015768354
-0.12329656577941149
0.18506166702635493
-0.15294256947151302
-0.5702315418398003
0.493877092520063
0.9061913001912646
0.8756732918003834
-0.6123555168767628
-0.39399751307665604
-0.33557834398559266
-0.022040526751048582
0.2856420628928341
0.24654641599123858
-0.2620988989859584
-0.1146622916534454
0.2353155369306973
0.1328010912849841
0.3493095770534324
-0.01435298751679196
-0.17096874216517646
0.642726376310204
-0.5903526217531488
-0.12701238816510446
0.5338814478432962
-0.17098746519558913
0.06865990565549975
-0.21775718651624118
0.21199814647574508
-0.5289438453962328
-0.12754081943610235
-1.5514380568027064
-0.07957872550655046
0.354726800470283
-0.1617474881803548
-0.014392702482250165
-0.36524399163005805
0.4702145642656015
-0.06715339001986984
0.041352053225087844
-0.1685782447301316
-0.6759115518576367
0.21199981485285546
-0.0074743937169482804
-0.06971179115518077
1.0809839119067692
-0.023811652484751568
-0.6167167355442547
-0.2281331786435608
0.2924248869310427
-0.10431614369280821
-0.41983927014511996
0.2600842111988813
-0.16023490822408173
